437 100
plane -0.65546 0.061729 -0.28959 -0.24781 -0.51054 -0.41643 -0.41081 0.044272 -0.13914 -0.13517 0.20473 0.069511 -0.097115 0.23387 -0.14822 0.0092776 0.19967 0.081482 -0.23687 0.25402 0.083673 0.066799 -0.33743 0.055359 -0.013982 -0.11599 0.58437 0.40622 -0.36661 0.012214 0.63184 0.14165 -0.37587 -0.40826 -0.25704 0.18175 -0.52218 0.24992 -0.53241 -0.46378 -0.23757 -0.23631 0.47604 0.10353 0.33559 0.10428 0.30894 0.063496 -0.010675 -0.45652 0.36568 0.13067 0.29902 0.47696 -0.87842 -0.046833 -7.6634E-4 -0.023759 -0.0070215 -0.024089 -0.47959 0.72387 -0.36151 0.23891 0.30203 0.21862 -0.52767 0.097307 -0.42421 -0.26821 0.44133 -0.33837 0.32107 -0.14848 0.84861 -0.23439 -0.22562 0.10399 -0.57748 0.30687 -0.36353 -0.4908 -0.44606 0.35938 0.0061424 0.53742 0.55003 -0.31854 -0.26803 1.0592 -0.47366 0.62662 0.15339 0.054297 -0.17542 0.5409 0.019212 0.27256 -0.18224 0.15502
stupid -0.41416 -0.3046 0.73236 -0.68572 0.25081 -0.26398 0.26019 0.41014 0.12696 0.15045 -0.14733 0.30847 -0.59153 -0.38245 0.055952 -0.051459 -0.26332 -0.051791 -0.18962 0.17018 -0.24895 -0.14647 0.14866 0.0074987 -0.025125 0.072196 -0.35396 0.26648 0.044355 0.10755 -0.21979 -0.084555 -0.20257 -0.057967 -0.44334 0.52766 -0.18789 -0.62576 -0.41331 0.086546 -0.68052 -0.27927 0.1254 -0.017724 -0.16044 -0.28579 0.86426 0.44866 0.22257 -0.2021 -0.37382 0.009898 -0.45541 0.067523 -0.40179 -0.34301 0.068754 0.52287 -0.13289 0.27659 -0.039169 0.47351 -0.1841 0.34091 0.24757 -0.56502 -0.41984 0.4238 -0.62784 0.34937 0.60705 -0.020558 0.1644 0.2121 -0.148 0.11378 -0.39843 -0.53124 0.1301 -0.64586 -0.085605 -0.29892 -0.072143 0.17995 -0.4025 0.17699 0.10411 -0.24895 0.18311 0.19512 -0.26977 0.44592 -0.24018 0.22183 0.40054 -0.10929 0.15925 -0.14724 0.12677 -0.27608
egg -0.37424 0.28908 0.48302 -0.1768 -0.7677 0.41715 -0.75288 0.87267 -0.19152 0.67767 0.010488 -0.067281 -0.24535 -0.26717 -0.48038 0.092457 0.6516 0.83651 -0.45339 0.042534 -0.1432 -0.26673 0.19291 -0.23081 -0.15313 0.17218 0.34536 -0.0215 -0.065451 0.21379 0.2598 0.46723 -0.86611 -0.22398 -0.15104 0.24564 -0.10748 0.019783 -0.68069 0.064978 -0.39226 -0.39169 0.31651 -0.48748 -0.28116 -0.1243 0.74594 0.72644 -0.17633 0.22306 0.18529 -0.6172 0.3261 -0.53497 -0.28547 0.25424 -0.17714 0.53685 0.2244 -0.36378 0.18056 0.088598 0.30146 0.41076 0.29173 0.030616 -0.40693 -0.22268 -0.067575 0.36554 0.52278 -0.28718 -0.23485 -0.29494 -0.26101 0.062812 -0.64284 0.011674 0.0051881 -0.29398 0.7298 0.28803 -0.25696 -0.13359 -0.27212 0.027521 0.17947 -0.32147 0.16284 0.24661 0.24098 0.22206 0.20075 0.54828 -0.38504 -0.96809 -0.35592 0.16081 -0.23 -0.05151
year -0.2789 -0.040167 -0.18064 -0.40482 -0.37963 -0.0081038 -0.14064 0.05419 0.52486 -0.24057 -0.0033302 -0.029569 -0.15053 -0.2104 0.032323 -0.012316 0.036408 0.17717 -0.42055 0.17433 0.27274 -0.088433 0.035411 -0.23418 -0.25704 -0.51177 -0.21482 0.21858 0.021681 0.13433 -0.077489 -0.067328 -0.31434 0.033758 0.14542 0.04775 0.0035189 0.43457 0.17248 -0.14855 -0.47377 -0.26665 -0.52366 -0.10603 -0.36749 0.0065939 0.51903 0.072395 -0.077855 0.65884 -0.025709 0.15051 0.39821 0.2623 -0.34242 0.083394 -0.18242 -0.1488 -0.029559 0.22596 0.43619 0.17759 -0.1302 0.24923 -0.026102 0.018745 -0.22042 -0.21057 0.019184 -0.14185 0.35427 -0.31882 0.075372 -0.43073 0.30831 0.39864 -0.17644 -0.1029 -0.18156 -0.080509 0.062965 -0.091855 0.12804 -0.55063 -0.47732 -0.042308 0.14876 -0.0080811 0.19887 -0.0776 0.0050572 -0.075809 0.26221 -0.30089 0.20127 0.0066554 -0.16128 0.0022937 0.33029 0.25835
psychiatry -0.34019 -0.088005 0.10109 -0.055062 -0.76715 0.14722 -0.51884 0.16631 0.33693 -0.22862 -0.74189 0.69843 0.1374 0.23542 -1.1397 -0.72078 -0.47305 -0.31569 -0.060892 -0.17529 -0.0065505 -0.030436 0.89 -0.45989 0.44552 0.17697 -0.67147 0.81891 -0.63356 0.55317 0.28149 0.34086 0.47829 0.068605 -0.63389 -0.3143 -0.74703 -0.11358 -1.0719 -0.5055 0.10172 -0.31011 -0.064775 -0.2647 0.054353 0.2987 0.73578 -0.58404 -0.26293 0.30334 1.0352 -0.16951 -0.79092 -0.040497 -0.10905 -0.12489 -0.24539 0.041991 -0.25876 -0.30154 0.54797 0.50149 0.071298 -0.015654 -0.34967 0.50016 -0.62714 0.76004 -0.27355 -0.37533 0.20325 0.35084 -0.16273 0.041074 0.12436 0.25318 -0.41271 -0.54625 0.33181 -0.4138 0.18396 0.34977 0.18766 -0.081551 0.40579 0.17399 0.16208 0.06655 -0.43289 -0.26893 0.098375 0.13401 0.47327 0.20488 0.71149 -0.34995 -0.32588 0.045788 -0.14416 0.45978
asylum -0.71317 0.0051232 -0.23266 0.043297 -0.84865 0.4569 -0.36332 0.13698 0.53858 -0.30678 -0.64458 0.40426 0.06767 -0.073433 -0.45666 -0.083292 -0.33051 -0.49697 -0.16005 0.18794 -0.41393 -0.54359 0.69571 -0.54207 0.67576 0.56655 -0.10471 0.41391 -0.55211 0.86922 -0.085342 -0.18287 -0.31504 -0.11493 -0.014274 0.049866 0.30347 -0.41369 0.063025 -0.25211 0.14119 -0.11575 0.32637 0.29678 -0.23612 0.31873 0.43872 0.27712 -0.061287 -0.34963 0.19526 0.57095 0.55688 0.15312 -0.011392 -0.021167 0.26141 0.33087 -0.67965 0.275 0.53353 0.83554 -0.33431 0.51015 0.5633 0.29655 0.018232 0.27093 -0.078256 0.1168 0.10672 0.0084606 -0.29295 -1.0484 0.89732 0.30492 0.54292 -0.0030101 0.93405 -0.18526 -0.041805 0.011994 -0.14007 -0.090487 -0.55992 0.6077 0.40786 -0.066318 0.13023 0.7036 -0.22722 0.29961 0.030734 0.38551 0.25086 0.34173 -0.073683 0.47989 -0.38026 -0.18866
manslaughter -0.74585 0.22593 -0.25904 0.0023417 -0.024976 -0.4279 0.23467 0.25105 0.034756 -0.13561 -0.093604 0.49777 -1.0699 0.76527 -0.31595 -0.18591 -0.078271 -0.047402 -1.0313 -0.23079 0.021168 -0.047077 1.0324 -0.37642 0.30576 -0.071392 0.55473 0.41878 -0.17928 0.35356 0.03968 -0.1291 -0.54673 0.49708 -1.1503 -0.027448 -1.0582 -0.19879 -0.66877 0.63223 0.27126 0.26898 0.21129 0.091661 -0.6084 0.11541 0.8742 -0.86618 0.57252 0.27567 -0.031843 0.56875 0.33703 0.090735 -0.56504 0.39124 -0.24791 -0.14516 -0.31159 -0.081188 0.59138 -0.063641 -0.22712 0.28937 -0.28779 0.088331 -0.83957 -0.093722 -0.1848 0.32727 0.066735 0.88573 0.1817 -0.69481 0.64966 0.60139 -0.41016 0.36345 0.35921 -0.33027 -0.32514 -0.074471 0.42858 0.027682 -0.032581 -0.083625 -0.39232 0.023678 -0.298 -0.059544 -0.65906 0.5448 0.74754 -0.065503 0.32565 0.50088 -0.32576 0.075183 -0.67819 -0.046944
music -0.49519 0.62862 0.60425 0.5346 -0.016593 0.1545 -0.6358 0.13743 -0.4327 0.17561 -0.25211 0.5247 0.46835 0.12752 -0.29393 0.046366 -0.52427 -0.089116 0.028777 0.35131 -0.39127 -0.19288 -0.0045844 -0.22504 0.3966 0.16799 -0.23495 0.46539 0.17312 -0.0066894 -0.50666 0.70801 0.11167 0.31251 -0.42272 0.20044 -0.39671 0.17671 -0.23402 -0.20349 -0.2752 -0.27686 -0.45224 0.017042 -0.4758 -0.39523 1.0718 0.030539 -0.25587 0.18643 -0.20792 0.44628 0.25661 0.21578 -0.34477 -0.26134 -0.081369 -0.042301 0.099913 -0.46482 -0.45669 0.66615 -0.0104 -0.13305 -0.13282 -0.011787 -0.43512 -0.26231 -0.17925 -0.27981 0.309 -0.41616 0.19117 0.025183 -0.017938 0.31341 -0.12826 0.47632 0.013967 -0.044293 0.31305 0.21511 0.16637 0.10117 0.24991 0.46117 0.55671 0.16275 0.11858 -0.2241 -0.48093 -0.25897 0.047668 -0.40842 -0.21651 0.01035 -0.28139 0.043983 0.48361 -0.12709
record -0.32488 0.066686 -0.18818 -0.13844 0.10599 0.34299 -0.15188 0.19574 0.39955 -0.12465 -0.010171 -0.14971 0.48645 -0.19149 0.0025924 0.40236 0.30637 0.10169 -0.44859 0.26883 0.42899 -0.39639 0.20073 -0.35552 -0.0232 -0.035439 -0.15452 -0.1181 0.094487 0.25529 -0.6213 0.16054 -0.50791 -0.084865 0.026151 0.41004 -0.33248 0.26599 0.23885 -0.093561 0.36599 -0.18446 -0.5551 -0.017131 0.29302 0.22678 0.63157 0.089851 -0.24773 0.53631 -0.30169 0.047482 0.1971 0.68875 -0.15134 -0.033788 0.10392 0.079857 -0.10637 -0.0074774 0.79878 0.11263 0.040444 -0.17302 0.051308 0.17482 -0.41202 -0.42628 -0.59425 0.30696 0.14488 -0.73647 -0.11758 -0.043058 0.44326 -0.086147 -0.36484 0.19405 0.17094 0.20721 -0.016764 0.1085 0.15888 0.25517 0.15489 -0.079199 -0.14069 0.028824 0.089849 8.8463E-4 -0.6967 0.36198 0.046669 0.0062076 0.18452 -0.24517 0.11322 -0.15996 0.80224 -0.060919
energy -0.33345 -0.11456 0.20786 -0.19664 -0.5382 -0.031536 0.032765 0.44064 0.24867 0.10221 -0.70753 0.083628 -0.089053 0.33183 0.38242 -0.26104 -0.11392 -0.15092 -0.28752 0.74369 0.82856 0.1708 0.2063 -0.57998 0.3131 -0.20918 0.50898 0.087873 -0.13589 -0.11153 0.35866 -0.27393 0.14757 0.17454 -0.1396 0.32013 -0.22397 0.12118 -0.40405 -0.19462 0.13333 -0.10518 -0.21391 9.5643E-4 0.40898 -0.24189 0.9388 0.71718 -0.2708 -0.05361 -0.30238 -0.03008 0.55669 -0.019776 -0.42717 0.1092 -0.64473 0.041757 0.071988 -0.59784 -0.016757 0.5919 -0.18412 -0.065651 0.34447 -0.32339 0.20546 0.3945 -0.34235 0.71228 -0.12163 -0.24335 0.086464 -0.078891 -0.095018 -0.3375 -0.14165 0.07282 0.29245 -0.043086 0.0065973 0.66803 0.17386 -0.11099 -0.033256 0.16944 0.51703 -0.13434 -0.040121 -0.12976 -0.031961 -0.4841 0.012584 -0.42973 0.18117 -0.2057 -0.53698 0.0070198 0.56261 -0.043295
announcement 0.13638 -0.16118 -0.64847 0.18103 -0.16503 0.0058627 0.46242 -0.36116 0.25676 -0.030754 -0.23792 0.20557 -0.092752 -0.13223 0.35947 0.20117 -0.43759 0.31715 -0.59052 0.28776 0.18403 0.077658 -0.011558 0.31372 -0.053306 -0.064684 0.75601 -0.06788 -0.091831 -0.0026366 -0.14551 -0.063195 0.010564 0.16851 -0.39857 0.21406 -0.16177 0.10074 -0.33861 -0.46393 -0.33603 -0.076235 -0.30045 0.18933 0.26346 -0.019395 0.97859 -0.48881 0.11381 0.32579 0.075262 0.11979 0.44096 0.35095 -0.063586 -0.011845 -0.17354 0.095452 -0.38583 0.18848 0.0096766 0.52953 0.17848 0.42715 -0.069515 0.81675 -0.4037 0.15257 -0.060129 0.27387 0.2139 -0.79845 0.14981 -0.040037 -0.27498 0.099268 -0.065818 -0.081368 -0.29377 -0.29978 -0.19238 -0.10632 -0.43824 -0.15632 -0.4562 0.071277 0.12335 -0.13478 0.45503 0.25486 0.2012 -0.11652 0.25399 0.18431 -0.26263 -0.028779 0.062564 0.14479 0.25595 -0.088483
mile -0.19517 0.09967 -0.29381 -0.74267 -0.66978 -0.4738 -0.69807 0.089869 0.45214 -0.29763 0.46948 0.045074 0.0083283 0.07614 -0.2165 0.084882 0.075177 0.068193 -0.034693 0.62442 -0.27756 -0.19208 0.11987 -0.024504 0.0023496 0.061863 0.57074 0.16768 -0.12949 -0.0011422 -0.16152 -0.43687 -0.84804 0.82716 -0.010715 -0.4528 -0.46484 0.13417 0.21073 0.79495 -0.14765 -0.26995 -0.17608 -0.081873 0.31863 -0.20628 0.34709 1.0068 0.25586 0.21316 0.13171 0.15229 0.22572 0.52182 -0.40043 -0.01535 0.10314 -0.16072 -0.28274 -0.057484 0.049072 0.44386 0.1007 -0.068495 -0.21509 0.059156 -0.36004 0.46009 -0.79616 0.15684 0.15997 -0.43928 -0.19382 -0.21941 0.31411 -0.30148 -0.37796 0.18698 -0.65612 -0.098232 0.32321 -0.10964 -0.32451 -0.395 0.24801 0.15346 -0.03322 0.22826 -0.80008 0.068576 0.31593 -0.027894 0.16832 6.5929E-4 0.086819 0.094826 0.10098 0.40228 0.15973 0.051755
airport -0.3138 0.054987 -0.015156 -0.34011 -0.58753 -0.2704 -0.35516 -0.040865 0.02092 -0.79245 0.3815 0.069803 -0.27951 0.32397 0.067259 0.27542 0.4037 -0.084098 0.038542 0.43344 -0.20916 0.20382 0.29791 -0.66092 0.0041149 0.41647 0.55132 0.018211 -0.4155 0.1082 0.40424 0.21779 0.10155 -0.038363 -0.43992 0.23635 -0.063161 0.18378 -0.1652 -0.41467 -0.34336 -0.21602 0.039189 0.32302 0.28025 -0.028106 0.67593 0.20331 -0.17578 -0.28266 0.51402 -0.14451 0.50783 0.25262 -0.74534 0.32055 0.14814 -0.3351 -0.29699 0.12976 -0.23408 0.78775 -0.19576 -0.1229 0.2433 0.19918 -0.59119 -0.26643 -0.37305 -0.18218 0.46656 -0.22456 -0.049414 -0.56993 0.29279 0.15205 0.15059 0.44451 -0.29142 0.19701 -0.49161 -0.47378 -0.80432 -0.2048 0.34443 0.72736 0.53706 -0.26367 -0.17624 0.75848 -0.11424 0.59742 -0.084483 -0.38653 0.020301 0.27527 -0.016062 0.45067 -0.42903 -0.011954
population -0.75741 -0.063967 0.34791 -0.27081 -1.3455 0.2029 -0.91663 0.81286 0.30917 -0.65378 -0.5051 -0.0013246 0.15229 -0.19229 -0.61128 -0.38512 -0.27725 0.049115 -0.014334 0.44238 0.046291 0.39546 0.12407 -0.063912 -0.32231 0.19928 0.1795 0.53317 -0.35495 0.52542 -0.055919 0.026822 -0.58063 0.085346 0.030561 0.17513 -0.061029 0.29118 0.033969 -0.29941 0.16801 0.44881 -0.38959 -0.052234 0.0028592 -0.30984 0.4247 0.4046 0.30899 -0.30139 0.019016 0.12797 -0.274 0.1004 0.1624 0.38286 0.13248 -0.072567 -0.52521 -0.24086 0.59071 -0.25597 -0.67313 -0.029875 0.067133 -0.069033 -0.3646 -0.13076 -0.17686 0.22507 0.59802 -0.18812 -0.10682 -0.12879 0.27401 0.075585 -0.041625 0.055554 0.097122 -0.15395 0.1431 0.32145 -0.37066 -0.58232 -0.19334 0.60818 0.1635 0.072022 0.25254 0.10628 0.12455 -0.15561 0.20625 0.12497 0.076163 -0.067047 -0.090963 -0.48823 -0.32795 -0.0027261
planning -0.47768 0.011355 -0.23805 -0.02881 -0.46593 -0.10449 0.056541 0.21897 0.41359 0.30392 0.041577 0.32847 -0.039963 -0.044271 0.31821 0.076741 -0.446 -0.14943 -0.60429 0.21565 -0.17752 0.044885 0.73272 -0.031111 0.15993 -0.2332 0.1576 -0.017985 -0.13597 0.35635 -0.10771 0.042952 0.33482 0.066293 -0.26888 0.11877 0.1355 -0.53654 0.02251 -0.42933 -0.61379 -0.25071 -0.3251 0.15084 0.30464 0.021168 0.57256 0.17687 -0.078721 0.12444 -0.15612 0.088097 0.25203 0.16251 -0.070658 0.44676 -0.17827 -0.27368 -0.12799 0.065836 -0.12844 0.073502 -0.014642 0.12214 -0.054605 0.24356 -0.36019 -0.011573 0.24517 0.2697 0.23567 0.081639 0.38522 -0.38354 -0.3112 0.083268 -0.20113 0.32923 -0.34533 -0.15989 -0.0034087 0.12744 -0.16299 0.034218 0.13347 0.07595 0.5777 0.094623 0.075244 0.56117 -0.30279 -0.066346 0.027592 -0.085928 0.097058 0.22793 -0.22669 -0.12005 -0.25961 0.15165
canyon -0.10633 0.43179 -0.34551 -0.97258 -0.37727 0.013262 -0.63553 0.61132 0.099706 0.48229 -0.089021 0.83979 -0.26808 0.63888 -0.41924 0.19272 0.46703 0.43179 -0.13575 0.28425 0.44276 0.073475 -0.08084 -0.02092 -0.056486 -0.143 0.43501 0.85777 -0.17694 0.071436 -0.81997 -0.43536 -0.44052 0.12442 -0.30124 -0.6748 0.035306 0.15374 -0.010609 -0.30074 -0.19413 0.14709 0.027228 0.012094 -0.41759 -0.032989 0.71399 0.7312 0.15125 0.077723 0.38405 0.010764 0.061288 0.2772 -0.30592 0.11295 -0.29058 0.23007 -0.38262 0.25182 -0.42864 0.62607 -0.057327 -0.052343 -0.24091 -0.037265 -0.31797 0.06637 -1.2012 -0.26007 0.29084 -0.040046 -0.12725 -0.018132 0.38127 -0.72148 -0.30026 0.35319 -0.10337 -0.05908 0.23253 0.10835 -0.50678 0.16003 0.65025 0.62318 -0.65803 0.39163 -0.7212 -0.014306 -0.41289 0.052142 -0.10271 -0.070849 -0.61844 0.59429 0.34639 -0.066774 0.43422 -0.16847
delay -0.52781 0.1976 -0.35711 0.16736 0.20408 -0.11831 0.30422 0.046009 0.32885 -0.1439 -0.37127 0.14672 -0.21654 -0.14705 0.23828 0.44741 -0.30916 -0.13955 -0.60947 0.12583 0.26273 -0.24358 0.32257 0.39296 0.01455 0.26026 0.58944 0.10397 -0.35494 0.4928 -0.36412 0.21189 -0.29506 4.8849E-4 -0.24084 0.26719 0.21511 0.062125 -0.43202 -0.22558 -0.23711 0.10445 -0.3343 0.14422 0.23652 0.074593 0.55115 -0.30178 0.079038 -0.1456 0.29426 0.18105 0.67145 0.16264 -0.25142 0.42414 6.5033E-4 0.12228 -0.061088 0.0084017 0.26133 0.58635 -0.34317 0.50203 0.19112 0.091077 0.053843 0.29778 -0.20096 0.60428 0.11734 0.037706 0.26679 -0.02965 -0.34415 0.33848 -0.82466 0.32735 -0.38223 -0.20676 0.023415 -0.54833 -0.1829 0.13585 -0.0098467 -0.012669 0.32399 0.17521 0.17253 0.52211 0.20618 -0.15878 0.28262 0.10782 0.2192 -0.11312 0.1045 0.40545 0.066893 0.30466
size -0.29133 0.22844 -0.11829 -0.11971 -0.75478 -0.04191 -0.88226 0.29122 0.20083 -0.032765 0.087521 -0.10367 -0.60627 -0.34273 0.10123 0.10093 -0.21501 0.66364 0.13587 0.33768 0.40294 -0.050729 -0.15731 0.16357 -0.19843 -0.1585 0.62928 0.35389 -0.22032 0.17912 -0.042076 -0.14167 -0.41184 -0.14401 -0.11241 0.26722 -0.020392 0.14594 0.045284 -0.40871 -0.086636 0.15955 -0.52597 -0.21217 0.34417 -0.31745 0.27799 0.46074 0.09076 -0.031228 -0.30437 -0.4015 -0.30192 0.13363 -0.2469 -0.19632 0.10325 0.07551 -0.12547 -0.16402 -0.28321 0.055294 -0.58683 0.28279 0.28224 0.066679 -0.79284 0.054576 -0.022394 0.0032947 0.059554 -0.027685 0.43468 0.0023821 -0.08318 -0.14426 -0.48875 0.12277 0.34078 0.3339 0.3709 0.34107 -0.17393 -0.2937 0.24854 -0.039168 0.13551 -0.080796 0.24416 -0.10655 -0.16861 -0.016471 0.43 0.11984 0.22238 -0.17023 -0.27091 -0.0060308 -0.25886 -0.076034
peace -0.62464 -0.37333 -0.21685 0.25604 -0.2924 0.070203 -0.089296 -0.0082471 -0.16535 0.10644 -0.90175 0.29589 -0.51093 0.39858 0.49548 -0.33857 0.12705 -0.083358 0.082984 0.65312 -0.4247 -0.69377 0.99502 -0.041513 -1.0092 0.31619 -0.070725 0.036354 -0.32234 0.55599 -0.066619 0.24062 -0.28851 0.12439 -0.95568 0.13425 -0.32187 -0.16998 -0.09328 -0.45915 -0.095168 -0.47876 0.41677 -0.0047809 0.12437 -0.085516 0.91329 0.077076 0.28556 0.53686 0.43922 0.31446 0.69675 0.27304 0.86532 -0.65453 -0.48386 0.14076 0.20674 0.15594 0.045848 0.11686 -0.28601 0.29812 0.033977 0.078211 0.029511 -0.30889 -0.74098 -0.04116 0.18787 -0.11483 0.10987 -0.51413 0.50742 0.22762 0.24588 0.60075 0.044194 -0.14546 0.014499 -0.13788 -0.55755 0.43212 -0.35138 0.52213 -0.11182 -0.25012 -0.28507 0.23628 0.12783 -0.81225 0.22394 -0.38978 -0.39443 -0.43761 -0.26789 -0.34112 0.27092 0.0080173
science -0.68531 -0.29382 0.17079 0.26136 -0.77408 0.050253 -0.13279 0.030359 0.12441 -0.086848 -0.54221 0.69309 0.15264 0.099156 -0.029048 -0.21918 -0.36656 -0.27008 -0.39896 0.14765 0.29486 0.049633 0.61424 -0.039833 0.21426 0.066558 -0.23117 0.30566 -0.24314 0.27908 -0.16757 0.10772 -0.30032 -0.44148 -0.47878 -0.35065 -0.39314 -0.3352 -0.63572 -0.14205 0.049179 -0.37536 -0.19532 -0.4344 0.16925 -0.3324 0.35101 -0.13781 -0.35976 0.26595 -0.023298 -0.13253 -0.48299 -0.29994 -0.22112 -0.4152 -0.68089 -0.12901 0.40928 -0.11257 -0.034923 0.63944 0.13724 0.3889 -0.030222 0.020602 -0.15701 0.5355 -0.39344 -0.13595 0.37285 -0.22814 0.21708 0.35208 -0.084735 -0.11456 0.075023 -0.12493 -0.11015 -0.47901 0.22779 0.65837 -0.021267 -0.054822 0.33613 0.25743 0.04773 -0.21868 -0.45087 0.16083 -0.57028 0.26644 -0.19081 -0.021412 0.45614 -0.64013 -0.45236 -0.060212 0.42057 0.21717
dawn 0.034252 0.10269 -0.085048 0.16933 -0.56074 -0.2924 -0.72078 -0.27275 0.49536 0.16944 -0.15135 0.30545 -0.54174 0.13899 -0.18379 0.21447 0.27117 0.21071 0.0046946 0.5051 -0.099656 0.055012 0.48195 0.026616 -0.25877 0.042533 -0.16019 -0.03448 -0.38642 -0.27302 -0.061222 0.29128 -0.21648 0.0099228 -0.42415 -0.54444 -0.12927 0.34359 -0.29596 0.36538 -0.054895 -0.47003 0.16394 0.19334 -0.041097 -0.1473 0.53707 0.20432 0.53918 0.024928 0.056348 0.062922 0.33457 0.15016 -0.25844 0.086908 -0.42019 0.35306 -0.11342 0.3876 0.35681 0.21264 0.20029 0.33251 -0.31791 0.22242 -0.23326 0.11445 -0.70245 0.18475 0.34304 -0.3752 0.25834 -0.02481 0.44811 0.043778 -0.086481 0.4552 -0.17327 -0.32788 -0.40057 -0.41334 -0.33636 0.027707 0.14399 0.19381 1.0662 -0.058488 -0.033995 0.019137 -0.10096 -0.0301 -0.17741 0.054484 -0.43369 0.35243 0.21606 0.31163 0.25524 -0.28165
brother -0.60811 0.47728 0.017538 -0.39046 -0.16107 -0.078038 -0.23386 0.12931 -0.05022 0.048059 -0.2145 0.046335 0.041558 0.31784 -0.22907 -0.22619 -0.10255 0.14167 -0.43008 0.40565 -0.47474 0.0019438 0.21834 0.18465 0.18177 0.052621 -0.38918 -0.046325 -0.41274 0.081916 -0.0055098 -0.32847 -0.35722 0.49737 -0.68641 0.51178 -0.3775 0.29451 -0.28904 -0.2222 -0.55637 -0.86597 0.13883 0.39376 0.18855 -0.22011 0.50219 -0.68188 0.20093 0.012975 0.058091 0.2115 0.027763 -0.037765 -0.29583 0.40489 -0.18855 0.24376 0.22534 -0.274 0.081139 -0.11201 -0.48296 0.16139 -0.55081 0.40374 -0.51188 0.36854 0.13813 -0.27704 -0.086861 -0.028146 0.017629 0.31129 0.24348 0.27259 -0.15134 0.20613 -0.084508 0.5819 0.14005 -0.15189 0.19411 0.28317 -0.55771 -0.1357 0.011227 -0.4563 -0.1446 0.22438 0.10575 0.2414 0.25481 0.23278 0.1579 0.72009 0.22371 0.05364 0.43701 -0.313
wine 0.15045 0.36173 0.70132 0.34506 -0.5239 0.14893 -0.53897 0.64895 0.077798 -0.084224 0.1974 0.052143 0.076002 0.41313 0.07717 -0.28936 0.33252 0.12674 -0.18459 0.40283 0.43365 -0.36236 0.026878 -0.30023 0.14103 -0.034084 0.20101 0.48955 -0.47773 0.35047 0.36666 0.509 0.25466 0.44917 -0.26409 0.23009 -0.42912 0.48857 -0.18244 -0.09511 -0.84162 -0.15429 0.095288 -0.12403 -1.1324 -0.092618 0.88023 0.6576 -0.12792 0.32331 -0.44566 -0.13406 0.14579 -0.40766 -0.5391 -0.34408 -0.3965 0.43333 0.066095 -0.36748 -0.012324 0.3525 0.079396 -0.25254 0.031112 0.36034 -0.11156 -0.30763 -0.20056 -0.055049 0.32437 -0.46441 0.015024 -0.17852 -0.21519 -0.2705 -0.30332 0.21381 0.49733 0.14096 0.10288 0.12438 -0.014645 0.34589 -0.049833 0.55382 -0.12197 -0.13389 -0.37464 -0.33646 -0.089252 -0.0207 0.22141 -0.35112 0.26315 -0.16787 0.061839 0.11774 -0.11079 -0.08331
object -0.30999 0.20252 -0.16155 -0.031521 -0.34179 -0.21588 -0.34247 0.21345 -0.11021 0.1448 0.18526 0.50044 -0.19598 0.091195 -0.10626 0.34551 -0.079838 -0.084689 -0.28546 0.21377 0.022026 -0.068885 0.13301 0.24534 0.14824 0.035039 0.2328 0.56308 -0.30813 0.062107 -0.43441 -0.39207 -0.14589 0.017506 -0.5576 0.38513 -0.07038 -0.076208 -0.57718 -0.22489 -0.041118 0.021636 0.17997 -0.22989 0.28298 -0.26317 0.064541 0.67834 0.0071532 -0.032874 0.12666 0.15666 -0.22981 -0.032999 -0.016816 -0.32932 -0.28104 0.1464 0.37569 0.054904 -0.44461 0.54566 -0.23432 0.51799 0.096201 0.18168 -0.27087 0.13194 -0.5763 0.23763 0.18953 -0.33526 0.18853 0.1952 0.27972 0.21535 -0.58928 -0.13289 0.33383 -0.083003 -0.049852 0.17548 -0.36302 0.051625 0.20519 0.065211 -0.11166 -0.13418 0.0011245 -0.011602 -0.22967 0.5067 0.20981 0.021229 -0.22633 -0.057458 -0.11977 0.093468 0.35093 -0.08235
attitude -0.50274 -0.096476 0.31907 -0.43279 -0.13475 0.083238 -0.064093 -0.089932 0.20555 0.11936 0.10952 -0.0098987 0.15949 1.2039E-4 0.22594 -0.17692 -0.55999 -0.088072 -0.17597 0.92307 0.086079 0.10023 0.21677 -0.5505 -0.29873 0.38465 -0.026696 0.33535 -0.40143 -0.016213 -0.26929 -0.0058765 -0.097087 -0.15037 -0.45893 0.7125 -0.070915 -0.48284 -0.25763 0.16476 -0.78863 0.11961 -0.19298 -0.16038 -0.0035965 0.43797 0.87574 0.17368 0.38822 -0.20788 0.031763 -0.02994 -0.74119 -0.089639 0.067482 -0.28117 -0.13957 0.46972 -0.30484 0.10943 -0.011907 0.25593 -0.11836 0.046155 -0.15721 0.12282 -0.26417 0.046747 -0.5136 0.18379 0.13207 -0.36297 0.34189 0.36752 0.22234 0.69798 -0.064402 -0.37561 0.28623 -0.35603 0.011146 0.36024 -0.16941 -0.20148 0.01165 0.28765 -0.12227 -0.35599 0.11766 -0.038354 -0.023268 -0.10448 0.16874 -0.0021119 0.11222 0.43462 -0.31724 0.023855 0.056326 0.0098312
treatment 0.0066708 -0.25157 -0.28448 -0.2684 -0.71194 0.3796 -0.19248 -0.046446 0.33915 0.084034 -0.3343 0.058857 -0.17919 -0.67233 -0.47421 -0.38959 0.036144 -0.79017 -0.47235 0.26554 -0.093025 0.038003 0.71251 -0.54291 -0.026786 0.051127 0.28278 0.34904 -0.42692 0.081731 -0.12206 -0.24572 -0.054359 0.10397 -0.082711 0.16257 -0.16591 0.24832 -0.5288 -0.3076 -0.41085 0.32073 0.63383 0.016997 0.079559 0.29863 0.90526 0.026695 -0.25885 -0.1351 0.34977 -0.11248 -0.04825 -0.16204 -0.32364 0.33231 0.85737 -0.062242 -0.70963 -0.38274 0.19443 0.10131 0.054351 0.14371 -0.080791 0.23801 0.19686 0.28462 -0.35929 0.2754 0.26246 0.22746 0.2148 -0.29733 0.044806 0.46566 -0.34545 0.1113 0.31208 -0.25711 0.1828 0.16407 0.29235 -0.1288 -0.2715 0.17432 -0.019816 0.34848 -0.23751 0.18738 0.061401 -0.29055 0.44717 -0.043422 0.22968 -0.12373 -0.19333 0.61256 0.029214 -0.094459
flight -0.75352 0.14273 -0.21069 0.025659 -0.46423 -0.11462 -0.18795 -0.34074 0.1924 -0.33165 0.3985 -0.27315 0.11893 0.31815 -0.40793 0.10283 0.2885 -0.015823 -0.24311 0.39105 0.14358 0.15964 -0.093565 -0.042474 -0.0052118 0.33677 0.46632 0.23513 -0.39201 0.48287 0.49605 0.42736 -0.42041 -0.32759 -0.33034 0.27139 -0.095371 0.41038 -0.41366 -0.32773 -0.42019 -0.34518 0.33542 -0.44996 0.37735 0.11069 0.54761 -0.027509 -0.049146 -0.19373 0.68581 -0.084949 0.61938 0.61495 -0.85149 0.050727 0.17709 -0.0036181 0.02798 0.071953 -0.35064 0.62212 -0.38642 -0.078422 0.29041 0.08525 -0.62985 -0.0085886 -0.20505 -0.35039 0.23362 -0.017123 0.49561 -0.19231 0.39933 -0.115 -0.15583 0.19652 -0.42259 0.044496 -0.52853 -0.20931 -0.51857 -0.065113 0.37988 0.52324 0.58292 -0.31418 -0.04655 0.8604 -0.72852 0.55354 -0.091761 -0.040314 -0.082795 0.13872 -0.33908 0.50983 -0.38339 0.34003
forest -0.45292 0.37131 -0.088724 -0.29096 -0.86742 -0.34173 -0.59346 1.0786 0.26719 0.19363 -0.71198 0.41621 -0.15502 0.29677 -0.37567 -0.19958 0.77775 -0.18547 0.1568 0.22291 0.37583 -0.090887 -0.052186 -0.07379 -0.59415 0.17873 0.58881 0.047806 0.45149 0.12453 -0.129 -0.11908 -0.32167 0.27543 -0.51578 -0.25124 -0.09909 0.27673 -0.045049 -0.17118 -0.32404 -0.26671 -0.33311 0.33089 -0.29274 -0.30638 0.7895 0.68992 0.12764 -0.079295 -0.10618 0.42851 -0.17911 -0.25973 -0.11809 0.158 -0.28713 0.0722 -0.28976 0.20329 -0.21129 0.24112 -0.075853 0.1673 0.027955 -0.2136 0.19202 0.14233 -0.39795 0.065435 0.12653 -0.32286 -0.26822 -0.56926 0.025631 -0.4199 0.034213 0.62515 0.201 -0.093371 0.11891 0.66521 -0.71272 -0.088429 0.40818 0.54367 0.27481 0.18542 -0.47768 0.46246 -0.55169 -0.13558 0.23621 -0.26537 -0.65981 0.14295 0.020665 -0.17221 -0.17627 0.06071
abuse -0.31963 0.22046 -0.48043 -0.3505 -0.12861 0.089928 -0.50579 0.28334 0.22511 -0.45198 -0.72058 -0.16323 -0.18205 -0.20974 -0.43652 -0.15063 -0.1934 -0.37341 -0.25495 0.1993 0.072859 0.11716 0.48556 -0.28924 0.10862 -0.038308 -0.047651 0.51434 -0.39558 0.28219 -0.64578 0.25303 0.059521 0.048848 -0.57524 0.47217 -0.13564 -0.064515 -0.80504 0.54019 -0.019563 -0.0099212 0.29102 0.23726 0.47229 0.01987 0.93453 0.40118 0.55468 -0.11836 -0.14375 0.26457 -0.36286 0.042725 0.091807 -0.21741 0.33127 0.26794 -0.44929 -0.58271 0.56973 0.41831 0.07062 0.47708 -0.52178 0.11639 -0.36882 -0.098124 0.20455 0.18371 0.28669 0.80339 -0.11967 -0.4271 -0.17797 0.23017 0.36529 -0.098929 0.56705 -0.35206 -0.25731 -0.013951 0.44909 0.23159 -0.055023 0.06226 -0.15987 0.26188 0.25494 0.059872 -0.28408 0.58981 0.66255 0.058473 0.19456 -0.10443 -0.44062 0.35321 0.22423 -0.26283
criterion 0.0051212 -0.14672 -0.067219 0.16641 -0.1595 -0.1711 0.097418 0.22422 -0.025382 0.0047644 0.065812 0.45131 -0.057901 0.031641 0.31572 -0.28978 -0.10613 -0.043537 -0.12198 0.40698 -0.15984 -0.3756 0.86014 0.030128 0.16079 0.014467 0.35512 0.47438 -0.047825 0.35831 -0.052592 0.06853 -0.36616 -0.12309 -0.58898 0.13888 0.18514 -0.2807 -0.19888 -0.42459 -0.11631 0.054441 -0.39236 -0.83083 -0.16788 -0.022274 0.46644 0.070106 -0.49545 -0.053161 -0.012221 -0.022743 0.0039124 -0.37641 -0.16913 -0.19575 0.038923 -0.10725 -0.24022 0.04758 0.12921 -0.12077 -0.43034 0.32093 0.34324 0.21224 -0.42407 0.18784 -0.12069 0.07619 0.25399 -0.28059 0.36672 -0.27303 0.22442 0.30757 -0.51652 -0.3776 0.34705 0.21018 0.13305 0.36666 -0.14253 -0.29995 -0.13042 0.54125 -0.13727 0.12122 0.021224 0.26046 -0.069353 0.14274 0.29084 0.31813 0.81231 -0.1992 -0.51361 -0.12173 0.38876 -0.32302
sea -0.29971 0.5738 0.27356 -0.25647 -0.85938 0.28966 -0.63609 0.29649 0.34086 -0.29554 0.011991 0.36872 -0.72353 0.28517 -0.2105 -0.28168 0.57232 0.16914 0.10164 0.70285 0.69542 0.25312 0.37974 -0.030998 -0.33124 0.25882 0.29394 0.25295 -0.26075 0.041748 0.39339 0.028359 -0.61488 -0.0058047 0.26543 -0.16047 -0.11937 -0.10816 -0.19732 -0.11381 -0.28938 0.0050165 0.033796 0.0067377 -0.081998 -0.28207 0.53708 0.69057 0.32845 0.031562 -0.075903 -0.054134 -0.15796 0.1261 -0.25866 0.21793 -0.4335 0.49652 0.19743 0.062715 -0.28099 0.43953 0.090548 -0.064483 -0.12686 -0.048166 -0.17557 -0.33051 -0.22902 0.098422 0.22062 -0.37819 -0.12601 -0.028246 0.85976 -0.26551 -0.41063 0.72171 0.049748 -0.18288 0.13309 0.072324 -0.17533 0.21983 0.021198 0.51079 0.050481 0.17294 -0.17903 0.55427 -0.66838 -0.070655 0.35015 -0.23509 -0.2528 -0.28002 0.079175 0.16318 0.16915 0.062895
dollar -0.070426 -0.073531 -0.09483 -0.090646 -0.23357 0.12121 0.20645 -0.4893 0.40236 -0.18031 -0.17236 -0.11557 -0.70944 -0.22652 0.27114 0.16779 -0.0027777 0.088392 -0.70472 0.52331 0.49387 -0.44659 -0.22619 -0.70576 -0.061415 0.071 0.21741 0.052618 0.1711 0.30836 -0.042568 0.81844 -0.73668 0.46588 0.1161 0.47931 -0.52146 0.73626 -0.38071 -0.29851 -0.19197 -0.09142 0.14482 0.28135 -0.0058796 0.067129 0.66032 0.23929 0.082971 -0.17208 -0.040188 -0.12229 0.13636 0.22115 0.14405 -0.082745 -0.082197 0.2235 0.12249 -0.56316 0.81273 0.32213 -0.37361 0.23977 0.67394 0.38633 -0.052398 0.15084 -0.036979 0.27446 0.62684 -0.56158 -0.24367 0.23481 0.68398 -0.80181 -0.43277 0.15301 0.44581 -0.21317 -0.17379 0.63708 -0.22479 0.06104 0.54854 -0.20757 0.22582 -0.35761 0.39904 0.031927 -0.048104 0.23474 0.51352 0.040129 0.15594 0.52658 0.27978 -0.92803 0.39127 1.0337
example -0.13978 -0.12722 -0.17614 -0.042214 -0.32064 0.18918 -0.17551 0.41555 0.32733 0.091297 0.30044 -0.046407 0.0073617 -0.074719 -0.25456 -0.091382 -0.098119 0.02014 -0.080109 0.202 0.21124 -0.18789 0.28711 -0.0058396 -0.10776 -0.13431 0.22894 0.54381 -0.022694 0.32106 -0.17113 -0.078434 -0.10337 0.25792 -0.18656 0.296 0.21526 0.2071 -0.12525 -0.28473 -0.4779 -0.2357 -0.12941 0.045737 -0.0098204 0.12642 0.47189 -0.034717 -0.10709 0.17032 -0.12061 0.19082 -0.014524 -0.44235 -0.28022 -9.345E-6 -0.13177 0.19683 -0.081379 0.085777 -0.11636 0.13471 -0.1404 0.12573 0.044201 -0.11633 -0.26194 0.19265 -0.19155 0.4164 0.26924 -0.31544 0.53939 -0.13422 -0.095684 0.028782 -0.0048445 -0.3904 -0.076023 -0.12207 -0.28651 0.11866 -0.058047 -0.090896 0.0040514 0.14908 0.060605 -0.42517 -0.070265 -0.023248 0.10806 0.093361 0.17415 0.10415 0.28652 0.163 -0.095304 0.053678 0.32417 -0.15442
journal -0.21088 0.42958 -0.56643 0.030199 -0.65489 0.54909 -0.28648 -0.095375 0.58698 -0.60071 -0.7563 0.78603 -0.10566 -0.17942 -0.37283 -0.36381 0.079476 0.14575 0.14565 0.0015935 0.37366 -0.095503 0.17667 0.030737 -0.0068651 0.14972 0.060262 1.2868 -0.12723 0.050796 0.43409 0.010422 -0.51087 0.19587 -0.52888 -0.30685 -0.23599 0.1479 -1.4515 -0.25925 -0.079993 -0.30698 -0.29426 -0.45364 -0.45032 0.35493 0.7288 -0.56098 -0.51303 0.39993 -0.21715 -0.30637 -0.70226 0.0088324 0.26254 -0.30774 0.11331 -0.2682 0.62987 0.24683 -0.23255 -0.15777 0.32449 0.34042 -0.73008 1.0157 -0.34083 0.44478 -1.0199 0.084389 0.657 0.056436 -0.032277 0.037615 0.18032 -0.092004 -0.12723 -0.44897 0.12593 -0.69952 -0.29779 0.227 0.35069 -0.39804 -0.16511 0.19499 0.22242 -0.17206 0.4192 0.022712 -0.40839 -0.33172 0.23901 0.30163 1.0243 -0.55234 -0.22009 0.0018093 0.02856 0.64818
laundering -0.16891 -0.15047 -0.02912 0.090103 0.11471 -0.080101 -0.75178 0.17834 0.088614 -0.5175 -0.2294 0.24435 -0.6022 0.30586 -0.19505 -0.13629 0.16661 0.047776 -0.93824 0.19472 -0.20605 0.37342 0.61058 -1.0291 0.17593 0.51295 0.12645 -0.41738 -0.29359 0.61827 0.17737 0.26885 0.43469 0.80443 -0.46918 0.55825 -0.065872 -0.26827 -0.66977 0.14226 0.016037 -0.71313 -0.047471 0.10769 -0.064166 0.071129 0.91757 0.55846 0.7268 0.16252 -0.30879 -0.18575 0.43011 -0.30213 -0.24688 -0.0099683 0.52626 -0.54547 0.19848 0.033275 0.72782 0.4034 -0.11804 0.90351 -0.041347 0.080873 -0.061628 0.23311 -0.14115 0.058397 0.60177 0.67749 0.055143 -0.64089 0.28049 -0.60773 0.020201 0.28679 0.27618 0.12223 -0.42496 0.11834 0.2265 0.57367 -0.42016 -0.69118 -0.068606 -0.51454 0.25837 0.067157 -0.7202 0.043495 0.48575 -0.29655 1.207 0.48328 -0.07405 0.18495 -0.089264 0.16165
hotel 0.22681 0.12818 -0.097284 -0.29675 -0.64755 -0.10849 -0.41835 -0.15847 -0.083065 -0.015762 0.41318 -0.24638 -0.37919 0.43991 0.27948 -0.29304 0.44033 0.24139 0.063842 0.029 -0.091152 0.079778 0.44241 -0.70657 0.41034 -0.29864 0.16128 0.25239 -0.19701 -0.29998 0.10475 0.10117 0.23863 0.47413 -0.67133 -0.025997 0.050784 0.12049 -0.07252 -0.53783 -0.61527 -0.21256 0.2656 0.21081 -0.18805 0.10048 0.59973 0.38709 -0.12409 0.060467 -0.038582 0.19793 0.34728 0.39206 -0.70691 0.198 0.070157 0.52891 0.1142 0.079398 0.2109 0.22986 -0.45215 -0.10398 0.2632 0.56349 -0.55684 -0.25298 0.036887 -0.44249 0.5369 -0.18763 0.11215 -0.25901 -0.066022 0.11156 -0.050691 0.64347 0.13406 0.0051227 -0.064089 0.20323 -0.34558 -0.062633 0.44063 0.64527 0.076601 -0.16432 -0.52383 0.42225 -0.4245 0.20574 -0.048733 -0.14668 0.1807 0.26813 0.23742 0.3035 -0.17795 -0.12508
term 0.087247 -0.21493 0.40203 -0.023553 -0.46905 0.041004 0.17188 0.10821 0.78167 -0.35013 -0.024693 0.050894 -0.26573 -0.098978 -0.078307 0.17716 0.04822 -0.41343 -0.37446 0.22977 -0.085445 0.27243 0.53093 -0.46432 -0.48609 0.42886 0.24225 0.22658 0.026994 0.43437 -0.56871 0.13863 -0.47956 -0.033831 -0.047225 -0.052773 0.20934 -0.030349 -0.22528 -0.5194 -0.46853 0.13516 0.2355 -0.10569 -0.093632 -0.12341 0.59273 0.10624 0.45185 0.24472 -0.23305 -0.11879 0.75296 0.23347 -0.24907 -0.099481 -0.28301 -0.42052 0.12195 0.0012946 0.47628 -0.079236 -0.47891 0.33283 0.22307 0.45051 -0.55973 0.40372 -0.3796 0.23404 -0.26724 0.21213 0.1675 0.17019 -0.32417 0.11145 -0.34205 0.032207 0.35366 -1.2526E-4 -0.15599 -0.21039 -0.088422 -0.5833 -0.49298 -0.26863 -0.24423 0.070932 -0.2072 -0.088033 0.29205 0.12272 0.5887 0.45123 0.27064 0.006875 -0.11258 -0.22099 0.75766 -0.11221
listing 0.096078 0.043997 -0.049744 0.22405 -0.29536 0.80743 0.24426 0.021362 8.3348E-4 0.085928 0.095796 0.1726 0.082038 0.1053 0.13265 -0.18595 0.16367 0.081663 -0.19482 0.078323 0.050089 -0.41219 0.17517 0.012976 0.10835 0.23021 0.57396 0.2105 0.35741 0.56321 -0.19925 0.31285 0.10843 0.63603 -0.50286 -0.22305 0.29566 0.27923 0.077077 -0.69745 -0.38119 0.30616 -0.41841 0.038274 -0.092198 0.27854 0.55072 0.0234 0.10146 -0.073813 0.066583 -0.27592 0.18172 0.2671 0.025382 0.085852 -0.026249 0.084812 0.029118 0.33857 0.042205 -0.090763 -0.26896 0.45415 -0.011235 0.98488 -0.48982 -0.050149 -0.28852 0.14524 0.41739 -0.38832 4.1879E-4 -0.50813 0.15488 -0.41851 -0.35619 -0.016923 -0.097919 0.35966 -0.23362 0.42892 -0.32151 0.073625 0.0020577 0.22164 0.26505 0.32115 0.099809 0.65204 -0.45247 0.24229 0.33266 0.038935 0.44532 0.057072 -0.3766 0.07319 0.19009 -0.016836
chemistry -0.47916 -0.30147 0.13531 0.53861 -0.86077 -0.0059499 -0.31172 0.079412 0.15961 0.065222 -0.50277 0.53968 0.047747 -0.17121 0.16974 -0.2258 -0.088744 -0.081294 -0.055221 -0.12371 0.35911 -0.12932 0.27925 0.027296 -0.19772 -0.047477 -0.43023 0.4747 -0.58606 -0.051044 -0.072939 0.093201 -0.2466 -0.31163 -0.707 -0.14931 -0.47164 -0.074546 -0.91549 -0.21682 0.025511 -0.13854 0.039493 -0.6679 -0.13407 -0.40906 0.9632 -0.086359 -0.32142 0.46937 0.67189 -0.23478 -0.29487 -0.46892 -0.54847 -0.51534 -0.3039 0.11971 0.16081 -0.0040364 -0.29007 0.32774 0.33534 0.048432 -0.10517 -0.0098155 -0.25624 0.48226 -0.57478 0.17963 -0.29865 -0.169 0.14732 -0.002204 0.037391 0.24796 -0.3521 0.1334 -0.020383 0.58769 0.32191 0.8333 0.68636 -0.15533 -0.11205 0.21054 -0.18101 -0.58988 -0.39943 0.19984 -0.20402 0.10475 -0.26264 -0.044677 0.33946 -0.56855 -0.2426 -0.038786 0.47728 -0.08949
seafood 0.44647 0.1546 0.81978 0.19915 -0.80005 0.61043 -0.63457 0.30925 -0.1031 -0.27958 0.38876 0.11679 -0.20157 0.62763 0.10601 -0.56687 0.023631 0.16165 -0.26526 0.22774 0.885 -0.05182 0.40647 -0.47632 -0.2453 0.32973 0.34625 0.40207 -0.058711 0.62165 0.79294 0.51573 -0.2451 0.40396 -0.055132 -0.077302 -0.22715 0.2239 0.005597 0.25039 -0.6803 -0.2467 0.20721 -0.25468 -0.59789 0.039069 0.7638 0.49192 0.16263 0.11786 -0.60391 -0.57155 -0.1394 -0.16906 -1.0578 -0.020409 -0.14098 0.68164 -0.2576 -0.39087 0.069469 0.29143 0.1598 -0.072454 0.041759 0.59131 0.071455 0.080854 -0.28081 0.28581 0.52591 -0.34509 -0.13732 -0.0013746 -0.28584 -0.26964 -0.31464 0.77029 0.020881 -0.1689 0.49981 0.18084 -0.11198 0.12429 0.17052 0.76299 -0.25647 -0.11051 -0.12584 0.27262 -0.28606 0.15187 0.15969 -0.27513 -0.19849 -0.056342 -0.53904 -0.30656 -0.026844 0.1234
CD -0.26521 0.53777 0.26525 0.30344 -0.40637 -0.031533 -0.11589 -0.2913 -0.24165 0.055977 -0.331 0.049541 0.10555 -0.39545 -0.44203 0.35918 -0.052397 0.36719 -0.3209 0.577 -0.40684 -0.75909 -0.32221 -0.12333 0.27528 -0.039767 0.074196 0.44279 0.82226 -0.044112 -0.29047 0.63179 -0.27818 0.62933 -0.57694 0.46283 -0.14592 0.3074 -0.24076 -0.55438 -0.1567 -0.66913 -0.44226 -0.18991 -0.80373 0.2449 1.3328 -0.21031 -0.37202 0.24743 -0.51324 0.17277 0.24212 0.3094 -0.11354 0.025736 0.40454 0.19162 0.71145 -0.34846 -0.29723 0.35905 -0.10348 0.092655 -0.096997 0.027636 -0.42189 -0.42719 -0.19151 -0.3752 -0.14423 -0.2377 0.13595 -0.51098 0.18983 -0.073579 -0.10303 0.032539 0.057194 -0.004889 0.1933 -0.040582 0.15382 0.6318 0.62918 0.088553 0.32264 -0.075659 0.24242 -0.021459 -0.3169 -0.2714 -0.054622 -0.38995 -0.0037351 0.095674 -0.28938 -0.069932 0.53229 -0.016162
mind -0.39761 -0.066444 0.20043 -0.33768 -0.077605 0.037709 0.18631 0.22358 0.060101 -0.047556 -0.060035 0.062052 -0.1093 -0.13395 0.20694 -0.21217 -0.27768 0.40595 -0.22311 0.30191 -0.097137 -0.35326 0.52662 0.021577 -0.33482 0.26325 -0.20541 0.17161 -0.16092 -0.2408 -0.064613 -0.080231 -0.078915 -0.15162 -0.75996 0.041419 0.20445 -0.052745 -0.28226 -0.29098 -0.50879 -0.18759 -0.32581 -0.048535 -0.4025 -0.060425 0.58933 0.25216 0.049155 0.0022157 -0.14065 0.32733 -0.25446 -0.093948 0.2078 6.6236E-4 -0.067406 0.32922 0.10603 0.31258 -0.04948 0.50564 -0.25808 0.10474 0.043073 0.30077 -0.35351 0.39654 -0.48575 0.22952 -0.0082945 -0.067574 0.24373 0.18445 0.30551 0.079031 -0.74458 0.17153 0.22489 0.12482 0.31568 0.274 -0.23194 0.12205 0.10644 -0.059733 0.14109 -0.14494 -0.039204 -0.11312 -0.12606 0.20047 0.024572 0.14351 -0.16678 0.24033 -0.17392 0.13644 0.43883 -0.054966
sex -0.091677 0.16712 -0.12843 -0.0099075 -0.2397 0.09358 -0.35024 0.19747 0.17754 -0.33586 0.049259 -0.099332 -0.068926 -0.17893 0.14005 -0.1533 0.090911 -0.020399 -0.4159 0.16331 -0.59809 0.017479 0.43849 -0.17991 0.043277 0.19328 -0.57126 0.55129 -0.473 0.076929 -0.64984 0.39139 0.084584 0.36834 -0.49307 0.49298 -0.080705 0.025895 -0.83296 0.32206 -0.38916 -0.17834 0.46551 0.079184 -0.39786 0.23115 0.54609 0.61639 0.52248 -0.48746 0.24986 0.65912 -0.027563 -0.32414 -0.01327 -0.031596 -0.1234 0.4437 -0.32387 -0.099921 0.2725 0.29552 0.15096 0.52757 -0.66508 0.15163 -0.53134 -0.2129 -0.023374 0.17415 0.42702 0.54635 -0.21658 -0.331 0.32737 -0.078404 -0.10754 0.12635 0.49184 -0.27869 -0.012533 0.50296 0.31127 -0.26604 0.15191 0.25868 0.0058453 0.079559 0.037913 0.16271 -0.58713 0.41145 0.47535 0.24333 0.51449 -0.18976 -0.57683 0.031292 0.28685 -0.01944
food 0.033737 0.39737 0.43384 -0.046062 -0.82551 0.50649 -0.34182 0.36094 0.025692 -0.30167 -0.32427 -0.29994 -0.004269 -0.0095873 0.20335 -0.37507 -0.15397 -0.068371 -0.0018991 0.050069 0.66766 -0.30416 0.65833 -0.55452 0.078526 -0.26908 0.45841 0.3493 -0.11647 0.41733 0.2797 0.38908 -0.078801 -0.10947 -0.12227 -0.113 -0.4194 0.20367 -0.66095 0.2669 -0.3515 -0.49092 0.12219 -0.35577 -0.34165 -0.0063235 0.84514 0.67404 -0.21906 -0.095622 -0.384 -0.24686 -0.029524 -0.13249 -0.79715 0.053106 -0.090564 0.52621 -0.18052 -0.2444 0.13956 0.39252 -0.52906 0.20102 0.092188 -0.16307 0.23913 -0.034647 0.1565 0.34607 0.34435 -0.20175 -0.32638 -0.061487 -0.078681 -0.079695 0.43758 0.56862 -0.23915 -0.059762 0.44325 0.025951 -0.3241 0.35647 0.071173 0.21009 0.22814 -0.10437 0.053463 0.092825 0.26563 0.19773 0.053691 -0.29627 0.16187 -0.30936 -0.32753 -0.023331 0.13542 0.14565
precedent -0.68698 0.0052536 0.0032963 0.10501 0.13317 -0.15331 0.28341 0.25204 -0.0096237 0.50466 0.12629 0.30466 -0.021516 0.27217 -0.049467 0.13191 -0.42671 -0.34249 -0.1107 0.25244 -0.11659 -0.11555 0.64351 0.2078 -0.23026 0.20925 0.16606 0.57732 -0.17392 0.72152 -0.20703 0.0080492 -0.097293 0.017261 -0.30928 0.070705 0.30182 -0.20129 -0.14168 -0.34523 0.34776 -0.050745 -0.30899 0.073163 -3.9971E-4 0.010579 0.73013 0.14136 -0.2566 0.18006 -0.19167 -0.059082 -0.068911 -0.31872 0.014906 -0.44675 0.092856 0.50823 -0.38768 0.09399 0.49689 0.40924 -0.27556 0.65333 0.098964 0.30489 -0.16794 -0.15174 -0.19155 0.37116 0.39401 -0.53441 0.45884 -0.043895 -0.10987 0.20645 -0.45402 0.085355 0.50846 -0.097977 -0.23394 -0.101 -0.19875 0.024211 -0.24171 -0.036035 -0.14968 -0.099554 -0.18123 0.31394 0.16518 -0.028685 0.95713 0.026495 0.21504 0.24681 0.24373 -0.13377 0.48899 -0.13484
series -0.31944 0.24421 -0.32422 -0.28536 0.12138 0.1182 -0.14532 -0.1887 -0.036135 0.24739 -0.04586 0.1942 -0.11379 -0.43475 0.28518 0.30036 -0.30414 -0.13434 -0.33484 0.26944 0.21915 0.19794 0.33963 0.40081 -0.085226 -0.39576 -0.37442 0.43333 -0.19975 0.13148 -0.07803 0.55345 -0.11859 -0.19598 -0.64197 0.036974 -0.1053 0.098409 -0.084948 -0.70363 -0.026027 -0.79589 -0.25228 0.514 -0.089199 0.3478 0.57727 0.26423 0.26007 0.15432 0.15489 0.060102 0.1059 0.055441 -0.20054 -0.0075451 0.23567 0.30271 0.025211 0.18711 0.33828 -0.16548 0.15671 0.0024792 0.13655 0.13201 0.06143 -0.052964 -0.195 -0.033148 0.35803 0.023351 0.36145 -0.2292 -0.27743 0.28915 0.12724 0.049377 -0.43447 0.051742 -0.58495 0.18447 -0.0014406 -0.22715 0.59438 -0.2778 -0.51385 0.20566 0.043982 0.15563 -0.64227 -0.40389 0.2809 0.52527 -0.089741 -0.26152 -0.42187 0.056671 0.43063 -0.008935
kilometer -0.67021 -0.12493 -0.5445 -0.39809 -0.88653 -0.86696 -1.0048 -0.059283 0.58906 -0.88887 0.34188 0.45255 -0.22976 0.24806 0.23645 0.29572 -0.024211 -0.29152 -0.34745 0.65976 -0.10748 0.075198 -0.23176 0.19452 -0.21459 0.34228 0.55356 0.35625 -0.13119 0.14828 0.36162 -0.94573 -1.0687 0.94465 0.23407 -0.50326 -0.43268 0.03608 0.050438 0.18894 -0.048748 -0.56015 -0.51314 -0.01151 0.47602 0.11412 0.24353 1.1659 0.50419 0.11583 0.0052175 0.35824 0.22854 0.56949 -0.64108 -0.082808 0.49627 -0.20879 -0.48994 -0.037197 0.36563 0.60318 0.29895 -0.12046 -0.0023449 0.57333 -0.33211 0.057785 -1.072 -0.025591 0.37558 -0.12526 0.19465 0.17041 0.36056 -0.48565 -0.32219 0.38789 -0.27384 0.61087 0.50751 0.070954 -0.081206 -0.7935 0.43656 0.42663 0.52823 0.34345 -0.82455 -0.23232 0.12913 0.052086 0.064478 -0.024643 -0.43578 -0.067269 0.32522 0.17256 -0.092441 0.32154
grocery 0.38528 0.22446 0.36896 -0.29573 -1.1532 0.52459 -0.44641 0.61451 -0.48312 -0.20624 0.12054 -0.25965 0.066253 0.18023 -0.057039 0.077149 -0.055619 0.15544 0.21772 -0.13025 0.011881 -0.061445 0.28024 -0.43491 0.24359 -0.22671 0.24206 0.2771 -0.16998 -0.07745 0.16875 0.7139 0.1992 0.71097 -0.31795 -0.12181 -0.4866 0.46767 -0.29836 0.24761 -0.45552 -0.62614 0.17949 -0.16174 -0.086345 -0.05697 0.72407 0.24747 -0.23592 0.50826 -0.79327 -0.096548 0.21132 0.43457 -0.72047 -0.036243 -0.070332 0.36368 -0.21621 0.007632 0.18179 0.6636 -0.77053 0.20147 0.071483 0.059826 -0.56255 0.16152 -0.27811 0.35939 0.23113 0.079663 -0.63392 -0.39199 -0.38455 -0.019234 -0.092878 0.59057 -0.070891 0.18788 0.37582 -0.097383 -0.56057 0.16007 0.7534 0.19488 0.3852 -0.41844 -0.003121 -0.15368 0.49044 -0.097873 0.025069 0.40813 0.085982 -0.27031 -0.32961 -0.33475 -0.0034395 0.20849
wizard -0.39055 0.079559 0.27437 0.16905 -0.56123 -0.085395 -0.41289 0.083661 0.19074 0.44058 -0.052246 0.5592 -0.30563 -0.073823 -0.59168 0.29831 -0.65575 0.32504 -0.60479 0.3449 0.21423 -0.25178 0.17291 0.20398 0.53244 -0.15013 -0.99817 0.099845 0.087317 0.07438 -0.29804 0.28665 -0.054041 0.039998 -0.98147 0.64835 -0.36126 -0.39732 -0.34078 -0.092068 -0.10849 -0.80892 0.29978 0.27157 -0.55101 -0.57869 0.57583 0.16813 -0.085543 0.055517 -0.051401 1.0223 -0.52424 0.12865 -0.14021 0.085169 0.064031 0.33694 0.18913 0.068842 0.078434 -0.49022 -0.61088 0.23824 -0.25014 0.343 -0.41909 0.48487 -0.29177 -0.20646 -0.10694 -0.57819 0.19932 0.35993 -0.31095 -0.51125 -0.08109 -0.12884 -0.31137 0.56637 0.022457 -0.028907 -0.25587 -0.12472 0.059139 -0.16015 0.24666 0.063269 0.19033 -0.29805 -0.95727 0.40376 0.40895 0.16617 -0.23079 -0.37935 0.035604 0.18058 0.30418 0.18365
information -0.13903 -0.11126 -0.68036 0.45783 -0.68254 0.159 0.11368 -0.18675 0.14017 -0.37547 -0.17713 -0.029755 0.23559 0.22325 -0.22438 -0.73934 -0.19848 -0.10125 -0.46712 0.075888 0.19224 0.0027932 0.25075 0.018502 0.56749 -0.13011 0.28427 0.088804 -0.053738 0.14536 -0.59731 -0.22974 0.14789 0.1807 -0.7744 0.41138 -0.02044 -0.20073 -0.36476 0.024272 -0.16157 -0.34286 -0.32138 -0.11951 -0.11932 0.36877 0.73417 0.66022 -0.40057 0.53398 -0.4073 -0.095001 0.36672 -0.35657 0.33946 -0.078639 0.63491 0.24285 -0.2346 0.16718 -0.57913 0.087723 0.079453 0.22432 0.37762 0.18929 -0.18579 0.84107 -0.42612 0.4503 0.29075 0.012833 -0.24147 0.10038 0.017491 -0.40593 -0.36338 -0.15303 -0.19786 0.051397 -0.18573 -0.039231 -0.13249 0.41863 -0.23188 0.099675 0.17977 -0.1141 -1.7617E-4 0.25182 -0.028072 0.44697 0.31913 -0.30724 -0.056617 0.29106 -0.42527 0.2269 0.24304 -0.096816
Israel 0.44398 -0.039754 0.055684 -0.27603 -0.20854 0.30074 -0.56953 -0.18531 -0.37208 -0.13302 -0.51886 0.07672 -0.10687 0.039426 0.10686 -0.086012 -0.21746 0.10753 -0.72713 0.79739 -0.19683 -0.56943 0.64596 0.28829 0.0037307 -0.12709 0.12723 0.15451 -0.57471 0.67832 0.49366 0.017611 0.11171 -0.00862 -0.47531 0.032352 -0.22718 -0.35857 -0.65406 -0.60082 -0.28566 -0.14479 -0.17362 0.14815 0.65823 -0.37632 0.43561 0.45345 -0.30192 0.27077 0.44517 0.44921 0.64647 -0.64267 0.50777 -0.45802 -0.33685 -0.34125 -0.22549 0.19781 0.020589 0.18539 -0.30272 0.037335 0.46706 0.16573 0.14458 -0.74357 -0.83992 -0.13766 0.64488 0.40537 0.27084 -0.29378 0.95971 0.40955 -0.169 0.32845 0.5376 -0.25875 -0.72381 -0.19965 -0.68614 0.36815 -0.58403 0.62545 -0.30861 0.1851 -0.33641 0.35522 0.25758 -0.40421 -0.074585 0.55705 -0.13674 -0.33702 -0.11246 -0.23666 0.49422 -0.15208
brandy 0.23967 0.56273 0.74379 -0.049449 -0.7647 0.050453 -0.66571 0.49037 0.044593 0.22759 0.40738 -0.10377 -0.18849 0.29806 -0.0025913 -0.29204 0.22324 0.39568 -0.47065 0.28596 -0.027449 -0.64817 0.14496 -0.44157 -0.0071871 0.0031634 0.17735 0.018184 -0.22976 -9.2801E-4 -0.0032826 0.38231 -0.16681 0.1856 -0.22524 0.33032 -0.4664 0.15413 -0.69194 0.19712 -0.70262 -0.38399 0.4407 0.10816 -0.72066 0.026833 1.185 0.33211 0.49525 0.37599 -0.49145 -0.059171 0.049032 -0.15816 -0.41295 -0.2987 -0.27234 0.30644 -0.16482 -0.18976 -0.074865 0.050951 0.054074 -0.052804 -0.16699 0.0046424 -0.11623 -0.19077 -0.28802 0.065999 -0.069642 -0.50402 0.13509 0.12059 0.0040166 -0.27151 -0.28108 -0.0066945 0.23936 0.18123 0.41054 -0.32568 0.32553 0.38542 -0.027219 0.30131 -0.22364 0.16992 0.090417 -0.236 -0.050884 0.23966 0.48211 0.069913 -0.30593 -0.087842 0.0821 0.11077 -0.40331 0.0041175
interview -0.18151 0.070281 -0.41864 -0.075159 -0.2134 -0.031209 -0.014557 -0.38169 0.51757 -0.29023 -0.27182 -0.049592 0.23151 -0.19354 -0.19191 -0.26038 -0.23195 0.42538 -0.09017 -0.048836 0.04263 0.040976 0.092936 0.053925 -0.066109 0.35354 0.073476 0.41913 -0.044589 -0.20111 -0.057145 -0.093989 0.24564 0.56921 -0.38541 -0.019949 -0.65257 -0.28537 -0.71893 -0.9511 -0.31795 -0.31335 -0.20576 0.67687 0.029722 0.46102 0.59619 -0.033704 -0.26286 -0.12516 -0.018329 -0.074669 0.5962 0.45348 -0.20554 -0.3747 -0.39438 0.35755 -0.26284 0.090194 0.043659 0.12649 0.031835 -0.018476 -0.18254 0.58329 -0.25355 0.3686 -0.38872 -0.29378 0.24517 -0.0047247 0.58354 0.073192 -0.4214 0.38684 0.050196 0.11539 0.087352 -0.032307 -0.24948 -0.016494 0.18315 -0.11772 -0.55999 0.57144 0.12919 -0.13471 0.41994 -0.14446 -0.23875 -0.019065 0.2017 0.51283 0.096212 0.23283 -0.30286 0.25608 0.043619 -0.3483
prominence -0.40833 -0.087609 0.018157 0.41439 -0.24994 0.19897 -0.39205 0.30501 0.34008 0.13082 -0.018757 0.33705 0.2595 0.19434 -0.14641 0.052014 -0.47822 0.30319 0.075651 0.087943 0.19076 -0.2722 0.081198 -0.53906 0.19556 -0.10919 -0.22835 0.10487 -0.34716 -0.17468 -0.20864 0.0075653 -0.15432 -0.096423 -0.48775 -0.095039 -0.4956 0.31129 -0.58584 -0.45822 -0.15171 -0.30127 -0.19565 0.36106 0.24308 -0.20145 0.61388 0.0078275 0.15595 0.16399 -0.096218 0.079792 0.14017 0.22124 0.33024 -0.084603 -0.28216 0.34634 -0.35255 -0.1831 0.10613 -0.29887 -0.050984 0.21504 0.41447 0.47571 -0.60605 0.068941 0.26702 0.34741 -0.18339 -0.69665 -0.053549 -0.043503 0.42404 0.16567 0.4822 -0.20291 0.39074 -0.15505 -0.32444 0.31192 0.29545 0.092715 0.04677 -0.0054353 -0.20062 -0.013083 0.30567 -0.0771 -0.064869 -0.01964 0.24549 0.033725 -0.10618 0.21189 -0.49726 0.13405 0.86003 0.27834
bed -0.12139 0.65164 -0.2123 -0.87335 -0.67209 -0.16789 -0.19718 0.16574 0.21028 0.060643 -0.1789 0.017365 -0.18435 -0.092475 -0.41623 -0.1723 0.6469 0.39878 -0.083899 0.27483 -0.22183 -0.13278 0.56404 -0.14274 0.017028 -0.097122 0.098412 -0.23295 -0.12637 -0.40553 -0.055758 -0.075089 -0.46837 0.43535 -0.59614 -0.046278 -0.42458 0.069533 -0.5617 -0.27435 -0.36151 -0.15322 0.66691 0.022157 -0.61669 -0.034849 0.61863 0.14441 0.037552 -0.53053 -0.28808 -0.084194 0.10135 0.092987 -0.41354 0.066964 -0.25264 0.48794 0.29075 0.19077 -0.14407 0.42071 -0.24202 0.1474 -0.17496 0.059596 -0.16125 0.23065 -0.29199 -0.45687 0.5469 -0.21934 0.23787 -0.039421 0.19298 0.071074 -0.36079 0.12024 0.020772 -0.074829 0.40577 0.10696 0.10659 0.27413 0.28558 0.084746 0.10209 0.073082 -0.30166 0.29881 -0.092684 0.21263 -0.026223 0.12424 0.092947 0.0728 0.32924 0.46228 0.14671 0.031978
furnace -0.17262 0.3697 0.24665 -0.95708 -0.66911 -0.21807 -0.39673 0.32258 -0.34135 0.25524 -0.41389 -0.53856 -0.20496 0.18091 -0.086029 0.089764 0.10585 -0.49165 -0.56041 0.82022 0.4378 -0.21135 -0.27367 0.22376 -0.072089 -0.76316 0.93208 -0.046897 -0.21555 -0.19964 0.3335 0.18471 -0.19771 0.10376 -1.1219 -0.24066 -0.46926 0.033843 -0.68422 -0.13179 0.36284 -0.025695 0.48241 0.31821 -0.17048 -0.40765 0.48729 0.11858 0.22798 0.050486 -0.047419 -0.23878 0.28296 -0.28717 -0.82483 0.14095 -0.16186 -0.15106 0.09154 -0.47105 -0.17066 0.8153 -0.20713 0.10404 -0.16223 0.18586 -0.30331 -0.16918 -0.24382 0.44363 -0.13464 -0.28193 0.16347 -0.4066 -0.19824 0.0066099 -0.73181 0.47501 -0.060336 0.060917 0.38473 0.67446 0.20232 -0.17207 0.42995 0.11989 0.29706 0.21801 -0.22654 0.17552 0.065687 0.082073 -0.35955 0.11341 -0.21395 -0.098449 0.1467 -0.068045 0.83809 -0.4925
evidence -0.53554 0.25665 -0.30727 0.5097 -0.80575 -0.39058 0.107 -0.010552 0.023797 -0.094223 -0.40907 0.03607 -0.082501 0.10979 -0.37345 -0.35205 0.1756 0.34011 -0.31059 0.26223 0.1038 -0.02388 0.67353 -0.031112 0.28728 0.14305 0.33469 0.7608 -0.26306 0.30555 -0.52115 -0.2894 0.11105 0.027636 -0.38173 0.096247 -0.25295 -0.36969 -0.82029 -0.044082 0.17084 -0.19734 -0.19415 0.093475 -0.18874 -0.11523 0.24398 0.12428 -0.21701 0.15809 -0.42771 -0.13696 0.04977 -0.029418 0.23069 -0.36552 0.16128 0.40201 -0.23578 0.15895 0.49815 0.25395 0.23773 0.63015 0.045898 0.11646 0.047291 0.10717 -0.27795 0.49974 0.20412 -0.17169 0.6651 -0.038065 -0.0050225 0.1094 -0.3986 0.37249 0.17656 -0.19093 0.096722 0.092496 0.45524 0.71269 0.29024 0.069584 -0.50704 -0.19894 0.23131 0.29243 0.029294 0.398 0.24526 -0.017783 0.0056194 0.32798 -0.29701 0.087732 -0.053408 0.31434
sprint -0.10991 -0.25326 -0.24563 -0.37921 0.28784 -0.3188 0.022596 -0.12605 0.46307 0.33294 0.4035 0.38963 0.33648 0.034808 0.33503 0.61792 -0.36518 -0.14218 -0.15084 0.38925 0.34957 0.36811 0.33502 -0.64482 0.17238 0.84494 0.1516 0.60383 -0.69017 0.25501 0.055096 -0.064253 -0.99514 0.29412 -0.094226 -0.60734 -0.52903 0.069573 -0.3353 0.28266 -0.16069 -0.69967 0.037286 0.48253 -0.23244 -0.47844 0.52302 0.55947 0.030074 0.37639 0.42121 0.016447 0.44758 0.54612 -0.3516 -0.52887 0.44135 -0.17345 -0.67234 -0.10797 0.50558 -0.16058 0.32207 -0.31682 -0.01274 -0.23315 -0.74228 -5.3278E-4 -0.75726 0.064313 -0.03174 -0.56859 0.428 -0.31379 0.90956 -0.45993 -0.37691 0.19019 -0.12625 0.55259 0.75447 0.045821 0.27946 -0.10756 -0.44036 0.20165 0.166 0.091751 -0.16101 -0.10991 -0.35992 0.089775 0.31271 0.35491 0.025713 -0.3447 -0.026608 0.42019 -0.067017 0.088156
emergency -0.18477 0.17532 -0.45782 -0.050593 -0.16671 -0.04963 -0.31668 0.18947 0.79721 -0.074712 -0.51138 0.44108 -0.20206 -0.023574 -0.21165 -0.41471 0.18453 -0.36484 -0.52617 0.18315 0.30969 -0.018754 0.51315 -0.13898 0.05429 -0.48031 0.4421 -0.039636 -0.03639 -0.01694 0.1426 0.37248 -0.25729 0.044061 0.088136 -4.695E-4 0.099266 0.16862 -0.16685 -0.67418 0.053655 0.087417 0.27908 0.53018 0.20513 0.50393 0.45093 -0.035994 -0.51527 -0.43669 0.30185 -0.022416 0.31601 0.21549 -0.62905 0.32702 0.38217 0.5061 -0.64577 -0.19481 0.12257 0.85223 -0.52134 0.47698 -0.11061 -0.19963 -0.38369 0.31772 0.024321 -0.45811 0.5342 -0.18721 0.1047 -0.04641 -0.23683 0.14356 -0.052623 0.093017 -0.14349 0.058988 -0.32447 -0.0090712 -1.0725 0.8199 -0.12642 -0.167 0.5218 0.18268 -0.045872 0.0024036 0.34406 -0.029728 0.23219 -0.46827 0.15565 0.0041551 -0.15865 0.18817 0.1344 -0.51919
Jackson -0.19174 1.0084 -0.30222 -0.17522 0.35097 -0.21052 -0.34094 -0.08575 -0.15343 0.38588 -0.89323 -0.062783 0.30173 -0.38529 -0.1075 0.11931 0.018234 0.44302 -0.54024 -0.45006 -0.79098 -0.73879 0.048965 0.16391 0.75768 -0.10283 0.19179 0.27665 -0.10968 0.06326 -0.38433 0.04485 0.14509 0.11235 -0.66935 -0.25991 -0.39451 0.31567 -0.26164 -0.15917 -0.42391 -0.40708 -0.26235 0.12748 0.35008 -0.098586 0.90861 -0.56377 -0.12135 0.12166 0.40073 -0.03778 -0.066515 0.013245 -0.31183 -0.1501 0.29247 -0.0084652 -0.56936 -0.01002 0.12642 -0.22878 -0.44544 -0.057677 -0.31769 -0.32375 -0.43118 -0.025026 -0.011311 -0.2359 0.055461 -0.41397 0.31673 0.10801 0.15945 -0.3742 -0.23708 0.64413 0.057668 0.098511 -0.21468 -0.069618 0.095626 0.07718 0.13128 0.32341 -0.33346 0.29758 -0.46871 0.29678 -0.19154 0.29453 0.61974 -0.0071361 -0.18749 0.11521 -0.54141 -0.051718 0.19832 -0.073845
institution -0.31128 -0.18164 -0.10299 -0.21785 -0.11387 0.17389 -0.26116 0.36682 0.45946 -0.067618 0.27313 0.066041 -0.25656 0.24306 -0.45857 -0.46314 -0.19672 -0.26432 -0.26854 0.17216 -0.13586 -0.040736 0.066193 -0.51563 0.2953 0.13209 -0.092915 0.32525 0.095938 0.44067 -0.47204 0.11751 -0.20018 -0.34293 -0.70825 0.22778 0.10657 -0.13757 -0.15447 -0.53754 -0.04204 0.0032314 0.013786 -0.36192 0.0022199 -0.12558 0.26498 0.17228 -0.043391 0.1705 -0.21276 -0.073922 -0.15897 -0.15894 0.044777 -0.42622 -0.19287 -0.081098 0.10621 -0.43729 0.51724 0.41644 -0.16178 0.36745 -0.011541 0.51981 -0.73636 0.002087 -0.28013 -0.47598 0.43872 -0.15387 0.08516 0.061915 -0.05261 0.080129 0.21379 0.16957 0.092912 -0.4305 -0.13101 0.44654 -0.47781 -0.25276 -0.11507 0.0096988 0.064391 -0.19049 -0.15714 -0.16646 0.2737 -0.36235 0.48462 -0.31727 0.62453 0.074063 -0.4768 -0.25033 0.054788 -0.31642
bird -0.40319 0.4216 0.06565 -0.34726 -0.98999 0.18961 -0.69983 0.50883 -0.37767 -0.11677 0.16349 0.42963 -0.4608 0.12645 -0.88177 -0.29401 0.34708 0.24829 -0.39895 0.34912 0.5066 -0.1017 0.32791 0.030097 -0.33781 0.39458 -0.081489 0.35869 0.01732 0.29208 0.098505 0.44002 -0.63875 -0.27459 -0.38231 -0.21194 0.023601 0.59391 0.094939 -0.40354 -0.54723 -0.15296 0.22719 0.19593 0.11687 0.042043 0.41408 0.43127 -0.24898 -0.15799 -0.14247 -0.18646 0.08277 -0.22727 -0.40041 0.53297 -0.018956 0.42319 -0.10066 0.22869 -0.21213 -0.045855 0.027999 0.063976 -0.095313 -0.3324 -0.17017 -0.24134 -0.28331 0.064451 0.56874 -0.6802 -0.0040304 0.13811 0.15581 -0.4368 -0.32691 -0.055842 0.37361 -0.34099 0.20333 0.31767 -0.57013 -0.071381 0.12413 0.29256 0.26019 -0.19537 0.54516 0.3468 -0.31575 0.76791 0.26145 0.12693 -0.71321 -0.22411 -0.29275 -0.21264 -0.23292 0.34592
Brazil -0.22274 0.36042 -0.29507 -0.095449 -0.14798 -0.4505 -0.19553 0.55083 0.18619 -0.21122 -0.54859 -0.21383 0.32516 -0.14134 0.69954 0.44501 0.1621 -0.57025 -0.58544 0.42835 0.78841 0.09001 -0.24574 -0.10955 0.070385 -0.10396 0.17425 0.2343 -0.020699 0.29218 0.40183 -0.027057 -0.37323 -0.046803 0.17476 0.11263 -0.11202 0.073873 -0.25588 0.053546 -0.87797 -0.31758 -0.10361 0.17251 -0.047781 -0.60197 0.58845 0.22154 -0.31035 -0.015109 0.14103 -0.11426 0.16334 -0.57445 0.026433 0.24295 0.25423 0.23606 -0.347 0.12303 0.024579 0.31172 0.16196 0.54329 0.11949 -0.062522 -0.036447 -0.20767 -0.38784 -0.33701 0.059276 -0.54444 0.32611 -0.40101 0.30521 -0.39985 0.58994 0.46657 0.6836 0.15547 -0.50644 0.27186 -0.059322 -0.083532 -0.23934 0.63474 0.25544 -0.38781 -0.14513 0.058919 -0.25143 -0.39124 0.20685 0.61481 0.2621 0.89694 0.13763 0.25134 0.50884 -0.18203
warning 0.22976 -0.062731 -0.1953 0.22757 -0.59057 0.051504 0.35922 0.15196 0.38889 0.06401 -0.27213 0.23485 -0.77299 0.13967 -0.51705 0.22487 -0.35575 0.074079 -0.39818 0.3848 0.2571 -0.031273 -0.013622 0.40936 -0.13576 0.048883 0.10225 -0.087006 -0.27432 0.61465 -0.13782 0.19594 0.39896 -0.26026 0.11628 0.41174 -0.23342 -0.15913 -0.45305 -0.028234 -0.48607 -0.04266 -0.50949 0.40323 0.011277 0.23514 0.64128 0.30121 0.11674 -0.14356 0.0032454 -0.08517 -0.054884 0.19686 -0.058438 0.15012 0.02121 0.5514 -0.13 -0.0067336 -0.060275 0.36446 -0.26313 0.2878 -0.40548 0.29337 -0.17639 -0.1724 -0.56654 0.40127 0.28923 -0.52562 0.17457 0.17978 0.37856 0.35133 -0.1277 0.19155 -0.45765 -0.49909 -0.30668 -0.15271 -0.44434 0.43146 0.026878 -0.37956 -0.098012 0.36164 0.16013 0.089917 -0.098195 0.13983 0.26289 -0.087222 -0.10749 0.021209 0.068117 0.27007 0.099718 -0.33088
implement -0.36972 -0.68396 -0.62703 0.0061717 -0.34125 0.39889 -0.30819 0.35016 0.34232 -0.19242 -0.24205 0.54661 -0.26928 0.018912 0.53294 -0.029684 -0.12644 -0.72078 -0.34349 0.18958 0.28766 -0.33201 0.51469 -0.18207 -0.45776 -0.06103 0.57517 -0.20494 0.0035692 0.57565 -0.14576 -0.31556 0.21034 0.091296 -0.0053285 0.32833 0.31391 -0.41096 -0.12734 -0.35813 0.11897 -0.48035 -0.31245 -0.18032 -0.51916 0.26334 0.65685 -0.21768 0.0088696 -0.11095 0.067751 -0.1884 0.50889 -0.1768 0.11136 -0.12436 0.12321 0.1147 -0.14561 0.078606 0.11297 0.23684 -0.58783 0.13697 -0.10247 -0.23659 -0.60989 0.26077 -0.61174 -0.02481 -0.10115 0.072269 0.35704 -0.041888 -0.36254 0.18242 -0.31269 -0.13097 -0.055498 -0.12756 0.0092027 -0.063772 -0.5303 0.03705 -0.017394 -0.29186 0.19969 0.031689 0.063249 0.56378 -0.087506 -0.47213 0.2595 -0.22722 0.29771 -0.02023 -0.47503 -0.05846 0.33296 0.17758
train -0.47106 -0.16547 -0.31336 -0.51218 -0.42532 0.044019 -0.19443 -0.10556 0.2198 0.031154 0.49256 0.4949 -0.20269 0.18187 -0.074431 0.0036676 0.15256 -0.58806 -0.27368 0.55226 -0.0056972 0.13359 0.42099 0.11566 0.027268 0.1644 -0.034934 0.363 -0.23826 0.092331 0.3717 0.61051 -0.1989 0.0092489 -0.55274 0.22597 -0.37482 0.16365 -0.36316 0.29225 -0.19706 -0.16959 0.15298 0.5029 0.01057 0.013339 0.13622 0.28204 -0.19138 0.039124 0.15951 0.24102 0.75926 0.41751 -0.15987 0.090832 0.23773 -0.11204 -0.094262 -0.21698 -0.32117 0.46852 -0.5451 -0.34702 0.27832 -0.33305 -0.54329 -0.39093 -0.66231 -0.1948 0.094962 -0.14319 0.028628 -0.18698 0.2365 -0.081129 -0.25805 0.14049 -0.86379 -0.11465 0.22459 -0.13853 -0.48695 0.010142 0.36017 0.12598 0.21875 -0.66647 -0.031917 0.18517 -0.30538 0.49508 -0.19723 -0.31201 0.088339 0.4589 -0.24336 0.29378 -0.043911 -0.06476
area -0.26216 0.26896 -0.30719 0.16197 -0.85097 -0.36112 -0.44544 0.017732 0.24275 -0.29674 0.34888 0.18485 -0.19208 0.003604 -0.23448 -0.40813 -0.021072 -0.023364 0.25024 0.091039 0.23035 0.25459 0.20301 -0.04612 -0.35774 -0.2086 0.09023 0.16026 -0.11302 0.042079 -0.27617 -0.11656 -0.023729 0.4143 -0.56516 -0.23745 0.13318 0.38121 -0.15467 -0.021008 -0.17633 -0.14405 -0.11994 0.37993 0.087309 -0.2343 0.24557 0.37485 0.20165 -0.084825 0.040962 -0.46073 -0.064052 -0.12095 -0.40634 0.097237 0.050217 -0.10839 -0.45598 -0.041174 -0.017166 0.23178 -0.44728 -0.082078 0.10458 0.25704 -0.19438 0.12209 -0.70871 0.028702 0.31746 -0.24391 -0.27965 -0.40568 0.16746 0.017994 -0.12844 0.46872 0.041999 -0.27301 -0.11 0.13152 -0.37523 0.058181 0.18516 0.1261 -0.36094 0.24213 -0.20414 0.32669 0.018808 -0.25473 -0.032839 -0.17593 -0.17259 0.516 -0.048557 0.010992 -0.10791 -0.17076
image -0.52364 -0.062048 -0.12245 -0.12186 -0.46453 -0.071475 -0.10944 0.01431 0.046383 -0.043932 0.22808 -0.24775 0.038423 0.14463 0.089588 -0.049344 -0.079196 0.15868 0.072493 0.68634 -0.12156 0.19147 -0.3428 -0.23366 0.063415 -0.11956 -0.32195 0.23466 -0.18313 -0.05476 -0.24517 -0.21047 -0.2462 -0.17587 -0.52971 0.47779 -0.21653 -0.41875 -0.32666 -0.6732 -0.17387 0.11196 0.18008 0.51412 -0.14813 0.17911 0.567 0.36468 0.40372 0.2424 -0.48326 0.1598 -0.45712 -0.39495 -0.021847 -0.21036 0.35474 0.039262 0.11235 -0.13397 -0.32021 0.070666 -0.21727 0.32029 -0.21163 0.25361 -0.58168 0.15326 -0.93698 0.060193 -0.039648 -0.29603 0.26563 0.028816 0.091781 0.31741 0.2836 0.029808 0.1225 0.019003 0.089475 0.34767 -0.21337 0.097879 0.0097679 0.35547 -0.069306 -0.33897 0.2331 0.12014 -0.31386 0.37857 0.62378 0.073051 -0.34446 -0.13612 -0.34984 -0.24083 0.40378 0.41687
murder -0.43861 0.2328 -0.20882 0.26485 -0.30654 -0.43453 -0.015183 0.54583 -0.47948 -0.41108 -0.051914 0.070816 -0.51066 0.38416 -0.51904 -0.016585 -0.23086 0.036754 -0.43971 0.011634 -0.28663 0.0021662 1.2884 0.011265 0.20351 0.19665 0.32172 0.63982 -0.29924 0.43111 -0.009718 -0.029233 -0.50919 0.47013 -0.84252 0.011377 -0.81706 -0.11803 -0.73512 0.24021 0.12621 -0.28965 0.45521 0.35999 -0.18465 -0.12363 0.65163 -0.52769 0.77929 0.23717 -0.39254 0.27729 0.51446 0.050391 -0.20587 -0.027735 -0.10091 -0.028826 -0.03177 -0.016707 0.43419 0.33427 0.10206 0.21603 0.019374 0.47516 -0.79824 0.17526 -0.059741 -0.17538 0.023828 0.5849 -0.056683 -1.184 0.29971 0.2999 -0.19946 0.4134 0.18876 -0.15633 -0.34786 -0.10289 0.48135 0.1677 -0.28212 -0.11039 -0.12274 -0.49992 0.12757 -0.30882 -0.76891 0.27716 0.36706 -0.068183 -0.04209 0.19047 -0.25473 -0.34777 -0.26913 -0.44002
journey -0.63287 0.18139 -0.30142 -0.65967 -0.040978 -0.092981 -0.38788 -0.18209 0.38731 -0.086161 0.17856 -0.064296 0.13876 -0.32899 -0.32839 0.38249 -0.23694 -0.38651 -0.001501 0.82536 -0.27567 -0.023179 0.74398 -0.058481 -0.40876 0.26366 0.26118 0.4101 -0.57573 0.35717 0.098992 -0.045232 -0.63282 0.18772 -0.399 -0.2692 -0.0312 0.17475 0.035562 0.13295 -0.27907 -0.20498 0.11989 -0.30545 -0.14179 0.23681 0.64379 0.3124 0.28036 0.22342 0.2335 0.57031 0.3669 0.60038 -0.33289 -0.15121 0.032108 0.025785 -0.092933 -0.11814 -0.34053 0.31768 0.072904 -0.22096 -0.20309 0.073714 -0.44955 0.31459 -0.67429 -0.13617 -0.19291 -0.24011 0.16446 0.18563 0.045242 -0.39436 0.097611 0.60541 -0.60691 -0.1068 -0.2922 -0.1153 -0.30518 -0.21468 -0.070321 0.44043 0.16297 -0.58012 -0.087104 0.16398 -0.35537 -0.083954 0.19708 0.21733 -0.11537 0.038778 -0.26169 0.40071 -0.27958 0.35743
minister 0.22054 0.011944 -0.032963 0.25607 -0.39274 -2.8743E-4 -0.49838 0.051317 0.76073 -0.18178 -1.081 0.6582 -0.25205 0.59056 0.36963 -0.34237 -0.38814 -0.15413 -0.60485 0.0023241 -0.47349 -0.1943 0.56894 -0.21379 -0.039308 -0.21748 -0.032141 -0.029988 -0.76042 0.50452 -0.25201 -0.54377 -0.1 0.0098139 -0.34818 0.74346 0.027113 -0.37946 -0.19211 -0.44284 -0.3542 -0.69334 0.062954 1.0865 -0.088622 -0.30735 0.36102 -0.52334 0.17259 -0.27155 -0.56549 -0.21444 0.46794 0.11436 -0.43452 -0.060949 -0.84056 0.25457 0.023706 -0.22801 0.48435 0.49902 0.11648 -0.44956 -0.067547 0.489 0.1669 0.14806 -0.084772 -0.22284 0.26079 0.0095602 0.0087991 0.012481 0.63626 0.14852 0.2142 0.175 0.34931 -0.034711 -0.51657 0.092489 -0.31382 -0.47373 -0.18374 0.13435 0.066898 -0.42097 0.34791 0.40604 0.24282 0.064045 0.19969 0.3831 0.11211 -0.21857 0.07413 -0.016035 0.41027 -0.073036
planet -0.91066 -0.050344 0.1736 -0.22603 -0.428 -0.3035 -0.30589 0.034936 0.1402 -0.23602 -0.21419 -0.084169 -0.38394 0.080934 -0.31248 -0.10834 0.23095 -0.059692 -0.26438 0.32757 0.50264 0.16012 -0.24911 -0.065392 -0.33419 0.046267 0.25075 0.47991 -0.019455 0.20521 0.27143 -0.4361 -0.70587 -0.13742 -0.51477 -0.23422 0.25985 -7.9654E-4 -0.10688 -0.36416 -0.0040495 -0.089701 0.11686 -0.39829 0.12109 -0.94476 0.85701 0.67769 -0.082705 -0.072067 -0.5243 -0.15664 -0.089359 -0.30639 -0.003007 -0.21808 -0.36329 0.42301 0.43217 0.14809 -0.11144 0.3706 -0.37753 0.10282 -0.5046 -0.37862 0.040678 0.34687 -0.62051 0.35123 0.25107 -0.095494 0.14021 0.27097 0.56945 -0.2517 0.027744 0.59271 0.26545 -0.20488 0.013612 0.26122 -0.30093 -0.26426 0.033394 0.57569 0.34759 -0.031223 -0.28971 -0.33983 -0.79341 0.3141 0.18883 0.19087 -0.33615 -0.30889 -0.41386 -0.20749 0.67751 0.029916
article -0.41421 0.44602 -0.39973 -0.61535 -0.060999 0.24464 0.32767 -0.38861 0.040627 -0.46771 -0.047382 0.7143 -0.68914 -0.32632 -0.091574 -0.40285 -0.44005 0.041153 0.19702 0.26214 0.50376 -0.65351 -0.012732 0.50193 -0.070322 0.17286 -0.056073 0.9837 0.25868 -0.26863 0.1578 -0.0068866 -0.28264 0.69883 -0.19447 0.49133 -0.33171 0.24636 -0.68397 -0.27036 -0.06698 -0.20343 -0.36786 -0.17101 -0.32132 0.45495 0.8611 -0.23191 -0.035371 0.038119 -0.83513 -0.05622 -0.14718 -0.20572 -0.23294 -0.52751 -0.22974 -0.68464 -0.23061 0.35252 0.063899 -0.27125 0.18709 0.36649 0.27828 0.95736 -0.60167 0.97658 -0.66014 -0.44451 0.46102 -0.23253 0.25987 -0.19884 -1.2686E-4 0.19158 -0.36614 -0.4932 0.18246 -0.44694 -0.46403 0.14143 -0.08185 0.05577 -0.72092 0.7993 0.20092 -0.39955 0.47955 0.38582 -0.18628 0.39711 -0.32405 0.45336 0.65804 -0.43855 -0.29097 -0.27911 -0.0051886 -0.17959
anxiety -0.036667 0.6447 -0.36293 -0.34595 -0.37659 -0.0035555 0.17812 0.14634 -0.17844 -0.065118 -0.43809 0.096931 -0.29502 -0.16011 -0.38487 -0.86103 -0.50867 0.034697 -0.34036 0.43859 0.34165 -0.044046 0.29095 -0.33813 0.38277 0.11514 0.09862 0.53188 -0.66592 0.13838 -0.24443 0.81694 0.027616 -0.20697 -0.40779 0.36352 0.096099 0.20678 -0.68014 -0.25098 -0.49094 0.3334 -0.20974 -0.44803 0.18642 0.016651 0.95225 0.56755 0.30172 -0.16238 0.87177 -0.10034 -0.37574 0.080034 0.033118 -0.032805 -0.046227 0.1652 -0.37338 -0.10358 0.26545 0.27938 -0.39833 0.067731 0.054544 0.12484 -0.05033 0.063622 -0.34699 0.37246 -0.26427 0.083802 0.30473 0.46311 0.080589 0.33927 -0.12146 0.063661 -0.043537 -0.33232 0.12505 0.094553 0.34365 -0.18751 0.093567 0.034605 0.28142 -0.18724 0.054247 -0.52696 0.39429 0.37026 -0.03087 0.049517 0.041055 0.14278 0.2007 0.39345 0.47783 0.23569
month -0.088724 0.080736 -0.31508 -0.14236 -0.30624 -0.1441 -0.023657 0.047936 0.69732 -0.39122 0.08226 -0.16389 -0.11357 -0.07009 0.094123 -0.095186 0.026373 0.38017 -0.37559 0.20275 0.099208 -0.086739 0.18529 -0.053243 -0.31084 -0.5599 -0.0085782 0.38757 0.16525 0.16476 0.019831 -0.10464 -0.06034 0.17229 0.2068 -0.0037555 -0.031322 0.22157 -0.035176 -0.061034 -0.4116 -0.34368 -0.44248 0.15038 -0.14894 0.14468 0.53626 0.051851 -0.20389 0.65311 0.12833 0.24814 0.42844 0.35513 -0.60325 0.032255 -0.13244 -0.054533 0.12204 0.2011 0.34654 0.17026 -0.21776 0.29522 -0.10839 0.46992 -0.15502 -0.29241 -0.14042 -0.1115 0.35163 -0.10878 0.17178 -0.44214 0.25493 0.50627 -0.069599 7.2018E-5 -0.11661 -0.21666 -0.056029 0.070598 0.072443 -0.45037 -0.24493 -0.054032 0.27621 0.040169 0.26182 0.087864 0.30086 -0.03782 0.39866 -0.09806 -0.10722 0.22133 -0.25984 -0.037268 0.13533 0.26432
carnivore -0.62493 0.3914 0.42397 -0.26285 -0.94923 0.40476 -0.69489 0.68889 -0.39013 -0.10417 -0.18299 0.16528 -0.040909 0.01685 -0.38109 -0.2336 -0.22255 0.40398 -0.54969 0.36569 0.75847 0.055476 0.12583 -0.46728 -0.53554 0.39908 0.036862 1.2511 -0.27858 0.49103 0.34618 -0.17842 -0.61906 0.31049 -0.87372 -0.45489 -0.11003 0.2152 -0.096469 0.24562 -0.52447 -0.4023 0.31596 -0.14152 0.10353 -0.30794 0.27366 0.43098 -0.20267 -0.11525 -0.27621 -0.12457 -0.54283 -0.38028 0.062998 0.05897 -0.28301 0.69976 0.20633 0.1732 0.10342 -0.36108 0.03073 0.47007 -0.47685 -0.17633 -0.38798 -0.21039 -0.10309 0.43476 0.139 -0.53761 0.016189 0.22858 -0.40619 -0.44743 -0.14286 0.30854 0.31551 -0.32684 0.28727 0.39266 -0.2766 -0.32091 -0.10828 0.84942 0.14536 -0.083617 0.26581 -0.30752 -0.43431 0.022221 0.27527 0.39023 -0.11875 -0.4954 -0.3918 -0.22289 -0.27472 0.1209
party 0.16185 0.10627 0.046783 -0.062841 -0.011993 -0.31591 -0.10957 0.57138 -0.078493 0.011424 -0.16657 0.4101 0.26623 0.4966 0.67925 -0.42329 -0.35086 0.20166 -0.18084 0.096238 -0.36416 0.01065 0.012512 -0.69387 0.20085 0.11338 0.048912 0.43089 -1.1904 -0.047252 -0.56028 -0.071798 -0.30429 -0.024522 -0.37664 0.10755 -0.1481 -0.16325 0.2169 -0.46885 -0.40418 -0.4182 0.32475 0.22471 0.13421 -0.37956 0.68189 0.16612 0.28078 -0.09384 -0.37754 -0.29251 0.69119 0.13062 -0.17798 0.16735 -0.043159 0.057244 0.56714 0.34514 0.23642 0.34652 -0.43081 0.37586 -0.031462 0.31637 -0.31786 -0.084085 0.24716 -0.15234 0.25723 -0.2772 0.14635 -0.036516 0.45572 0.45514 -0.23243 -0.43139 -0.052962 -0.12343 -0.12804 0.13822 -0.27914 -0.17765 -0.16893 0.12628 0.23284 0.034223 0.05508 0.43334 -0.0072944 -0.12167 0.089613 0.082228 0.011276 0.0070217 -0.2626 -0.38363 -0.034128 -0.078329
production -0.24428 0.16555 0.88654 -0.26921 -0.56442 -0.24532 -0.59329 -0.11708 -0.25821 -0.095875 -0.31969 0.10539 -0.16703 -0.65239 0.38692 0.14806 -0.046813 -0.35516 -0.57417 0.36673 0.88936 0.14718 0.086241 0.043 0.33666 -0.25766 0.24538 0.088808 -0.19339 0.39116 0.025744 0.14444 -0.10266 -0.046533 -0.37988 -0.22798 -0.40934 -0.080645 -0.40753 -0.2887 0.10287 -0.025271 -0.4607 0.13549 -0.33874 -0.15957 0.8021 -0.37581 0.15956 -0.06563 -0.16266 0.48699 0.74904 -0.0080572 -0.50666 0.31694 -6.0962E-4 -0.16914 -0.39381 -0.33444 -0.50585 0.25408 -0.054538 -0.16105 0.2958 0.14656 0.050791 -0.42407 -0.078795 0.36552 0.1068 -0.54222 -0.076829 -0.10062 -0.48548 -0.20431 -0.37038 0.13995 -0.046316 0.26639 0.28591 0.55781 0.32137 -0.27836 -0.12622 -0.010857 0.045892 0.0061875 0.1819 0.34424 0.079822 -0.51246 0.12992 -0.15037 0.30924 0.20594 -0.63416 -0.25749 0.20345 0.3897
importance -0.57673 0.30853 -0.41709 0.31304 0.022413 -0.2406 -0.10129 0.067523 0.30607 -0.21127 -0.27198 0.2145 -0.022758 -0.12121 0.30526 -0.85068 -0.42396 0.10668 0.29384 0.39178 0.38664 -0.078691 0.73242 -0.19709 -0.34079 -0.045835 -0.0087388 -0.048175 -0.54174 0.19623 0.055211 0.044239 0.0086428 -0.25394 -0.68272 0.4679 -0.15821 0.023464 -0.22851 -0.43748 -0.53302 0.32922 -0.6046 -0.384 -0.087233 -0.068772 0.33274 0.095066 -0.17362 0.040488 -0.248 -0.045011 -0.20624 -0.19444 0.28143 -0.28255 -0.34788 0.13398 -0.42325 -0.33667 0.17677 -0.1067 0.03278 0.33594 0.095016 0.19248 -0.22198 0.28035 -0.8273 0.47012 0.15801 -0.18551 0.14577 0.63223 0.025282 0.015564 0.10717 0.0029163 0.27788 0.054682 0.10406 0.11759 -0.17159 0.11353 0.31013 -0.0057466 0.17663 -0.21428 0.40599 0.09661 0.22795 -0.11499 0.37981 0.1683 0.17031 0.30362 -0.56666 -0.051338 0.24185 0.037179
inmate -0.30679 -0.0067812 0.28218 -0.31402 -0.49577 0.020324 -0.31702 0.4475 0.067826 -0.25953 -0.11424 0.050139 -0.49387 -0.085745 -1.218 -0.23146 0.15471 -0.043062 -0.43291 0.13304 -0.56724 0.086041 0.35581 -0.083732 0.58932 0.67125 0.53137 0.43734 -0.64507 0.065002 -0.11178 0.25016 -0.46304 0.31305 -0.3466 0.36129 -0.063349 -0.16787 -0.54667 0.057626 0.25728 -0.082871 0.53218 0.39631 -0.019227 0.31712 0.60006 -0.47036 -0.29674 0.63245 0.15175 0.43092 0.076563 -0.12165 -0.80995 0.59072 0.1269 0.013179 -0.36062 0.24684 0.25581 0.0055638 -0.71728 -0.11756 -0.14038 -0.076632 -0.65226 -0.028144 0.022979 -0.28889 0.45843 0.23189 -0.19736 -0.6317 0.15934 0.094124 -0.28979 0.55444 0.55436 0.23109 -0.31067 0.41854 0.023454 -0.025287 -0.31295 -0.067704 0.0025411 0.028353 0.14881 0.4044 0.30172 0.047953 0.69985 0.3602 -0.065743 -0.29945 -0.1299 -0.28369 -0.011556 -0.59013
Harvard -0.3727 -0.14692 -0.17895 0.12948 -0.43652 0.11826 -0.48892 0.029989 0.49822 -0.032625 -0.42773 0.065487 0.086648 0.48207 -0.66437 -0.019482 -0.029084 0.22344 -0.33031 -0.50515 -0.020124 -0.30383 0.08153 -0.36372 0.65387 0.33892 -0.74231 0.59499 -0.53319 0.0093391 0.085047 0.28414 -0.17999 -0.054223 -0.22167 -0.04688 -0.59472 0.023009 -0.98801 -0.74852 -0.58619 -0.30198 -0.15315 -0.38266 0.10847 -0.073736 0.43136 -0.42576 -0.61319 0.76268 0.7567 -0.061178 -0.23986 -0.29753 -0.24868 -0.52829 -0.53485 -0.31023 0.29652 0.22459 0.16372 0.028515 -0.19961 -0.0013308 0.47555 -0.095869 -0.70983 0.71041 -0.4949 -0.039099 0.25151 -0.23343 -0.031988 0.15181 -0.088122 0.0015981 -0.0034411 -0.4137 0.12771 -0.30019 -0.07422 0.27415 -0.31219 -0.32556 -0.25976 -0.092833 -0.035316 -0.045691 -0.41844 -0.075851 0.018891 0.028686 -0.021781 0.2396 0.98195 -0.31572 -0.044953 0.06174 0.31775 -0.24403
psychology -0.62148 -0.31522 0.17832 0.035189 -0.64925 0.071052 -0.27009 -0.21925 0.29334 0.063642 -0.55837 0.62559 0.41908 0.16163 -0.62021 -0.58907 -0.76697 -0.24861 -0.083938 -0.11817 0.17656 0.086846 0.61092 -0.31644 0.31933 0.47846 -0.54503 0.69437 -0.43877 0.2541 -0.099 0.34226 0.062953 0.1084 -0.41048 -0.11586 -0.27832 -0.22897 -0.92224 -0.20465 -0.025758 -0.27166 -0.27389 -0.4491 0.262 0.030674 0.47908 0.019165 0.090636 0.34082 0.67337 0.1721 -0.79719 -0.092388 -0.30638 -0.52672 -0.55835 0.065732 -0.042679 -0.20168 0.26606 0.58339 0.22433 -0.031553 0.10119 3.281E-5 -0.68899 0.59433 -0.53877 -0.082247 -0.17155 -0.0084841 0.023668 0.062754 0.043508 0.022241 -0.23621 -0.20093 0.072755 -0.27113 0.25968 0.88488 0.34766 -0.122 0.38718 -0.036539 0.18422 -0.27901 -0.5078 -0.33 0.0055715 -0.015624 0.29348 0.033961 0.39143 -0.16898 -0.21568 -0.1308 0.11571 0.22695
medal -0.079899 -0.061806 -0.21623 0.17405 0.24442 0.071678 0.41767 -0.17055 0.52862 0.39792 0.12461 -0.057933 0.28982 0.20668 0.045267 0.42929 -0.20977 0.036223 0.33294 -0.030154 0.43794 -0.10461 0.19712 -0.16162 0.029132 0.19694 0.042764 0.5092 -0.98659 0.93365 0.54479 -0.36653 -1.2698 0.032431 -0.45785 -0.071204 -1.1528 0.21806 -0.43259 -0.66073 -0.37128 -0.78783 0.41492 0.088046 -0.31332 -0.66109 0.35719 1.0795 -0.079706 0.79224 0.32552 -0.37254 0.39981 0.32067 0.11011 -0.50971 0.52292 -0.26293 -0.54365 -0.17334 0.73394 0.13559 -0.18705 0.12058 -0.51513 -0.065376 -0.82409 0.103 -0.32585 -0.062635 0.42033 -0.58217 -0.16786 -0.021826 1.0548 -0.21994 -0.18823 0.15826 0.28641 0.5609 0.59558 0.49715 0.56024 -0.10741 -0.088345 -0.1596 0.22228 -0.1612 0.27404 0.62286 -0.74015 0.37989 0.30633 -0.16412 -0.22049 -0.3392 0.08899 -0.17161 0.056652 -0.31692
company -0.37234 -0.10203 -0.030515 0.037483 -0.37889 0.60622 -0.29015 0.04956 0.057962 0.001323 0.0038209 -0.15631 -0.10957 -0.084252 -0.035251 -0.16767 -0.0083886 -0.10614 -0.72337 -0.075019 0.46715 -0.16168 -0.28434 -0.45017 0.61264 -0.094554 0.40139 -0.033844 0.19252 0.21068 0.035344 0.10168 0.33806 -0.0065441 -0.55892 0.22555 -0.16052 -0.034746 0.088374 -0.19045 -0.16534 -0.20854 -0.23467 0.17469 -0.078228 -0.28792 0.51019 -0.34402 -0.22704 0.18682 -0.29138 0.027644 0.41307 0.049735 -0.57377 -0.18858 -0.034889 -0.17469 -0.069902 -0.094869 -0.32969 0.14201 -0.14204 0.22732 -0.073532 0.39901 -0.49502 -0.04338 -0.23657 0.28162 0.4298 -0.16631 -0.056574 0.08724 0.12751 0.010534 -0.3769 0.099004 -0.36688 0.21333 -0.20234 0.22194 -0.068739 -0.14492 0.16611 0.34912 0.13994 0.043071 0.12319 0.23236 0.075053 -0.30407 0.46882 0.14586 0.247 0.20274 -0.04289 -0.32069 0.071891 0.29606
live -0.11875 0.20342 0.082089 -0.37881 -0.49329 0.21621 -0.33307 -0.15887 -0.08781 -0.36651 -0.12931 0.10493 0.46114 -0.25677 -0.16266 -0.42249 0.017894 -0.14426 0.0098437 0.20105 -0.15068 -0.13288 0.39628 0.038175 -0.10285 -0.094033 -0.057106 0.16957 0.031206 0.48663 -0.19589 -0.13768 -0.4031 0.60805 -0.53256 -0.2562 -0.35335 0.35081 0.30854 -0.38028 0.15493 -0.19418 -0.17581 0.16479 -0.19081 -0.27395 0.60177 0.23562 0.13664 -0.24817 0.0084437 0.0020803 0.2718 -0.098568 0.22833 -0.1369 -0.030193 0.46907 0.12045 -0.18024 -0.15256 -0.10692 -0.34305 0.0079678 -0.11043 -0.58268 -0.50477 0.056155 -0.43258 -0.1559 0.54585 -0.11702 0.36089 -0.083198 -0.41766 0.37044 -0.12332 0.62942 -0.10686 -0.63606 -0.15883 0.42614 0.21373 -0.23406 -0.31309 0.60041 0.39698 0.30466 -0.10117 -0.11633 -0.30405 -0.078725 0.059615 0.38488 -0.30345 0.33657 -0.024238 0.41782 -0.048829 -0.43148
holy -0.30977 -0.05773 0.11134 -0.2615 -0.21377 -0.12922 -0.94669 -0.11499 0.66583 0.44315 -0.30003 0.17493 -0.26651 0.52069 -0.51587 -0.49824 -0.074905 -0.50718 0.28141 0.91115 -0.57081 -0.59892 0.73394 0.26539 -0.25657 -0.1791 -0.19542 0.10957 -0.5413 0.61873 -0.21233 0.11385 0.15357 0.012552 -0.45721 -0.48276 -0.40307 0.20342 -0.2188 0.30423 -0.97737 -0.56524 0.13756 0.080201 -0.016642 -0.40983 0.83333 0.38207 -0.47588 0.60719 -0.25871 0.49355 0.33691 0.087966 0.016377 -0.38206 -0.084708 -0.22084 -0.075204 0.076681 0.37886 -0.20286 -0.5146 0.47484 0.21215 0.22848 -0.19456 -0.86799 -0.91983 0.44722 0.82687 0.32115 -0.077596 -1.5791E-4 -0.15035 -0.52991 -0.16159 0.28457 0.13958 0.20241 -0.5138 -0.35509 -0.14583 -0.062877 -0.51569 0.23988 0.13121 0.18272 -0.18061 -0.1854 0.13156 0.36115 -0.22685 0.35923 -0.93662 -0.54633 -0.0013355 -0.23355 0.28245 -0.11671
ticket -0.16457 0.19524 0.13255 0.033826 -0.20473 -0.10024 0.36929 0.091793 -0.031748 -0.20949 0.35902 0.11732 0.63486 -0.10522 0.68007 0.39552 0.23297 0.49043 -0.23394 -0.040105 -0.31396 -0.32882 0.043639 -0.55878 0.25504 0.086216 -0.076994 -0.085161 -0.13671 0.39975 9.5921E-4 0.32535 -0.12712 0.33879 -0.30693 0.28206 -0.53261 0.34348 -0.028261 -0.23267 -0.49815 -0.078995 -0.36741 -0.22529 0.085506 0.3791 0.58448 0.82169 -0.086331 0.35653 0.086347 0.26883 0.54672 0.55034 -0.26722 0.43759 0.19758 0.058761 0.32451 -0.23361 -0.014861 0.76787 -1.0485 0.2195 0.4256 -0.091333 -0.53458 -0.18958 -0.23594 0.20046 0.17193 -0.77065 -0.024499 -0.32507 0.46109 0.071042 -0.35488 -0.17142 -0.27921 0.09247 -0.161 -0.27104 -0.49259 -0.043446 0.28473 0.45469 -0.32574 -0.35545 0.036575 0.1941 -0.31961 0.59987 0.12528 -0.041577 0.30741 -0.070504 -0.022319 -0.15088 -0.010337 0.18858
victory -0.15344 -0.035211 -0.047879 -0.29184 0.23057 -0.059213 0.089248 0.25636 0.63633 0.24678 0.08912 0.20235 0.38772 0.25628 0.24459 0.010756 -0.46528 0.36553 -0.13926 0.4028 0.3055 0.0050342 -0.16466 -0.031401 -0.40531 0.48083 0.06699 -0.27226 -1.0761 0.25184 0.31262 -0.11684 -0.49322 -0.057441 -0.36887 0.037591 -0.48098 0.37836 -0.12878 -0.18195 0.1914 -0.54794 -0.24431 0.409 0.30419 0.043782 0.85268 0.078933 0.13922 0.49666 -0.05648 0.031233 0.44346 0.63138 0.10667 -0.22445 0.72799 0.13486 -0.41698 -0.080042 0.92881 -0.20942 -0.15308 0.68634 -0.29091 0.12361 -0.40008 0.62201 -0.94369 -0.22552 -0.30303 -0.72889 0.29731 -0.031187 0.31213 0.55683 0.25303 -0.076469 0.027144 -0.25156 -0.49442 0.05964 0.29773 -0.29085 0.35327 0.039488 -0.27244 -0.2869 -0.26164 0.48215 0.029983 -0.19525 0.2589 0.084321 -0.10478 -0.38766 0.3804 0.07884 -0.28623 0.050993
football -0.22598 -0.11251 0.32052 -0.41865 -0.12801 -0.21496 -0.50226 -0.33049 0.42426 -0.21405 -0.22391 0.26908 0.59384 0.19559 0.58402 -0.095776 -0.035981 -0.34762 -0.083587 0.023097 0.26417 0.32943 0.35122 -0.11861 -0.18189 0.14675 -0.45905 0.378 -0.0053013 -0.31996 -0.3099 0.55081 -0.40868 -0.15102 -0.85071 0.57953 -0.28452 0.032271 -0.33333 0.30242 -0.51387 -0.60077 -0.079967 0.016887 0.1412 -0.57951 0.50066 0.039893 -0.37311 0.49081 -0.18792 -0.1187 -0.15977 0.23044 -0.2325 -0.25768 -0.16393 -0.17084 -0.2775 -0.35345 0.11787 0.5244 -0.32573 0.087074 -0.13108 -0.17266 -0.86447 0.10752 0.34959 0.054681 0.1006 -0.47666 0.40051 -0.2479 0.3532 0.042088 -0.2115 0.03426 0.097704 -0.14481 -0.091555 0.41786 -0.086801 0.31995 0.1084 0.25108 -0.25127 0.099234 -0.12454 -0.51644 -0.75758 -0.15386 0.6317 -0.091767 -0.45948 -0.31422 0.099125 0.065654 -0.28625 -0.50037
seepage -0.24344 0.5659 0.028338 -0.39129 -0.18736 0.21761 -0.42542 0.04119 -0.14143 -0.11911 -0.59568 0.47668 -0.38947 0.43518 -0.40939 -0.66683 0.13285 -0.12351 0.16139 0.52214 0.40017 -0.14595 -0.35773 0.10004 0.3177 0.037599 0.50084 0.3364 -0.27503 -0.19478 -0.16586 0.088094 0.015348 0.023103 -0.57227 -0.61764 0.50696 -0.067299 -0.85142 -0.15002 0.011327 0.24905 -0.21454 -0.056891 -0.21409 0.088027 0.66942 0.49342 0.011181 0.16615 -0.37012 -0.33338 0.17393 -0.32679 -0.46555 -0.092601 0.099947 -0.089487 0.095819 -0.036646 -0.54386 0.36614 -0.22951 0.29109 -0.082238 -0.029655 -0.17603 0.085385 -0.9466 0.38354 0.48722 -0.08871 0.15853 -0.033063 -0.014842 -0.55457 -0.29838 0.19401 -0.36817 0.03941 -0.074924 0.085262 -0.30796 0.33846 -0.019553 0.18464 -0.087945 0.14607 0.55468 0.068197 -0.07636 -0.23655 0.0039251 0.072024 -0.54049 0.10953 0.04734 0.231 0.76744 0.27951
rook -0.56231 0.63095 0.35407 -0.65824 -0.72112 0.011464 -0.38952 -0.084452 0.46778 0.20123 0.30176 0.39654 -0.21943 -0.013104 -0.36689 -0.097883 -0.03088 0.4312 -0.085333 0.29437 0.41678 -0.005336 0.24114 -0.25466 -0.27396 0.39785 0.055782 0.24565 0.38 0.054351 -0.13319 0.053875 -0.76407 0.33832 -0.56395 -0.46027 -0.096838 0.013859 0.0044796 -0.046886 -0.35725 0.042131 0.28324 0.059425 -0.094761 -0.33347 0.44341 0.0031418 -0.089291 -0.13069 -0.049634 -0.19011 -0.20416 0.062317 -0.19777 -0.0088667 -0.19169 0.60069 0.19636 -0.21779 0.095261 -0.20769 0.22583 0.20486 -0.21983 -0.12926 -0.41326 0.47063 -0.32495 -0.26374 0.085653 -0.50116 -0.17602 -0.43536 0.24692 -0.044956 -0.53978 0.26851 -0.1105 -0.0060928 0.34895 0.3434 0.29225 0.27961 0.20138 0.14299 -0.034348 -0.05377 -0.47199 0.3417 -0.15817 0.40444 -0.045685 0.3805 0.2376 -0.28133 -0.21162 0.2233 -0.29365 -0.5179
stroke 0.023417 0.24928 -0.5497 -0.3325 -0.2334 0.36194 0.056033 0.37451 -0.14223 0.071196 -0.41406 0.24226 -0.77143 -0.51116 -0.41342 -0.28869 -0.18255 -0.0081798 -0.45599 0.068434 0.10738 0.12837 -0.24267 -0.38208 0.042911 0.27605 -0.18246 0.067217 -0.45883 0.51929 -0.08328 0.21639 -0.68016 -0.19782 0.0041788 -0.34743 -0.42907 0.65023 -0.97835 -0.56557 -0.79434 0.15485 0.31353 0.44472 0.32905 0.16363 0.49198 -0.14296 0.26088 0.42385 -0.056908 0.22993 -0.021636 -0.10253 -0.17444 0.671 0.53532 0.41902 -0.16542 -0.3051 0.4039 0.0035656 0.43499 -0.56856 -0.18021 0.28211 -0.57431 0.57685 -0.13965 0.11238 0.24006 -0.32302 0.24796 -0.18656 0.56363 0.93192 -0.51212 -0.12386 0.11125 0.018878 0.58339 0.48536 0.14166 0.077876 -0.04237 0.054208 0.14018 0.0081781 -0.71997 -0.028947 -0.37057 -0.51044 0.40218 0.17733 -5.3929E-4 -0.010269 0.15032 0.58959 0.12858 -0.032707
environment -0.50175 -0.043345 -0.06338 -0.19209 -0.93072 -0.038191 0.21456 -0.064874 0.43931 0.25179 -0.5573 0.035449 0.20478 0.28641 0.17211 -0.7741 -0.32184 -0.42652 -0.18171 0.089622 0.22965 0.098377 0.24345 -0.58853 -0.28601 0.18678 0.15047 -0.14701 -0.21249 0.29922 -0.097984 -0.11568 0.16589 0.012652 -0.28873 0.15009 0.2598 -0.36006 0.041687 -0.25571 -0.12107 -0.1013 -0.38201 -0.25192 0.12875 -0.12485 0.76921 0.3849 0.22409 -0.05284 -0.39756 -0.31383 -0.055337 -0.45912 -0.48755 -0.081064 -0.33608 0.53936 -0.20501 -0.087577 -0.14626 0.11163 0.04264 -0.019641 -0.04444 -0.23057 -0.057032 0.10219 -0.41914 0.18042 0.031354 -0.12416 -0.12463 0.11486 0.082825 0.28514 -0.13924 0.7357 0.17351 -0.21927 0.2575 0.32679 -0.19658 -0.3812 0.15453 0.4303 0.11923 0.040499 0.47321 0.3939 -0.3258 -0.014187 0.12155 0.10109 0.37652 -0.29735 -0.1852 -0.12341 0.68277 0.0389
coffee 0.18743 0.35434 0.3035 0.26749 -0.82216 0.22234 -0.53554 0.43703 -0.034469 -0.028029 0.22706 -0.36819 -0.14624 0.0033787 0.24394 -0.074137 0.31143 0.081549 0.25082 0.039082 0.25945 -0.44054 0.018462 -0.30638 0.014971 0.21845 0.19017 0.014633 -0.45149 0.048581 0.14455 0.62557 0.35912 0.53229 -0.28004 -0.10452 -0.53969 0.24525 -0.57483 0.30442 -0.81616 -0.14916 0.37935 0.27656 -0.73557 -0.13791 1.167 0.59586 0.012777 0.27769 -0.54821 -0.14959 0.23904 -0.062792 -0.50349 -0.14701 -0.50605 0.49688 0.13203 -0.24897 0.15092 0.69547 -0.20614 0.068384 -0.20165 0.29379 -0.2803 0.31225 -0.13484 0.15124 0.2185 -0.20025 -0.16224 -0.032752 -0.181 0.004898 -0.21527 0.17463 -0.11347 -0.030415 0.44812 -0.036049 0.028751 0.10811 0.41536 0.32723 0.23036 -0.031945 -0.059478 -0.27606 0.11017 0.064662 -0.16503 0.1269 0.19791 -0.18264 0.20087 0.10464 0.11507 0.018128
baby -0.44278 0.43261 0.10689 -0.40101 -0.82229 0.55289 -0.17539 0.30888 -0.29475 0.071985 -0.29417 -0.20688 -0.26753 -0.12966 -0.22279 0.22194 0.22488 0.44613 -0.093 0.38146 -0.1399 -0.045938 0.31657 -0.1174 0.34498 -0.38252 -0.0099214 0.2501 -0.23988 0.065695 0.32837 0.01136 -0.88186 0.16184 -0.58699 0.21414 -0.21658 0.24028 -0.6594 -0.0028058 -0.61896 -0.27104 0.74412 -0.1918 -0.33653 -0.032802 0.5472 -0.25068 0.22413 -0.45581 -0.14115 -0.35468 0.023328 0.14458 -0.29799 0.445 0.034269 0.37453 -0.23288 0.079254 -0.2784 0.3979 -0.25337 0.47423 -0.90027 -0.20972 -0.37688 -0.17913 0.15687 0.093356 0.28016 -0.17446 -0.094857 0.20092 -0.026457 0.12641 -0.29253 0.45416 0.055024 -0.22889 0.11764 0.040517 0.28958 0.066346 -0.15229 0.1932 0.72384 -0.1909 -0.10917 0.43684 0.36878 0.47122 0.71561 0.39492 -0.041881 -0.17032 -0.28106 -0.29653 0.004913 0.027465
personnel -0.18316 -0.059258 -0.38549 -0.15663 -0.56725 -0.038448 -0.60664 -0.16566 0.62598 -0.22457 -0.1415 0.48543 -0.27425 -0.061275 -0.028181 -0.42445 0.22713 -0.16112 -0.22303 0.24314 0.24366 0.36239 0.23936 0.049405 0.17987 -0.25891 0.70474 -0.0072924 0.12543 0.14552 0.017647 0.3496 0.023786 -0.47486 -0.78244 0.38182 -0.069819 0.10514 -0.25382 0.039715 -0.058425 -0.20291 -0.060787 0.34462 0.41682 0.0211 0.10683 0.02527 -0.10734 0.56314 0.29399 0.16809 0.030287 -0.052001 0.011237 -0.19238 0.47333 0.49519 -0.74268 -0.43022 -0.043119 0.57021 -0.66327 -0.20566 0.23744 -0.089579 -0.42304 0.047955 -0.025879 -0.090747 0.31083 0.27194 -0.35193 0.053198 0.34791 0.069349 -0.031332 0.01749 0.080658 0.25852 0.10773 -0.42569 -0.014223 -0.077429 0.0019586 0.098314 0.36233 0.36219 0.17175 0.81804 -0.25222 0.25602 0.071872 -0.35227 0.52163 0.27831 -0.41891 -0.26122 -0.044307 -0.069086
family -0.3198 0.39536 -0.29839 -0.33003 -0.31425 0.11537 -0.27201 0.18623 -0.13181 0.10264 0.053319 -0.28808 0.44702 -0.049343 -0.24337 -0.49992 -0.040622 -0.012005 -0.23376 0.26814 -0.37574 -0.15645 0.23608 -0.067438 0.264 -0.27015 0.23647 0.22491 -0.72625 0.18914 -0.13896 0.054924 -0.24239 0.24287 -0.83544 0.22286 -0.27781 0.080074 0.11479 -0.31828 -0.37532 -0.64484 0.14252 -0.089475 0.084753 -0.10223 0.34269 -0.19074 0.18314 -0.018884 -0.0027002 0.13296 -0.076311 0.14557 -0.31953 0.20624 -0.32937 0.3785 0.050535 -0.023796 -0.02532 0.33742 -0.3439 0.22193 -0.091515 0.28399 -0.42606 0.23081 0.28666 -0.029163 0.27236 -0.053305 -0.51036 0.10113 -0.12888 -0.012876 -0.083654 0.39071 0.035125 0.067723 0.11715 0.18815 -0.031583 0.28983 -0.2196 0.23671 0.18572 -0.082347 -0.20976 0.1822 -0.15772 -0.047498 0.34472 0.26007 -0.1516 0.58999 0.018274 -0.023093 -0.097008 -0.18147
hypertension 0.055408 0.35197 -0.41134 -0.33179 -0.52283 0.22093 -0.44218 0.16932 -0.08288 -0.22222 -0.54268 0.17276 -0.23795 -0.18732 -0.24392 -0.64452 0.20637 -0.7992 -0.39852 0.087099 0.011417 0.10306 0.18786 -0.37778 0.15874 0.53076 0.19556 0.93074 -0.75399 0.90426 -0.19871 0.58115 -0.4539 0.3217 -0.19573 0.23704 -0.49137 0.41685 -1.0748 -0.51298 -0.72147 0.46684 0.37313 -0.28938 0.17875 0.4909 1.2385 -0.02347 -0.28732 -0.1463 0.34778 -0.25221 -0.26814 -0.51408 -0.14407 0.421 0.76919 -0.057608 -0.73489 -0.43411 0.22712 -0.067401 -0.12088 -0.36609 -0.34182 0.43352 -0.55813 0.24794 -0.0517 0.50855 -0.29954 -0.042406 -0.040906 0.22003 0.54429 0.20138 -0.77109 -0.33895 -0.18027 -0.25926 0.70308 0.1038 0.12255 0.10338 -0.13269 0.2356 0.24617 0.42112 -0.20599 -0.4611 -0.1169 -0.2599 0.033319 0.10247 0.54577 -0.16733 0.19423 0.026509 0.37794 0.22026
president -0.10234 -0.37076 0.086934 0.0044488 -0.087399 -0.2276 -0.029933 0.51056 0.5077 -0.15759 -0.59639 -0.22997 0.25098 0.41595 0.41986 0.12802 0.062593 -0.075218 0.18646 -0.2418 0.32474 0.31784 0.021381 0.0030691 0.062737 0.26007 0.0066042 -0.044279 -0.075672 0.4904 -0.1977 -0.15385 0.012169 0.04785 -0.32018 0.35049 -0.47244 -0.43472 -0.38602 -0.65811 -0.58198 -0.42731 0.24876 0.3411 0.078535 -0.17917 0.57471 -0.28972 -0.059831 0.29356 -0.19316 0.38425 0.10199 0.30731 -0.066767 -0.18562 -0.28606 -0.067898 -0.082675 -0.21622 -0.13095 0.4341 -0.55243 -0.071844 -0.27351 0.42919 -0.56351 0.45106 -0.26536 -0.10898 0.12039 -0.18861 0.31998 0.19042 0.15982 0.45248 -0.15597 -0.054543 0.040915 -0.26886 -0.20122 -0.55353 -0.36842 -0.10729 -0.01807 0.066501 0.039389 -0.34867 0.19965 0.1986 0.52804 -0.28978 0.46414 0.18877 0.39402 0.3206 -0.22014 -0.24039 0.41537 -0.039441
atmosphere -0.58867 0.36455 0.046367 -0.25623 -0.46744 -0.48364 -0.2382 -0.16488 0.22863 -0.20518 -0.023627 0.067948 -0.22429 0.56129 0.1554 -0.38664 -0.042521 -0.024909 -0.0042235 0.16487 0.20043 0.11388 -0.14365 -0.30064 -0.017381 -0.034397 0.28605 0.36695 -0.56414 -0.33775 0.33158 -0.13692 -0.23739 -0.23934 -0.52505 0.017172 0.23284 -0.15184 -0.6167 0.02551 0.16966 0.13909 -0.052834 -0.54716 0.37483 0.008991 1.3479 0.66967 0.46233 0.26122 0.017138 0.10669 0.115 -0.20245 -0.20829 -0.63159 -0.13547 0.29963 0.41652 0.10926 0.055068 0.39959 -0.21947 -0.27913 -0.15546 -0.19536 -0.04492 -0.1746 -0.247 0.31274 0.04671 -0.61222 0.38063 0.19733 -0.041049 0.29447 -0.23488 0.86188 0.26776 0.033725 0.07102 0.33794 -0.1883 -0.61247 0.23896 0.71615 -0.17333 -0.091111 0.24021 -0.087363 -0.57468 -0.20039 -0.36664 -0.099014 -0.46856 -0.17972 0.039616 0.17559 0.53802 -0.13525
practice -0.07961 -0.2805 -0.48521 -0.23867 -0.031951 0.12107 -0.33962 -0.11834 0.53411 0.24761 -0.18199 0.21702 0.12765 0.084376 -0.043505 -0.18123 -0.23012 -0.13338 -0.27449 -0.052536 -0.21721 0.068558 -0.0067879 -0.25975 -0.3832 0.19752 0.046094 0.27808 -0.14562 -0.025125 -0.55129 0.47245 -0.03632 -0.14773 -0.58368 -0.17646 -0.062485 0.17657 -0.20866 0.44072 -0.56817 -0.21512 0.032814 0.038278 0.0043801 0.053494 0.80348 -0.27789 -0.71019 -0.0045804 0.069841 0.080737 -0.064342 -0.3195 -0.0054374 -0.31125 -0.17198 0.21542 -0.50332 0.10318 0.30436 0.21944 0.24038 0.17993 0.32367 0.1305 -0.26454 0.019485 -0.44021 0.25312 0.48653 -0.053034 0.43022 0.052087 -0.18453 0.39909 -0.32461 0.26629 0.16667 0.17342 0.0056043 0.38082 -0.10186 0.26162 0.084557 -0.22388 0.065257 0.41837 -0.28397 0.20074 -0.032185 0.017307 0.18055 0.015485 0.48829 0.11958 -0.21807 0.3402 -0.059583 0.13213
movie -0.10242 0.049847 0.86049 0.10357 -0.13399 -0.24063 -0.11998 -0.2065 -0.4547 -0.040997 0.17372 -0.041574 -0.064225 -0.53562 -0.10997 0.17812 -0.23002 -0.058837 -0.40439 0.06153 -0.17545 0.0032577 0.38864 0.16844 0.42258 -0.027493 -0.42646 0.57992 -0.14481 -0.12988 -0.074166 0.35916 -0.21266 0.20503 -0.74679 0.19626 -0.30294 0.25421 -0.19989 -0.53484 -0.0018374 -0.59224 0.11754 0.25357 -0.5612 -0.029018 0.83099 0.203 0.059188 0.11954 0.09524 0.708 -0.064677 -0.083506 -0.33002 -0.136 -0.074515 -0.062649 -0.058622 0.079046 -0.32452 0.3596 -0.58912 -0.086731 -0.12507 0.2414 -0.40021 0.0099466 -0.27943 -0.090273 0.76835 -0.59248 -0.095863 -0.031728 -0.14925 0.04716 -0.2023 0.12765 0.0019555 0.23746 0.030446 0.039088 -0.059731 -0.41699 0.046828 0.50437 -0.24748 -0.054536 -0.19039 0.36768 -0.66939 0.05009 0.4162 -0.40937 -0.27978 -0.24583 0.037494 -0.25087 0.82871 0.29516
popcorn 0.377 0.55373 0.69729 0.1105 -0.36519 -0.11293 -0.54638 0.44011 -0.36118 0.0025514 0.17654 -0.20645 -0.3506 -0.25782 0.079038 -0.024847 0.053662 0.62003 -0.35658 -0.42341 0.051077 -0.42536 0.056542 -0.028373 0.23714 -0.11803 -0.074601 0.24714 -0.39668 0.25086 0.39703 0.34955 -0.33921 -0.027729 -0.60397 0.11123 -0.66225 0.58702 -0.56258 -0.28812 -0.41824 -0.23123 0.51811 -0.34826 -0.75744 0.060472 1.0134 0.35605 -0.13854 0.36891 -0.41219 -0.28625 -0.038756 -0.33961 -0.70092 0.061013 -0.27985 0.42428 -0.090162 -0.30987 -0.30954 0.74087 -0.72657 0.14866 0.17666 -0.10005 -0.11937 -0.076978 -0.37192 0.36715 0.74627 -0.5322 -0.047853 0.25687 -0.4094 -0.12726 -0.62418 -0.14929 -0.48989 -0.020426 0.57571 -0.27734 0.43518 -0.16064 0.17613 -0.029071 0.06622 0.34629 -0.37361 -0.085545 -0.17 0.2242 0.065313 -0.17141 -0.66575 -0.54545 0.0018239 -0.21561 0.3555 -0.0076495
recommendation -0.42573 -0.034635 -0.29552 0.25166 -0.34762 0.13133 0.59628 0.29019 0.72093 0.15208 0.067969 0.25951 -0.10935 -0.12329 0.098584 -0.0070638 -0.15123 0.086982 -0.68372 0.4861 -0.19693 -0.28871 0.47886 0.16482 0.02683 -0.21218 0.76564 0.2102 0.050135 0.64975 0.2949 0.13044 0.23345 0.15109 -0.15371 0.014679 -0.27643 -0.018151 -0.24293 -0.18413 -0.46796 0.093332 -0.20873 -0.44249 -0.43269 0.34919 0.72545 -0.31512 -0.43702 0.049039 0.041075 -0.26553 -0.068333 -0.034209 0.17239 0.050856 -0.055267 0.14928 -0.13014 0.30519 0.18106 0.20889 -0.39665 0.11896 -0.38803 0.82585 -0.41399 0.18902 -0.082809 0.10179 0.21349 -0.23165 0.17169 -0.028106 -0.10045 0.10721 -0.67459 -0.40158 0.084242 0.17145 0.40019 -0.19343 -0.18438 0.096719 -0.24422 0.060567 -0.37169 0.44069 0.36824 0.20605 -0.041875 -0.071383 0.17878 -0.14551 0.31655 0.21119 -0.30238 0.011414 0.36388 -0.24269
focus -0.54201 -0.28014 -0.32037 0.068407 0.0070739 -0.12336 -0.10168 -0.099474 0.18915 -0.062114 -0.10286 0.26759 0.1819 -0.25378 0.41121 -0.15131 -0.53734 0.10824 -0.12385 0.46462 0.43489 0.31021 0.65378 -0.26648 0.043863 -0.0015885 0.29988 0.067468 -0.054638 -0.11127 -0.079328 -0.11805 0.17758 -0.1822 -0.52312 0.30236 -0.27151 0.13641 -0.37302 -0.33552 -0.23437 -0.16682 -0.33793 -0.14658 -0.26572 -0.27128 0.6531 0.030825 0.21558 0.016084 -0.015032 -0.26649 -0.15585 -0.37497 0.18225 -0.18254 -0.19865 0.19343 -0.05861 0.081009 -5.0901E-4 -0.1021 -0.26847 0.20244 0.19792 0.068858 -0.24868 0.19701 -0.571 0.26921 0.1009 0.06733 0.04803 -0.13055 -0.074207 0.07961 -0.071634 0.14721 -0.3477 -0.14872 0.10939 0.17558 -0.39351 0.31248 0.26096 -0.16231 0.15133 0.010738 0.143 0.031042 0.11544 -0.2862 0.094095 0.41897 0.428 0.16783 -0.41336 0.14477 0.53521 0.52045
attempt -0.74701 0.16403 -0.21314 -0.33761 -0.005653 -0.39596 -0.11253 0.47561 0.35525 0.19113 0.40068 -0.02188 -0.23898 -0.16637 0.29011 -0.063385 -0.1948 0.26784 -0.47069 -0.037347 -0.0078984 -0.21141 0.36756 -0.12177 0.17298 -0.023993 0.17435 -0.044576 -0.46241 0.43637 -0.39288 0.18459 -0.23599 -0.058901 0.29099 0.077064 0.5484 -0.02754 -0.92796 0.16566 -0.22581 -0.287 0.10887 0.62915 9.8084E-4 0.014777 0.22014 0.0029447 0.11585 0.27431 -0.16036 0.028914 0.26094 0.4314 -0.098091 0.07457 0.009713 0.18462 -0.1666 0.020638 -0.3791 -0.12977 0.1218 0.35029 0.21427 0.44199 -0.54081 0.24032 -0.44185 -0.0020488 0.16285 -0.10633 0.49432 -0.33049 0.19973 0.50605 0.11359 0.087071 0.071697 0.011835 -0.31219 0.072082 -0.45264 0.16494 -0.37445 0.1314 -0.24637 -0.1301 -0.029072 0.38535 -0.3784 0.032962 -0.15497 -0.43867 -0.20074 -0.21415 -0.16084 -0.12125 0.24592 0.13064
approach -0.65795 -0.26641 -0.51712 -0.0072757 -0.24711 0.1596 -0.13678 0.083655 0.18716 0.45853 0.34709 0.31015 -0.1575 -0.20396 0.11565 -0.14817 -0.39848 -0.11857 -0.37126 0.52797 0.18898 -0.1121 0.39205 -0.463 -0.21647 0.2323 0.14866 0.12625 -0.063237 -0.046202 -0.18644 -0.30945 0.074582 -0.17395 0.085985 0.42777 0.15983 -0.24488 -0.21389 0.092045 -0.4471 0.036977 -0.080219 -0.13808 0.063585 0.29415 0.73965 0.069597 0.1652 -0.016437 0.074053 0.1416 -0.029859 -0.17313 0.015674 -0.32282 -0.11108 0.26107 -0.40225 0.10512 -0.024184 0.048391 -0.078078 -0.10551 0.029681 0.25647 -0.090531 0.56352 -0.65681 0.049702 0.19922 -0.44076 0.45772 0.1303 -0.086307 0.48087 -0.24246 -0.22965 -0.012487 -0.047349 0.049381 0.14662 -0.61647 -0.059193 0.21184 0.067428 -0.12 -0.10442 0.038121 0.048291 -0.13199 -0.41376 0.14119 0.18335 0.30768 0.047053 -0.24487 -0.078463 0.15292 0.22812
number -0.2455 0.40909 -0.38724 0.067501 -0.75803 0.31592 -0.22908 0.18145 -0.2589 0.12133 -0.081256 0.2236 -0.18853 -0.37741 0.13556 0.29811 -0.20554 0.15213 -0.058137 0.41965 0.21072 0.25541 0.2904 -0.13854 -0.03977 -0.15228 0.14945 0.22502 -0.11779 0.065721 -0.20239 0.30237 -0.13236 -0.16703 -0.18181 0.2731 0.24206 0.45288 -0.15987 -0.63029 -0.14546 0.38174 -0.78819 0.2318 -0.0071088 -0.0028994 0.32494 0.12327 -0.08494 0.57714 -0.20428 0.094941 0.17298 0.18974 -0.18597 -0.0036637 0.35668 0.54053 -0.05722 0.13143 0.34928 -0.16284 -0.32744 -0.082085 0.079972 -0.15071 -0.19393 -0.33531 0.031827 0.34449 0.61952 -0.085724 -0.19152 -0.14023 0.37056 0.046553 -0.1226 -0.2388 0.012054 0.083115 -0.048033 0.19667 -0.13094 -0.20351 -0.18892 0.088662 0.083448 0.20124 0.052095 0.095754 -0.083832 0.29844 0.10823 0.17869 0.45832 0.25707 -0.30311 0.31331 -0.044662 -0.42866
property 0.0060309 0.26186 3.8215E-4 -0.25411 -0.54356 -0.057239 -0.16324 -0.11865 -0.45612 0.26662 -0.32562 0.18304 0.21301 0.38067 -0.30022 -0.38062 0.4577 0.12506 -0.57013 0.083304 -0.027138 -0.43937 0.25765 -0.61832 0.18248 -0.44644 0.31807 0.071122 0.26842 0.41065 -0.67396 0.24057 -0.0063701 0.74903 -0.5756 -0.067312 0.013772 0.18068 0.28716 -0.3167 0.043624 -0.16728 -0.30357 0.18164 0.096303 -0.40041 0.39306 0.65974 0.36677 0.013472 0.0032176 -0.40487 -0.25484 0.1001 -0.39347 -0.11017 -0.25994 -0.069663 0.14467 -0.13763 0.050237 0.054871 -0.065696 0.30286 0.34584 0.3797 -0.35306 -0.018996 -0.31743 0.50104 0.1451 0.14404 -0.2286 -0.45066 0.18595 0.11141 -0.14889 0.41389 0.34925 -0.10889 -0.39635 0.30207 -0.38146 0.16175 0.28476 0.21489 -0.060066 -0.072974 -0.42694 0.66076 -0.14931 0.029891 0.80149 -0.31165 0.47754 0.53457 0.26838 0.035176 0.10305 -0.069901
fingerprint -0.31761 0.049575 -0.56491 0.57382 -1.1731 0.29347 -0.26927 0.3036 -0.44331 -0.75235 -0.28823 0.28571 0.10185 -1.8863E-4 -0.38914 0.12845 0.23075 0.38935 -0.064721 0.41137 -0.50364 -0.17034 0.15467 -0.13439 0.14497 0.13357 -0.011466 0.058461 -0.307 0.62748 0.31834 0.079447 -0.125 0.13783 -0.71576 0.43648 0.14128 -0.52279 -0.75814 -0.36738 0.27211 -0.28348 -0.25668 0.015658 -0.39912 0.20197 0.31373 0.079897 -0.29986 0.30537 -0.13574 -0.14022 0.034356 -0.44263 -0.33522 0.29214 0.56611 0.52048 0.085386 0.6079 -0.061824 0.33384 -0.023862 0.40388 0.35578 0.20607 -0.36381 0.11121 -0.90624 0.35905 -0.29985 0.19789 0.28898 -0.72277 -0.12248 0.24597 -0.12786 -0.013337 0.50382 0.40668 0.043447 0.09999 -0.26809 0.18281 0.31113 0.060561 0.3112 0.0412 0.32304 -0.12433 -0.5843 0.28979 0.30575 -0.0010288 -0.2209 -0.067873 -0.65016 0.32772 -0.085395 -0.16167
reservation -0.02641 -0.077922 -0.17997 0.091547 -0.58886 0.345 -0.34317 0.31564 0.0086229 -0.35956 0.27977 0.26996 0.044266 0.2167 0.0041068 -0.016871 0.063849 0.032412 -0.15073 0.0023142 0.0045676 -0.30407 0.24687 0.02128 0.034877 0.21123 0.40318 0.23429 0.050836 0.28076 -0.22664 0.38038 -0.36546 0.32043 -0.54081 0.029623 0.1297 0.35023 0.29209 -0.073167 -0.74993 0.03597 -0.25865 -0.035547 -0.067109 0.26339 0.64655 0.46336 -0.083614 -0.010576 0.039574 0.049233 0.29296 0.43936 -0.31975 0.51236 0.081348 0.1962 0.050781 -0.1725 -0.55215 0.46563 -0.42894 0.23112 0.30839 0.21324 -0.048689 -0.095689 -0.52419 -0.089383 0.30879 -0.09767 -0.16312 0.06443 -0.033668 -0.19628 -0.58082 0.21353 0.019481 0.028142 -0.2011 0.1794 -0.7043 0.2015 0.39138 0.36139 -0.20912 -0.17143 -0.17586 0.44297 -0.078479 0.083352 -0.069769 -0.090609 0.19774 0.41943 0.04258 0.26888 -0.14767 -0.46234
block -0.19812 -0.032675 -0.28677 0.001279 0.032434 -0.31447 -0.45066 0.26518 -0.27338 0.13854 0.36717 0.32249 -0.33247 -0.053623 0.094332 0.27588 0.15337 -0.14237 -0.0928 -0.029216 0.31792 -0.52208 0.41521 0.25949 0.33711 0.026946 -0.092583 0.29054 -0.12484 0.048614 -0.68122 -0.060835 0.20053 0.9239 -0.073877 0.03438 0.32802 0.11715 -0.35051 -0.13223 0.26942 0.083443 0.39047 0.46214 0.27589 -0.42519 0.31705 0.15322 0.18661 0.11001 -0.086428 -0.4846 0.36724 -0.13274 -0.34125 0.14228 0.17834 0.027738 0.059345 -0.043081 0.14729 0.20765 -0.68876 0.50674 -0.036129 0.37973 -0.29345 0.12959 -0.97925 0.15764 0.13435 -0.38093 -0.0682 -0.1846 -0.20009 0.04564 -0.35612 0.17595 0.08053 -0.079642 0.10342 0.0037176 -0.29283 -0.0072338 0.069744 -0.063732 0.18602 0.41654 -0.19846 0.39041 0.34559 -0.17085 -0.023151 -0.047808 0.14076 0.0043426 -0.023977 0.54682 0.2031 -0.21377
fear -0.31219 0.2204 0.10703 -0.45867 -0.25584 -0.11441 0.083231 0.41827 -0.35553 -0.29149 -0.20225 0.26054 -0.3075 0.19458 -0.043434 -0.40447 -0.25979 -0.078414 -0.30107 0.38299 0.096921 0.084197 0.44998 -0.12511 0.11647 0.29694 0.024707 0.35659 -0.26734 0.21507 -0.53827 0.36561 -0.11275 -0.22565 -0.4314 0.42016 0.11672 -0.11334 -0.71789 -0.35964 -0.37119 -0.15467 -0.21564 -0.055549 0.10474 -0.36836 0.43456 0.45628 0.02285 0.047811 0.20475 0.051515 -0.40424 0.20385 0.40551 0.064323 -0.082932 0.49281 -0.013304 0.49013 0.16056 0.18718 -0.39323 0.41586 0.42924 -0.07728 -0.026863 -0.22591 -0.34227 0.60566 -0.016852 -0.020297 0.15076 0.12605 0.058456 0.3362 -0.061961 0.40213 -0.1927 -0.65564 -0.043389 0.068778 -0.13069 -0.18389 -0.12357 -0.050225 0.17849 0.0069475 0.11293 -0.079247 0.33022 0.35746 0.072855 -0.31133 -0.093927 0.25344 0.30043 0.19266 0.23329 -0.13487
surface -0.1799 0.35163 -0.0188 -0.099024 -0.37769 0.20354 -0.65155 -0.23838 0.19712 -0.11095 -0.20922 0.47171 -0.32824 0.26625 -0.26126 -0.21444 0.65969 0.087531 -0.18028 0.57728 0.39747 0.12776 -0.05866 0.21692 -0.28233 0.059732 0.41625 0.1329 0.0061305 -0.092436 0.039257 -0.42884 -0.72372 -0.039267 -0.076893 -0.046314 0.20398 0.16169 -0.50025 0.11143 0.25416 -0.14181 0.064382 -0.23984 0.023665 -0.55175 0.70065 0.75512 0.2308 0.23563 -0.016493 -0.40459 -0.049501 -0.19058 -0.36769 -0.30283 0.014768 -0.095194 0.12143 -0.10147 -0.18054 0.40312 0.046841 -0.041482 -0.14946 -0.070848 -0.24249 0.099972 -0.85024 0.34084 0.22696 -0.20886 0.51152 -0.0034883 0.49473 -0.085086 -0.61322 0.22436 -0.13511 0.20242 0.4948 0.37152 0.059416 0.046573 0.42024 0.24209 -0.41542 0.048595 -0.019956 0.20332 -0.36876 0.13517 0.17158 0.45359 -0.53098 0.10441 0.031471 0.20533 0.76278 0.47784
