437 100
plane -0.20314 0.054974 -0.27286 -0.43259 0.078212 -0.64921 0.78761 0.59225 0.54923 0.36707 -0.30005 0.029097 -0.50444 -0.10861 -0.078409 0.13179 -0.37238 0.2729 -0.24395 -0.31655 0.39316 -0.009033 0.46895 0.0079049 0.53365 -0.59769 0.45977 -0.24169 -0.12241 0.2475 0.35116 0.08188 0.39145 -0.54194 -0.16896 -0.12706 0.001294 -0.30881 0.16329 0.21036 -0.14246 0.59036 0.21884 0.23672 -0.55048 -0.27449 -0.17547 -0.5879 0.42312 0.24599 -0.46317 -0.47584 0.61955 0.023121 -0.64883 -0.12156 -0.14254 0.067393 0.46965 0.030751 0.1352 -0.10248 -0.0086712 -0.17271 -0.37897 -0.16377 -0.28449 -0.46676 -0.44336 0.16638 0.17362 -0.21391 -0.051284 -0.099338 0.16296 -0.61727 -0.0040704 0.47188 0.63695 0.035981 0.1669 -0.24848 0.25419 -0.13916 0.12565 -0.25889 0.24372 -0.0082039 0.080648 0.14982 0.4664 0.40604 -0.12535 -1.1433 -0.34594 0.53423 -0.66499 0.071898 0.31963 0.12712
stupid -0.21116 -0.14116 -0.062793 -0.2861 -0.077712 0.20718 0.12251 -0.16382 -0.03638 0.15814 -0.28594 0.26432 -0.3253 -0.34778 -0.036953 0.21318 -0.65636 -0.75051 0.020357 0.04486 0.078733 0.18094 0.209 0.16478 -0.052257 -0.3909 0.84219 -0.33748 0.46264 -0.093779 0.13357 0.4857 -0.227 -0.27666 0.16358 -0.21462 -0.54473 0.34836 -0.20923 0.32511 -0.6538 -0.27182 0.082911 0.10421 0.14048 0.16103 0.60725 0.73335 0.38194 0.07949 -0.5691 0.19634 -0.49734 0.33784 -0.41812 -0.087725 -0.2131 -0.21544 0.12324 0.30413 0.43641 -0.11888 -0.40002 -0.29362 0.29979 -0.107 -0.26459 -0.34235 -0.1899 -0.02434 -0.13083 0.086319 -0.25207 0.58042 0.014479 -0.34036 0.15578 -0.31956 0.62447 0.37491 0.080366 0.52788 0.10938 -0.45628 -0.068296 0.46767 0.22436 0.046412 0.024192 0.53132 0.42473 0.26457 0.90693 -0.21767 -0.25055 0.044903 -0.2299 -0.54451 -0.39426 -0.051621
egg -0.77765 0.11648 0.084963 0.16952 -0.091041 -0.70008 -0.25382 -0.41962 0.38558 -0.13118 -0.15335 0.26728 0.15911 0.50757 0.35877 0.79894 -0.57493 -0.60479 0.49702 0.14202 0.55333 -0.55186 -0.35746 -0.31084 0.28273 -0.78509 -0.068158 0.47981 -0.61534 0.1875 0.32744 0.54802 -0.031811 -0.61339 0.012455 0.22813 0.11553 0.013218 -0.60525 -0.089009 0.2092 -0.5901 -0.10692 -0.11258 -0.19332 -0.37632 -0.18381 0.48577 0.06902 0.13172 0.44743 0.23694 0.68227 0.68227 -0.4271 -0.1857 0.38019 0.036232 0.23484 0.4638 0.80287 -0.15276 -0.14125 -0.59656 0.28776 -0.31098 0.20081 -0.82182 0.041479 -0.32205 -0.13092 0.2453 -0.48648 0.5909 -0.41023 -0.15373 0.3206 -0.40579 0.37124 -0.51926 0.48205 -0.12289 -0.0087149 -0.23503 0.1207 0.054816 -0.52635 -0.33011 0.24342 0.23864 0.80459 -0.40693 0.4469 0.021704 0.12162 0.77064 -0.25673 -0.17547 0.26248 -0.047527
year -0.020519 0.086406 -0.1737 -0.23733 0.091772 0.050606 0.037541 -0.094847 0.13107 -0.2487 0.17494 -0.17336 0.46105 -0.18325 -0.37673 0.0082859 -0.21299 -0.23595 0.19894 -0.23935 0.076477 -0.36203 -0.33294 -0.12737 -0.55979 -0.43773 0.23187 0.015209 -0.19631 0.099731 0.16194 -0.33618 -0.064863 -0.49115 -0.39963 0.10518 0.24717 0.10168 0.10159 0.5259 -0.014056 0.19008 -0.043151 0.46287 -0.15696 0.10096 0.038059 0.083613 0.34322 -0.26628 0.0019696 0.090833 -0.18028 -0.29539 -0.18294 0.39898 -0.22879 -0.42594 0.15346 0.66011 0.65202 -0.074877 -0.24657 -0.10521 -0.2997 0.15866 -0.3542 -0.093512 0.049626 -0.29447 -0.071538 -0.14552 -0.0049257 0.0097096 0.0055638 0.14352 -0.052978 0.16726 9.9523E-4 -0.15158 0.079775 0.15715 0.22026 0.010388 0.10799 0.020643 -0.67057 0.17027 -0.048861 -0.11991 0.31494 0.37131 0.065309 0.12904 -0.14486 0.21852 -0.42059 0.2955 0.25542 0.029083
psychiatry -0.41605 -0.16403 0.34347 0.087373 0.33764 0.097487 -0.089016 0.021659 -0.51137 0.30461 -0.13353 -0.83584 0.29268 -0.91807 -0.20599 0.2918 -0.50235 -0.1447 0.41131 -0.63135 0.27155 -0.38701 -0.36884 -0.7933 -0.69576 0.58148 0.51895 -0.16158 -0.28605 -0.41365 0.15621 0.17882 0.41854 0.50138 -0.50503 0.038361 -0.51931 -0.45005 -0.30185 0.097923 -0.037062 -0.29267 -0.13806 -0.47899 -0.93469 -0.035156 0.2299 0.22749 -0.281 -0.023416 -0.34079 0.11434 0.14272 0.12249 -1.3945 0.79007 -0.39546 0.41312 -0.14847 -0.43102 0.092715 -0.54467 0.88947 0.078564 -0.36683 -0.56377 -0.048626 -0.14321 -0.83211 -0.51713 0.20813 0.43814 0.36509 0.61115 -0.0049566 0.36239 0.49618 -0.026072 -0.088498 0.61074 -0.15049 -0.44985 0.34215 -0.84072 0.14322 -0.37013 -0.27675 -0.18728 -0.04184 0.79388 0.41029 0.13159 0.69903 -0.13142 0.23531 0.47926 0.34529 -0.39299 0.29166 0.52949
asylum 0.0156 -0.27496 0.38986 -0.29144 0.66173 -0.068743 0.75574 -0.42896 -0.099275 0.11567 -0.095094 0.058964 0.44184 -0.061019 -0.74002 0.75478 0.13885 0.2437 -0.31281 -0.58558 1.239 -0.52748 -0.75388 0.17303 0.25229 -0.067045 0.36726 0.19482 0.16878 -0.17365 0.14368 -0.015763 0.32403 0.39609 0.39226 0.077097 -0.055711 -0.8833 -0.50484 0.45256 -0.17471 0.022366 0.57378 -0.046338 -0.32517 -0.69733 0.1096 0.50003 0.72613 -0.77257 -0.28748 -0.16737 -0.45551 -0.02614 -0.89592 -0.0044824 -0.15794 0.22533 -0.0069899 -0.008638 0.19002 -0.074611 -0.50147 0.036898 -0.54304 -0.23797 -0.27573 0.17289 0.077606 -0.16599 0.71917 0.21079 0.67167 0.19978 0.19061 -0.36756 -0.42347 0.079395 1.2056 0.21521 0.1023 0.35944 -0.28735 -0.05471 0.07301 0.11923 -0.37631 0.065277 0.21464 0.47642 0.90677 0.064361 -0.19678 -0.53586 -0.049185 0.42505 0.41757 -0.28088 -0.28347 0.2836
manslaughter -0.016906 -0.087864 -0.41617 0.35937 -0.37815 -0.54906 -0.022377 -0.59431 0.093075 -0.46286 0.54561 -0.52365 0.77341 0.016493 -0.28862 0.64916 -0.3684 -0.31671 -0.53677 -0.59505 0.27126 -0.50453 0.54333 -0.62496 0.090457 -0.11184 -0.29023 0.096183 -0.21287 -0.16652 0.070039 -0.010767 0.11885 0.043418 -1.0261 -0.62784 -0.37844 0.13382 0.054952 -0.13391 0.22042 -0.36313 0.059075 -0.044885 -0.29474 -0.18202 0.053669 -0.48239 0.69907 -0.65676 -0.62104 -0.467 0.76685 -0.10337 -1.0798 0.58322 -0.35103 0.62821 -0.13929 0.30523 0.12639 0.31242 -0.084803 -0.42543 -0.18019 0.60773 -0.89617 0.33676 -0.3559 -0.3968 0.38207 0.32947 0.20284 0.30725 -0.28589 -0.358 0.64037 -0.049778 0.4258 1.1958 0.21566 0.036029 0.46143 0.016891 0.35432 0.53384 -0.28469 -0.19448 -0.031549 0.56693 -0.11673 0.042777 0.98586 -0.46006 0.020156 0.79935 0.10862 -0.71247 -0.062949 0.4183
music -0.7528 0.0093084 -0.7945 0.020258 -0.18095 0.18684 0.51408 -0.49361 0.019815 0.29888 -0.31735 -1.0002 -0.30548 0.1372 0.15406 0.54282 -0.37573 -0.29524 0.20005 -0.76813 0.43605 -0.19218 0.25627 -0.15375 -0.53282 0.069429 0.40968 -0.56078 -0.29564 0.016737 0.17662 0.24748 0.04485 -0.33949 0.3167 0.079738 -0.076945 -0.20545 -0.0094342 0.02777 -0.15423 0.54209 -0.47923 0.015192 -0.036356 0.018809 0.31952 0.23784 -0.0089865 -0.083853 -0.056236 0.19423 0.4512 -0.29239 0.032767 -0.062739 -0.23708 -0.3863 -0.068181 -0.099166 -0.13555 0.012179 -0.19116 0.44921 -0.5286 -0.52406 0.43383 -0.1574 0.010324 -0.27422 0.041534 0.039486 -0.25447 0.42799 -0.30884 0.13929 0.49311 -0.27433 0.26619 0.10935 0.072382 0.051483 -0.14696 -0.56005 0.059617 0.45004 -1.1439 0.28709 -0.20333 0.14265 -0.24119 -0.14793 0.55721 -0.27379 0.598 -0.16926 0.06417 0.048472 0.027246 -0.080098
record -0.34188 -0.1531 -0.50206 -0.48794 0.036895 -0.36447 0.459 0.2173 0.090087 0.11414 -0.33641 -0.4577 0.040934 -0.42744 -0.57246 -0.17957 0.21491 -0.38682 0.30066 -0.33 0.32263 -0.39173 -0.38126 0.29174 -0.49623 -0.84224 0.22982 -0.13944 -0.044217 -0.18783 -0.14961 0.19282 0.15547 0.060797 -0.43186 0.27956 0.55211 0.43789 0.18487 0.10976 -0.061457 0.31388 0.32676 0.20583 0.038048 0.64133 -0.26526 -0.20381 0.66191 0.044509 0.19875 0.24922 0.030732 -0.10184 -0.20474 -0.035637 -0.065721 -0.29609 0.12688 0.34926 0.56273 -0.22988 -0.3177 0.19722 -0.023081 -0.022727 0.15039 0.44787 0.46599 -0.52613 -0.0039837 -0.011887 -0.13606 0.18336 -0.0084449 -0.0043747 0.33402 -0.46953 0.073511 -0.016552 -0.16025 -0.3304 0.3334 -0.18444 0.32785 0.12614 -0.61907 0.4227 0.089814 -0.080449 -0.37132 -0.053547 -0.11979 -0.27564 -0.22599 -0.15781 0.014841 -0.42451 -0.31037 0.093529
energy -0.0070982 0.16196 -0.65217 0.42776 0.07404 -0.097085 -0.16168 0.15116 -0.054141 0.037675 -0.87671 0.037863 -0.040388 0.023105 0.18918 -0.067889 -0.15781 0.067487 -0.51772 -0.21062 0.10235 -0.25727 0.22423 -0.33339 -0.46809 -0.53118 -0.28004 -0.15417 -0.46598 0.43148 -0.31078 0.9782 -0.24254 -0.38009 0.022914 0.17495 0.15572 -0.18856 0.14315 -0.11135 -0.30957 0.53799 0.25773 0.21723 0.48826 0.35458 0.27187 1.0975 0.17282 -0.035488 0.14467 -0.67777 0.0014322 0.025408 -0.47536 0.097492 -0.13576 0.12472 0.123 -0.045608 0.68469 -0.19435 -0.34736 0.40834 -0.39889 -0.041495 -0.0012913 0.1424 -0.30239 -0.15378 0.16756 0.13577 0.1105 -0.0079606 -0.074996 -0.29713 0.027506 0.1739 -0.073942 -0.092589 -0.31585 0.10375 -0.18762 -0.54624 0.38159 -0.21856 -0.86434 0.28808 0.14661 0.69241 0.72635 0.073346 -0.14928 0.031903 0.24076 0.02107 -0.0064732 -0.29255 0.16957 0.1984
announcement 0.22297 -0.49106 0.34569 -0.18363 -0.6693 -0.064961 0.61186 -0.013776 0.018266 -0.2459 -0.50387 0.038078 -0.066049 -0.23069 0.44375 -0.24363 -0.15314 0.27527 0.23338 -0.28537 0.49345 -0.56542 0.031885 -0.19538 -0.066059 -0.25404 0.10323 0.20791 -0.53513 -0.10001 0.24079 -0.11671 -0.16888 -0.62948 -0.35365 0.23272 0.15178 0.30264 0.20809 0.54555 0.035501 0.0037997 0.15599 0.073488 0.12537 0.49238 0.26289 0.061634 0.50269 -0.73115 -0.12441 -0.47994 0.1661 -0.091392 -0.24985 -0.14854 -0.15751 -0.65989 0.32207 0.37588 0.14613 -0.1229 -0.055213 0.41251 9.6894E-4 -0.22474 -0.024199 -0.012828 0.34888 -0.16647 -0.19969 0.26962 -0.042287 0.64191 -0.51257 -0.3827 -0.26116 0.14666 -0.13545 0.2362 0.014547 0.64599 0.30852 -0.1781 -0.16654 0.0088229 -0.10607 -0.036647 -0.33133 -0.16126 0.043223 0.07879 0.05917 -0.19894 -0.40151 0.34279 -0.10882 0.28318 0.28315 0.38961
mile -0.54825 -0.18856 -0.16185 -0.42936 -0.25511 -0.42261 0.10874 0.20292 0.78089 0.58636 0.39453 0.054014 -0.0029433 -0.024601 0.040052 0.076314 -0.3546 -0.070559 -0.14464 -0.16011 -0.20948 0.11646 -0.72122 0.39043 -0.13429 -0.17671 0.088939 0.052304 -0.082877 0.012694 -0.25987 0.23635 0.13701 -0.50393 -0.74104 0.088918 -0.28515 0.55096 0.14741 -0.0043184 0.036752 0.49673 -0.073946 -0.0072154 -0.13185 -0.57477 0.082916 0.10096 -0.0055908 -0.2297 0.28366 -0.30348 -0.078525 0.081776 -0.77997 0.040177 -0.32919 -0.021301 -0.49728 0.58085 0.67811 -0.44481 -0.11328 -0.10153 -0.76579 0.4145 -0.45588 -0.48561 0.65474 -0.32831 0.5302 0.18064 -0.25952 0.28952 -0.017192 -0.64199 0.079018 -0.022132 0.44177 -0.20792 -0.57898 -0.20817 0.17131 -0.066724 0.26377 0.0074469 -0.17761 0.17329 -0.76444 0.03171 0.45667 0.46059 0.098422 -0.090455 0.11907 -0.318 -0.5964 -0.3975 0.37449 -0.28854
airport 0.36006 -0.51557 -0.1394 -0.35873 -4.0883E-4 -0.61652 0.48092 0.1799 0.29427 0.035274 -0.22032 -0.071337 -0.28001 -0.21603 -0.62399 0.25614 -0.63471 0.54313 0.15665 -0.22342 0.22517 -0.04709 0.059859 -0.13965 0.69632 -0.4567 -0.1665 -0.25106 0.2913 0.5303 0.011721 -0.025313 0.14726 -0.3062 0.089183 -0.3489 0.01916 -0.12109 0.15815 0.28448 -0.38741 0.24917 -0.032379 0.023104 -0.26273 -0.30524 0.1447 0.089188 0.71908 0.398 -0.21083 -0.64411 0.30134 -0.44425 -0.84292 -0.050193 -0.01156 -0.24605 0.37051 0.028574 -0.13528 0.1071 0.051749 0.080098 -0.8515 0.058677 -0.3425 -0.7542 0.017785 0.35708 0.62572 0.24252 -0.17227 0.24841 -0.29236 -0.56094 -0.10433 0.32505 0.91612 -0.026333 0.066283 -0.21443 0.13442 -0.19726 0.023704 -0.11388 -0.26865 -0.010195 0.11035 -0.054005 0.41508 0.34093 -0.17331 -1.2599 0.12828 0.43813 -0.31642 0.070163 0.47928 0.13022
population 0.078425 -0.097856 0.46129 -0.33398 0.59585 -0.81598 -0.24992 -0.31201 -0.16931 -0.20872 -0.10153 -0.10125 -0.29027 -0.06363 -0.42351 0.30757 -0.44759 -0.17921 0.23205 -0.8551 0.62366 0.13366 -0.71895 0.18514 -0.090953 -0.011563 0.12774 -0.22161 0.45452 0.37559 0.082504 0.45932 -0.15338 -0.67181 -0.26403 0.047441 0.34673 0.27356 -0.54462 -0.040752 0.059959 0.52412 -0.1072 0.36701 -0.17436 -0.76306 -0.023099 0.41475 0.02993 -0.33012 -0.043967 -0.14457 -0.0026357 0.1812 -0.28195 -0.024329 0.063208 0.11176 0.38425 0.61503 0.35285 -0.27779 0.25816 4.2512E-4 -0.023424 0.095946 -0.16448 0.34938 -0.42138 -0.14598 0.35021 -0.09917 0.56227 0.169 0.26418 -0.25752 0.25663 -0.33649 0.070017 -0.24924 -0.10781 0.035328 -0.16683 -0.10075 -0.39956 -0.078147 -0.97763 -0.18778 -0.59864 0.57978 0.61457 0.37152 -0.28421 -0.22816 0.11983 0.34546 -0.1271 -0.39517 0.1713 0.56219
planning 0.22617 0.48999 -0.31388 -0.14775 -0.10823 0.15197 0.096661 -0.24817 0.022899 0.1753 -0.48449 -0.19774 -0.11138 -0.11772 -0.021797 0.15847 -0.67181 0.2882 0.10956 -0.013186 0.10787 -0.030758 0.069649 -0.20537 0.4105 -0.37622 0.1643 0.20122 -0.397 -0.19479 -0.30088 -0.078943 0.050621 0.058377 0.0154 0.25602 0.27793 -0.026862 -0.20172 0.19954 -0.38671 0.35594 -0.0083445 -0.011205 -0.089598 0.091858 -0.24102 0.42808 0.46827 -0.59691 -0.11321 -0.56395 -0.2754 -0.30149 -0.55639 -0.02755 -0.13807 -0.22165 0.59405 0.099681 0.59828 0.19179 0.40258 0.1909 -0.45921 -0.16116 -0.42671 0.13425 -0.05109 0.0065291 0.073615 0.14221 -0.053911 -0.016875 -0.21253 -0.13108 -0.084391 0.18988 0.21764 0.22596 0.15368 0.1254 0.27239 -0.14526 -0.28437 -0.043688 -0.31477 -0.34173 -0.11355 0.39781 -0.33896 0.34187 0.2541 -0.085084 0.028874 0.16301 -0.12069 0.29464 0.10548 -0.058619
canyon -0.39569 -0.022405 -0.40429 -0.12311 0.057501 -0.43709 -0.21931 -0.30256 1.1234 0.52948 0.015391 -0.40119 -0.63434 -0.3475 0.4429 -0.47706 -0.4388 -0.3592 -0.55748 -0.7611 0.25725 -0.063587 0.0014293 0.11238 -0.29964 -0.11292 -0.15949 0.045308 -0.14026 0.036003 -0.11788 0.24217 0.092273 -0.7595 -0.15028 -0.32689 0.10437 0.18361 -0.21101 0.24326 -0.2424 0.86452 -0.033419 -0.37184 -0.20698 -0.75671 -0.10179 0.0195 0.45508 -0.11962 0.26512 0.17645 0.35971 -0.23448 -0.4662 0.096803 -0.34108 0.17951 -1.0032 0.47787 0.28267 -0.47184 0.69048 0.31739 -0.8081 0.064231 0.043161 -0.62123 0.31728 -0.48761 0.59874 -0.057416 -0.15671 0.60406 0.24514 -0.57766 0.080097 0.18324 0.479 -0.40207 -0.11092 -0.57394 -0.21883 0.050925 0.6165 0.31052 0.24664 0.33532 -0.06619 0.23663 0.54663 -0.14037 0.14152 0.038495 0.21504 0.41188 -0.26923 -0.14101 -0.74885 -0.17876
delay 0.33024 0.037099 -0.41581 0.04193 -0.36911 -0.32807 0.15171 -0.18298 0.080415 0.061421 -0.2447 0.053334 0.12932 -0.1448 0.67843 0.20885 0.055346 0.32079 0.36863 -0.0026712 0.42592 -0.32838 0.33936 -0.24369 0.35886 -0.47686 0.59084 0.36286 -0.39137 0.055094 0.21327 0.032573 0.30148 0.23792 0.03788 0.15786 0.12925 0.18396 -0.35613 0.16897 -0.10298 0.029234 -0.13796 0.14972 -0.11039 0.33719 0.1942 0.16554 0.15597 -0.25907 -0.38222 -0.50317 0.22879 -0.10304 -0.78278 -0.17064 -0.22465 -0.55579 0.51473 0.47976 0.42752 -0.19122 -0.041347 0.090399 -0.11238 -0.25046 -0.59049 0.21927 0.64254 -0.27981 0.31262 0.28632 0.16842 0.47664 0.025024 -0.37084 -0.020367 0.045988 0.29093 0.41603 -0.046226 0.43603 -0.073061 -0.10967 -0.36316 -0.0048227 -0.14403 0.42121 0.28189 0.051138 -0.010288 0.43934 -0.24819 -0.028021 -0.4503 0.23689 -0.45672 -0.25247 -0.039903 0.41605
size -0.27399 -0.052944 -0.076561 -0.19093 -0.10116 -0.45172 0.15842 -0.35626 0.3653 0.14925 -0.10184 0.19989 -0.58488 -0.046871 -0.26868 0.098179 -0.65153 0.013304 0.38633 -0.25214 0.49491 -0.2449 -0.057489 -0.47859 -0.23073 0.0134 0.16982 0.10056 0.19993 0.42246 0.21691 0.44169 0.42478 -0.73561 -0.011968 0.36562 0.48473 0.45625 0.054033 -0.36163 0.3204 0.20884 -0.49346 0.14513 0.18898 -0.48958 -0.092183 0.41697 0.34274 -0.12247 0.25559 -0.035793 0.44993 0.091052 -0.10992 -0.39827 -0.27524 -0.17208 0.10322 0.38153 0.57681 -0.044223 0.36922 -0.37287 0.20501 -0.064059 -0.13904 0.24676 -0.29282 0.033427 0.13524 -0.026651 0.19146 0.21472 -0.046276 -0.12993 0.23993 0.2617 -0.33405 -0.62463 0.041659 -0.13566 0.42071 -0.1123 -0.15864 -0.055891 -0.087412 -0.15941 -0.1018 0.39322 0.59316 0.24221 0.014527 -0.1704 -0.29186 0.23155 -0.2851 -0.093843 0.11127 -0.01926
peace -0.10808 -0.2779 0.44175 -0.29978 0.098219 -0.25248 -0.20353 -0.70852 -0.16554 -0.5569 -1.2701 -0.50909 0.11379 -0.0028097 0.49567 -0.0028029 -0.3004 -0.93213 0.1263 -0.64079 0.15949 -0.26361 -0.41203 0.095459 0.17545 -0.52811 -0.53093 -0.65647 0.12223 -0.75674 -0.27031 -0.16558 -0.24055 -0.24515 0.58663 0.055995 -0.27802 -0.50005 -0.18148 0.45619 -0.49151 0.26693 0.18605 -0.3574 -0.049137 0.10475 0.28057 -0.52394 0.59451 -0.50358 -0.80178 -0.31857 0.13932 0.43843 -0.53927 0.11491 -0.45278 -0.41368 -0.36598 -0.29011 0.28096 -0.2143 -0.20336 -0.33936 -0.56286 -0.6613 -0.51376 0.16716 0.30295 -0.70427 0.48559 -0.29046 0.046537 -0.18189 -0.48608 -0.31594 0.13429 0.3544 0.289 0.02225 -0.39015 0.12661 -0.32991 -0.32723 0.19941 0.13466 -0.36238 -0.51333 0.14231 -0.035845 0.7151 0.28756 -0.16356 -0.39195 -0.27452 0.69088 -0.11869 -0.32225 0.26059 -0.007161
science -0.51833 -0.065222 -0.028724 0.047872 -0.022284 0.15788 0.30193 -0.016296 0.023241 0.15512 -0.68654 -0.45198 -0.095536 -0.2379 -0.0174 0.33983 -0.7131 -0.088072 0.90832 -0.55487 -0.25299 -0.082099 -0.038192 -0.59702 -0.42289 -0.002065 0.0821 -0.14492 -0.28883 -0.21542 -0.14527 0.79063 0.099595 0.0312 0.079759 0.38848 -0.56751 -0.43889 -0.17666 0.13362 -0.40311 0.4243 0.27066 0.28929 -0.040963 -0.35489 0.12927 0.060509 0.013452 -0.14957 -0.37475 -0.27273 0.33052 0.34637 -0.68568 0.52518 0.030614 -0.11126 0.1333 -0.15313 -0.016198 0.050006 -0.12506 0.4557 0.0035199 -0.38928 -0.11254 -0.013493 -0.37219 -0.52822 0.29931 0.43769 0.30304 0.27815 0.33534 0.17198 0.23658 -0.22106 -0.14139 0.008011 0.071812 0.26198 0.44393 -0.7505 0.0059701 -0.36517 -0.10809 0.10802 0.20009 0.52386 0.66701 -0.058906 0.85381 0.24458 0.019924 0.031569 -0.34811 -0.32756 0.11066 0.29787
dawn -0.34341 -0.57925 -0.11496 -0.29962 -0.49008 -0.23862 0.059382 -0.079996 0.40831 -0.28315 -0.33051 -0.38329 -0.096154 0.27213 0.15342 0.88713 0.27545 0.15956 0.087525 -0.46629 0.077201 -0.073848 -0.070488 -0.11942 0.035581 -0.31956 -0.20845 0.17625 -0.01803 -0.087618 0.15593 0.16953 -0.14958 -0.60794 -0.080644 -0.18234 -0.036983 -0.31825 0.2474 0.22691 -0.13997 0.5397 0.75967 0.35571 0.077196 -0.65805 0.15468 0.13968 0.53929 -0.16245 0.20639 -0.14307 0.016197 -0.082084 -0.46681 -0.43245 0.10388 -0.19361 -0.13621 0.38654 0.33073 -0.20757 0.49199 -0.37669 -0.5434 -0.18693 -0.13155 -0.34539 0.39375 -0.016826 -0.27463 -0.18476 -0.29057 0.043316 -0.80279 -0.14198 0.19851 0.21542 0.65485 0.48616 -0.107 0.22764 -0.20464 -0.30467 -0.10127 0.30582 -0.12632 0.27088 -0.47006 0.27669 0.32304 0.21918 0.19261 -0.31019 -0.20203 0.023388 -0.45048 0.22009 0.18954 0.27966
brother -0.026413 -0.5568 0.012346 -0.053631 0.2209 -0.23395 0.37597 -0.20186 0.52225 0.39772 0.0036717 -0.48382 -0.22455 0.66999 -0.37441 0.18996 0.20262 -0.54359 -0.39456 0.20934 0.16668 0.056576 0.022845 -0.40542 0.091343 -0.31852 0.54187 0.11396 -0.26622 -0.4843 0.59232 -0.11865 0.02015 -0.25096 -0.39827 0.1419 -0.3647 -0.19796 0.36763 0.24082 0.18501 0.027332 -0.34266 0.15565 0.17376 0.24491 0.25717 -0.38596 0.47667 -0.22528 0.05156 0.034151 -0.0029274 0.10839 -0.40064 -0.18668 -0.33719 0.27953 0.27691 0.048159 0.25627 -0.3347 0.081088 0.25606 -0.25857 -0.30207 -0.2546 0.59285 -0.21847 0.54153 -0.21421 -0.025024 0.10015 0.10945 -0.40592 -0.21361 0.21949 0.24921 0.48993 0.47127 0.48439 -0.081753 -0.11885 -0.23898 -0.11457 -0.29036 -0.60876 -0.23051 -0.48596 0.28884 -0.074492 0.15672 0.47686 -0.47438 0.013473 0.56896 -0.25935 -0.34867 0.51057 0.46391
wine -0.61899 -0.32908 -0.51435 -0.31328 0.12077 -0.84516 -0.12346 -0.3035 0.30139 0.25768 -0.03319 -0.36563 -0.14774 0.025349 -0.17012 0.40184 -0.30883 0.15794 -0.084193 -0.10286 0.58764 -0.10928 0.23467 0.04485 -0.13818 -0.33794 -0.32684 -0.47005 -0.58256 0.35333 -0.12411 0.69864 0.22209 -0.44108 -0.027257 -0.30178 0.01277 0.0081318 -0.21074 0.19032 -0.34603 -0.012392 -0.4735 -0.040972 -0.38642 0.066471 0.43903 0.23624 0.19193 0.27081 -0.096048 0.25755 0.3388 -0.27899 -0.44134 0.5443 -0.10688 -0.43582 -0.24389 0.29146 0.18619 -0.018966 -0.055015 -0.058749 0.30656 -0.43051 0.4272 -0.40606 0.049882 -0.23009 -0.12918 0.094158 -0.19393 0.30066 -0.48871 -0.089735 -0.23277 -0.1822 0.021238 -0.23878 0.094835 -0.54209 -0.13079 -0.39098 0.38639 0.38934 -1.0706 -0.40725 0.16748 0.34313 0.36078 -0.042566 0.19466 0.37762 0.88994 0.52314 -0.23696 -0.31403 0.17701 -0.3545
object -0.58496 -0.011603 -0.1118 0.29896 0.2664 -0.13526 0.13606 -0.10153 0.46007 0.20266 -0.38956 -0.28868 -0.18956 -0.1671 0.35243 0.13921 -0.29293 0.036255 0.094005 -0.44497 0.59402 -0.52099 0.29538 -0.15492 -0.016552 -0.1015 0.52777 0.012181 -0.0082395 -0.012005 0.10832 0.54455 0.27862 -0.39661 0.22342 0.1268 0.32798 0.018067 -0.082318 0.25305 0.016531 0.5763 0.051117 -0.15774 0.07734 -0.12919 0.238 -0.036663 0.30608 0.055525 -0.057271 -0.15419 0.018648 0.12201 -0.36419 -0.12254 -0.34089 0.1549 -0.10073 0.21973 0.061269 0.022974 -0.064102 0.0012679 0.20021 0.14368 -0.12363 -0.066793 -0.15416 0.016885 -0.068575 0.31797 -0.44108 0.58238 -0.31969 -0.62414 0.15262 -0.29283 0.28127 -0.019462 -0.027803 0.14245 0.025202 -0.1416 0.14768 -0.027767 0.2544 -0.064405 -0.15522 0.46759 0.11625 0.4311 0.25197 0.3377 -0.22218 0.021811 0.075022 -0.47767 0.10178 -0.079048
attitude -0.2069 -0.47496 0.16283 0.15512 0.23985 0.070255 0.25291 -0.283 -0.038462 0.064872 -0.7667 0.36259 -0.15621 -0.22411 -0.18742 0.28529 -0.38553 -0.19755 0.23663 -0.25162 0.059872 -0.07726 0.13613 0.44545 -0.71982 0.037474 0.30485 -0.19 0.30011 -0.31422 0.22201 0.18109 -0.11563 -0.53198 0.42652 -0.095312 0.023769 0.30144 -0.14237 0.0018655 -0.40065 -0.45331 -0.02651 -0.031055 -0.16142 -0.097753 0.12568 0.41938 -0.17886 -0.14959 -0.01033 -0.10476 -0.10589 0.25003 -0.27853 -0.087574 -0.76384 0.12455 -0.092082 -0.036524 0.50802 -0.018964 0.10989 0.5858 -0.28981 0.032643 -0.28912 0.47554 -0.23928 -0.46359 -0.065145 0.39945 -0.10895 0.66479 -0.30633 -0.44871 -0.49427 -0.20348 0.48194 0.35709 0.47913 0.17883 0.37502 -0.30586 0.21821 0.21181 -0.12349 -0.2568 0.0030702 0.42274 0.099756 0.79574 0.40751 -0.37943 -0.2237 0.32502 -0.086677 -0.25018 0.25549 -0.15376
treatment 0.028329 0.034857 0.014027 0.2829 0.41318 -0.3746 -0.11451 0.29377 -0.27899 0.064904 -0.31265 -0.23764 0.30282 -0.3059 -0.13343 0.096287 -0.30402 -0.055652 0.037949 -0.05955 0.11481 -0.25976 -0.20997 0.12672 0.042545 0.11955 0.54343 -0.050233 -0.59053 0.046376 0.49213 0.0088703 0.038663 0.4687 -0.26702 -0.24167 0.2421 0.20686 -0.25441 0.20877 0.3539 -0.72271 0.025507 -0.039223 -0.38516 -0.40942 0.1865 0.52382 0.11236 -0.39256 0.039975 -0.020846 0.29647 0.33957 -0.97229 -0.0056771 -0.012065 -0.1546 0.11387 0.33911 0.52717 -0.23531 0.33287 0.32822 -0.7268 0.044461 -0.79489 0.25224 0.0041594 -0.3305 0.52558 0.4124 0.20391 0.59531 -0.15646 -0.38672 -0.33023 0.4389 0.26415 0.19534 -0.087902 0.052733 -0.24884 -0.49135 0.34422 0.39506 -0.33253 -0.03565 -0.034613 0.54024 0.50135 -0.2728 0.029617 -0.077487 0.24192 0.039362 0.40522 0.1692 0.22184 0.41521
flight 0.086512 -0.0034382 -0.27073 -0.33578 0.10744 -0.51375 0.80109 0.56248 0.35073 0.12155 -0.1853 -0.02661 -0.30944 -0.1274 -0.22234 0.41 -0.64628 0.3372 0.026637 -0.51177 0.37873 0.12726 0.42514 -0.38444 0.74796 -0.48888 0.51599 -0.0059004 0.14163 0.54148 0.66073 0.12853 0.17228 -0.22181 0.012528 -0.10304 -0.048405 -0.30853 -0.031976 -0.3237 -0.38355 0.15423 0.20183 0.21367 -0.571 -0.43806 -0.095461 -0.41048 0.24008 0.30981 -0.19865 -0.43406 0.74906 -0.22058 -0.76608 -0.095388 -0.31302 -0.30378 0.15496 0.021905 0.22024 0.21878 -0.11864 0.10608 -0.44701 0.032177 -0.29083 -0.49149 0.13322 -0.3901 0.27147 -0.178 0.1431 0.081086 0.13595 -0.57461 0.059696 0.57134 0.5759 0.036562 0.17269 -0.15035 0.63507 -0.416 0.10808 -0.21346 -0.23682 -0.017403 0.17999 -0.020005 0.0864 0.36925 -0.04303 -0.89274 -0.18787 0.46688 -0.60538 0.28115 0.38505 -0.086866
forest -0.52539 -0.21892 -0.095711 -0.37871 0.056463 -0.38418 -0.65505 -0.50473 0.40643 -0.20422 -0.45376 -0.31687 -0.82552 -0.23134 0.55832 0.049826 -0.57635 -0.01723 -0.12924 -0.50821 0.48985 -0.037364 -0.074457 0.49864 0.2491 -0.38214 -0.18468 0.023318 -0.31982 -0.011278 -0.089986 0.59947 0.036221 -0.32614 -0.28246 0.067176 0.30871 -0.010405 -0.20323 0.25456 -0.18736 0.68478 0.15141 -0.085878 -0.18575 -0.78239 -0.45599 0.61166 0.75899 -0.29289 0.41186 -0.0803 0.16959 -0.13997 -0.2539 0.31277 -0.52009 0.34411 -0.41857 0.26984 0.25015 -0.37018 0.20751 0.46047 -0.34987 -0.20012 -0.13052 -0.61756 -0.16535 0.032515 0.44713 -0.151 0.1882 -0.53809 0.021323 -0.16347 0.31381 0.18138 0.44517 -0.044986 0.07789 -0.17613 -0.24569 0.24053 0.29287 0.33116 -0.55391 -0.04262 -0.34245 0.64684 0.66282 0.27257 -0.16593 0.21414 0.31564 0.17256 -0.15801 -0.45889 -0.35471 0.33437
abuse 0.20643 0.23931 -0.24241 0.39369 0.16028 -0.62522 0.1684 -0.46688 0.071643 0.090576 -0.057326 -0.16598 -0.21962 -0.18108 -0.17835 0.23685 -0.34321 -0.40205 -0.062103 -0.25834 0.37595 -0.59345 -0.11489 -0.026577 -0.39007 0.08755 0.2648 -0.77493 -0.093151 -0.19632 0.57597 -0.29894 0.17329 0.10361 -0.13846 -0.086348 -0.41886 -0.17111 -0.24941 0.040913 -0.2851 -0.21696 -0.1075 -0.1026 -0.13386 -0.38673 -0.28893 0.086816 0.63732 -0.77006 0.10916 0.067286 0.38226 0.19703 -0.73271 0.24254 -0.33668 0.41511 0.19619 0.52796 0.41103 0.11698 0.32883 -0.14918 0.19668 0.081005 -0.20044 0.40548 -0.24672 0.090133 -0.11473 0.64213 -0.44933 1.0276 0.11867 0.37674 0.15071 0.19842 0.77913 0.97631 -0.47664 0.32887 0.48147 -0.0093509 0.35815 0.41874 -0.56516 -0.23641 -0.27643 0.52039 0.51335 -0.29637 -0.16678 -0.27792 0.010246 -0.12241 0.32857 -0.41918 -0.33688 0.53218
criterion -0.094405 0.044409 -0.16758 0.34375 0.28686 0.20089 0.083133 -0.21422 -0.15191 0.16298 -0.56271 -0.081272 0.029804 -0.071555 -0.51078 0.12513 -0.38284 -0.36423 0.51924 0.15868 0.38353 -0.57431 -0.074253 -0.27037 -0.2339 0.34716 -0.17104 -0.041867 -0.10272 -0.236 0.31935 0.50245 0.398 0.12591 -0.54142 0.29547 0.71193 0.125 -0.06665 0.4731 0.024835 -0.022677 -0.278 -0.0031716 -0.055465 -0.18561 0.04093 0.10535 0.42762 0.35933 -0.22861 -0.13028 0.27028 0.28962 -0.46157 0.41617 0.048522 -0.022595 -0.091552 0.54511 0.46179 -0.089729 -0.083979 0.10877 -0.12935 -0.37871 -0.59923 0.15384 -0.02121 -0.16254 -0.26856 -0.21912 0.40863 0.38527 -0.1671 -0.3786 -0.26573 -0.2901 0.065741 -0.17311 0.24605 0.47689 0.384 -0.44139 -0.14113 -0.29693 -0.15536 -0.24947 0.36749 0.12954 0.10189 0.4039 0.38158 -0.22706 0.24196 0.014105 0.32539 -0.15672 -0.026369 0.039295
sea -0.257 0.035919 -0.38002 -0.40798 0.16936 -0.60386 0.26239 0.18255 0.67034 -0.24762 -0.6153 -0.47998 -0.20996 -0.021647 -0.082966 0.33686 -0.21214 -0.35563 -0.18464 -0.77385 0.43041 -0.057915 0.1562 0.39603 0.27255 -0.45313 0.059187 0.342 -0.11205 0.05794 -0.64273 0.93088 -0.33651 -0.71564 0.33647 -0.19848 -0.04061 0.032244 -0.021352 0.020729 -0.16182 0.29854 0.013104 0.69805 -0.033175 -0.43864 -0.23737 0.20388 0.34711 0.097448 0.15416 0.17568 0.80158 0.1684 -0.63339 0.018232 -0.29326 0.31212 -0.61351 0.72868 0.40958 -0.38933 0.17881 0.054998 -0.41083 -0.081305 0.041408 -0.61991 -0.019058 -0.25042 0.54844 0.095088 -0.1308 -0.2037 0.28731 -0.040096 -0.0048527 0.33431 0.35615 -0.33623 -0.065948 -0.048822 0.18771 -0.11825 0.23063 0.17167 -0.12906 -0.18494 -0.055983 0.43287 0.38728 -0.094636 -0.13382 0.089676 0.18226 0.45251 -0.31699 -0.42656 0.11108 -0.077258
dollar -0.43456 -0.38356 -1.0099 0.015468 0.0011138 0.37649 0.28935 -0.56648 -0.050078 0.099344 -0.18446 0.48257 -0.052376 -0.6907 -0.75878 -0.33771 0.056998 -0.55815 -0.073692 -0.17697 0.60785 -0.17083 -0.27744 -0.18845 0.052871 -0.47254 -0.02938 0.34209 -0.14218 0.38636 -0.17491 0.47893 0.034544 -0.70821 -0.025029 -0.42148 0.46802 0.10347 -0.40989 0.2507 0.33737 0.24901 0.3638 0.93445 -0.599 0.88348 0.60933 0.24903 0.54946 -0.0039762 0.23422 0.15423 0.23301 0.35471 -0.014833 -0.33225 -0.39327 -0.23343 0.052343 0.19752 0.41403 -0.091193 -0.22975 -0.12208 -0.067545 -0.1526 0.33577 -0.12533 0.10215 -0.91824 -0.18368 -0.11173 -0.092197 0.30974 -0.13855 -0.21559 -0.0248 0.53346 0.089153 0.38425 -0.013434 -0.026717 0.18646 -0.0051079 0.081346 -0.14679 -0.65757 -0.083766 -0.26595 0.499 0.64344 -0.013629 -0.72646 -0.13966 -0.70065 0.42307 -0.1082 -0.25724 0.36494 0.21015
example -0.23188 -0.10783 0.25896 -0.15641 0.060029 -0.15648 0.20996 0.022617 0.14984 -0.0018749 -0.085502 0.047659 -0.09633 -0.029775 -0.27143 -0.16207 -0.21605 0.14071 0.28087 -0.035587 0.26065 -0.13272 -0.053714 -0.20881 -0.29281 -0.16485 0.06472 0.076929 -0.088804 -3.6944E-4 0.1866 0.13466 0.056133 0.04322 -0.18702 0.24724 -0.12498 0.50822 -0.18364 0.32944 -0.24623 -0.011989 -0.03295 -0.28925 -0.02772 -0.20663 0.095087 0.43361 0.24011 0.083636 -0.1316 0.10572 0.034743 -0.20155 -0.36498 -0.014399 -0.30545 -0.20493 0.058047 0.22376 0.4742 -0.26548 -0.12178 -0.036333 -0.24904 -0.22879 0.27376 0.30843 -0.24702 -0.050451 -0.33313 0.19869 -0.12356 0.39598 -0.12758 -0.62778 -0.06589 0.30275 0.10807 0.094405 0.16559 0.28726 -0.074921 -0.27101 -0.042823 0.095924 -0.33097 -0.28242 0.16746 0.35522 0.37208 0.45571 0.22346 0.30673 -0.13184 0.092187 -0.12331 -0.040992 -0.05343 0.19654
journal -1.08 -0.072238 0.54764 -0.271 -0.080751 -0.58089 0.67351 0.48814 -0.31186 0.060772 -0.73503 0.084841 -0.063584 -0.4422 -0.14409 0.094359 0.19434 -0.19946 0.66076 -1.4027 0.8599 -0.011152 -0.32474 -0.64661 0.040249 0.40287 0.1778 -0.27521 -0.56817 0.13345 0.27941 0.27169 -0.094652 0.043191 -0.43955 0.44115 -0.72244 -0.27267 -0.1791 0.56525 0.085616 -0.48958 0.095335 0.079179 -0.48481 0.38481 -0.0023559 0.88001 0.11214 -0.23437 0.027276 0.26045 0.57861 0.53645 -1.0575 1.1455 -0.62758 0.12959 -0.52012 0.47971 0.11618 -0.35327 0.38283 -0.16899 -0.013205 -0.081818 -0.33829 -0.087763 -0.58031 0.0010949 -0.16293 -0.24431 0.38072 0.43428 -0.029947 -0.46946 0.44943 -0.14255 -0.4014 0.31704 0.080056 0.2862 0.77275 -0.73748 -0.040914 -0.64536 -0.023098 0.70776 0.25703 0.035759 0.13921 0.18711 0.4055 0.030536 0.36638 0.21151 0.19057 0.44333 -0.20421 0.22447
laundering -0.060678 0.19202 -0.7662 -0.39575 -0.3935 -0.98112 -0.034005 -0.14966 0.10522 0.57249 0.27632 0.0078746 0.12191 0.089331 -0.82317 -0.12433 -0.48984 -0.3457 0.0062929 0.14344 0.30388 0.029072 -0.025977 -0.4783 0.23169 -0.031026 -0.58546 -0.32306 -0.20792 0.55402 -0.099162 0.034783 0.18795 0.62162 0.35752 -0.35018 -0.20335 -0.56796 0.20539 -0.046059 -0.72173 -0.34079 0.21644 0.42698 -0.22572 0.31338 0.28175 0.56375 1.2187 -0.83593 -0.39146 -0.083844 0.064668 -0.02563 -0.63851 0.76419 -0.60983 0.43755 -0.05763 0.24963 0.69051 0.19121 -0.13805 -0.83392 -0.33313 0.695 -0.033286 0.40601 -0.073502 -0.0054529 0.24351 0.12691 0.21016 0.40185 -0.30146 -0.065562 0.3447 -0.027371 0.51833 0.93835 0.25672 0.12083 0.17901 0.063519 0.40131 0.23086 -0.39816 0.087499 -0.12891 1.1712 0.42112 -0.34664 -0.15446 -0.44411 -0.11272 0.34571 0.21199 -0.015618 0.29931 -0.066401
hotel 0.067187 -0.25766 -0.052128 -0.36893 -0.011272 0.1818 0.28438 0.026709 0.47885 0.40089 -0.28074 -0.6358 0.036967 -0.32667 -0.42279 0.50401 -0.27918 0.002145 -0.20068 -0.12422 0.16352 0.0061845 -0.3303 -0.34569 0.5084 -0.22623 -0.41684 0.17328 -0.18166 0.47753 0.34434 -0.11928 0.083949 -0.84983 0.02924 -0.42318 0.23358 0.30708 0.33457 0.036511 -0.53169 0.039877 -0.39663 -0.10291 -0.4398 -0.18564 0.086594 0.18867 0.67118 0.088226 -0.15232 -0.17377 0.22952 -0.56472 -0.36389 0.10479 0.0057116 0.22154 0.10118 -0.14027 0.13798 -0.22162 0.013891 0.02819 -0.48592 0.056147 -0.056856 -0.51344 -0.079069 0.072061 0.2075 -0.0046473 -0.13973 0.070666 -0.45807 -0.38518 -0.29944 0.34328 0.30998 -0.084475 -0.18497 -0.73909 0.3065 -0.38114 0.27258 0.66886 -0.31064 -0.25601 0.53896 0.41726 -0.019384 0.37523 0.11851 -0.37425 0.5818 0.25375 -0.1991 -0.10672 0.37042 -0.15656
term 0.1348 0.38354 -0.23165 -0.11539 0.28884 -0.034106 -0.24997 0.27545 -0.66099 0.17784 -0.27889 -0.39831 0.30487 0.31824 0.19604 -0.057434 -0.42514 -0.51612 0.46313 -0.036397 0.65882 -0.29568 -0.061602 -0.54947 -0.057989 0.31948 0.017556 0.25692 -0.068962 -0.0044404 0.055591 0.05427 -0.00971 0.14017 -0.67674 -0.22789 0.38327 0.4254 0.17024 0.20637 -0.083028 -0.11123 0.015427 0.314 0.09153 -0.09321 0.48473 0.088532 -0.02488 -0.36724 -0.18765 0.04147 -0.40756 -0.40994 -0.82014 0.30918 0.27806 -0.41803 -0.23833 0.29321 1.031 -0.10133 0.043018 0.2606 0.023823 -0.097971 -0.35549 0.24468 0.62873 -0.098508 -0.07638 -0.34675 -0.13074 -0.26365 -0.29417 -0.52667 -0.10992 -0.17127 0.069873 0.28445 0.18909 0.16017 0.11596 -0.22336 0.10445 -0.26921 -0.56072 -0.062826 -0.28144 0.39091 0.37767 0.53148 -0.10734 -0.0096183 -0.5385 0.5373 -0.077258 -0.76972 -0.1827 0.051084
listing -0.30281 -0.18756 -0.094356 -0.13443 -0.2625 0.24671 0.56871 -0.12664 -0.048801 0.23862 -0.21892 -0.23347 -0.3854 -0.48058 -0.27064 -0.13152 -0.22673 -0.22263 0.40288 -0.37572 0.57225 -0.2638 -0.089808 -0.037559 0.43834 -0.39749 -0.46119 0.33056 -0.6477 0.15348 0.10772 0.15786 0.26383 0.05817 0.055328 0.051175 0.38444 0.4127 0.22733 0.55563 -0.3585 0.0046512 -0.071599 0.21076 -0.35398 -0.08801 -0.12172 -0.22498 0.54729 -0.099127 -0.095897 -0.29014 -0.39064 -0.31882 -0.34452 0.087617 -0.32095 -0.2367 -0.085365 0.37855 0.2151 -0.10531 0.039103 0.087361 -0.047316 -0.33103 0.1455 0.092985 0.62561 -0.22028 0.048009 -0.18535 0.35059 0.27331 -0.25701 -0.91414 0.018061 0.046781 0.095503 -0.1721 0.28459 -0.10361 0.66615 -0.225 -0.038062 -0.053313 -0.44845 -0.53331 0.15122 0.36867 0.048428 -0.24956 -0.61121 0.022203 0.098247 -0.096172 0.3925 0.21414 0.049053 0.14172
chemistry -1.1668 -0.17554 0.27617 -0.16375 0.071597 -0.006684 0.41992 0.082065 0.0017303 0.25182 -0.89425 -0.33697 -0.064757 -0.15406 0.013527 0.24362 -0.56775 -0.070643 0.12107 -0.10521 -0.057987 -0.24218 -0.037655 -0.63451 -0.79419 -0.19338 0.32419 -0.17845 0.11508 0.0073536 0.26434 0.7274 0.19825 0.024193 -0.14005 0.44844 -0.18047 -0.51953 0.18389 -0.22759 -0.13191 -0.096568 -0.23845 -0.14932 0.12913 -0.084154 -0.24708 0.095001 0.06792 -0.058695 0.046697 -0.09893 0.58097 0.096979 -0.82732 0.74472 0.0067768 -0.51952 -0.41412 -0.23047 0.42185 0.26869 0.02104 0.21878 0.069745 -0.23632 -0.36386 -0.12867 -0.23956 -0.42231 0.078228 0.20511 0.37305 0.021927 -0.24794 0.31793 0.31033 -0.45059 -0.27052 0.4565 0.085497 -0.28747 -0.48665 -0.75079 0.072481 -0.45088 -0.26262 0.27012 0.37744 0.62542 0.66186 -0.18498 0.70236 0.41343 0.15131 0.055314 -0.19888 0.02116 0.35358 0.56059
seafood -0.60781 -0.55062 -0.33267 -0.35274 -0.092063 -0.3911 0.17846 -0.16475 0.51964 0.30841 -0.35757 -0.54557 0.14295 -0.0088282 -0.22942 0.51234 -0.33641 0.12163 -0.22402 -0.24899 0.33003 0.47635 0.027455 0.51162 -0.050435 -0.67545 -0.84254 0.2723 -0.81375 0.3773 -0.39161 0.77304 -0.22653 -0.34497 -0.038584 -0.51582 0.43976 0.45378 -0.62694 -0.091951 -0.15401 0.041902 0.053009 0.081654 -0.5908 0.019066 -0.020283 0.53548 -0.21165 0.1653 -0.34893 -0.22351 0.62916 0.25717 -0.55115 0.4941 -0.13812 -0.15679 -0.050426 0.37987 0.64529 0.024277 0.26856 -0.19999 0.4969 -0.43927 0.56044 -0.7936 -0.44425 -0.42418 0.31682 0.026006 0.31111 0.14171 -0.46026 -0.19112 -0.64215 0.026277 0.23737 -0.038907 0.061055 -0.39328 0.13699 -0.56035 0.51892 0.029967 -0.61442 -0.36895 0.23284 0.52897 0.53627 -0.14551 0.12679 0.27728 0.70104 0.5745 -0.31708 0.063689 0.28039 -0.014733
CD -0.8687 -0.20861 -0.82701 0.068665 -0.53942 -0.094426 0.76714 -0.66925 -0.0074239 -0.0011614 -0.22787 -0.45071 -0.095841 -0.0083778 -0.2653 0.5276 0.21545 -0.4723 0.012771 -0.46175 0.65054 -0.65288 -0.046596 -0.20672 -0.055519 -0.23385 0.56174 -0.61948 -0.31051 0.039533 0.35475 0.076487 0.1078 -0.10673 0.031721 0.13722 -0.011409 -0.099383 0.052017 -0.099004 -0.51406 -0.17982 -0.78949 0.45389 -0.39868 0.54243 0.10562 0.031075 0.26092 -0.41628 0.3879 0.4365 0.31895 -0.17976 0.23471 0.07383 -0.027109 -0.56743 -0.017173 -0.3453 0.5949 0.035682 -0.24115 0.079937 -0.36473 -0.29387 0.75524 -0.57469 0.077677 -0.61569 -0.036722 -0.76039 -0.23627 0.34059 -0.012162 -0.53532 0.42936 0.10175 0.32124 -0.42156 -0.074949 0.23546 -0.25211 -0.24822 0.034826 0.44372 -0.70246 0.058949 0.0088349 0.37447 -0.44527 0.24421 0.34572 -0.35017 0.55924 -0.079653 0.64643 0.28643 0.080343 0.23148
mind -0.21634 -0.34691 -0.14847 0.041928 0.27357 0.34617 0.18887 -0.16858 0.23463 -0.1723 -0.58144 -0.080678 -0.26523 -0.15584 0.027708 0.35836 -0.47858 -0.35536 0.10696 -0.082637 0.071618 -0.097471 -0.024475 -0.031085 0.0097129 -0.41353 0.32104 -0.10946 -0.12369 -0.45271 0.10505 0.49972 -0.15101 -0.46862 -0.083298 0.12115 0.13167 0.042508 -0.015572 0.1059 -0.089735 0.0028986 -0.09727 0.045118 -0.2304 -0.11109 0.42083 -0.030309 0.079634 0.18932 0.15863 -0.33177 0.03228 -0.27061 -0.084199 0.30737 -0.66415 -0.10519 -0.124 0.042139 0.61781 -0.41396 0.22392 -0.027949 0.0023239 -0.10515 -0.19396 0.41109 0.053537 0.0095901 0.042137 -0.03825 0.046733 0.52276 -0.50201 -0.33163 0.24179 -0.28186 0.62355 -0.26333 0.22447 0.27977 0.12807 -0.33678 0.23561 0.040119 0.0048684 -0.17519 0.0066806 0.31056 0.25242 0.30357 0.35754 -0.039104 -0.096757 -0.13813 0.064264 -0.37321 -0.072341 0.12398
sex 0.1296 0.37016 0.10163 0.32493 -0.26381 -0.40854 0.082088 -0.1872 -0.24019 0.18932 -0.44189 -0.25662 -0.19887 -0.077922 -0.45125 0.71761 -0.61058 -0.37777 0.018108 -0.33802 0.32833 -0.35736 -0.27423 0.11412 0.089734 -0.051625 0.22332 -0.050194 0.24565 -0.077478 0.58526 -0.11009 0.65546 -0.10996 -0.12459 -0.28092 -0.29369 -0.13449 -0.7491 0.050418 -0.3848 0.05857 -0.21794 -0.12313 -0.66857 -0.099708 0.0052345 -0.30731 0.14901 -0.10544 0.069166 0.37664 0.17285 0.28488 -0.68335 0.59846 -0.55273 0.29925 -0.26858 -0.15776 0.35176 0.43255 0.27327 -0.38548 0.048602 0.26015 0.072615 0.08782 0.20614 -0.14893 0.023223 0.33305 -0.2677 0.48683 -0.14192 -0.30125 0.12314 -0.0036599 0.54073 0.76711 0.23461 0.3005 0.28419 -0.091585 0.23071 0.7901 -0.90187 -0.29611 -0.33438 0.93493 0.47342 -0.055898 0.25741 0.1831 0.1547 -0.29442 0.088862 -0.3296 -0.091074 0.19127
food -0.71178 -0.15513 -0.47041 0.10588 0.2211 -0.28322 0.23296 -0.13446 0.21733 -0.29696 -0.30381 -0.35114 0.14839 0.48859 0.27982 0.33953 -0.14167 0.054198 0.17774 -0.035964 0.082306 -0.14237 0.076417 0.21562 -0.20275 -0.45084 -0.34356 -0.08975 -0.5518 0.38412 -0.13223 0.75645 0.16341 -0.29355 -0.091416 -0.18602 -0.03261 0.0041361 -0.26599 0.17214 -0.53119 -0.031811 -0.28461 0.27073 -0.15288 -0.082004 0.28181 0.90475 0.17204 -0.1777 -0.42617 -0.048858 0.54406 0.24492 -0.36984 0.37656 -0.052678 0.11016 0.88914 0.067138 0.56263 0.10247 0.16388 -0.27546 0.40012 -0.61744 0.089437 -0.25685 -0.3296 -0.21593 0.41664 0.22301 0.34161 0.15383 0.061872 0.13101 -0.5703 0.19284 0.31545 -0.01042 -0.024313 -0.6007 -0.0074904 -0.1318 0.3773 0.12287 -0.66244 0.0017115 0.20588 0.18371 0.80489 0.28324 -0.18112 -0.0010301 0.70858 0.11564 -0.11839 -0.18641 0.29751 0.27475
precedent -0.12523 0.20194 -0.13949 -0.3995 -0.10014 -0.051534 0.51023 -0.37661 0.080003 0.037062 -0.49545 -0.23614 0.30289 -0.35798 0.3505 -0.17512 -0.093783 -0.0099008 0.70899 0.074937 0.12001 -0.89433 0.074384 0.36745 0.03691 0.018849 0.017929 -0.031758 -0.29564 -0.34583 -0.081612 0.18265 0.47549 0.043765 0.35829 -0.047186 0.24904 0.25052 -0.23805 0.65405 -0.26254 0.021768 -0.12602 -0.19698 0.14268 -0.11654 0.47122 0.26952 0.51206 -0.043525 -0.61856 -0.067207 -0.18751 -0.064748 -0.23146 0.011388 -0.41296 -0.082361 -0.139 0.50077 0.40461 -0.32969 -0.018024 0.20987 -0.18068 -0.044629 -0.13509 0.50497 -0.24861 -0.30389 -0.12164 0.43474 -0.015819 0.15991 -0.099294 -0.53031 0.14944 -0.33509 0.60512 0.13029 0.034804 0.32019 -0.13326 -0.58947 -0.0068337 0.2305 -0.44675 -0.085474 0.010665 0.25118 -0.2988 0.37115 0.29688 -0.081922 -0.56895 0.59795 0.26988 -0.61431 -0.050642 0.17686
series 0.16882 0.13758 -0.13865 -0.0098456 -0.67669 -0.19024 0.28315 -0.20921 0.1307 0.05067 -0.32207 0.080331 -0.29418 -0.39692 0.27156 -0.11916 -0.31164 -0.3155 0.39855 -0.22251 -0.012005 -0.37186 -0.30919 -0.25389 0.012516 -0.21184 0.10883 -0.0077419 -0.20357 -0.21019 0.20213 -0.56503 -0.049876 -0.245 -0.22978 -0.033276 0.34034 0.13918 0.15214 0.55183 -1.0246 0.4091 0.5116 0.34719 -0.1666 0.32106 0.2867 0.11165 0.027394 -0.022361 0.10488 0.31429 0.59715 0.38753 -0.2194 0.15383 0.033611 -0.093079 0.032076 0.25042 0.3364 -0.016785 -0.03326 0.13935 -0.46592 -0.09654 -0.10249 0.48686 -0.2525 -0.18645 -0.033281 -0.25505 0.14346 0.22047 0.026197 0.086018 0.33356 0.3477 0.32479 0.32858 0.43739 -0.3263 0.042434 -0.70388 0.23563 0.37319 -0.081274 -0.23844 0.34447 -0.023062 -0.52449 0.46093 0.094179 0.31688 -0.15157 -0.18262 0.012526 0.30994 -0.20904 0.6287
kilometer -0.63405 -0.46777 0.10611 -0.50249 -0.48844 -0.77972 0.3823 0.061935 0.73707 0.88618 0.24155 0.11413 -0.029034 -0.41762 -0.33886 -0.13683 -0.3732 0.25183 -0.3554 -0.39142 -0.24665 0.31634 -1.0116 0.3463 0.34768 -0.92062 0.1824 -0.21798 -0.10303 0.3728 -0.1345 0.22716 0.53882 -0.66342 -0.29458 -0.30492 0.30467 0.32986 -0.045846 -0.48592 0.2062 0.91841 0.35285 0.70334 -0.54612 -0.8369 0.39041 0.24032 0.55601 -0.61027 0.057024 -0.27127 0.48992 0.39998 -0.87524 0.054617 -0.28324 0.43577 -0.84647 0.41684 0.38732 -0.36407 0.12049 0.333 -0.79442 0.40719 -0.33163 -0.92573 0.53592 0.28982 0.7048 0.32903 -0.022761 0.20964 -0.045484 -0.65282 0.42426 -0.033139 -0.055946 -0.28553 -0.86265 -0.26696 0.036398 -0.20514 -0.2773 -0.66384 -0.57415 0.74301 -1.018 -0.16244 0.65745 0.7398 0.33527 -0.0036388 -0.33882 -0.042329 -0.55123 -0.097016 0.23098 -0.07912
grocery -0.74834 -0.05659 -0.3338 0.40522 0.014816 -0.13174 0.19477 -0.43625 0.47063 0.14444 0.56906 -0.61719 -0.1053 0.52556 0.019358 0.28207 -0.35051 -0.34142 -0.019354 -0.52599 0.24475 0.20961 -0.065722 -0.14558 -0.097057 -0.69504 -0.52992 0.093054 -0.29308 0.76346 -0.35408 0.24281 0.03197 -0.31836 -0.38236 -0.14301 0.12437 0.48489 -0.019073 0.48063 -0.31912 0.077034 -0.45558 -0.66146 -0.28824 0.14945 0.5988 1.0866 -0.054139 0.012865 0.35809 -0.31318 -0.030524 -0.041086 -0.52994 0.20859 -0.094382 -0.061333 0.83788 -0.37634 0.63046 -0.21703 0.03021 -0.31181 0.19832 -0.40152 0.17499 -0.14881 -0.34004 0.16186 0.15837 0.14648 -0.084142 0.19059 -0.44254 -0.34845 -0.13049 0.054788 0.41258 0.067465 -0.14338 -0.83458 0.38343 -0.28013 0.34594 0.19186 -0.65963 -0.18634 0.39528 0.020342 0.4397 0.19625 -0.2393 -0.44368 0.51631 0.43746 -0.26699 0.17509 0.24589 0.17548
wizard -0.64828 -0.46184 -0.10737 -0.24401 0.070274 -0.072164 0.054374 -0.066129 0.81601 0.27821 -0.17837 -0.35902 0.084397 0.13588 -0.050009 0.16089 -0.5868 -0.7192 0.267 -0.31107 0.11899 -0.48529 -0.032013 -0.39097 -0.17761 0.24462 0.79289 -0.1542 -0.21204 -0.71053 0.39639 0.7144 -0.27411 0.18573 -0.4605 0.80971 0.16318 -0.1779 -0.090459 -0.1197 -0.4653 0.389 -0.044711 0.092795 -0.60126 0.44652 0.19448 0.31531 0.082471 -0.045245 -0.47514 0.50493 0.057366 0.14592 0.19049 0.16535 0.25587 -0.074399 0.077646 -0.21124 0.11379 0.18697 0.3425 -0.041205 -0.43213 -0.068105 0.19169 0.44072 -0.1399 0.028901 -0.16127 0.24013 -0.072362 -0.068168 -0.16711 -0.35501 0.70483 -0.00762 -0.038138 0.25768 0.44487 0.055849 0.23972 -0.46002 -0.27884 0.57618 -0.14132 -0.55363 -0.57459 0.47788 0.022685 0.39391 0.68879 -0.22735 -0.13531 0.081132 -0.19549 0.10601 -0.24766 0.30553
information -0.43436 -0.14929 -0.019495 -0.41339 0.30512 0.054255 0.44434 -0.36386 0.26363 0.32908 -0.14782 -0.39289 -0.14209 -0.0051251 0.16702 -0.16776 -0.10796 0.051942 0.18481 0.29931 0.35258 -0.64202 0.22757 -0.12173 0.45534 -0.025637 0.014505 -0.27759 -0.20818 0.10284 -0.10766 -0.11435 -0.2537 0.12466 -0.14859 0.024798 -0.23946 0.31707 -0.029614 -0.21233 -0.27521 0.19916 0.28855 -0.044523 -0.31439 -0.36632 0.15251 0.441 0.49668 -0.33322 -0.18202 -0.52962 0.29752 0.17583 -0.30451 0.19495 -0.9093 0.1765 0.50734 0.16991 0.89263 -0.056738 -0.38869 0.061889 -0.027451 0.0082196 0.32285 0.25705 0.29613 -0.38377 0.16502 0.60296 0.18262 0.71201 -0.44359 -0.7066 -0.21095 -0.11635 0.099444 0.056804 -0.26237 0.95751 0.32739 -0.099486 0.093971 -0.4262 0.01698 -0.05413 0.28735 0.36549 0.31788 -0.44927 0.36236 0.021657 0.69574 -0.31753 0.14618 0.26435 0.079036 0.27801
Israel 0.32838 0.25919 0.46767 0.35795 0.39639 -0.52603 0.2322 -0.89097 0.021978 -0.058732 -0.90711 0.26254 -0.20321 -0.1221 -0.23283 -0.041484 -0.27239 -0.67276 0.4211 -0.51471 0.38226 -0.1559 0.13501 0.18248 0.20558 -0.14321 0.071814 -0.024454 -3.8998E-4 -0.22342 -0.48788 -0.20333 -0.29145 -0.3523 -0.04067 0.40858 -0.38444 -0.17583 -0.44712 0.73257 0.24968 0.16291 0.26052 -0.13488 0.15213 1.5614E-4 0.72296 -0.7866 0.84002 -0.41978 -0.55908 -0.41596 0.13557 0.31418 -0.87496 0.045454 0.60362 0.35542 -0.10711 0.072382 0.45039 -0.56162 -0.052816 -0.32839 -0.6235 -0.39055 0.45504 -0.056999 -0.079081 -0.69742 0.4538 -0.18261 -4.12E-4 0.59735 -0.89325 0.1015 0.27127 0.1786 0.57125 -0.291 -0.36486 0.026235 -0.59574 -0.49286 0.5338 -0.12058 -0.14313 -0.19244 0.37786 -0.18492 0.65348 0.70299 -0.32136 -0.17733 -0.10393 0.16742 0.37496 0.19321 0.18962 -0.12593
brandy -0.60002 -0.46228 -0.18488 -0.49522 -0.31132 -0.39748 0.05329 -0.37831 0.1958 0.46425 -0.010064 -0.29935 -0.29298 0.20331 -0.11586 0.21177 -0.15386 -0.31574 -0.28155 -0.086433 0.23535 -0.29259 0.18419 0.21174 -0.31222 -0.44641 0.019921 -0.13276 -0.55672 -0.038003 -0.095659 0.48899 0.13879 -0.37828 0.012651 -0.30162 0.21568 0.47411 0.26514 0.14462 -0.10239 -0.055424 -0.50922 -0.09962 -0.25629 0.16158 0.39267 0.27626 -0.21577 -0.10692 0.0011002 0.43288 0.069796 0.0015645 -0.56336 0.14284 -0.093718 -0.074697 -0.014114 -0.13126 0.42155 -0.049011 0.022699 -0.52357 0.035267 -0.067668 -0.10931 -0.1918 -0.25846 0.13829 0.068542 0.086333 -0.53115 0.41805 -0.61435 0.064065 -0.50592 -0.22304 0.34077 -0.063496 0.48508 -0.42658 0.01264 0.24564 0.32231 0.10932 -0.55669 -0.47511 0.1219 0.10105 0.2684 0.067598 0.31733 0.10802 0.26255 0.33713 -0.29883 0.033526 -0.24815 0.073415
interview -0.10389 -0.34702 0.56963 0.017323 -0.41651 0.01717 0.087379 0.25626 -0.28036 -0.18852 -0.39105 -0.28013 -0.14878 -0.34978 -0.13298 0.23548 -0.26078 0.017223 -0.34717 -0.28548 0.61792 -0.54065 -0.33999 -0.12478 0.23313 0.12049 0.19557 -0.559 -0.33965 0.13077 0.60854 -0.47332 0.2817 -0.80771 -0.17197 0.12568 -0.39471 0.33563 0.47897 0.38558 -0.10967 -0.10374 0.42404 -0.11265 -0.045119 0.14408 0.61727 0.18452 0.18914 -0.33774 -0.43952 -0.20105 0.26813 -0.1271 -0.82232 0.25853 -0.26047 0.27341 -0.12324 -0.12515 0.37891 -0.2594 0.47053 0.33482 -0.12548 -0.26025 0.010919 0.42683 0.18054 0.21875 -0.26945 0.10671 -0.095632 0.36028 -0.35275 -0.054271 0.15297 0.40229 -0.29944 0.1345 0.64063 0.3791 0.057392 -0.68904 -0.045732 -0.17773 -0.31641 0.34342 0.04682 0.32505 -0.097677 0.24924 -0.0053221 -0.62858 0.2638 0.02066 -0.030718 0.23086 -0.28164 0.032142
prominence -0.38177 -0.53555 -0.093738 -0.16263 0.61162 -0.087501 0.56994 -0.25051 -0.23388 0.12398 -0.44338 -0.46961 -0.58719 -0.15969 -0.062385 -0.047842 0.05503 0.20293 -0.30711 -0.40739 0.43457 -0.67123 -0.27439 -0.1627 -0.84803 -0.22485 0.022618 -0.19017 -0.31434 -0.27389 0.080138 -0.23334 0.050178 -0.46099 -0.30712 0.25667 0.074739 -0.1394 -0.20895 -0.063243 -0.31052 0.22472 0.22062 0.18701 0.24738 -0.060085 0.39246 0.22969 0.16818 -0.19164 0.34092 -0.16996 0.052292 0.22563 -0.20945 -0.1404 0.13606 0.44116 0.2618 -0.16686 0.19166 0.13003 0.077733 -0.038281 -0.35723 -0.48314 -0.31714 0.044463 -0.027007 -0.27516 -0.33089 0.33313 0.0058035 0.13846 -0.22379 -0.23929 0.25699 -0.19673 -0.11932 0.42363 0.36468 0.21404 0.56225 -0.15543 0.23522 0.18478 -0.59925 -0.67593 -0.11409 0.28108 0.045102 -0.013511 -0.21259 0.026779 -0.27255 0.12863 -0.17593 0.038492 -0.19738 0.031511
bed -0.21507 0.076814 -0.075402 0.060518 -0.22717 -0.28179 -0.027356 0.25092 0.50068 -0.12077 -0.3491 -0.48226 -0.10846 0.25967 -0.36541 0.50295 0.20332 -0.5191 -0.42816 -0.23881 6.5565E-4 0.015787 -0.3468 -0.14547 0.23393 -0.12984 0.39389 0.029743 -0.58562 0.032063 0.36277 0.49667 0.367 -0.89254 0.026062 -0.056646 -0.19397 -0.071101 0.074464 0.034246 -0.10915 -0.28047 -0.21886 -0.12837 -0.41871 -0.071901 0.10845 0.17188 0.33671 -0.10202 0.25045 0.37677 0.057416 -0.12516 -0.66382 0.13122 0.011881 -0.095721 -0.091183 0.017144 0.42505 -0.42027 0.21012 -0.53678 -0.33098 -0.20537 -0.42613 -0.28955 0.16487 -0.018514 0.17656 0.1039 -0.18056 0.14567 -0.03545 -0.33692 0.18763 0.49723 0.36221 -0.096633 0.39137 -0.093823 0.20828 -0.25761 0.42261 0.29832 0.37208 0.054635 -0.21951 0.6065 0.33647 0.26778 0.37226 -0.20495 0.56977 0.14696 -0.12801 -0.55453 0.050813 0.10736
furnace -0.23662 -0.024893 -0.21111 0.563 -0.22209 -0.41102 0.0060211 -0.37841 0.6621 -0.39364 -0.40802 0.10962 -0.45067 0.56314 0.18018 0.082807 -0.083071 -0.060963 -0.19668 -0.027175 0.21437 -0.18319 -0.13721 -0.397 -0.151 -0.38288 0.094066 0.05811 -0.50085 0.39618 0.30196 1.2088 -0.017453 -0.80736 -0.36 -0.12334 0.39744 0.33809 0.6 -0.029981 -0.44446 0.55985 -0.16715 -0.13445 0.083354 -0.2543 -0.17517 0.27341 0.2866 -0.22122 0.32284 -0.7641 0.23072 -0.32548 -0.76524 -0.033712 0.75459 -0.07732 0.07163 0.13478 0.25307 -0.24715 0.03866 -0.12549 -0.10092 0.31524 -0.18942 -0.65225 -0.35253 0.057235 0.26999 -0.30694 -0.58359 0.20924 -0.13852 -0.20186 0.19373 0.090678 0.21839 -0.17315 -0.2238 -0.50469 -0.14975 -0.3413 0.11844 -0.25668 -0.39934 0.33279 0.10551 0.6765 0.59511 0.27909 0.22027 0.090819 0.2671 -0.054422 0.2346 -0.17653 0.45465 0.76679
evidence -0.44244 0.1193 0.096314 -0.1079 -0.14052 -0.41197 0.19828 -0.28543 0.18681 0.32935 -0.45012 -0.55785 0.075778 -0.58107 8.0894E-4 0.19982 -0.031679 0.38546 0.26304 -0.21194 0.55399 -0.60068 -0.13671 0.019726 0.17957 -0.10577 -0.21716 -0.52579 -0.27702 -0.35042 -0.17222 0.34408 0.33218 -0.28141 0.069448 -0.43657 -0.29546 -0.45923 -0.33391 0.17287 0.051565 -0.19583 -0.097615 0.21458 0.14208 -0.12213 0.13472 0.25922 0.22181 -0.3163 0.070576 -0.54665 0.55603 0.12449 -0.63811 0.1824 -0.61199 0.47313 0.28425 0.1553 0.7173 -0.49754 -0.19603 -0.10017 -0.023976 0.11781 -0.19815 0.48134 0.06445 -0.39693 -0.30234 0.44081 -0.039021 0.14815 -0.19584 -0.10962 -0.17031 -0.29255 0.35681 0.34418 0.15076 0.26134 0.19916 -0.070909 0.32564 -0.11753 0.35001 -0.014527 0.54927 0.63817 -0.13752 0.04645 0.2831 0.15273 -0.12916 0.18669 0.14692 -0.17499 -0.095515 0.60478
sprint -0.84707 -0.21752 0.097346 -0.21412 -0.26782 -0.28383 0.86904 0.62597 0.15918 0.62155 -0.17333 0.11044 0.37702 -0.6714 0.34813 0.20505 -0.39958 -0.78578 -0.16878 0.017217 0.21681 -0.050068 -0.50064 0.027955 -0.35149 -0.26658 -0.085615 -0.21551 0.073556 0.21491 -0.37111 0.44947 0.48095 -0.23935 -0.18381 0.10676 0.1183 0.040242 0.30329 -0.10475 0.2494 0.42695 0.41196 0.20707 -0.05486 -0.016013 0.53366 -0.1127 0.10767 0.078478 0.51686 0.251 0.33439 -0.55812 -0.86378 0.12757 -0.036842 0.51065 -0.48318 0.53063 0.58066 0.19014 0.20518 -0.28879 -0.72721 -0.21486 -0.61007 0.41091 0.79147 -0.49578 0.26142 0.42362 -0.15403 -0.24796 0.23864 -0.054943 -0.12664 -0.20446 0.42403 0.18993 0.35772 -0.18684 -0.29196 -0.17007 -2.2846E-4 0.27305 -0.82328 -0.054388 -0.61657 -0.73304 0.0071941 -0.10249 0.43898 -0.5312 -0.7788 0.40995 -0.60378 0.22786 -0.70302 0.15293
emergency 0.67488 0.16276 0.020756 0.080143 0.055711 -0.61802 0.25798 0.030701 -0.21622 -0.026265 -0.10572 -0.54311 0.050729 0.27337 0.27423 -0.023237 0.26828 0.11045 0.12734 0.12846 0.02318 -0.49278 0.053731 -0.2103 0.010427 0.10472 0.30227 0.25439 -0.44397 0.24447 0.31267 0.071777 0.23868 0.14895 -0.52806 0.16357 0.24499 -0.15493 0.3187 0.60642 -0.15403 0.19095 0.23439 0.4129 -0.34653 -0.10187 0.045572 0.59039 0.76563 0.14688 -0.69853 -0.367 0.33546 -0.55516 -0.21157 -0.16459 -0.40401 -0.090811 0.3771 0.3609 0.48406 -0.011121 0.82763 -0.0049197 -0.10668 -0.54797 -0.27128 -0.16424 -0.02542 -0.23703 0.36739 0.39776 0.056343 0.30211 -0.066967 -0.35103 -0.25323 0.64832 0.29395 -0.43268 -0.0064062 -0.48719 -0.19192 -0.27762 -0.29445 0.23087 0.24323 0.074299 -0.011207 0.91162 0.43823 0.035385 -0.0031822 -0.97644 -0.20775 -0.23243 0.025868 -0.19214 0.27556 0.34303
Jackson 0.095334 -0.39993 -0.54251 0.046509 -0.5269 0.36235 0.3068 0.31143 0.67331 0.21859 -0.20535 -0.78763 -0.208 0.022097 0.35875 -0.479 0.015479 -0.13216 0.30112 -0.46959 0.40331 -0.60674 0.1143 -0.20721 -0.0074837 -0.15259 0.2309 -0.16047 -0.37491 -0.070847 0.56332 -0.28188 0.65236 -0.047942 -0.58379 -0.091279 -0.43434 0.16602 -0.066085 0.31016 0.055381 0.34503 -0.75381 0.18479 0.10751 0.4104 0.021786 -0.42107 0.53749 -0.25184 -0.012838 0.56256 0.25257 0.18589 -0.4568 -0.34341 0.013423 0.4611 0.24742 -0.19306 0.31295 -0.083427 0.28836 0.037691 -0.49476 -0.13959 -0.40452 0.011789 -0.044007 -0.47494 -0.10048 -0.049685 0.62914 0.60435 -0.32062 0.53703 0.42215 -0.0028579 0.45816 0.045924 0.05196 -0.48961 -0.33457 0.1154 0.12968 0.53483 -0.23978 -0.1936 0.0014727 -0.067974 -0.088347 1.9027E-4 0.60165 -0.70036 0.43 -0.087251 0.39641 0.036786 -0.046084 0.31738
institution -0.061343 0.056638 0.046343 0.038176 0.26391 0.21321 -0.096367 -0.29889 -0.62631 0.33369 -0.35043 -0.2781 -0.16568 0.0052387 -0.23411 0.23177 -0.19286 -0.32391 0.98554 -0.42046 0.22773 -0.26088 -0.3102 -0.60588 -0.36225 0.32246 -0.28149 -0.28098 -0.09969 0.02283 0.088919 -0.0098874 0.16006 -0.11232 0.085224 0.12142 0.16731 0.08607 -0.23601 0.18963 -0.014349 0.20224 -0.031056 0.036026 -0.13368 -0.24157 0.063652 0.37791 0.14855 -0.0302 -0.67202 0.080902 -0.11135 -0.1327 -0.047381 0.45632 -0.24942 -0.22901 -0.20269 0.099979 0.32325 -0.417 -0.27669 0.027543 -0.32897 -0.15956 -0.148 -0.082466 -0.52032 -0.27832 -0.1801 0.60394 -0.19648 0.52776 0.0040535 -0.34625 -0.06069 0.21166 0.49457 -0.0022913 -0.098545 -0.32098 0.4018 -0.16717 0.099978 -0.15382 -0.51811 -0.042542 -0.45223 0.44502 0.19219 -0.072773 0.034802 -0.5017 -0.16804 0.30457 0.096055 -0.36311 0.091176 -0.053344
bird -0.17023 -0.0013565 -0.20645 -0.52201 0.42999 -0.62879 -0.021269 -0.12747 0.65883 -0.14262 -0.37592 -0.35717 -0.10757 0.049355 -0.45019 0.47331 -0.58248 -0.59382 0.12404 -0.6298 0.68584 -0.19528 0.12649 0.31405 0.51538 -0.566 0.25156 -0.063323 -0.2762 0.40671 -0.075016 0.5517 -0.56394 -0.43153 -0.011107 0.076654 0.43062 0.28839 -0.74172 0.39312 0.21436 0.46789 0.3216 0.33483 -0.29557 -0.77566 -0.46136 0.11767 0.093957 0.54069 0.4576 0.059922 0.21978 0.284 -0.48486 0.21919 -0.30536 0.11983 -0.01876 0.4903 0.23578 -0.028655 0.56929 -0.074734 0.1014 -0.40483 0.37955 -0.38063 -0.33229 -0.10196 0.12671 -0.046764 0.023616 0.51765 -0.3076 -0.25787 0.29782 -0.0031791 0.32205 -0.37416 0.58686 -0.35939 0.18286 -0.02511 0.1405 -0.020434 -0.034978 -0.48789 0.19345 0.51119 0.15529 0.0089611 0.27564 -0.035104 -0.32534 0.27693 -0.43556 0.25927 0.092093 0.45954
Brazil 0.2075 -0.068705 0.13527 0.23785 0.48703 0.015741 0.46786 0.026993 0.85345 0.37545 -0.87366 0.81251 -0.3559 -0.016699 -0.2404 -0.22444 0.0086602 0.25747 -0.31093 -0.4083 0.56912 -0.17824 0.33767 -0.0041991 -0.42273 -0.17082 -0.27941 -0.23252 -0.18499 0.50454 0.014897 -0.10385 0.063402 0.10994 -0.29021 -0.071948 0.07148 -0.2458 -0.037792 0.44694 -0.2413 0.044894 0.25933 0.60871 -0.087608 -0.0043681 0.0059102 0.35702 1.0229 0.026915 0.20373 0.1094 0.18802 0.046715 -0.40675 0.29912 0.14306 -0.015831 0.036933 0.22423 0.53337 -0.071471 -0.1767 0.20086 0.10763 -0.30409 0.08181 -0.10617 -0.24614 -0.2679 -0.11919 0.25689 0.22418 -0.66514 -0.49802 -0.2177 -0.2212 0.40182 0.33911 -0.23535 0.23796 0.022472 -0.89327 -0.1258 0.38063 0.30302 -0.88463 0.41733 -0.6049 0.046985 0.21767 0.46312 0.028781 -0.039814 -0.18893 0.15166 -0.31868 0.0062406 -0.3484 0.20578
warning -0.081897 0.35044 -0.38576 -0.29059 -0.24637 -0.71776 0.28848 0.049999 -0.10283 -0.6091 0.024659 -0.77438 -0.30904 -0.25462 0.11049 0.067437 -0.42423 0.31414 0.034461 -0.067023 0.28847 -0.51321 0.15876 0.26785 -0.2511 -0.1828 0.47663 -0.012017 -0.18139 -0.5826 -0.12101 0.27259 -0.30598 -0.087091 0.14233 0.2263 0.076476 0.22599 0.3548 0.25363 -0.25665 0.2958 0.032969 0.51172 -0.039529 0.17183 -0.071025 0.41922 0.062269 -0.28575 -0.34851 -0.29905 -0.19012 0.16283 -0.53471 0.12672 -0.2427 0.050648 0.18789 0.5787 0.343 -0.07896 0.56424 -0.048594 -0.064423 -0.28263 0.27576 -0.17747 0.16632 -0.71757 -0.25199 0.50768 -0.38312 0.2168 -0.66583 -0.75595 -0.37377 0.18371 0.22078 0.12579 -0.14498 0.059924 0.14532 -0.19816 0.0025189 0.21731 0.21296 0.29375 0.021361 0.13788 -0.23238 0.36188 -0.11672 -0.19823 -0.30834 0.49485 0.39348 0.16944 -0.053174 0.18001
implement 0.35983 -0.09122 -0.17399 0.22467 -0.16615 -0.0234 -0.027484 -0.3834 -0.28057 -0.37113 -0.32223 -0.34285 -0.24785 0.25161 -0.057567 -0.1443 -0.015667 -0.23502 0.78417 0.34952 0.27178 -0.1639 -0.087657 0.1206 0.062086 0.085375 -0.13991 0.2487 0.032638 -0.075109 -0.016821 0.19401 0.17987 0.2 0.042037 0.49717 0.52968 0.135 0.19472 0.29104 -0.75958 -0.11103 0.099241 -0.14143 -0.3832 0.1003 0.043458 0.58706 0.35346 -0.46046 -0.62241 -0.59836 0.083333 -0.094729 -0.80912 0.1674 -0.54853 -0.41567 -0.15875 0.31863 0.57906 -0.0395 -0.19028 -0.087731 -0.37736 -0.28033 -0.59126 0.3995 -0.04769 -0.30092 0.65266 0.10403 0.063307 0.15084 0.31447 -0.7257 0.032874 -0.20188 -0.09956 -0.31279 -0.28177 0.29195 -0.31158 -0.38777 -0.0039217 0.0066672 -0.34311 -0.19428 -0.041078 0.48063 0.1886 0.19877 0.13669 -0.25584 -0.34808 0.19874 -0.059289 0.58874 0.1199 -0.22153
train -0.48986 0.43342 -0.20188 -0.31816 -0.022592 0.25292 0.37498 0.1558 0.10983 -0.043743 0.28063 -0.038593 -0.027316 -0.12995 -0.31875 0.11699 -0.22636 -0.096037 -0.2163 -0.17029 0.11405 0.2524 -0.19137 -0.40375 0.34058 -0.057011 0.36861 -0.21736 0.48839 -0.18723 0.20293 0.15635 0.099667 -0.26888 -0.30701 -0.084298 0.17828 0.089615 -0.011853 0.0014435 -0.70892 0.65197 0.57316 -0.17418 -0.29849 0.011081 0.038125 0.027322 0.042672 0.52773 -0.10605 -0.61259 0.70298 -0.19712 -0.64069 0.077669 0.030995 0.09726 0.085956 0.16153 0.24312 0.34881 0.090754 -0.39377 -0.70984 -0.49928 -0.27797 -0.30727 5.2516E-4 -0.10781 0.60231 0.47326 -0.45059 -0.12011 -0.51137 -0.6495 -0.040765 0.2096 0.76688 0.15493 -0.30044 -0.12251 -0.18197 -0.13807 -0.044298 0.058512 -0.25761 0.096262 -0.058275 0.047067 0.15189 0.18587 0.17809 -0.71258 -0.062272 0.31676 -0.71626 -0.0055971 0.39926 -0.0071181
area -0.10485 -0.34701 0.34288 -0.37039 0.10508 -0.32588 0.054045 -0.12921 0.17183 -0.080728 -0.038916 -0.52259 -0.095341 -0.21793 0.38261 -0.12509 -0.2105 -0.0069203 -0.038714 -0.32208 0.11843 0.16324 -0.1509 0.23708 0.052261 0.42172 -0.086075 -0.12337 0.21038 0.13287 -0.11715 -0.16319 0.26639 -0.46114 -0.21478 -0.24231 0.50065 0.47724 -0.12507 0.004333 -0.13366 0.65457 -0.41103 0.27342 -0.14685 -0.75469 -0.11514 0.23309 0.62617 -0.21499 0.30257 -0.13068 0.014612 -0.034357 -0.74764 0.22119 -0.28557 -0.11133 0.07388 0.30582 0.28773 -0.10491 -8.7552E-4 -0.12798 -0.4214 -0.1786 0.0045798 -0.28492 -0.32568 -0.13818 0.037222 0.047046 -0.20671 0.0987 -0.16694 -0.63696 0.064717 0.36206 0.20264 0.056063 -0.11047 -0.31117 -0.14612 -0.042884 0.20511 -0.096996 -0.081407 0.22208 0.091571 0.44696 -0.049434 -0.04995 0.0077469 -0.24793 0.24259 -0.0324 -0.15577 -0.18671 0.28846 0.1765
image -0.44045 -0.041558 0.31009 0.0077958 0.52753 -0.19794 0.2152 -0.2536 0.16535 0.27307 -0.5874 -0.22383 -0.99355 -0.34571 0.074245 0.071918 -0.015267 -0.75245 0.41604 -0.11537 0.28932 -0.38283 -0.24823 0.14915 -0.023708 -0.039585 0.34002 -0.45286 0.042831 0.16588 -0.015963 0.16371 -0.19363 -0.52007 0.067432 -0.13224 -0.10493 0.22202 0.18976 0.010864 -0.05563 0.26286 0.22108 0.09721 -0.23947 -0.018851 0.10942 0.10662 0.092902 -0.18067 -0.062366 -0.12018 0.40735 0.10143 -0.26129 0.22939 -0.44193 -0.29505 -0.15461 -0.50983 0.44718 0.59078 -0.091542 0.23798 -0.38561 0.39539 0.20333 0.27391 -0.1514 0.13168 -0.090919 0.31199 -0.49777 0.24393 -0.23238 -0.63373 -0.12028 0.011293 0.22583 -0.24652 0.5979 0.18895 0.39808 0.14509 0.20722 0.24345 -0.30773 -0.41747 0.058698 0.16069 -0.01331 0.44125 0.56204 -0.12303 -0.29699 0.39785 0.20923 -0.43211 0.085042 0.33536
murder -0.045185 -0.33975 0.43937 0.37789 -0.28756 -0.51968 0.60478 -0.44737 -0.13095 0.085937 0.19318 -0.9253 0.72726 0.062619 -0.21143 0.45702 -0.5591 -0.60949 -0.26735 -0.35173 0.57164 -0.27606 0.28857 -0.74897 0.52932 -0.33693 -0.52098 -0.047638 0.070891 -0.083193 0.14685 0.20396 0.024501 0.15021 -0.38097 -0.48411 -0.61841 -0.16515 0.018119 0.13979 -0.15521 0.062114 0.34552 -0.13816 -0.086244 -0.54875 0.41469 -0.10341 0.74181 -0.65359 -0.11814 -0.17804 0.49035 -0.015773 -0.60762 0.54996 -0.10829 0.069064 -0.020657 0.2305 0.15958 0.064692 -0.25007 -0.47595 -0.13469 0.39332 -0.70913 0.54915 -0.67484 -0.047402 0.24502 0.098967 -0.19464 0.19758 -0.4273 -0.037836 0.69393 -0.18508 0.35019 1.0429 0.11129 -0.035805 0.13446 0.10925 0.3114 0.25827 -0.4393 -0.19873 -0.049648 0.65511 -0.21509 0.17083 0.47797 -0.2556 -0.14836 0.62645 -0.15682 -0.80528 -0.22742 0.28408
journey -0.45474 -0.19312 0.060688 -0.50927 0.010235 -0.28391 0.61158 0.23881 0.38888 -0.23199 -0.43425 0.13784 0.41142 0.09472 0.040745 -0.14442 -0.44333 -0.11865 0.31498 -0.47298 -0.062268 0.23759 -0.20824 -0.1261 0.65536 -0.18925 0.4051 -0.4098 -0.11141 0.056984 0.23323 0.20642 0.087445 -0.35012 -0.70715 -0.055416 -0.41723 0.039793 0.0413 0.026048 -0.62354 0.46317 0.33052 -0.075381 -0.43097 -0.29512 -0.10284 0.044543 -0.056443 -0.1506 0.03774 -0.22434 0.73419 0.16916 -0.47365 -0.4228 -0.36352 -0.33432 -0.58474 0.054311 0.13844 0.065982 0.0022764 0.096079 -0.89717 -0.10198 -0.36634 0.13836 0.65276 -0.11997 0.28294 0.22676 0.061332 0.30779 -0.11923 -0.34855 0.055283 0.23475 0.75003 0.25294 0.15769 0.13026 0.071165 -0.26003 -0.0024425 0.15656 -0.28338 0.17002 -0.59002 -0.17005 0.19528 0.82646 0.10213 -0.16368 0.20238 0.58072 -0.58501 -0.10844 0.011946 -0.36674
minister 0.94811 -0.19411 0.11266 -0.099293 -0.089919 -0.71558 0.17657 -0.23106 -0.070639 -0.081297 -0.93361 -0.26349 0.06312 0.23422 -0.54546 0.53011 0.016823 -0.031153 0.020404 0.61844 1.0588 0.18122 -0.17592 -0.1168 -0.46097 0.27267 0.16393 0.26573 -0.41489 -0.21597 0.12598 -0.19722 0.30179 -0.41706 0.0010303 0.11075 -0.0098113 -0.36854 0.16904 0.2907 -0.34863 0.76192 0.45234 0.31598 -0.059699 0.21308 0.59929 0.1268 0.99612 -0.67517 -0.7503 -0.42291 -0.49392 0.097962 -0.77763 0.24596 0.093549 0.19988 -0.37641 -0.18779 0.075698 0.0055427 0.0029262 0.21612 -0.23775 -0.3643 0.023992 -0.042451 -0.10405 -0.061127 -0.32284 0.14114 0.2383 0.29597 -0.16162 -0.043166 0.143 0.32632 0.26043 0.47838 0.24504 0.067535 -0.29944 -0.014206 0.11831 -0.68785 -0.35083 -0.69922 0.3703 -0.15056 0.71369 0.1236 0.46944 -0.24458 0.30047 0.56445 -0.4354 -0.40027 -0.13964 0.41433
planet -0.25513 -0.30619 -0.4497 -0.2902 0.32842 -0.22451 -0.21562 0.20626 0.25074 -0.1352 -1.0822 -0.052108 -0.37359 0.042508 0.18718 0.0039353 -0.33193 -0.67987 0.41374 -0.88139 0.33251 -0.30027 0.35 -0.208 0.0075997 -0.72294 -0.043104 -0.15891 0.35098 0.36587 0.040134 0.85482 0.19409 -0.66974 0.071259 0.087919 -0.55113 -0.33958 -0.091332 0.16919 -0.088364 0.41219 0.042408 0.48279 0.18148 -0.8059 -0.13469 0.16419 0.20164 -0.069921 -0.011049 -0.010326 0.16285 0.059574 -0.25742 0.1955 -0.070004 0.081864 -0.39895 0.13491 0.52103 0.32381 -0.15565 0.089061 1.9743E-4 0.25804 -0.11845 -0.17551 -0.27361 -0.17752 0.28744 -0.18267 0.15915 -0.13142 -0.14687 -0.61878 0.31236 0.42839 0.25562 -0.64867 -0.090634 -0.0078097 -0.059727 -0.38526 0.51542 -0.48118 -0.35839 0.31359 -0.28412 0.42855 0.16349 0.21911 0.68478 0.58099 -0.008738 0.11456 -0.20641 -0.69227 -0.21837 0.5675
article -0.72492 -0.56342 0.35294 0.3509 -0.4589 -0.005283 0.38887 0.12352 0.35689 -0.22351 -0.44011 0.18451 0.06267 -0.27732 -0.82849 -0.40486 0.51138 -0.62436 0.54522 -0.62486 0.59022 -0.17911 -0.28679 -0.28355 0.1372 0.32125 0.19229 -0.74395 -0.28616 -0.13683 0.5 0.098879 -0.22879 -0.59962 -0.73136 -0.017656 -0.71954 1.0572 -0.15759 0.41519 0.080029 0.20514 0.16813 0.12958 -0.8411 0.18791 0.30303 0.34002 0.41845 -0.13534 -0.40056 0.16286 -0.22633 0.3199 -0.89431 0.5992 -0.44181 -0.12718 -0.45399 0.76921 -0.027205 0.48088 -0.28836 0.24127 0.27916 -0.25735 -0.50449 -0.51438 -0.51408 0.25899 -0.132 -0.15539 0.22013 0.39688 -0.33457 -0.24099 0.21518 -0.16576 -0.20936 0.70368 0.29103 0.36563 0.62016 -0.91211 -0.053221 -0.38112 0.21579 0.38297 0.59932 0.26015 0.12988 0.42035 0.5225 -0.43255 -0.43202 0.53915 0.64341 0.32174 -0.30722 -0.28063
anxiety 0.095855 0.0023574 -0.15505 0.39108 0.46471 0.18386 0.27389 0.040423 -0.039388 -0.11666 -0.29148 0.088521 -0.14887 -0.089063 0.097796 0.17978 -0.27228 0.10341 -0.0011475 -0.20097 0.14675 -0.4093 -0.1074 -0.46376 -0.69631 -0.020146 0.86543 0.0028186 -0.057323 -0.32756 0.23308 0.24197 0.25971 -0.50852 -0.026665 -0.86381 -0.05998 -0.19207 -0.67529 -0.42995 -0.41705 -0.1307 -0.2377 0.21727 -0.24642 0.013892 -0.036182 0.36315 -0.19213 0.01235 -0.38278 0.11873 0.17001 0.28543 -0.34989 -0.01959 -0.49449 0.22743 0.26715 0.44213 0.17894 -0.11499 0.88693 -0.052784 -0.22306 -0.12835 0.12223 0.41291 0.30748 -0.5738 0.20977 0.38056 -0.19119 1.2781 -0.66564 -0.24244 -0.09007 -0.065663 0.15704 0.39906 -0.3376 -0.047916 0.16208 -0.26748 0.29843 -0.13085 -0.45621 0.11565 0.14839 0.21823 0.54658 0.28765 -0.037999 0.15292 0.12346 0.21281 0.25137 -0.27219 0.27633 0.47268
month 0.2788 0.17225 -0.070539 0.045511 -0.010255 0.0257 0.3145 -0.33758 0.074674 -0.071776 0.084529 -0.36274 0.41619 -0.28322 -0.10024 0.10856 -0.17619 -0.010955 0.10847 -0.31258 0.18893 -0.23894 -0.35809 -0.036365 -0.42676 -0.59079 0.19919 0.13966 -0.32395 0.1058 0.20632 -0.49908 0.020076 -0.56344 -0.40294 0.097419 0.18083 0.074911 0.12442 0.68407 -0.0074897 -0.10368 0.087252 0.54306 -0.39321 0.053774 0.22982 0.09589 0.35086 -0.42012 -0.12842 -0.045315 -0.011889 -0.35714 -0.17238 0.54097 -0.52391 -0.22726 0.023678 0.42993 0.61449 -0.018002 -0.18482 -0.03117 -0.38309 0.15278 -0.15021 -0.19652 -0.018564 -0.17703 -0.45436 -0.11166 -0.17442 -0.050794 -0.035505 0.044296 0.01921 0.26769 -0.045874 -0.09157 -0.035579 0.091643 0.30181 0.14544 -0.095825 -0.028365 -0.51976 0.27111 0.078082 -0.28644 0.1408 0.59871 0.02674 8.8898E-5 -0.0052733 0.19026 -0.28255 0.20466 0.57355 0.10459
carnivore -0.97552 -0.38413 0.00631 -0.098539 0.33322 -0.27313 -0.28595 -0.10141 0.67865 -0.34785 -0.84951 -0.055116 0.13578 -0.19956 -0.039137 0.32477 -0.39633 -0.34232 0.20877 -0.64324 0.4706 -0.11107 0.024386 0.11667 0.14814 -0.36605 -0.4849 -0.12223 -0.25849 0.18385 0.57412 0.52249 -0.017816 -0.26889 -0.038977 -0.1827 -0.088744 0.0054637 -0.8705 0.53351 -0.16599 0.2713 -0.47402 -0.1325 0.17358 -0.39293 -0.4687 0.63483 0.11628 0.23944 -0.064176 0.10239 0.34603 0.19391 -0.46905 0.11037 -0.074598 0.43447 -0.21469 0.25087 0.5362 -4.1169E-4 0.21442 -0.37405 0.41778 -0.22189 0.1623 -0.12667 -0.46843 0.044349 0.43191 -0.041581 0.1622 0.22941 -0.3673 -0.20118 0.16305 -0.18836 0.17842 -0.040266 0.1551 -0.18852 -0.2152 -0.2326 0.21586 0.018792 -0.52369 -0.50122 -0.36065 0.25126 0.44177 0.10526 0.42009 0.5532 0.16844 0.41677 -0.33747 -0.26277 -0.17734 0.22142
party 0.19182 0.1064 -0.40431 0.0097902 0.45052 -0.40184 0.47031 -0.39444 -0.20213 0.42291 -0.63836 -0.2983 -0.26758 0.012376 0.085461 0.25347 -0.098036 -0.29895 0.075168 0.10406 0.69952 0.15122 -0.59656 -0.47775 -0.093663 -0.13301 -0.23798 0.13108 -0.3614 0.061861 0.19172 -0.46099 0.31535 -0.63092 0.51087 -0.066064 0.40762 -0.063457 0.029111 0.63989 -0.30735 0.49303 -0.1111 0.09681 0.2056 0.03557 0.099891 -0.011235 -0.14848 -0.2848 0.12491 -0.27749 -0.44389 0.047334 -0.25033 0.17842 -0.22777 -0.14315 0.17738 -0.1741 -0.050375 0.0041935 -0.19323 -0.21171 0.23644 0.072419 -0.32106 -0.2083 0.27761 -0.14953 0.16911 -0.032037 -0.036327 0.3454 -0.13496 -0.12606 -0.2687 -0.19648 0.43645 0.35516 -0.21949 0.21718 -0.029518 -0.19396 0.28497 -0.14744 -0.20422 -0.67842 0.15684 0.050928 0.22126 0.38433 0.79849 -0.72543 0.075309 0.36456 -0.67507 -0.31892 -0.018057 0.1106
production -0.1979 0.36909 -0.35445 0.19669 -0.39578 -0.0038909 -0.031417 -0.62662 0.076448 0.22523 -0.054244 0.17565 -0.0090762 0.10593 -0.16904 -0.18525 -0.51544 0.078879 0.12768 -0.43885 0.54695 -0.37427 0.10598 0.50497 -0.59107 0.11886 -0.048994 -0.16068 -0.74463 0.21557 0.20304 0.74276 -0.25623 -0.14547 -0.27571 -0.059292 0.44427 0.4404 -0.0548 0.054901 -0.36575 0.2059 -0.098974 0.31801 0.13199 0.57716 -0.087975 -0.10012 0.05102 -0.1658 -0.0073557 -0.66495 0.83978 -0.040287 -0.49453 -0.18726 0.41338 -0.31427 0.44921 0.039524 0.15718 0.04991 -0.001171 0.33039 -0.61103 -0.19573 -0.17677 0.062163 0.15234 0.091719 0.17954 -0.33442 0.053507 -0.050566 0.12692 0.18433 0.25522 0.0061607 -0.0064143 0.042251 0.36504 0.024815 -0.059873 -0.35683 0.36226 -0.11333 -0.82082 0.27455 -0.22073 0.67916 0.40487 0.24808 0.040004 0.26765 0.46035 0.39119 -0.45819 0.46075 0.48218 0.46723
importance -0.2069 -0.22249 -0.091893 0.10712 0.48322 -0.15047 0.18436 -0.16193 -0.040456 -0.20641 -1.0613 0.19698 -0.33069 -0.099811 0.31194 -0.1319 -0.24527 0.061325 0.39066 -0.2833 -0.010183 -0.093014 -0.0080087 -0.11523 -0.43271 0.28455 -0.038346 -0.44837 0.29147 -0.22557 -0.21657 -0.06656 0.32416 -0.34746 -0.2663 -0.1329 0.33536 -0.11352 -0.26391 -0.22815 0.13576 0.34674 -0.074997 0.072863 -0.21618 0.10656 0.14761 0.53547 0.66428 0.36184 -0.26785 -0.48092 0.25918 0.33374 -0.50758 0.20934 -0.74846 0.010052 -0.042127 0.035867 0.41335 -0.11083 0.087189 0.18615 0.25736 -0.56612 -0.32122 0.65337 0.059354 -0.23981 -0.48443 -0.025334 8.8507E-4 0.67013 -0.45979 0.10322 -0.047914 0.1421 0.084312 -0.24601 0.34471 0.44573 0.54394 -0.20094 0.0022255 -0.23865 -0.27738 0.11689 0.044729 0.60158 0.044323 0.18566 0.10426 0.18066 0.1704 0.35631 0.053993 -0.01161 0.05952 0.24005
inmate 0.028658 0.012967 0.6524 -0.0057965 -0.022174 -0.63728 0.35828 -0.55239 0.10471 0.13856 0.19653 -0.94046 0.25116 -0.12449 -0.54893 0.29442 -0.48141 -0.73349 0.055607 -0.20942 1.0961 -0.69299 -0.07099 -0.14492 0.76828 -0.49251 0.16035 0.39666 0.33539 0.29228 0.29271 0.32224 -0.26073 0.31332 -0.96708 -0.10435 0.19588 0.13711 0.043785 0.042877 0.44194 -0.24875 0.028366 -0.03297 0.029824 2.0933E-4 0.17872 0.011002 -0.19306 0.050677 -0.19306 0.25038 -0.18104 -0.44961 -0.77855 -0.11421 0.32928 0.28185 0.21328 0.10287 0.24005 -0.0057341 0.29125 -0.054482 -0.46884 0.17269 -0.082295 -0.012445 -0.46607 -0.1163 0.36825 0.17658 0.10593 0.46941 0.52855 -0.036896 0.42997 0.37209 0.70478 0.65591 0.28147 -0.095266 -0.27567 -0.090794 0.059397 0.064642 -0.6398 -0.13491 0.054733 0.46061 0.73284 0.079218 0.27447 -0.72982 0.034712 0.14865 0.3512 -0.77867 0.10977 0.53341
Harvard -0.65159 -0.35725 0.26774 -0.46616 -0.062396 0.075465 -0.078625 0.40814 0.042299 0.49725 -0.078348 -0.32378 -0.31266 0.1148 -0.18575 -0.085858 -0.22874 -0.27761 0.7123 -0.47463 0.020153 -0.43618 -0.123 -1.1393 -0.475 0.14842 0.34776 0.093696 0.4712 0.2768 -0.070423 -0.023327 -0.28222 0.31192 -0.27677 0.6823 -0.60166 -0.47537 -0.03775 0.54399 0.13743 -0.075914 0.015301 0.24548 -0.10269 0.35097 0.1949 0.10849 0.2781 0.083008 -0.21944 0.56275 -0.12466 0.39396 -1.0261 0.72989 -0.062257 0.25292 -0.11581 -0.2284 0.15378 -0.82923 0.063388 0.19819 -0.43394 -0.40479 -0.22684 -0.21368 -0.53021 -0.48434 -0.47415 0.28582 0.18638 0.48794 -0.37854 0.1975 0.25091 -0.30515 -0.32687 0.31189 0.094903 -0.020709 0.21961 -0.63625 -0.099568 -0.079341 -0.1406 -0.3158 0.4712 0.21934 0.72599 -0.09335 0.43506 -0.5047 0.049577 0.54737 -0.31953 -0.1785 0.27843 -0.188
psychology -0.62021 -0.0033115 0.2995 0.18879 0.066668 0.52824 0.3423 -0.078918 -0.40565 0.49018 -0.25859 -0.49051 0.022254 -0.48909 4.058E-4 0.17077 -0.56031 -0.2523 0.39803 -0.56763 -0.092721 -0.33273 -0.29044 -0.57276 -0.7188 0.33803 0.41138 -0.10475 0.078443 -0.21011 -0.096642 0.37783 0.25931 0.21067 -0.055457 0.064149 -0.49764 -0.26718 -0.28971 -0.24571 -0.058358 0.23737 -0.088274 0.050181 -0.52115 -0.1367 0.10365 0.34034 -0.23734 -0.042041 -0.18034 0.29126 0.17911 0.0064028 -0.93467 0.56377 -0.57602 0.18376 -0.029007 -0.49825 0.16433 -0.36282 0.52487 0.53318 -0.37788 -0.41224 -0.043215 0.38309 -0.59201 -0.57285 -0.15991 0.3691 0.29557 0.36933 0.22949 0.14324 0.50599 -0.44949 0.10918 0.78542 -0.021754 -0.17585 0.32739 -0.7983 -0.04373 -0.27254 -0.20371 -0.01313 -0.26328 0.49201 0.5793 0.11448 0.30558 0.047259 -0.0010376 0.3715 0.0074723 -0.27191 0.28161 0.25472
medal -1.0953 -0.059691 0.35272 -0.75732 0.51997 -0.45945 1.3499 0.17763 -0.091889 0.080314 -0.25674 -0.24472 0.17178 -0.25498 0.37936 0.15654 -0.26738 -1.0266 -0.34511 -0.046746 0.34009 -0.30235 -0.7159 -0.47686 -0.084867 -0.22706 0.034531 -0.2136 0.50718 0.31221 -0.039406 0.81256 0.94885 -0.42377 0.10671 0.26643 -0.0055153 -0.4321 0.47877 -0.071146 0.79067 0.35086 0.54089 -0.06354 0.22244 0.50235 0.56662 -0.036852 0.85776 0.16101 0.44246 0.027115 0.055895 -0.086596 -0.70428 0.2535 0.19084 -0.14897 -0.27268 0.45375 0.6501 0.33219 0.2603 0.081856 0.54276 0.30906 -0.92233 0.26769 0.26794 -0.62958 0.51414 0.41251 0.16226 -0.1659 0.15164 -0.13993 0.14971 0.28005 0.52802 0.19012 0.13764 -0.70543 0.061762 -0.30127 0.37445 0.17904 -1.0454 -0.24714 -0.28675 -0.67849 0.04338 -0.16175 0.52088 -0.12529 -0.43056 0.72685 0.096546 0.50002 -0.42821 0.022695
company -0.17564 0.18104 -0.43157 -0.30412 -0.16821 0.044119 0.0064016 -0.24149 0.17552 0.23448 -0.20953 0.035416 -0.21973 -0.27223 -0.15159 0.058959 -0.08176 0.15396 0.45437 -0.2105 0.63074 -0.1753 0.33086 -0.19395 -0.20318 -0.26354 -0.14427 0.13099 -0.39626 -0.035222 0.25813 -0.039914 -0.19652 -0.32642 -0.39956 0.076398 0.22662 0.62002 0.24671 0.28937 0.06713 0.31466 -0.30949 -0.13083 -0.25915 0.50406 -0.17999 0.24799 0.21494 -0.3298 -0.40221 -0.25428 0.17149 -0.16782 -0.41492 0.23732 0.057909 -0.034266 0.3269 -0.31507 0.1796 -0.1891 -0.21444 -0.082095 -0.12349 -0.037977 0.0038992 0.066492 -0.020982 -0.24627 0.2046 0.0092719 0.10729 -0.062709 -0.10566 -0.45953 0.20568 0.19497 0.20579 -0.080989 0.18926 -0.056158 0.26283 -0.086359 0.14401 -0.50766 -0.81591 -0.038432 -0.25847 0.30527 0.18411 -0.33218 0.092547 -0.27173 0.16514 0.097156 -0.0037789 0.45116 0.3397 0.10637
live 0.12296 0.08777 0.10027 -0.22894 -0.094432 0.24909 0.13816 -0.23582 -0.21089 -0.10902 -0.13228 -0.38896 -0.11292 -0.006091 -0.10249 0.50459 -0.13116 -0.55887 0.31828 -0.68662 -0.13279 -0.06136 -0.36369 0.071327 0.19882 -0.11891 0.35877 -0.36477 0.021954 0.31632 0.6017 -0.062559 0.19089 -0.7764 0.0075042 -0.018416 -0.27979 0.5466 -0.14633 0.064019 -0.17275 0.37791 0.19656 0.29165 0.04657 -0.54131 0.069051 0.18954 0.25879 -0.25516 -0.22771 -0.11215 0.13577 0.25745 -0.73505 -0.38726 -0.14267 -0.24948 -0.092692 -0.0090223 0.34814 -0.42973 0.10617 -0.0077732 -0.035792 -0.41829 0.25696 0.24531 0.068281 -0.11306 0.41579 -0.14501 0.26751 -0.13421 -0.2703 -0.42983 0.29061 0.003736 0.15121 -0.11292 -0.0031561 0.15762 -0.71576 -0.25599 0.0043292 0.40722 -0.50749 -0.15784 -0.35911 0.093083 -0.029471 -0.054839 0.34382 0.17536 0.72539 -0.33241 -0.040766 -0.32688 0.049872 0.23332
holy -1.0887 0.16694 0.14061 -0.22741 0.30237 -0.5746 -0.16434 -0.66734 0.31243 0.3204 -0.231 -0.26442 -0.0028411 0.17686 -0.10883 -0.030154 -0.17913 -0.64244 0.716 -0.82516 0.11608 0.33956 -0.083945 0.28455 0.35361 -0.71595 0.32442 -0.3934 -0.075957 -0.5754 0.067813 -0.22083 0.098183 -0.06073 -0.19634 0.183 -0.0030544 0.052422 -0.30086 0.31596 -0.44577 0.23511 0.23101 -0.29749 -0.18493 -0.30335 1.035 0.46638 0.66707 -0.1388 -0.41767 -0.6132 -0.41671 0.0091591 -0.86346 -0.2809 0.004526 0.52598 -0.26341 0.18734 0.26047 0.25092 0.47581 0.2115 -0.60487 -0.10204 -0.20849 -0.43267 0.45245 -0.56728 -0.5748 -0.16796 -0.64661 0.17814 -0.83261 0.64788 0.6529 0.17243 0.56472 -0.099051 -0.65848 -0.14482 -0.2566 -0.26618 -0.11058 0.39117 -0.49226 -0.23292 0.0032777 -0.20188 0.29583 0.54214 0.10839 0.34378 0.20894 0.38855 0.059891 -0.20398 -0.02542 0.22042
ticket -0.33479 -0.11114 -0.70187 -0.15229 0.50051 0.212 0.55795 0.14809 -0.0032081 0.17457 0.40829 0.0042659 -0.10294 -0.28459 -0.22447 -0.10681 -0.88452 -0.17963 -0.12179 -0.26248 0.24121 -0.25342 -0.35706 -0.15946 0.16178 -0.77736 0.0492 -0.082405 -0.20909 0.4628 -0.047946 0.087766 0.44233 -0.45571 0.11883 -0.043617 0.15605 0.26946 0.2398 0.55639 -0.30296 0.42251 -0.34597 -0.03488 -0.19347 0.38196 0.20102 -0.13698 0.65519 0.50082 0.21162 -0.193 0.020005 0.011642 -0.37146 -0.015266 0.020075 -0.39667 0.43365 -0.1102 0.52959 0.46605 -0.25977 -0.091548 0.10131 0.11226 0.13925 -0.1795 0.64237 -0.36012 0.38567 -0.099613 0.13657 0.58072 -0.03928 -0.59444 -0.17207 -0.43539 0.41972 0.0077512 2.5859E-4 0.23242 0.27219 -0.10121 -0.23452 0.396 -0.33132 -0.08894 0.34284 -0.18503 -0.13174 0.61323 -0.2506 -0.82964 0.21845 0.36593 -0.4 -0.20165 0.54038 -0.27626
victory 0.023949 -0.89326 0.01162 -0.4196 0.24401 -0.97981 0.79842 -0.027577 0.031283 0.039912 -0.10906 0.28089 -0.59959 -0.75246 0.72042 -0.030779 0.02146 -0.2665 0.046782 -0.054519 -0.21306 -0.32186 -1.2074 -0.33146 -0.22614 -0.056389 0.25514 0.048822 -0.18095 0.11912 0.016496 0.10901 0.26158 -0.55176 -0.5485 -0.035645 0.20362 0.33461 0.16139 0.082655 0.15928 -0.20048 0.84829 0.016044 0.29982 0.090583 0.1359 0.17827 0.16882 -0.10999 -0.164 -0.15213 0.015524 0.073847 -0.33954 0.21103 -0.3224 -0.22244 -0.25138 -0.16861 0.46106 -0.12077 -0.13423 0.11622 -0.045165 0.48307 -0.59627 0.43319 0.24553 -0.74629 -0.10623 -0.11813 0.39635 -0.10638 -0.47591 -0.036629 0.14169 -0.083577 0.44401 0.63658 -0.34869 -0.058413 -0.30646 -0.51024 -0.01699 0.30195 -0.43023 -0.046957 0.024529 -0.37996 -0.1402 0.085638 0.1908 -0.58598 -0.27942 0.90243 -0.40109 0.16937 -0.37413 -0.02699
football 0.083635 -0.34265 0.078645 -0.20528 -0.19411 -0.026673 0.25124 -0.0071705 0.30232 0.28912 -0.38074 0.02969 0.20934 -0.081636 -0.21319 0.1907 -0.62776 -0.57832 0.18717 -0.92092 0.13646 0.02828 0.010981 -0.34885 -0.51408 -0.017037 0.39898 -0.37396 -0.17602 -0.1377 -0.28591 -0.068054 0.41529 -0.38004 0.23876 0.40117 0.17931 0.20592 0.31456 0.13143 -0.30691 0.37988 -0.16498 0.27504 0.49435 -0.014837 0.011567 0.15981 0.29284 0.44346 -0.12745 0.11721 0.43484 -0.51882 -0.056653 -0.035549 -0.21444 0.26065 -0.036119 -0.44646 0.88123 0.3763 0.058311 0.35353 0.23013 -0.22866 -0.42611 -0.0078536 -0.82906 -0.50399 0.34851 0.26278 -0.25937 0.024492 -0.14467 0.23665 0.10189 -0.14224 0.39447 0.42569 0.066251 0.2325 0.0712 -0.52637 0.084899 0.61481 -0.56836 -0.38159 -0.4592 -0.2652 0.27404 -0.55048 0.25673 -0.64359 0.21548 0.10528 -0.37051 -0.40149 -0.013637 0.30806
seepage -0.66004 0.13114 -0.18307 0.097631 -0.2162 -0.29391 0.19741 0.1084 0.42333 0.060534 -0.044542 -0.032228 -0.33998 0.18152 0.45108 -0.26903 0.12625 -0.34678 0.54927 -0.45494 0.67345 -0.23226 0.40654 0.048047 0.14413 0.062166 0.14666 -0.32669 -0.53219 0.22076 0.29787 0.58583 -0.24405 -0.46854 -0.14321 -0.048299 0.056316 0.15159 0.066388 0.012439 -0.46232 0.22022 -0.076275 0.20296 -0.1187 -0.33218 -0.025949 0.61027 0.17208 -0.14034 -0.053016 -0.27251 0.28012 -0.13646 -0.84714 0.31086 -0.31421 0.26174 -0.29259 0.25818 0.080524 0.015292 0.46099 -0.28974 -0.36229 -0.1544 0.091411 -0.24837 0.23864 -0.14278 0.1607 -0.050186 -0.29474 0.31547 -0.0076102 -0.39148 0.26232 -0.15919 -0.0062771 -0.08792 0.15989 0.10591 -0.044487 0.081455 0.44848 -0.17894 -0.032363 0.21941 0.054601 0.2254 0.43629 -0.2363 -0.10732 0.19955 0.021763 0.091205 0.44535 -0.22802 0.095695 0.54054
rook -0.56352 -0.52787 -0.17082 0.0092645 -0.20874 0.22884 0.1651 0.046703 0.69912 0.41837 -0.31818 -0.025864 -0.014651 -0.29568 -0.26279 0.59763 -0.61668 -0.59822 -0.46385 -0.35011 -0.0019407 -0.05938 -0.18871 -0.40718 -0.082972 0.030647 0.035901 0.080273 -0.15184 -0.0012319 0.10908 0.3657 0.14503 -0.45065 -0.55864 -0.067582 0.22235 0.40516 -0.13977 -0.077398 -0.35236 -0.013531 -0.21603 0.25916 0.059949 -0.54383 -0.10487 -0.23129 -0.01745 0.27512 0.12895 0.26808 -0.20056 -0.16623 -0.56808 0.085497 -0.28925 -0.18036 -0.15458 0.14199 0.61627 -0.31085 0.029039 -0.054816 -0.23153 -0.39909 -0.51129 -0.20703 -0.25683 -0.15809 0.32502 0.35577 0.0237 -0.059356 0.031962 0.058168 0.35848 0.006101 0.35723 0.26806 0.3361 -0.55133 0.07438 -0.37127 0.064179 -0.0062493 0.3084 0.17936 0.15946 0.36726 0.28296 -0.24864 0.10761 -0.16212 0.25497 0.20412 -0.27665 -0.42859 0.045324 0.39802
stroke -0.45219 0.027517 0.32644 -0.092533 0.23878 -0.31694 0.25302 0.5152 -0.09214 -0.016564 -0.57069 -0.27052 -0.080243 -0.22347 -0.013709 0.34827 -0.65677 -0.27077 -0.74939 0.4659 0.55724 -0.0089518 0.06322 -0.67739 -0.0031973 -0.058703 0.5073 0.025275 -0.5781 0.18525 0.24157 -0.060553 -0.33187 -0.19006 -0.33001 -0.050031 0.37282 0.13799 -0.045002 0.1072 0.44141 -0.28059 0.17961 0.86328 -0.10733 -0.32804 -0.3655 -0.029976 -0.20817 0.54748 0.034005 0.57143 0.19141 0.20768 -0.42056 0.2068 -0.34373 -0.28903 0.4311 -0.047151 0.32787 -0.92095 0.38831 -0.2103 -0.72893 -0.34634 -0.7742 0.11632 0.2849 -0.49639 0.68196 0.1358 0.35772 0.31456 -0.39925 -0.46219 0.3164 0.28101 -0.14961 0.17734 -0.3441 -0.087989 0.031326 -0.18272 0.79364 0.37143 -0.51937 -0.21175 0.16617 -0.13486 0.23754 0.32297 0.26395 -0.1845 -0.28147 0.73633 0.26226 -0.090455 -0.34576 0.82432
environment -0.12875 0.041364 -0.09669 -0.17797 0.22091 0.21545 -0.16308 -0.057181 -0.34983 -0.47727 -1.0909 -0.099792 -0.21263 -0.099276 -0.020494 0.1449 -0.17603 -0.26209 0.099578 -0.020824 -0.1448 -0.15422 0.093147 0.35674 -0.062102 -0.050312 -0.045293 0.43942 -0.1485 0.21303 0.025923 0.28967 0.036734 -0.43007 0.01686 -0.25397 0.077115 0.17156 0.14341 -0.075102 -0.57105 0.42574 -0.28141 0.34325 -0.048883 -0.15284 -0.4595 0.72122 0.26712 -0.35106 -0.29168 -0.15101 -0.21666 0.2088 -0.98948 0.2971 -0.25762 -0.04538 -0.25707 -0.0061865 0.64966 0.035307 0.039314 0.51213 -0.056662 -0.34046 0.32118 0.26294 -0.065275 -0.26486 0.058488 0.25719 0.4297 0.077226 0.030577 -0.05855 -0.17338 -2.0286E-4 0.36007 -0.28469 -0.033143 0.096906 0.18203 -0.33995 0.25973 -0.34136 -0.64774 0.090013 0.15303 0.5442 0.30822 0.089475 0.31775 0.12282 0.078527 0.17542 0.050263 -0.31903 0.022583 0.17493
coffee -0.74059 -0.33374 -0.11101 -0.35977 -0.16552 -0.39633 0.048713 0.031253 0.39327 0.06357 -0.018376 -0.2746 -0.34987 0.44436 0.16636 0.75146 -0.33456 0.093821 -0.071928 -0.12866 0.25109 0.17873 0.085815 -0.13683 -0.17457 -0.40728 -0.30537 -0.35106 -0.31945 0.40998 0.11337 0.49342 0.16779 -0.49371 -0.17301 -0.22557 0.089519 0.16669 0.15406 0.35397 -0.40793 -0.26664 -0.51545 -0.36229 -0.46149 0.088718 0.47482 0.59218 -0.049915 0.099523 0.16066 0.14402 0.20002 -0.12136 -0.81793 -0.053028 0.085649 -0.52946 0.24159 -0.0028575 0.22884 -0.098925 0.18169 -0.33082 0.22331 -0.49121 0.29257 -0.13919 0.08938 -0.01263 0.09532 -0.054995 -0.4638 0.4299 -0.74106 -0.18597 -0.12756 0.24905 0.067986 0.0026342 -0.036918 -0.16924 -0.029293 -0.30081 0.41981 0.1165 -0.84619 -0.22389 0.26962 0.016765 0.58412 0.014512 0.031681 -0.26403 0.65415 0.17468 -0.33885 -0.47326 0.073488 -0.14897
baby -0.071562 0.3544 -0.12848 0.25634 0.15995 -0.23911 0.41464 -0.13224 0.74612 -0.23784 -0.44784 -0.57673 0.11238 0.57421 0.13409 0.93137 0.20517 -0.41398 -0.061244 -0.26233 0.42257 -0.24372 -0.11518 -0.22626 -0.0099978 -0.56611 0.3794 0.15554 -0.2039 0.054216 0.40676 0.58759 0.0076869 -0.30091 -0.30172 -0.1982 -0.37566 -0.044755 -0.08055 0.022152 0.37952 -0.033665 -0.5953 -0.19371 -0.36384 0.18253 -0.25112 0.09656 0.16045 -0.072072 0.42145 -0.10429 0.22884 0.60986 -0.43422 -0.0041126 -0.18066 -0.22471 0.27137 -0.11093 0.61341 -0.132 0.4334 -0.3466 0.30498 0.01468 -0.78041 -0.47043 -0.27835 0.15978 -0.04542 -0.13516 -0.23351 0.1094 -0.018096 -0.58874 -0.1013 0.34067 0.51731 0.14283 0.78953 -0.17958 0.049935 0.033403 0.017715 0.13799 -0.49262 -0.31101 -0.23779 0.49979 0.54497 0.17996 0.20559 -0.37857 0.14066 0.24118 0.11018 0.096227 -0.066514 0.63067
personnel -0.023273 0.069872 -0.16269 -0.18684 0.25704 0.072108 0.49315 -0.47824 -0.25388 0.16442 0.14999 -0.18966 -0.29286 -0.093482 0.20482 0.18817 -0.1883 -0.107 0.11156 -0.097247 0.45002 0.031631 0.16206 0.258 -0.011494 -0.0083914 0.31018 0.26688 0.48329 -0.11935 0.050339 -0.11398 0.21988 -0.15578 -0.32263 0.10555 0.37314 0.004222 0.062805 -0.27707 -0.25567 0.42426 0.18813 0.10223 -0.065673 0.22843 0.15473 -0.012262 0.90678 0.074978 -0.18262 -0.21191 0.53475 -0.38679 -0.55552 -0.3892 -0.15585 0.26282 0.028136 0.43213 0.40335 -0.20434 -0.0059411 -0.3204 -0.38124 0.066175 -0.35761 0.025981 -0.88409 -0.17442 0.77965 0.6655 0.17791 0.30236 0.066655 0.28518 -0.28941 0.43095 0.37549 -0.3208 -0.30342 0.31723 0.5051 0.12601 -0.31838 -0.16048 -0.24726 0.084975 0.36845 0.58784 0.45379 -0.23826 -0.032777 -0.63201 0.42188 0.18873 0.01376 0.446 0.45495 0.5073
family -0.14214 0.034063 0.021829 -0.37103 0.073206 -0.085451 0.25614 -0.34271 0.2312 0.33914 -0.1886 -0.65354 -0.039314 0.43221 -0.19123 0.084261 -0.049621 -0.34947 0.026268 -0.41509 0.13369 -0.18395 0.047162 -0.50449 0.41927 -0.44586 0.28391 0.12361 -0.30509 -0.35782 0.33527 -0.25388 0.20153 -0.47926 -0.25759 -0.14153 -0.10168 0.081855 -0.07628 0.21906 0.039749 0.33196 -0.15063 -0.20859 -0.19332 0.066118 -0.091645 0.087878 0.2588 -0.35104 0.25273 -0.1438 0.10567 0.055679 -0.43525 -0.26675 -0.47254 0.11338 0.33223 -0.2686 0.033669 -0.39703 0.024458 0.25002 0.15812 -0.26378 -0.062403 0.29197 -0.36112 0.14662 0.25716 -0.010787 0.38831 0.28813 -0.13941 -0.12561 -0.31609 0.2236 0.7185 0.23969 0.22973 -0.41473 0.058126 -4.5854E-4 0.29169 0.0048449 -0.4243 -0.1762 -0.36267 0.2544 0.018134 0.066301 0.24688 -0.13642 0.37825 0.31651 -0.2526 -0.41921 0.33628 -0.0012805
hypertension -0.33092 0.1752 0.047971 0.10381 0.4603 -0.27721 0.31448 0.22664 -0.35472 0.098322 -0.608 -0.26882 -0.26391 -0.031216 -0.31337 -0.22564 -0.12802 -0.22497 -0.34409 -0.13504 0.54355 -0.022683 -0.13549 -0.52176 -0.24194 0.15656 0.67476 -0.21338 -0.37888 0.10328 0.63315 0.1397 0.2239 0.31767 -0.22624 -0.23263 -0.068406 0.080029 -0.60081 0.16014 -0.052636 -0.37889 -0.53882 0.21583 -0.5592 -0.006729 -0.33487 0.42294 -0.23652 0.16015 -0.11546 0.60175 0.71623 0.53334 -0.95574 -0.12628 -0.2672 0.092326 0.54228 0.41 0.23192 -0.27433 0.9686 0.0054909 -0.4293 -0.34027 -0.67296 0.14626 -0.2747 -0.44481 0.63365 0.094564 0.11288 0.93805 -0.52227 -0.28124 0.19391 -0.25992 -0.42034 0.13353 -0.33005 0.013181 0.1694 -0.24489 -0.078586 0.034973 -0.55836 -0.15385 -0.039046 0.32639 0.71769 -0.10889 0.20887 -0.025491 -0.050804 0.38635 -0.072723 -0.13316 0.27668 0.9189
president 0.32571 -0.11746 0.080228 -0.21295 0.56283 0.0047397 0.0099147 -0.078444 -0.26085 0.22212 -0.24039 -0.51407 -0.39317 -0.040648 0.32632 -0.25889 -0.32042 -0.09671 -0.046819 0.030274 0.67402 0.12021 0.050475 -0.40846 -0.5605 0.050498 0.12233 -0.064364 -0.1592 0.31424 0.14195 -0.0025892 0.010727 -0.15543 0.1207 0.052615 -0.1734 0.12217 0.20397 0.55443 -0.18265 -0.11494 0.17217 -0.20395 0.27067 0.7547 0.19893 0.21965 0.40298 -0.21639 -0.68308 -0.20535 -0.16623 -0.20975 -0.51379 0.29265 0.031106 -0.12667 -0.050557 -0.034081 0.42381 -0.61588 0.14087 0.10293 0.091326 -0.42856 -0.27394 0.22706 -0.29147 0.065106 -0.23689 0.025477 -0.24921 -0.049593 -0.075088 -0.39533 -0.10737 0.060366 0.34194 -0.038935 0.32108 0.62245 0.10754 -0.26944 -0.20144 -0.064667 -0.61655 -0.10725 -0.43716 -0.34446 0.097666 0.47589 0.21068 -0.73777 -0.031898 0.54313 -0.37279 -0.042679 0.18274 0.1902
atmosphere -0.20808 -0.20906 0.051577 -0.27453 -0.13827 -0.038868 0.19129 -0.012642 -0.040742 -0.28776 -0.83296 0.078905 -0.36312 -0.2176 0.53208 -0.0090431 -0.13113 -0.17196 0.28966 -0.29334 0.19939 -0.2075 0.23478 -0.099497 -0.18441 -0.60023 -0.17414 0.068423 -0.034268 0.3914 0.14822 0.72905 -0.25542 -1.2793 0.50795 -0.13845 0.31528 -0.17203 -0.054947 -0.0095072 -0.65211 0.066377 -0.40172 0.39394 0.31281 -0.78421 -0.020197 -0.043104 0.16397 0.074397 -0.12026 0.019857 0.53084 -0.077054 -0.55275 -0.064029 -0.1542 -0.12353 -0.50909 0.16707 0.20714 0.51972 -0.095108 0.55913 -0.2635 0.31372 -0.20291 -0.10088 -0.10204 -0.061451 0.0016576 0.02015 -0.022428 0.40399 -0.4291 0.063917 0.15528 -0.17877 0.1918 0.12221 -0.2976 -0.28599 -0.060077 -0.17059 0.3264 0.18012 -0.58838 0.64205 0.22945 0.21484 0.13146 0.67922 0.87853 -0.056092 0.16167 0.048874 -0.17743 -0.58676 0.50193 -0.0045523
practice -0.33796 -0.12347 -0.18883 0.027895 -0.22365 -0.0040205 0.055328 0.11991 -0.030867 0.007599 -0.56247 0.073354 -0.13629 -0.14961 -0.116 0.25668 -0.0092344 -0.20126 0.55234 -0.36972 -0.085995 0.12453 0.30121 0.1794 -0.19941 0.10992 0.21364 0.030022 -0.38681 0.2283 0.32543 -0.3365 0.27752 0.15133 -0.37704 0.301 0.41803 0.17869 -0.23897 0.095834 -0.047964 -0.26495 0.0067456 -0.40616 -0.32397 -0.35576 0.16567 -0.013485 0.24545 -0.19322 -0.016502 -0.16537 -0.2036 -0.50018 -0.34811 0.2203 -0.43354 0.24988 0.093527 0.23603 0.45224 -0.30661 0.085841 0.40307 -0.27884 -0.36199 -0.4596 0.2515 -0.045965 -0.77458 -0.18245 0.60853 -0.043656 0.0515 -0.32819 0.081173 0.18351 -0.058871 0.3889 0.26569 0.20265 -0.093724 0.24427 -0.35674 0.192 0.22954 -0.17981 0.070626 0.34565 0.33723 0.45545 -0.2205 0.43643 -0.38517 -0.13776 -0.109 -0.19327 0.02308 -0.012783 0.2782
movie -0.45281 -0.14013 -0.28983 -0.49974 -0.09971 0.097471 0.29699 -0.41019 0.29582 0.21752 -0.016904 -0.44119 0.26512 -0.035639 0.24314 -0.0354 -0.67306 -0.49605 0.20521 -0.37154 0.52538 -0.68715 -0.33283 0.27683 -0.0018255 -0.15812 0.34166 0.03749 -0.094013 -0.086419 0.49384 0.22155 -0.19896 -0.35637 0.048825 -0.11814 -0.086175 0.23431 -0.043453 0.24244 -0.14136 0.75454 -0.31394 -0.2071 -0.27009 0.49788 0.62309 -0.39153 0.11985 0.41041 -0.1267 -0.015388 0.50896 -0.12784 -0.019632 0.35858 0.38604 -0.33571 0.45323 -0.13693 -0.17545 0.39751 0.014963 0.32764 -0.64437 4.5444E-4 0.16728 -0.066033 -0.069958 -0.024942 -0.18821 -0.40427 0.27241 0.2413 0.1034 -0.33212 0.24491 -0.019684 0.22872 0.21543 0.33429 0.066629 -0.04532 -0.65187 0.46266 0.60859 -0.58766 -0.34534 -0.27138 0.53582 0.20697 0.39973 0.59474 -0.16078 0.29053 -0.010597 0.079655 0.0077643 -0.094699 0.47016
popcorn -0.65472 -0.15833 -0.4028 -0.56772 -0.25338 -0.23023 -0.17882 -0.15028 0.38973 -0.052538 0.24171 -0.43637 -0.16892 0.070827 0.56316 0.20295 -0.61795 -0.44834 0.14377 -0.16622 -0.035568 -0.41644 -0.29366 -0.19591 -0.16268 -0.98547 0.0028108 -0.052146 -0.46981 0.3623 0.49598 0.59825 -0.10183 -0.2717 -0.32137 -0.15669 0.58615 0.097674 0.064221 0.28537 0.19456 -0.081523 -0.47742 -0.18345 0.089864 0.34146 0.59313 0.039568 -0.11554 0.49615 -0.074931 0.36881 0.67625 0.031051 -0.61607 -0.069198 0.63755 -0.7864 0.49889 0.060618 0.59542 0.3088 0.11712 -0.76198 -0.05064 -0.60736 0.23212 -0.57055 -0.088659 -0.083703 -0.044323 -0.62112 -0.13384 0.75056 -0.24821 -0.31075 0.056994 0.063915 -0.24971 -0.15334 0.062497 -0.088527 -0.16756 -0.27627 0.18685 0.35952 -0.49002 -0.64856 0.45561 0.28573 0.77917 -0.43609 0.46574 0.0093219 0.71135 0.17095 -0.075554 -0.053843 -0.32295 0.46558
recommendation -0.17892 -0.10789 -0.15447 -0.21104 -0.31505 0.048267 0.24905 -0.10448 -0.14757 -0.26005 -0.078911 -0.43483 -0.19502 -0.11382 -0.023179 0.099856 -0.22969 0.12102 0.030149 -0.17316 0.41731 -0.36221 0.32609 0.054182 0.010669 0.022883 -0.2636 0.17417 -0.36875 -0.74082 0.0078944 0.27898 0.37771 -0.14183 -0.5463 0.43253 0.27194 0.22253 -0.31264 0.62292 -0.35963 -0.43219 -0.13208 -0.01354 -0.40974 0.36868 0.24316 0.029331 0.24966 -0.50611 0.035613 -0.18973 0.23914 0.057153 -0.46654 0.22059 -0.18059 -0.24843 0.13004 0.68217 0.56396 -0.022365 0.15913 0.24228 0.16839 -0.27171 -0.62801 0.35357 0.051938 -0.18987 -0.23774 0.49513 0.42245 0.7039 -0.21415 -0.5981 -0.12823 0.12945 -0.011437 -0.53636 -0.22862 0.41193 0.30582 -0.47716 -0.30655 -0.32594 0.011734 -0.30493 0.20528 0.16078 -0.2766 0.25801 0.23064 -0.3864 -0.010651 0.41147 0.40889 0.055889 0.25605 -0.19306
focus -0.095694 -0.19456 -0.14432 0.35913 0.25788 -0.033356 0.31214 -0.033036 0.0061002 -0.030391 -0.61917 0.22623 -0.26718 -0.31186 0.089526 0.20113 0.025228 -0.34015 0.53998 -0.10494 -0.055613 -0.1617 0.32474 -0.13907 -0.33289 -0.035051 -0.38996 -0.054418 0.11684 -0.11477 -0.2337 -0.095595 0.3673 -0.33465 -0.20007 0.11734 0.055665 0.084916 -0.15202 -0.13168 -0.48283 0.14302 -0.23835 0.1457 -0.22578 0.29494 0.2336 0.55544 0.1097 -0.31632 0.31693 -0.42482 0.15083 0.01743 -0.47246 0.21741 -0.49486 -0.040014 0.46804 0.079962 0.41063 -0.060826 -0.0066967 -0.085263 -0.42713 -0.48214 -0.39568 0.54691 -0.032234 -0.067472 -0.032187 -0.0096934 0.2372 0.32555 -0.21483 -0.21942 0.20624 0.15413 0.11339 -0.18709 0.37289 0.49434 0.23386 -0.35532 0.15233 0.059103 0.039297 0.17296 -0.28767 0.48718 -0.026433 0.19788 0.12284 0.11425 -0.043809 0.19838 -0.27512 -0.065236 -0.023424 0.24362
attempt -0.13114 -0.092754 0.33622 0.36232 -0.1294 -0.42577 0.68674 0.075052 -0.058672 0.16821 -0.68186 -0.16309 -0.169 -0.063569 0.25205 -0.14366 -0.5363 -0.04931 0.19797 0.063913 0.32565 -0.20907 -0.16603 -0.12676 -0.14054 -0.090421 0.46599 0.21368 -0.19644 -0.17792 -0.092443 0.092416 -0.47004 -0.13881 -0.17918 0.021404 -0.054854 0.054453 -0.18392 0.40145 -0.27221 0.31616 0.050741 0.19025 -0.062573 -0.10624 -0.22954 -0.032934 0.29372 -0.3368 -0.52865 0.16337 -0.084263 -0.50509 -0.39922 -0.18745 -0.47625 0.18988 0.61438 0.3225 0.18406 0.62114 -0.29719 -0.47313 -0.45764 0.50113 -0.64996 0.15112 0.1088 0.0084647 -0.45738 0.32114 -0.40501 0.095441 0.081741 -0.37286 0.17698 0.12987 0.23819 -0.11957 0.089699 -0.11424 -0.046966 -0.22715 0.29946 0.069036 -0.2647 -0.18215 0.42408 0.18037 -0.050698 0.20931 0.061084 -0.32585 -0.32581 0.2659 -0.3034 -0.29572 -0.30933 -0.33411
approach -0.13385 -0.35112 0.027622 0.098464 -0.044633 -0.0074957 -0.13871 0.1171 -0.060638 0.097058 -0.69471 0.066834 -0.19789 -0.22489 0.055803 0.078184 -0.096356 -0.063209 0.23804 0.095827 0.21251 -0.036287 0.22944 0.16273 -0.44827 0.065303 -0.090804 0.33262 -0.020591 -0.24293 -0.080752 0.26413 -0.084019 -0.20958 0.066013 0.36778 0.45106 0.35874 -0.10153 0.32282 -0.16338 0.03627 -0.084506 -0.20503 -0.48917 -0.23716 0.17778 0.35685 -0.0044477 -0.064843 -0.15309 -0.18736 -0.025402 0.31348 -0.49748 -0.088506 -0.52533 -0.13317 0.099606 0.10837 0.36753 0.10993 -0.15183 0.16009 -0.60945 -0.32849 -0.4922 0.64644 -0.090053 -0.27282 0.054169 0.39445 0.12018 0.5134 -0.25327 -0.36859 -0.18384 0.13364 0.1209 -0.051685 0.2126 0.2099 0.36344 -0.58945 0.14156 0.0082575 0.090476 0.12117 -0.058848 0.62568 -0.16015 0.62492 0.2675 -0.15521 -0.51694 0.31482 -0.15566 0.1794 0.027868 -0.28941
number -0.34178 0.42065 -0.047349 -0.13508 -0.25864 -0.23347 0.51643 0.075438 0.32739 -0.070085 -0.2304 0.028756 -0.035856 -0.31397 -0.29695 0.16893 -0.28036 -0.05869 0.26666 -0.25798 0.642 -0.65249 -0.18424 -0.10587 -0.24533 -0.10481 0.36054 0.015146 0.45049 0.043314 -0.13817 -0.2466 0.25897 -0.081803 -0.10939 0.028755 0.64657 0.25717 0.04287 0.26937 -0.23262 0.046803 -0.059202 0.42103 0.10831 -0.34544 -0.1274 0.11109 0.50409 -0.036389 0.33505 -0.045454 -0.19137 0.067191 -0.10155 -0.41281 0.060025 0.091529 0.18495 0.54751 0.16139 -0.3179 -0.1231 -0.089713 -0.019001 -0.39802 0.0060177 0.5102 -6.0391E-4 0.2211 0.15566 -0.060999 0.30085 0.27412 -0.31823 -0.096738 -0.10791 0.037091 -0.15034 -0.20544 0.085667 -0.0045327 0.19 0.16142 -0.027221 0.31515 -0.59855 -0.041443 0.49368 0.37783 0.067319 0.03986 0.0067226 -0.30513 0.18104 0.38208 0.12093 0.29386 0.023354 0.59157
property -0.19005 -0.29458 -0.48748 0.23773 0.04898 -0.098534 -0.16885 -0.43463 0.19042 0.54078 -0.13435 -0.27127 -0.046152 -0.50533 -0.32619 -0.012039 -0.19782 -0.22002 0.17115 -0.048297 0.23243 -0.30324 0.26276 0.23065 0.11578 0.082145 -0.16708 0.29122 -0.49029 0.28083 -0.19612 -0.29087 0.13179 -0.46278 0.13369 0.011807 -0.16193 0.20625 0.2564 0.2862 0.027624 0.70488 -0.29811 0.26388 -0.26291 -0.44764 -0.39264 0.23745 0.99597 -0.38185 -0.0054329 -0.23703 -0.16331 -0.09934 -0.21553 -0.022402 -0.35974 -0.020253 0.16293 -0.077906 0.37727 -0.68404 -0.18366 0.019937 -0.24489 0.080241 0.11431 0.059348 0.01997 -0.29179 0.26858 -0.4656 -0.024174 0.16736 0.093117 -0.65888 0.13464 -0.15035 0.44804 0.40937 -0.068378 -0.64602 0.37751 -0.16493 0.33376 0.33364 -0.45611 -0.43694 0.20874 0.59453 0.22189 -0.36481 -0.14485 0.05922 0.30927 0.30012 0.46244 -0.76879 0.54302 0.071529
fingerprint -0.43364 -7.1661E-4 0.15558 -0.034046 -0.38095 -0.20534 0.8465 -0.71877 0.49649 0.15228 0.062404 -0.71404 -0.29732 -0.27814 -0.69342 0.60868 -0.2774 -0.051117 0.4254 -0.25614 0.58943 -0.51916 -0.11592 -0.23299 0.57633 0.079968 0.25231 -0.07015 -0.28362 0.0056406 0.1392 0.025698 -0.012734 0.26191 0.080501 0.14338 0.22476 -0.56985 -0.013641 0.15858 -0.014835 -0.2061 0.46533 0.049907 -0.17157 -0.28014 -0.10941 0.37766 0.32146 0.19382 0.35017 -0.21478 0.52299 -0.14461 -0.48679 0.60202 -0.36497 0.27882 0.0071114 -0.17958 0.62689 0.11429 -0.28861 -0.56465 -0.044819 0.2733 0.009949 0.19125 -0.16567 -0.081423 0.25224 0.29176 0.11029 0.24764 -0.48333 -0.68818 0.14946 -0.43389 0.086742 -0.46276 0.52502 0.46328 -0.047553 0.15891 -0.22734 -0.095759 0.17999 0.14962 0.64291 0.53264 0.156 0.34019 0.6339 -0.056164 -0.055136 0.3019 0.39858 0.19344 0.17195 0.44254
reservation -0.058612 -0.12844 -0.34794 -0.45313 0.11164 -0.17254 0.37203 -0.29064 0.26856 0.36891 -0.065913 -0.21137 -0.11432 0.010391 -0.08425 0.065354 -0.41108 0.24648 -0.056716 -0.31742 0.37247 0.27683 -0.12298 -0.11259 0.25881 -0.20192 6.1271E-6 0.1073 -0.084685 0.18661 0.17789 -0.014333 -0.10656 -0.12426 -0.17973 -0.056555 0.28185 0.63469 -0.10053 0.13316 -0.27544 0.19391 -0.27459 -0.20691 -0.29563 -0.37829 0.0065726 -0.12297 0.74102 0.061974 -0.059449 -0.48971 0.13048 -0.031172 -0.19715 0.14733 -0.56134 -0.1907 -0.22981 0.28499 0.33939 -0.20151 0.017339 0.14187 -0.076803 -0.32495 0.11712 -0.24718 0.15836 -0.37952 0.44839 0.10479 -0.054426 0.6531 -0.096586 -0.63433 -0.1756 0.14308 0.19845 -0.19549 0.027814 0.036413 -0.1784 -0.35968 -0.14268 0.14698 -0.20536 -0.15407 0.3506 0.449 0.072466 -0.02463 -0.31337 -0.19466 0.33225 0.020793 -0.15156 -0.32985 0.38248 -0.26408
block 0.18873 -0.32379 0.073448 0.30739 -0.27862 0.059307 0.18603 -0.20573 0.54335 0.71391 -0.11073 -0.41408 -0.040473 0.053159 0.61723 -0.22074 0.40644 -0.38509 0.045657 -0.26782 0.19996 -0.47409 -0.24694 0.10795 -0.024801 -0.066203 0.16981 0.071753 0.029082 0.3647 -0.039318 0.057915 0.38533 -0.022454 0.16258 0.21228 0.52258 0.34051 -0.0024005 0.50571 0.046185 0.27793 -0.24549 0.27469 0.10369 -0.093932 -0.16325 0.21178 0.17228 -0.12566 -0.339 -0.21763 -0.11239 -0.0065893 -0.7809 0.033169 -0.11675 -0.193 0.31437 0.123 -0.072442 -0.23311 -0.40986 -0.60629 -0.45716 -0.048392 -0.46666 -0.14532 0.1193 0.34885 0.13631 0.38918 -0.50801 0.43936 -0.22077 -0.75338 0.39122 0.13329 0.34943 -0.014843 -0.21286 0.0058294 -0.46083 -0.2825 -0.089385 0.083698 -0.063009 0.0018796 0.42862 0.45181 0.04462 -0.10491 -0.30047 0.024278 -0.12776 -0.13165 -0.13992 -0.35843 -0.02242 4.7435E-4
fear -0.085824 0.18747 -0.14483 0.042606 0.45178 0.12079 0.21654 -0.30018 0.15081 -0.32281 -0.31002 -0.15543 -0.30649 -0.20215 -0.12552 0.22387 -0.51151 -0.15729 0.47048 -0.36504 0.012109 -0.45658 -0.16061 -0.11985 -0.066542 -0.18257 0.46622 0.25513 -0.0090028 -0.55231 0.053387 0.012233 -0.19151 -0.25161 0.44813 -0.44341 0.014089 0.11391 -0.5129 0.0057239 -0.37471 0.12102 -0.1682 0.3419 0.066657 0.047453 0.33928 0.43898 -0.047328 0.040136 -0.3549 -0.38869 -0.028397 0.043269 -0.16315 0.047716 -0.41145 0.465 0.5449 0.48419 0.15785 -0.44357 0.2938 0.018256 -0.065721 0.084478 -0.17399 0.1416 0.21819 -0.19666 0.054358 0.23065 -0.34273 0.36853 -0.41226 -0.50147 -0.24581 -0.28554 0.33925 0.47389 -0.12682 0.023298 -0.3185 0.0492 0.21669 0.17545 -0.14404 0.19286 0.16919 0.27801 0.30364 0.29593 0.25489 0.14015 -0.1449 0.27218 -0.07833 -0.50794 0.04607 0.25298
surface -0.31624 -0.043064 -0.10831 -0.03735 -0.075514 -0.47012 0.25859 0.11904 0.7143 0.20106 -0.6727 0.13889 -0.44348 -0.08966 0.3008 -0.13117 0.070163 -0.4872 0.23624 -0.27951 0.52766 0.042074 0.28462 0.054563 -0.31371 -0.38724 0.29048 0.051217 -0.25622 0.080033 0.13187 0.73939 0.39688 -0.82524 -0.052688 0.17078 0.046873 0.093412 0.043704 -0.36191 -0.036082 0.11816 -0.038799 0.36568 0.046279 -0.73306 0.086754 0.033069 0.10647 0.023692 0.34961 0.17354 0.56285 0.085223 -0.90617 0.13457 -0.33765 0.19024 -0.65444 0.38084 0.32496 0.087095 0.21901 -0.28108 -0.5193 0.22912 0.081669 -0.44053 0.36588 -0.52934 0.42636 -0.046934 -0.12462 -0.19704 -0.18277 -0.25936 0.43656 -0.035974 0.078944 -0.020789 -0.12263 0.085801 0.18334 -0.32978 0.2965 -0.10222 0.13718 0.35144 -0.025588 0.18824 0.11763 -0.14507 0.45989 0.62623 -0.084545 0.16774 0.10458 -0.089849 0.45406 0.38748
