437 100
plane 0.17759 0.24794 -0.45083 -0.06511 -0.1447 0.17872 -0.006952 -0.38743 0.28808 -0.53365 -0.42322 -0.058557 0.063706 -0.40605 0.21866 -0.11537 -0.14764 -0.61941 -0.16597 -0.19043 0.050525 0.25235 0.35033 -0.36893 -0.50343 0.20564 -0.25362 0.032589 0.22699 -0.50841 0.14927 -0.38549 0.061661 0.031242 -0.13236 -0.12027 0.0064049 -1.0279 -0.17723 -0.12149 0.09755 -0.18099 0.48618 -0.23519 -0.18871 0.15275 0.3747 -0.5214 0.077557 0.31878 0.34396 0.31795 -0.045844 -0.042636 -0.71648 0.37227 0.26863 -0.43489 0.15184 -0.3869 -0.91255 0.36097 0.093317 -0.25027 0.15225 -0.46106 0.18773 -0.85397 -0.12652 -0.27623 0.037502 -0.095055 -0.036286 -8.6034E-4 0.34158 -0.22129 0.82565 -0.19446 0.033959 -0.47969 -0.1243 -0.22746 0.0038947 0.68612 0.0893 0.42398 -0.26849 -0.082753 -0.6694 -0.48629 0.5608 -0.37259 0.91572 -0.31873 0.38524 -0.11938 -0.64078 0.054503 -0.28295 -0.08903
stupid -0.18707 0.19919 0.31575 0.63247 -0.020641 -0.16968 0.01666 0.25568 -0.32858 0.43787 -0.13819 0.02791 0.1319 0.11637 -0.26741 -0.37423 -0.36913 0.08095 0.13407 -0.56092 -0.48547 0.034953 0.31986 -0.67875 -0.11968 0.13857 0.39124 0.6538 -0.25056 -0.77614 0.22474 -0.2945 -0.029886 0.14859 -0.042939 -0.15615 -0.15631 -0.28642 0.53896 -0.23225 -0.16819 0.0095818 0.32052 0.067349 0.20123 -0.28976 -0.051333 0.14812 0.44994 0.41412 -0.11719 0.15063 -0.24558 0.42865 -0.56061 0.17931 -0.32952 -0.54996 0.022664 -0.67674 -0.47979 -0.099456 0.044207 -0.17971 0.045969 -0.51345 -0.39586 -0.070447 0.31656 -0.98409 0.31761 0.16397 -0.14426 0.45359 0.22922 0.20119 0.074752 0.22681 -0.59169 -0.52169 0.13919 -0.44094 0.54982 0.22661 -0.017904 -0.059939 -0.39501 -0.1657 0.10543 0.217 -0.37129 -0.12332 -0.25572 0.10872 0.13522 -0.15628 -0.069941 0.5692 0.04181 -0.035616
egg -0.11049 0.19749 0.067853 0.46777 -0.58196 0.20959 -0.16936 -0.068173 0.057843 0.73174 0.044799 0.15032 0.29289 0.27585 0.24984 -0.091623 -0.72524 0.35896 -0.13541 -0.68997 0.0020658 -0.8093 0.63993 -0.45674 -0.40124 0.41255 0.52564 -0.523 -0.033872 -0.033282 0.48057 -0.32497 -0.0071773 0.041024 0.022635 0.64281 -0.45362 -0.032266 0.32523 0.40457 -0.033555 -0.64907 -0.057666 -0.066866 -0.015736 -0.011862 -0.45364 0.27991 -0.16138 -0.06843 -0.38069 -0.1122 -0.08926 0.66478 -0.10353 0.30274 -0.24202 0.069661 -0.2059 -0.66336 0.30705 -0.27706 -0.27773 -0.32492 0.46332 0.49197 -0.31684 -0.85722 -0.24383 -0.44202 0.042984 -0.77003 -0.34075 0.13839 0.57288 0.057358 0.8561 0.45277 0.24168 -0.10018 -0.69802 0.26262 -0.23463 0.28075 -0.29118 0.30055 -0.032505 0.046028 0.0066377 -0.21611 0.73685 -0.12554 0.59816 0.030799 0.46323 -0.3425 0.33383 0.36398 0.39224 -0.059251
year 0.28867 -0.34915 -0.24786 -0.2492 0.24572 -0.091627 -0.0011639 -0.12359 -0.24618 0.33719 -0.32548 -0.046645 -0.16638 -0.18242 0.03861 0.17383 0.10319 0.093424 -0.2998 -0.43573 -0.25545 -0.33933 -0.028458 -0.10715 0.093488 -0.60971 -0.16378 0.38005 0.31213 -0.08499 0.11377 0.21037 -0.019063 0.045105 -0.15905 0.036829 0.16693 -0.13703 -0.054796 0.25879 -0.18151 0.024242 0.038715 0.11835 0.16137 0.06391 -0.13813 0.4186 0.14963 -0.16219 -0.084695 -0.4874 0.21507 0.4229 -0.3599 0.33066 -0.069841 0.13141 -0.46935 -0.29464 0.12575 0.28833 0.266 -0.23896 0.32282 0.25401 -0.14344 -0.40239 0.39391 -0.40074 -0.098143 0.12946 0.21519 -0.37885 -0.24984 0.031991 0.042375 0.13671 0.055943 -0.53361 -0.15984 0.22069 0.052947 0.15546 -0.012399 0.19146 0.076776 0.33636 0.15283 0.040301 0.24531 -0.3454 0.26259 0.19568 -0.095508 0.19388 -0.22546 0.43506 -0.2166 -0.1049
psychiatry 0.085418 0.12583 -0.041737 0.83682 0.44611 0.70731 -0.099736 -0.2137 0.20259 -0.4561 -0.049911 -0.37058 0.33839 0.038098 -0.12306 -0.78656 0.39244 -0.22085 0.61853 -0.75288 0.33145 -0.16376 -0.33418 -0.054868 -0.78436 0.034291 0.020247 0.18512 -0.30267 -0.28397 0.30785 -0.064395 0.054538 -0.14044 -0.14833 1.1763 -0.16983 -0.36443 -0.43382 -0.58898 -0.32237 -0.20104 0.25268 -0.22915 1.0036 0.66088 -1.1359 0.11902 -0.22031 0.77459 -0.031255 0.36373 0.67145 0.5496 0.2473 0.14096 -0.44881 0.284 -0.60833 -0.20222 0.73265 0.48393 -0.14809 -0.68349 0.25675 0.031411 -0.33002 0.47393 -0.16629 0.039205 0.68051 0.61856 -0.2851 -0.60135 -0.095137 -0.44102 0.96378 0.11776 -0.47599 -0.038334 0.4508 -0.13344 0.32152 0.17979 -0.19841 0.22629 -0.46988 -0.24913 -0.057427 0.2448 -0.30723 -0.097863 0.5599 0.18896 -0.73026 -0.43132 0.3655 0.44529 -0.8843 0.21864
asylum 0.22697 0.22279 -0.26607 -0.028304 0.16066 0.18589 0.16342 0.32407 1.2265 -0.20278 -0.56672 -0.56115 -0.35959 0.057503 0.16562 -0.86003 -0.49295 -0.29683 0.23974 -0.73235 -0.024921 0.2945 0.72522 0.46444 0.090357 0.21004 0.13618 0.53663 0.2187 0.034857 0.46509 -0.20048 0.31628 0.19934 0.35523 0.14975 -0.21823 -0.72621 -0.32408 0.11533 0.040348 -0.31824 0.55592 0.60962 0.02471 0.30804 -0.29935 0.19111 0.26679 0.10181 -0.13296 -0.37277 0.27404 0.44738 -0.14917 -0.23351 0.14817 -0.096549 0.070536 -0.53621 0.3531 -0.0047651 0.4043 -0.5066 0.73113 -0.1021 -0.24276 -0.96478 -0.60047 7.3809E-4 0.127 0.037136 -0.54318 -0.16954 0.18798 -0.48802 -0.015872 -0.34121 -0.47567 -0.027474 -0.38289 -0.054386 0.51737 0.3094 0.021339 0.23034 -1.0792 0.22848 0.04581 0.60241 -0.11953 -0.57252 0.23835 0.65683 -0.32672 0.15879 -0.72449 0.16383 -0.48263 0.98428
manslaughter -0.14166 0.55352 -0.10939 0.21493 -0.59738 0.20843 0.060832 -0.18836 -0.051949 -0.34428 -0.18289 -0.52451 -0.47303 0.499 -0.38636 0.1761 -0.68791 0.14383 0.92274 -0.073081 -0.17549 0.42697 -0.17402 -0.02291 -1.0963 0.70275 0.59997 0.056038 0.54291 0.31235 -0.10055 0.58807 0.049954 -0.20992 0.11235 0.49373 0.19628 -0.75913 0.22866 -0.50569 -0.25465 -0.33294 -0.26384 -0.026181 0.24965 -0.34744 -1.0025 0.18133 0.38683 0.20472 0.69738 0.052736 0.34908 -0.35345 -1.0067 0.4451 -0.020658 0.6134 0.11822 -0.64571 -0.27911 0.31301 0.57782 0.089395 0.18677 0.24155 -0.17383 -0.10285 0.30808 -0.33409 0.029041 -8.9188E-4 -0.2697 -0.55975 -0.24791 -0.53009 0.37277 -0.66885 -0.33815 -0.74845 0.35139 -0.32158 0.14084 0.29451 -0.93683 -0.076772 -0.37449 -0.28237 0.41731 0.97438 0.18174 -0.59224 1.2315 0.78594 -0.39026 0.19579 -0.19874 0.94654 -0.23511 0.11968
music -0.24901 -0.41081 -0.39035 0.5668 0.43675 0.27374 0.25112 0.11746 -0.2955 0.12052 -0.024967 0.19696 -0.017283 0.43169 0.41335 -0.096493 0.62155 -0.24382 0.13775 -0.57289 -0.41386 -0.026793 -0.12554 0.11906 -0.82822 0.080514 0.3638 0.39293 0.15107 0.034203 0.11245 -0.069682 -0.070826 -0.42176 -0.16619 0.28466 -0.50157 -0.46059 -0.062196 0.074258 -0.41864 -0.2468 -0.11502 -0.30175 0.068726 0.027187 -0.51823 0.0011877 -6.5151E-4 0.4973 0.7019 0.073405 -0.12027 0.70287 -0.010139 0.053449 -0.5222 0.24861 -0.24804 0.13667 0.12616 -0.6499 0.25855 0.25492 -0.069598 -0.20895 -0.43407 -0.43397 -0.054757 0.19653 0.88518 0.46419 -0.053442 -0.099733 0.13744 0.313 0.14848 -0.42476 0.030137 -0.50766 -0.64387 0.13926 0.84689 0.067977 0.22345 -0.083757 -0.34905 0.45434 0.24102 -0.27939 0.3033 0.41021 0.4687 -0.14549 0.01722 0.0054257 -0.22623 0.25597 0.25704 0.049335
record -0.014635 -0.25954 -0.069587 0.11556 -0.057732 -0.57557 0.68432 0.35809 -0.14767 -0.0052032 -0.2624 0.50534 -0.10004 -0.19628 0.20196 -0.0024544 -0.038932 0.054537 0.34329 -0.92264 -0.010986 -0.053624 0.26177 -0.24076 0.057961 -0.44404 -0.092356 0.0044437 0.22617 -0.2247 -0.20307 0.3548 0.24881 -0.2939 -0.15023 0.21437 0.14343 0.17978 -0.014757 0.19482 -0.11069 0.34978 -0.12946 -0.14687 0.15522 0.15996 -0.25154 0.05012 0.080807 0.07935 0.13878 -0.088852 -0.16161 0.45821 -0.1483 -0.045273 0.10799 0.41611 0.13654 -0.35636 0.12527 -0.006973 0.37002 0.010858 0.74842 -0.1003 0.05628 -0.23677 0.55909 -0.25111 -0.17605 0.029233 0.0039976 0.10953 -0.53177 0.13788 -0.42921 -0.24768 0.39712 -0.56939 -0.59715 0.35201 0.17398 0.39394 0.20801 0.43106 -0.45352 0.25373 0.059964 0.28528 0.6304 0.17141 0.10313 -0.40309 0.51155 0.33241 -0.16968 0.58953 -0.088147 -0.022893
energy -0.30769 0.22464 0.20295 -0.51275 -0.028377 -0.037185 0.014831 0.22148 0.31383 -0.14885 -0.69452 0.53806 0.12056 0.046049 -0.35045 -0.31717 0.31167 0.6363 0.088324 -0.14773 -0.61617 -0.17591 0.37045 -0.59342 -0.55924 0.07644 0.29196 0.0184 -0.76877 0.20503 8.4463E-5 -0.17423 -0.12863 -0.42734 -0.055499 0.34919 -0.20949 0.041842 -0.12445 -0.24876 -0.20809 -0.50961 0.17499 0.1735 0.53488 0.084432 -0.016942 0.64856 0.46363 0.17191 0.14023 0.1426 0.17254 0.31289 -0.34684 -0.29923 -0.38355 -0.22665 -0.28494 0.21789 -0.046926 0.095157 -0.31726 0.10501 -0.35271 0.12209 -0.013529 -0.56931 0.024846 0.54364 -0.094668 -0.071811 -0.035812 -0.23465 0.02368 0.077001 0.017968 -0.22638 0.45817 -0.96134 -0.58647 0.4458 0.26548 0.11114 -0.07686 -0.076707 -0.29448 0.73541 0.18066 -0.2499 0.61566 -0.27312 0.022018 -0.40758 -0.3179 -0.37005 -0.0033856 0.85462 -0.12673 0.16899
announcement 0.78228 -0.31517 -0.047046 0.18502 0.18972 0.18222 0.23454 0.093163 8.2966E-4 -0.22732 0.21735 -0.088476 -0.34189 -0.29616 0.12455 0.1336 0.093359 0.14902 -0.14452 -0.087116 0.38604 -0.48081 0.12552 -0.095291 -0.61235 -0.34805 0.033624 -0.23274 0.091701 0.17341 0.3565 0.22577 -0.30416 -0.071106 -0.69342 -0.34576 -0.386 -0.41367 -0.01229 0.036746 -0.2012 0.068744 -0.075409 0.33525 0.090621 0.38326 -0.031575 0.30213 0.13063 0.18302 -0.23959 0.14253 0.17567 0.13526 -0.71134 -0.1659 0.20479 -0.066089 0.050855 0.17723 0.061242 0.50842 0.12818 0.19788 -0.0072325 0.05911 0.21473 -0.63335 0.40795 -0.35527 0.12728 0.30164 0.1702 0.36775 0.39661 -0.23319 -0.085911 0.12652 -0.074398 -0.81262 0.24277 -0.027869 -0.19852 0.12628 -0.25895 -0.18451 -0.34782 0.32539 0.23614 -0.051612 0.22839 0.13293 0.067621 0.3529 0.2332 -0.36466 -0.42195 0.79628 -0.05538 -0.40125
mile 0.084716 -0.70614 -0.19812 -0.41624 -0.15423 -0.23806 -0.051868 -0.061418 0.61698 -0.025364 -0.34162 0.27136 -0.046213 -0.50352 -0.38742 0.59593 0.081694 0.041077 0.11492 -0.44178 -0.42263 -0.020531 1.0249 -0.26104 -0.046139 -0.4257 0.16245 -0.069138 -0.26719 -0.38507 0.083261 0.30973 0.27509 0.40911 0.15229 0.35825 -0.20689 -0.14966 0.15747 0.02406 0.142 0.013756 0.087023 -0.071194 0.55325 -0.17994 -0.073253 -0.15244 -0.0029422 0.066752 0.082629 -0.50011 0.58953 -0.11456 -0.77062 0.29882 7.7094E-4 0.24339 0.26985 -0.28795 -0.47369 -0.31995 -0.056594 -0.59502 -0.057747 0.2555 0.45439 -0.34843 -0.31439 -0.51436 0.40605 0.52554 -0.37647 -0.02045 -0.14702 0.089533 0.89534 0.25407 0.72613 -0.19311 0.35081 -0.11931 -0.3658 0.55862 0.37518 0.33532 -0.23043 0.53726 0.12141 0.13787 0.26444 -0.12666 0.84527 0.073544 -0.002502 0.16339 -0.13979 0.096597 0.1038 0.047468
airport 0.11385 0.18067 -0.091249 -0.053934 -0.22716 -0.035689 -0.010909 -0.46616 0.62112 -0.5073 -0.40413 -0.020196 -0.12099 0.15021 0.17506 -0.055195 0.41845 -0.51744 -0.0056152 -0.31681 0.20336 0.2887 0.39547 -0.16922 -0.33071 -0.059944 0.30601 0.20668 0.47787 0.12699 0.48278 -0.18347 0.45068 -0.13277 0.064793 0.053392 -0.12348 -0.61872 -0.33118 0.42771 -0.27066 -0.12338 0.96408 0.33972 -0.40911 0.31141 0.1545 -0.24785 0.10458 0.20606 0.30188 0.24657 0.203 0.20455 -0.77054 -0.078238 -0.043094 -0.091313 0.21914 0.0039822 -0.68364 0.20654 -0.11083 -0.29552 0.29966 -0.29412 0.3305 -0.79926 -0.51226 -0.44877 0.22411 0.45851 -0.1784 -0.079904 0.33054 -0.43208 0.46808 0.0059523 0.30692 -0.4592 -0.078401 0.20143 -0.16772 0.9248 -0.14722 0.74432 -0.19563 -0.063096 -0.2765 -0.77868 -0.11762 -0.22423 0.7595 0.03385 -0.06183 -0.043877 -0.41474 0.30124 -0.12592 0.079962
population 0.047642 -0.31919 -0.24393 -0.22806 -0.021508 -0.38246 -0.070625 -0.3481 0.70711 -0.15163 -0.10358 0.25682 -0.40207 -0.022359 -0.15828 -0.28953 -0.14294 -0.16247 -0.42781 -0.62896 -0.20675 -0.2399 0.16679 -0.097818 -0.61685 0.66735 -0.14216 0.080534 0.48735 0.029021 0.23757 0.51584 0.33057 0.25636 0.4092 0.35514 -0.20929 0.34109 -0.069056 -0.10986 -0.15546 0.34374 0.26626 -0.33246 0.58898 0.246 -0.31873 0.21372 -0.28034 0.381 -0.081983 -0.1919 0.39976 0.45592 0.19098 -0.16121 0.27582 -0.25796 -0.15748 -0.82954 -0.004 -0.1259 -0.36299 -0.87278 0.202 0.29819 -0.93558 -0.85024 -0.4037 -0.2748 -0.047076 0.089812 0.068548 -0.25619 0.01994 0.10482 0.492 0.28041 0.27441 -0.62673 -0.28705 0.25396 0.27024 0.57613 -0.10849 -0.14087 -0.53395 0.38782 0.085419 -0.28836 0.057529 -0.41638 -0.3785 0.297 -0.31655 -0.1025 5.9185E-5 -0.012901 -0.080485 0.58969
planning -0.18597 -0.26095 -0.025779 0.36963 -0.1043 -0.076605 0.08361 0.095407 0.058417 -0.18389 -0.21197 0.18675 0.023442 0.15962 0.047139 -0.17058 0.11558 0.5208 -0.22506 0.012827 -0.48043 0.33256 -0.25936 -0.35863 -0.22019 -0.10411 -0.13649 0.31546 -0.12421 0.29501 0.12418 -0.080284 0.11352 0.075243 -0.14746 0.07829 -0.29264 -0.78194 -0.3434 0.4037 -0.22213 -0.028404 0.44167 0.40668 0.10342 0.15459 -0.35857 0.41307 -0.1221 -0.3357 -0.32543 0.39093 0.05366 0.0081169 -0.25546 -0.30502 -0.092048 -0.15537 0.04772 -0.19343 -0.40358 0.44696 0.28396 -0.2161 -0.0038365 0.28235 -0.12149 -0.52103 -0.052606 -0.17728 0.34058 0.4115 -0.070106 -0.067234 0.2016 -0.33879 -0.060397 -0.15099 0.057823 -0.56147 0.04611 0.10216 -0.070817 0.23861 0.10482 -0.23573 -0.23046 -0.11866 -0.1406 0.13178 0.1804 0.018143 0.32181 0.29092 0.017509 -0.28161 -0.16164 0.31173 -0.076904 -0.025926
canyon 0.056792 -0.74384 -0.20013 0.23326 -0.13759 0.44403 -0.057895 -0.63415 0.6295 0.2185 -0.39694 -0.23567 -0.61187 0.06377 -0.25287 -0.21098 -0.034631 -0.13476 0.1613 -0.54116 -0.63143 -0.12369 0.73757 -0.3622 -0.91325 -0.093571 -0.13728 -0.58742 -0.32425 -0.65655 -0.45832 0.33669 -0.55527 0.12588 -0.079001 0.36139 0.033132 -0.66559 0.59032 0.4142 -0.069492 -0.18678 0.44657 -0.5198 0.84859 0.12945 -0.28956 -0.32326 -0.18333 0.18381 0.94836 -0.017132 0.035885 -0.20497 -0.72317 0.43633 0.27862 -0.28834 0.30239 -0.077507 -0.38586 -0.51397 0.44471 -0.6385 0.011093 -0.060076 0.094624 0.0054513 0.013011 -0.1014 0.49181 -0.14155 -0.44675 -0.16596 -0.162 -0.11984 0.18534 0.158 0.47006 -0.0035213 0.34279 -0.14503 0.076537 0.39065 0.62146 0.18936 -0.32204 0.49319 -0.18114 -0.4168 0.5542 0.046903 0.48489 -0.38841 0.25869 0.15797 -0.49267 -0.12017 0.096504 0.50994
delay -0.050245 0.13749 -0.33086 0.080735 -0.20466 0.18134 -0.0040058 0.22092 -0.5329 -0.067118 -0.20432 -0.35381 -0.36845 -0.61426 0.047543 -0.14304 -0.28507 0.44383 0.19675 -0.25535 0.31261 0.052312 -0.17184 -0.43668 -0.81057 -0.52403 0.41575 0.21329 -0.095458 0.25936 0.058757 -0.20893 0.085548 0.074091 -0.090974 0.0021064 0.013404 -0.26614 -0.35802 0.24691 -0.2663 0.12811 0.016229 0.17698 -0.2853 0.27322 -0.12656 0.22199 -0.10185 0.21687 -0.47221 0.31283 -0.042144 0.011851 -0.20904 -0.1161 -0.17149 -0.4005 0.13196 -0.63372 -0.14256 0.13977 0.027343 -0.12913 -0.13658 0.12062 0.24991 -0.97451 -0.050214 -0.083147 0.19186 0.061201 0.48123 -0.15597 0.10355 -0.31977 -0.088322 -0.1869 -0.23596 -0.38965 0.40613 0.18283 -0.41018 0.47156 0.12186 -0.031454 -0.52071 0.17164 0.25127 0.25261 0.33256 0.12275 0.14091 0.2852 0.11747 -0.21316 -0.87238 0.64502 0.15376 0.1747
size 0.047131 -0.23838 0.31852 -0.17154 -0.244 -0.22513 0.25935 -0.027628 0.2136 -0.11409 0.30744 0.023977 -0.16424 -0.39527 -0.18226 -0.17507 0.050689 0.21107 -0.010964 -0.2433 -0.03001 -0.52733 0.13408 -0.47481 -0.36708 0.040315 0.016648 -0.18785 0.018364 -0.48429 -0.31882 0.44642 0.21778 0.15988 -0.025463 -0.10985 0.015348 -0.09888 -0.077667 -0.14642 0.2784 0.10552 0.1233 0.18479 -0.10247 0.087 -0.18811 0.40026 -0.7814 0.37754 -0.47896 -0.12224 -0.13293 0.31818 -0.42091 0.30643 0.40123 -0.10556 -0.093037 -0.40328 -0.44831 -0.39936 -0.0994 -0.35108 -0.083855 0.35452 -0.41325 -0.63229 0.1782 -0.061687 0.35629 -0.23245 -0.11348 -0.33743 0.15721 0.069138 0.58738 0.29815 0.1219 -0.5258 -0.51158 0.34404 0.048118 0.85253 -0.22135 -0.016009 0.22257 0.11087 0.18237 -0.62382 0.45464 0.10833 0.20663 0.18327 -0.10399 -0.13567 0.25661 -0.20948 0.0043234 -0.061617
peace -0.029355 -0.031679 -0.67645 0.75333 -0.22345 0.12182 -0.21341 0.295 0.37321 0.19615 -0.80756 0.17811 -0.44444 0.38098 0.7026 0.15219 -0.25388 -0.23783 -0.24555 -0.68813 -0.15348 0.28586 0.66776 0.051464 -0.55483 0.37958 0.68051 0.34379 -0.01868 0.58276 -0.078209 0.49381 -0.1198 -0.16897 -1.1659 0.68422 0.042232 -0.69013 -0.085519 0.70942 0.44887 -0.11138 0.0030974 -0.051533 0.094351 6.9195E-4 -0.46497 0.065942 0.60691 0.37817 0.39516 -0.75097 0.034387 -0.034276 -0.35537 -0.36441 -0.036423 -0.42696 -0.051002 -0.073336 0.15651 0.33125 -0.16354 0.093897 -0.23196 0.073349 -0.28386 -0.090496 0.58315 -0.20251 -0.35561 0.14434 -0.18873 0.11174 0.90525 -0.13019 0.26524 0.10606 -0.29114 -0.5916 0.12482 0.76483 -0.13759 0.38229 0.14096 0.11832 -0.47888 0.19884 -0.30932 -0.32638 0.055212 0.14205 -0.10706 -0.012584 -0.71532 0.031804 -0.47017 0.56378 -0.59832 0.11376
science -0.29164 -0.0065995 -0.023402 0.59504 -0.40134 0.29277 0.46936 -0.22867 -0.26505 -0.26322 -0.36562 0.22346 0.15949 -0.12762 -0.062072 -0.099198 0.1371 -0.078983 0.432 -0.18765 -0.25574 -0.13262 -0.081674 -0.29607 -0.39851 0.1347 0.36415 0.3307 -0.65222 -0.41099 -0.092549 -0.24717 -0.33226 -0.18634 -0.28212 0.13861 -0.1449 -0.20894 0.19156 0.21363 -0.024414 -0.017443 0.35471 0.14001 0.36876 0.20789 -0.57636 -0.073631 0.051816 0.63692 -0.050051 -0.064589 0.57092 0.33845 0.046601 0.28624 -0.055348 -0.17444 -0.62816 -0.099696 0.53943 0.63466 -0.20869 -0.1557 0.11946 0.41215 -0.29874 -0.12956 -0.26316 -0.017019 0.80133 0.079802 -0.066739 -0.12959 0.1481 -0.16618 0.44117 0.24412 -0.45001 -0.14081 -0.26349 0.47219 0.7627 -0.063135 0.17092 0.10423 -0.6344 -0.10831 0.11201 -0.08198 0.67146 -0.16844 0.1841 -0.37273 -0.32479 -0.35854 0.19097 0.39389 -1.026 0.22505
dawn 0.55055 -0.084808 0.095779 0.34814 -0.15517 0.5559 -0.26554 -0.23584 -0.14715 0.025363 -0.48298 0.48222 -0.37658 0.59753 -0.028493 0.14927 -0.2491 0.019012 0.26927 0.037459 -0.19985 -0.1761 0.62524 -0.17004 -0.23039 -0.38154 0.23863 0.2404 0.32272 0.061462 7.8861E-4 0.25835 0.076719 -0.18926 -0.2906 0.29557 0.25737 -0.35601 0.2483 -8.8279E-4 0.49734 -0.55857 0.62556 0.11869 0.19068 0.15751 0.135 -0.4119 -0.44571 0.41409 0.32392 -0.27967 -7.574E-4 -0.19381 -0.3112 0.027024 0.10041 0.060997 -0.43377 -0.062765 -0.24965 0.45394 0.084798 -0.56369 -0.18266 -0.055355 0.13676 -0.56267 -0.051057 -0.046293 0.31464 0.31532 -0.17356 0.4284 0.052426 0.018099 0.39321 0.35589 0.48988 -0.3799 0.20185 -0.26362 0.1499 0.26415 0.095466 -0.20159 -0.37148 0.46472 -0.15539 -0.037874 0.16647 -0.19084 0.56879 0.29225 0.034728 0.18693 -0.39262 0.64556 0.53194 0.006076
brother 0.14235 -0.28774 0.15041 0.3299 0.53804 0.47545 -0.12683 -0.0066347 -0.24361 -0.2185 -0.40524 -0.080879 -0.12918 -0.24308 -0.18535 0.16287 -0.23537 -0.92848 0.12607 -0.16884 -0.32804 0.18529 -0.078248 -0.20829 -0.41205 0.16181 0.10887 0.34304 -0.080574 -0.15897 -0.062282 0.23586 0.15793 -0.5853 -0.46219 0.10719 -0.24173 -0.15751 -0.034637 -0.72443 -0.45625 0.0054843 0.17494 -0.12341 0.19099 -0.02589 0.0072922 0.057374 0.21365 -0.063646 0.1617 -0.15391 -0.096132 -0.18373 -0.20665 -0.26078 -0.81808 0.46029 0.076256 -0.53905 -0.045413 0.058941 0.54505 -0.21844 -0.049974 0.16821 -0.30631 -0.36919 0.27036 -0.34659 0.27881 -0.19374 -0.028658 0.1706 0.42763 -0.069842 0.18546 -0.34648 -0.2079 -0.80975 -0.3607 -0.36324 -0.5025 0.60999 -0.36281 -0.42181 -0.12725 -0.11456 -0.60521 0.3177 -0.10241 -0.21128 0.69006 0.41505 0.28391 -0.014152 0.14096 -0.037692 -0.33353 -0.31978
wine -0.064146 -0.09081 0.42379 0.2011 0.13507 0.084297 0.19615 -0.13684 0.10792 0.53597 -0.24902 0.14134 0.3124 0.6704 -0.15998 -0.2262 0.084193 -0.26696 -0.34286 -0.29211 0.059604 -0.57917 0.12669 -0.33318 -0.53053 0.33543 -0.11827 0.33155 0.12909 -0.20475 -0.24075 0.14931 -0.28789 0.064819 -0.22234 0.70451 -0.35367 -0.29501 0.40893 0.58011 -0.6099 -0.5645 -0.06989 -0.37581 0.27004 -0.04381 -0.43691 5.3952E-4 0.61818 0.45218 0.88609 0.013369 -0.33922 0.41602 -0.41828 0.35918 -0.6131 0.05583 -0.28061 -0.37845 0.10402 -0.54975 -0.20218 -0.33398 0.26192 -0.0062364 0.42713 -0.82079 -0.018446 0.041116 0.18571 0.10252 -0.63376 -0.25489 0.082926 -0.18268 0.83928 -0.46489 0.31267 0.13 -0.3399 0.52988 0.10854 0.20235 -0.12753 0.1152 0.67104 0.4922 0.19823 -0.37788 0.68092 -0.07317 0.072566 -0.069059 -0.014888 -0.25428 -0.045652 0.38852 0.11941 -0.070959
object 0.28861 0.08266 0.010421 -0.037604 -0.29238 0.12866 -0.23658 -0.20958 -0.028597 0.0034672 0.27836 0.029546 -0.032906 -0.14635 -0.16187 -0.27527 -0.33202 -0.12578 0.22908 -0.22686 -0.30668 -0.30936 0.1361 -0.55536 -0.42253 -0.10173 0.20609 0.21403 -0.85426 -0.66589 -0.08055 0.17342 -0.26407 -0.18709 0.096241 0.20283 -0.24164 -0.19003 0.12555 -0.079062 -0.12796 -0.30806 0.32283 0.21249 -0.18553 -0.099272 -0.57793 -0.11974 -0.21388 0.67572 0.1247 -0.25108 0.28631 -0.089333 -0.48402 0.10344 0.47855 -0.27391 0.15348 -0.22514 -0.1051 -0.12967 0.039175 0.2346 -0.068739 0.015023 -0.08828 -0.25381 0.20259 -0.095373 0.2803 -0.020451 -0.26951 -0.14173 0.24188 -0.12367 0.15099 0.098526 -0.26242 -0.16378 -0.36685 -0.022891 0.266 0.53278 0.20103 0.020965 -0.47069 0.042847 -0.23758 -0.19394 0.41258 0.35771 0.37245 -0.077258 0.10529 -0.053923 -0.30662 0.088927 0.062385 -0.18166
attitude 0.57078 0.065638 0.35398 0.47745 0.19132 -0.22832 0.146 0.57721 0.1391 0.056374 -0.2028 0.23871 -0.086982 0.12794 -0.3876 -0.065308 0.21776 -0.17451 0.34481 -0.55129 -0.3941 -0.47977 0.31927 -0.4408 -0.67009 0.21139 0.22382 0.53873 0.2432 -0.40792 0.28508 0.055141 0.33996 0.12596 -0.19904 0.1509 -0.71848 -0.72156 0.20223 0.087683 -0.2739 0.093785 0.6272 0.46853 0.24465 0.29828 -0.27186 0.04537 0.037069 0.73417 -0.40794 -0.097895 0.005534 0.014054 -0.45192 -0.12408 -0.015434 0.18215 -0.099648 -0.3489 -0.06929 -0.32358 -0.36449 -0.0049608 -0.44562 -0.48409 -0.22592 0.12775 0.18237 -0.44039 -0.13211 -0.20478 -0.23257 -0.03674 0.022942 0.017204 -0.12767 0.094245 -0.60895 -0.52044 -0.17351 -0.075769 0.14519 -0.057557 0.13585 0.076354 -0.15489 -0.0069339 0.06322 0.21928 0.1776 -0.15726 -0.29183 0.42482 -0.44066 -0.24778 0.21325 0.13864 -0.07188 0.0026763
treatment -0.02125 0.47062 -0.11499 0.3014 0.0016218 0.35695 -0.060725 0.83611 0.58715 0.18455 -0.44194 -0.47363 -0.062159 -0.3285 -0.72518 -0.51316 -0.10162 0.22918 0.13924 -0.75759 0.11785 -0.048099 0.20811 0.15928 -0.15406 0.2573 0.14612 -0.1201 0.22291 -0.22787 0.61154 -0.060539 0.25937 -0.047145 0.028758 0.67989 -0.26334 -0.32249 -0.082126 0.070525 -0.70106 -0.26132 0.03722 0.23104 0.59778 0.27014 -0.15015 0.28221 0.19418 0.040453 -0.19982 -0.046663 0.64518 -0.090242 -0.088635 -0.2759 -0.02085 0.10437 0.11706 -0.25841 0.48594 0.33574 -0.33835 -0.38998 0.091333 0.3522 0.078201 -0.55966 -0.2062 0.29056 0.41925 0.33945 0.054868 -0.32027 -0.4778 0.1364 0.029007 -0.079514 -0.60633 -0.36484 0.24843 -0.2371 0.092452 0.4861 -0.16866 0.28322 -0.027349 -0.096203 0.11333 -0.082396 0.0066996 0.10572 0.27581 0.56573 -0.244 -0.319 -0.29669 0.21859 -0.012847 0.015447
flight 0.0062019 0.20328 -0.36991 -0.26437 -0.43842 0.21472 0.23949 -0.33247 0.15733 -0.59394 -0.50028 0.11589 0.16682 -0.15946 0.034207 -0.062845 -0.057881 -0.60213 -0.063557 -0.42493 0.16955 0.11475 0.27549 -0.30818 -0.57117 -0.21027 0.011469 0.023899 0.60535 0.022141 0.48129 -0.252 0.16251 0.027243 -0.16132 0.14479 0.30319 -1.1767 -0.35751 0.11692 -0.2953 0.09997 0.74794 -0.37428 -0.42394 0.37795 0.30985 -0.43482 0.13362 0.41471 -0.18948 0.15193 0.11996 0.14035 -0.53884 0.6452 0.12136 -0.21358 -0.13375 -0.32348 -0.65778 0.50736 0.14413 -0.10033 -0.024988 -0.32426 0.1936 -0.66659 -0.57865 -0.26741 0.24064 -0.066048 0.0072937 -0.15492 0.26063 -0.20565 0.55862 -0.32172 0.058001 -0.38162 -0.2685 0.064483 -0.0066247 0.64432 0.070544 0.40705 -0.21838 -0.54713 -0.37838 -0.48495 0.5193 -0.055036 0.77442 -0.24403 0.16508 -0.29542 -0.48927 0.15117 -0.20333 0.44973
forest -0.38765 -0.18865 -0.14718 0.21947 -0.066337 -0.092233 -0.28918 -0.34183 0.72791 0.34159 -0.15885 0.39051 -0.22078 0.31091 -0.30841 -0.45193 -0.3395 -0.019905 0.040525 -0.43204 -0.71924 0.19206 0.68027 0.0044838 -0.65033 0.040272 0.055146 -0.48313 -0.38659 0.35229 -0.43609 0.32482 0.031437 -0.0085818 -0.20436 0.26249 -0.20835 0.0027081 0.32814 0.35819 -0.2069 -0.11334 0.78806 -0.30811 0.57166 -0.08082 -0.15786 0.43997 0.19522 -0.014109 0.56906 -0.042752 -0.22335 0.19579 -0.70041 -0.02939 0.30854 -0.32612 0.2056 0.13329 -0.29392 0.13886 0.41557 -1.1523 0.0072448 0.14142 -0.23809 -0.13951 -0.42552 0.021766 0.30388 -0.076905 0.060026 -0.0033786 0.26402 0.30308 0.69012 0.0031083 0.1714 0.14131 -0.27866 0.019636 0.14371 0.39226 0.068689 -0.12427 -0.20775 0.69297 -0.22878 -0.8507 0.85549 -0.55887 0.076998 0.12085 0.034497 -0.10514 -0.80095 0.25932 -0.17987 0.34898
abuse 0.4651 0.8137 -0.15622 0.32936 -0.14545 -0.10122 -0.027386 0.26514 0.11537 0.050035 0.065301 -0.1802 -0.18849 -0.032152 -0.33755 -0.93266 -0.40898 0.052028 0.38543 -0.73045 -0.15975 0.37601 -0.096856 -0.04555 -0.62882 0.085712 0.10653 0.11797 0.26472 -0.60346 -0.2427 0.13247 -0.13835 0.18778 0.037747 0.79488 0.11454 0.18854 0.26698 -0.44477 -0.1344 -0.3565 0.02919 0.3915 0.31005 0.69766 -0.5781 0.69532 0.29635 0.32166 -0.25387 -0.18849 0.11407 -0.102 -0.60102 -0.22307 -0.33175 0.72392 0.019444 -0.32844 0.56849 -0.055212 -0.006156 -0.18412 0.33111 0.24308 -0.31297 -0.43038 -0.21016 -0.18619 0.41342 -0.11161 -0.19901 0.011632 -0.054778 -0.06597 -0.024728 -0.30196 0.066919 -0.7088 0.38792 -0.13151 0.40851 0.413 -0.02157 -0.31478 -0.82545 -0.45902 0.18885 0.17247 -0.19175 0.028044 0.22711 0.13409 -0.4011 0.64899 0.076909 0.23104 -0.044371 -2.1687E-4
criterion 0.048904 -0.34498 0.18891 0.24162 -0.35389 -0.098273 0.24213 0.21253 -0.22352 0.019311 -0.035772 -0.036038 -0.15937 -0.4395 -0.22487 -0.052751 0.01414 0.31624 0.22412 -0.12935 0.23414 0.17205 0.22728 0.066547 -0.26334 0.73703 0.33096 0.76035 -0.41834 -0.18165 0.14608 -0.047574 0.072691 -0.39359 0.065287 0.24022 -0.28531 -0.3713 0.25443 0.18609 0.052266 0.46488 0.01177 0.13719 0.35795 -0.16284 -0.58077 0.29669 0.17093 -0.0020202 -0.49965 -0.42155 -0.10067 0.29707 -0.30128 0.17523 0.53194 0.20348 -0.25904 -0.64361 -0.084273 -0.019847 -0.098967 -0.3514 0.27027 0.046753 0.32763 -0.48889 0.22086 -0.33017 0.31333 0.15452 -0.42724 -0.27487 -0.014088 -0.31539 0.26386 -0.053624 -0.90369 -0.57424 -0.50578 0.17745 0.088017 0.27483 0.2171 0.069179 0.2864 0.037613 0.2642 -0.17952 -0.049834 0.18437 -0.10803 -5.7102E-4 -0.15432 -0.38271 -0.18911 0.2898 -0.12307 0.1696
sea -0.075265 0.27073 -0.034715 -0.035121 -0.27639 -0.11909 0.0016467 -0.6302 0.54196 0.22081 -0.48207 0.23081 -0.2871 0.51443 -0.17983 0.11742 -0.4941 0.19092 -5.0489E-4 -0.20585 -0.51308 -0.19954 0.59677 -0.18745 -0.41073 0.21517 0.39865 -0.31205 0.039172 -0.18726 -0.34106 0.40009 0.18021 0.46758 -0.12725 0.40892 -0.12877 -0.29093 -0.14376 0.35489 0.0045935 -0.1967 0.42733 -0.11279 0.41479 0.41456 0.1 0.053071 -0.010247 0.70632 0.38226 -0.099324 0.19876 0.052127 -0.32217 0.29353 -0.055699 -0.073229 0.3246 -0.28283 -0.044478 0.14681 -0.083014 -0.44263 0.27907 -0.40894 -0.29983 -0.53406 0.021167 0.39647 0.35271 -0.18731 -0.47439 -0.07103 0.17104 0.09361 0.39339 0.34549 -0.062142 -0.48397 -0.32504 0.14409 0.32821 0.66401 0.43891 0.41879 0.31365 0.81363 0.11334 0.17541 1.0782 -0.2534 0.53442 -0.2322 0.38719 -0.23585 -0.18258 -0.23049 0.080091 0.49045
dollar 0.021069 0.44074 0.10183 0.15001 -0.29806 -1.0668 -0.19846 0.80249 0.31191 0.085898 -0.24693 -0.12368 -0.17914 -0.56869 -0.34719 -0.11217 0.19602 -0.16164 -0.60426 -0.23475 0.64081 -0.77546 0.51608 -0.094586 -0.0050857 -0.50992 -0.19569 -0.19414 -0.14645 -0.010311 -0.091398 0.24379 -0.51919 -0.18915 -0.022711 0.18369 0.1678 0.1851 -0.017771 0.16637 0.18954 -0.20416 0.49499 -0.72758 0.076787 0.44725 0.37433 -0.29253 0.10105 0.47265 0.17798 0.14694 -0.24092 0.18444 -0.56921 -0.62501 -0.20382 0.0065346 -0.22956 -0.7143 0.089221 0.28192 0.81276 -0.1393 0.048532 -0.15485 -0.062184 0.084606 0.22871 -0.074126 0.15301 -0.10509 -0.34442 -0.4347 -0.072443 -0.51209 0.43096 -0.18218 -0.40666 -0.92189 -0.99078 0.17163 0.31953 0.0060014 -0.59406 0.0075767 -0.41953 0.74906 0.15016 0.38982 1.0369 -0.30531 0.23252 -0.045884 -0.43443 0.11908 -0.0086316 0.74882 0.23734 -0.0082466
example 0.32664 -0.082835 0.36708 -0.18309 0.098967 0.077775 0.15138 0.22207 -0.16536 0.049993 -0.032904 -0.11015 0.027913 -0.12293 0.058845 -0.16852 -0.017119 -0.074 -0.090178 -0.62446 -0.2089 0.051817 0.093 -0.23324 -0.30656 -0.050521 -0.10938 0.32722 -0.18789 -0.12533 -0.18184 0.13328 -0.089716 -0.011881 0.0041786 0.38437 -0.1651 -0.26729 0.29601 -0.018431 -0.3768 -0.061804 0.16346 0.22667 0.059674 -0.046381 0.045475 0.11934 -0.053027 -0.033806 -0.039576 0.035649 0.13679 0.18387 -0.11184 0.033911 0.13666 -0.24996 -0.13978 0.042539 0.089636 -0.10019 -0.09993 -0.55094 -0.19538 0.026693 0.21211 -0.40974 -0.013422 -0.32378 -0.028487 0.34897 -0.14546 -0.08697 -0.0052647 0.024945 0.31989 0.18067 -0.32047 -0.53518 -0.34166 0.1524 0.061994 0.21287 -0.1643 0.0090645 -0.024358 -0.24394 0.12254 0.1806 0.38111 0.03206 -0.046245 0.33068 0.064523 -0.306 0.018536 0.26426 0.09932 0.046836
journal -0.037247 0.14636 0.043527 -0.11174 0.46804 0.15841 0.17713 -0.29401 0.36194 0.05228 -0.50975 0.34794 -0.58331 -0.20483 0.398 -0.028788 -0.4219 -0.25687 -0.025874 -0.36176 0.23356 -0.42566 -0.74419 -0.13591 -0.50374 -0.18383 0.03185 -0.15163 -0.47341 -0.87587 0.14264 0.7701 -0.4673 0.24747 -0.085982 0.89343 -0.84282 -0.25919 0.19991 -0.39237 0.29129 -0.19848 0.33264 -0.012532 0.64862 0.52157 -0.69697 -0.2328 0.04852 0.39265 -0.045099 0.39257 0.009643 0.33365 0.12585 0.94917 0.34277 0.26629 -1.242 -0.31116 0.92831 0.81245 -0.10621 -0.45897 0.1345 -0.48135 -0.71283 -0.33101 0.083135 0.24846 0.54944 0.23571 0.51328 0.13596 -0.09164 0.20656 0.53222 0.13412 -0.51211 -0.13917 -0.040966 -0.24075 0.17886 0.55714 -0.27224 0.18034 0.093116 -0.59285 0.50109 0.037651 0.41731 0.65826 0.10243 0.40342 -0.34141 -0.69116 -0.13237 1.222 -0.93612 -0.06752
laundering -1.0084 0.77976 0.34174 -0.20808 0.022271 -0.20008 -0.23923 0.16526 0.78341 -0.39498 -0.29685 -0.29095 -0.34683 0.53967 -0.21065 -0.86658 -0.41389 0.23167 -0.38623 -0.41184 0.046154 0.50598 -0.13685 0.14142 0.20164 -0.23856 -0.051508 0.81024 0.18488 -0.072203 -0.30031 0.010639 0.14985 0.09689 0.26297 0.57983 0.035313 -0.80751 0.45523 -0.31671 0.59943 -0.36905 0.30734 -0.088312 0.039897 -0.52191 -0.27426 0.38611 0.26604 0.021737 0.34295 -0.20787 -0.17831 -0.042351 -1.0507 -0.53198 -0.96014 0.92988 -0.15114 -0.55397 0.20816 0.23967 0.08851 0.35149 0.45805 0.041635 -0.21792 -0.32961 0.32075 -0.20973 0.3788 -0.46438 0.059028 0.17189 -0.13083 -0.64457 0.74183 -0.20463 0.18688 -0.93795 -0.062254 0.79193 0.37789 0.60436 -0.72477 -0.020936 -0.37183 -0.49282 0.13498 0.4246 -0.22117 -0.40158 0.69087 0.44445 -0.23236 -0.18098 0.18149 0.99743 0.33431 -0.45811
hotel 0.19507 -0.037487 0.37939 0.25821 -0.054417 0.098493 -0.16099 0.048529 0.63679 -0.41308 -0.2663 -0.065098 -0.10394 0.44242 -0.012527 -0.10113 0.43433 -0.37071 0.17845 -0.15098 -0.13944 -0.3506 0.032871 -0.30635 0.15085 -0.09382 -0.094078 -0.051611 0.42492 0.23066 -0.21353 -0.1267 -0.28086 -0.40665 -0.3346 0.45876 -0.097525 -0.3878 -0.023503 0.57907 -0.4201 -0.61978 0.44754 0.044325 -0.020084 0.43953 -0.37891 -0.16823 0.48655 0.077588 0.39916 0.20509 0.14202 0.20162 -0.57512 0.14993 0.15797 -0.030756 -0.15783 -0.070952 -0.82101 -0.067603 0.16137 -0.40985 0.20063 -0.078971 0.27446 -0.19554 -0.27773 -0.031416 0.11763 0.48163 -0.7416 0.1501 -0.28888 -0.34661 0.40871 -0.24096 0.062588 -0.68376 -0.15936 0.23082 -0.10296 0.83483 -0.065594 0.014119 0.53762 -2.1606E-4 -0.016785 -0.20361 -0.0090423 -0.33371 0.82397 0.10348 0.14561 -0.016477 -0.57839 -0.26919 0.011835 -0.048536
term -0.2141 -0.405 0.48591 -0.051815 -0.082649 -0.025577 -0.35022 0.56258 -0.20435 0.26124 -0.77228 -0.40817 -0.158 0.01565 -0.45176 -0.14941 -0.41824 0.57216 -0.48531 -0.021652 0.23086 -0.45019 0.38502 -0.21244 -0.36864 -0.19346 0.14603 0.54474 -0.15394 0.051908 0.11321 0.2481 -0.0022745 -0.24924 0.081645 0.32189 0.4193 -0.29811 0.47293 -0.11273 -0.03229 0.47841 -0.033355 -0.031655 0.31243 -0.20215 -0.54394 0.36623 0.48728 0.41006 -0.22658 -0.29468 0.36344 -0.2412 -0.32852 -0.066894 0.1049 0.081055 -0.52424 -0.10544 0.22593 0.62794 0.23584 -0.39237 0.17971 0.18318 0.085245 -0.57113 0.32943 -0.34231 -0.2371 0.40716 0.047177 0.1497 0.012434 -0.54305 -0.14624 -0.15572 -0.14 -0.64879 -0.028912 0.36165 -0.15533 0.59412 -0.20652 0.335 -0.42071 0.18978 -0.0081195 -0.099441 0.074516 0.29034 -0.18326 0.53996 0.26588 -0.10703 0.22038 -0.13683 0.19523 0.46497
listing 0.11387 -0.33463 0.10317 0.0098326 -0.20953 -0.22901 0.5191 0.089177 0.70535 0.048612 0.016424 0.23327 -0.092936 -0.51774 0.01323 0.17146 0.26613 -0.15534 -0.25163 -0.48746 0.2126 -0.11063 0.088263 0.068316 0.19385 -0.11259 0.045124 0.032227 -0.035462 0.71083 -0.16224 0.037818 0.094587 -0.21441 -0.028185 0.24006 -0.46016 -0.54965 0.3487 0.21877 -0.024145 0.022838 0.077541 -0.14324 -0.013244 0.17178 -0.34857 0.13784 0.25324 0.1672 -0.0131 0.46758 -0.25854 0.040783 -0.47263 -0.036205 0.34299 -0.12074 -0.11493 0.080176 0.046563 0.014144 0.35339 -0.13291 0.70088 -0.064048 0.10756 -0.46908 0.1165 -0.037289 0.094102 0.040418 -0.23138 -0.27627 0.12349 -0.66252 0.30809 -0.17343 -0.16686 -0.43459 -0.097709 0.076453 0.13313 0.78437 0.19562 -0.2533 -0.050247 -0.36718 0.20478 -0.26137 0.54628 0.56811 -0.10073 0.45697 0.42642 -0.41984 -0.45179 0.47189 -0.038858 0.039244
chemistry -0.18857 -0.043379 0.3159 0.49477 0.030609 0.52983 0.57847 -0.27337 -0.34958 -0.20494 -0.8216 0.043647 0.28446 -0.21829 -0.028138 0.050777 -0.022583 0.17788 0.45125 -0.58859 -0.2841 -0.23343 0.14236 -0.052205 -0.70632 0.17799 0.26864 -0.0020464 -0.48897 -0.43403 0.22012 -0.08199 0.018225 -0.47567 -0.47649 0.71878 -0.43818 -0.28561 0.30435 0.032805 -0.26258 -0.40003 0.26812 -0.14495 0.1992 -0.40684 -0.34599 0.041024 -0.39854 0.62172 0.038023 -0.48248 0.14689 0.12215 -0.40718 0.39227 -0.087519 -0.18284 -0.66774 -0.011983 0.30166 0.50646 -0.35673 0.19624 0.44091 0.59556 -0.0075772 0.15584 -0.019737 0.15137 0.43597 0.09871 0.035288 0.10736 0.043814 0.21134 -0.043293 -0.12373 -0.52101 -0.12096 -0.38838 0.42065 0.36183 0.12838 -0.013935 0.094313 0.14484 0.0088618 -0.08249 -0.36267 0.66946 0.072761 0.46234 -0.275 -0.59458 -0.48354 0.26055 0.20734 -0.94401 0.12439
seafood -0.093462 0.14194 0.35675 0.22705 -0.67351 -0.10232 0.14474 -0.46134 0.49147 0.099592 -0.80213 0.16969 0.49041 0.79837 -0.32141 -0.24893 -0.18261 -0.2093 -0.089218 -0.41244 0.010486 -0.71503 0.25529 -0.068217 -0.16853 0.45204 0.26895 -0.19774 0.3253 0.13088 -0.15932 0.32465 0.11159 0.11371 0.075504 0.13484 -0.54245 -0.52903 0.45916 0.74904 -0.64355 -0.76408 -0.057787 -0.12821 0.57949 0.11223 -0.15789 -0.059269 0.36296 0.41919 0.40327 0.69434 -0.20193 0.60908 -0.44346 -0.28483 -0.68448 0.2225 -0.30238 -0.5042 0.21629 -0.54126 -0.51583 -0.34265 0.25276 -0.18315 0.34908 -0.72298 -0.10927 0.061167 0.0024216 -0.28792 -0.60898 -0.40606 -0.0089114 -0.17679 0.85927 0.42057 0.26348 -0.55105 -0.0018155 0.5217 0.26965 0.24015 0.22756 -0.19768 0.57607 0.32585 0.73331 -0.14865 0.9839 -0.21228 0.40193 -0.059651 0.06211 -0.6094 0.35935 0.095769 0.065138 0.27849
CD -0.3637 -0.31113 -0.37454 0.18668 0.065049 -0.19299 0.098571 0.83204 -0.36143 0.33393 -0.17619 0.21725 0.10403 -0.10962 0.62192 0.33358 0.47567 0.086235 0.14906 -0.69672 -0.1073 0.029002 -0.34198 0.47602 -0.020332 0.088169 0.21809 0.26025 0.0068191 -0.07527 0.11841 0.26588 -0.6534 -0.34686 0.050819 0.5935 -0.096309 -0.66996 0.029714 0.031563 -0.26363 -0.22508 0.1282 -0.30112 0.086668 0.40283 -0.15612 -0.020089 -0.11037 0.35485 0.56035 -0.0345 -0.48009 1.2468 -0.047755 0.54163 -0.40066 0.35328 -0.14789 -0.14158 0.10046 -0.5789 0.57911 0.039431 0.070153 0.050996 -0.50912 -0.32495 0.55826 0.19158 0.38675 -0.16432 -0.06537 0.36349 0.37147 0.27597 0.24465 -0.50419 0.052498 -0.64155 -0.74685 0.01635 0.2517 0.1971 -0.082496 -0.20051 -0.44177 0.22114 0.35808 -0.43791 0.19815 0.42886 0.64217 0.14908 0.23782 -0.0011338 -0.6662 0.35541 0.25415 -0.17241
mind 0.016237 -0.25627 0.27532 0.16354 -0.23685 0.073375 -0.067872 0.36648 -0.35617 0.2772 0.054622 0.2719 0.020286 -0.0061678 -0.082951 -0.2543 -0.046541 -0.31122 0.10441 -0.36854 -0.23952 -0.18828 0.12057 -0.47594 -0.51426 0.20982 0.24035 0.22853 -0.28003 -0.030564 -0.15081 -0.017972 0.11628 -0.34717 -0.38629 0.34086 -0.53427 -0.55889 0.29668 0.094018 0.0087668 -0.2518 0.20415 0.24035 0.19724 -0.18137 -0.29918 -0.30697 -0.063663 0.59259 -0.077206 -0.20893 -0.32526 0.14769 -0.17919 0.16049 0.02073 -0.032435 -0.0079368 -0.13399 -0.11967 0.07366 0.16769 -0.16649 -0.057401 0.080124 -0.29295 0.03793 0.44716 -0.39312 0.19925 -0.050199 -0.19779 0.12598 0.037123 -0.24251 0.11335 -0.31269 -0.30071 -0.57151 -0.23855 -0.30611 -0.025143 0.49767 0.35591 0.24385 -0.059585 0.37797 0.15737 0.032945 -0.059012 -0.19016 -0.062419 0.13047 0.0081643 -0.19934 -0.10474 0.13011 -0.10713 -0.065179
sex 0.39231 0.52973 0.28639 0.46428 -0.25288 0.031429 -0.3203 0.049055 -7.9444E-5 0.14031 0.23245 0.17523 -0.13099 0.30317 0.019985 -0.61888 -0.7321 0.014358 -0.18047 -0.85634 -0.50652 -0.16858 0.24181 0.073217 -0.27492 0.4847 -0.026616 0.066633 0.045106 -0.34389 -0.1194 -0.31592 0.11075 -0.31414 0.056972 0.81256 0.20107 -0.34975 0.31624 -0.22512 -0.13942 -0.28694 0.35433 -0.1215 0.13341 0.4343 -0.81653 0.24649 0.36904 0.028305 -0.059093 -0.080475 -0.12948 -0.3342 -0.63791 0.1073 -0.12629 0.41637 -0.35518 -0.47766 0.2775 -0.43813 -0.40592 0.14994 0.57033 0.32303 -0.38239 -0.029592 -0.7135 -0.50075 0.45923 0.16417 -0.4258 0.17188 -0.38521 -0.29482 0.1666 -0.6725 -0.084128 -0.41813 0.1153 0.055383 0.34863 0.36204 0.055135 0.0065871 -0.45941 0.002605 0.23108 0.14983 0.11949 0.46568 0.46335 0.32911 -0.58563 0.28071 -0.095175 0.1583 -0.11918 -0.047279
food -0.27029 0.23295 0.51268 0.26656 -0.30496 -0.33768 -0.096261 -0.32212 -0.060789 0.10307 -0.49496 0.14574 0.056612 0.22852 0.11033 -0.34396 0.042564 0.29171 0.077869 -0.47841 -0.18945 -0.23927 0.2252 -0.044444 -0.25858 0.12792 0.17475 0.039563 0.010249 0.13413 0.012558 -0.12623 -0.095342 -0.28638 0.1896 0.25474 -0.42872 0.032051 0.18017 0.2953 -0.54485 -1.0656 -0.13942 0.092974 0.29356 0.45758 0.38967 0.27304 0.4601 0.22625 0.15927 0.15411 -0.20624 0.59036 -0.033822 0.0061051 -0.13307 0.43923 -0.18095 -0.61098 0.21429 -0.19472 -0.19083 -0.5729 0.017394 0.072424 0.084494 -0.84897 -0.2635 0.15775 0.16274 -0.27376 -0.44773 -0.30432 0.21085 -0.23381 0.92797 0.13614 0.19997 -0.78352 0.16844 0.33156 0.18629 -0.12122 0.20512 0.15756 0.14114 0.18052 0.27199 -0.52351 0.56219 -0.37189 0.1491 -0.22475 -0.41903 -0.11068 -0.12748 0.21411 -0.27516 0.41331
precedent 0.50532 0.064149 0.25168 0.47544 -0.041094 -0.26244 0.20707 0.25571 -0.12111 0.22525 0.049239 -0.36468 -0.20064 -0.075844 0.034575 -0.52931 -0.26967 -0.076462 0.45302 -0.43198 0.14248 0.04973 -0.17581 -0.11341 -0.86981 -0.2982 0.14105 0.46844 -0.31151 0.077978 -0.17433 -0.11677 0.17426 -0.17214 0.23743 0.27479 -0.14861 -0.67494 -0.051573 0.46175 0.10895 0.29019 0.18544 0.27935 0.57484 -0.16711 -0.56209 0.2454 0.095523 0.13577 0.029808 -0.29983 -0.074814 -0.1902 -0.37927 -0.43979 0.26356 -0.14211 0.10159 -0.38929 0.071225 -0.068652 0.069061 0.0083972 -0.27775 -0.26176 0.11672 -0.67341 0.69261 -0.29025 0.030651 0.22927 0.040212 -0.046262 0.20613 -0.11731 0.41742 -0.060411 -0.52112 -0.15899 -0.48348 0.29918 0.29597 0.32696 0.01953 -0.2923 -0.50087 0.14869 -0.031659 0.50138 -0.020643 -0.029489 -0.37074 0.11816 0.29907 -0.45442 -0.23955 0.42298 0.101 0.2951
series -0.086854 -0.019476 -0.42554 0.24447 0.27002 -0.13577 -0.11072 0.54256 -0.60987 -0.21337 -0.42067 0.028079 -0.099317 0.09355 0.26271 -0.1768 -0.33272 0.1845 0.53185 -0.22387 0.076771 -0.34781 -0.14766 -0.47557 0.057996 -0.33832 -0.45362 -0.12944 0.10314 -0.061018 -0.27771 -0.095713 -0.02907 -0.085717 -0.34458 0.44086 0.48792 -0.57135 0.09652 0.39678 -0.49141 0.21449 0.29577 0.17143 0.15562 0.32456 -0.15759 -0.13891 -0.18484 -0.21549 0.20955 0.23512 -0.11495 -0.20495 -0.54796 -0.01387 0.092215 0.28802 -0.45549 0.30628 0.27022 0.12329 0.33258 0.0075195 0.030581 0.3126 -0.37152 -0.1879 -0.069122 -0.48907 0.16065 -0.19949 0.098275 0.10856 -0.13311 0.37502 0.12749 0.4319 -0.59868 -0.41618 -0.035786 0.067825 -0.044671 0.53941 0.52515 -0.66168 -0.34022 -0.15333 0.040989 -0.085434 0.014581 0.24702 0.22046 -0.27504 -0.10964 -0.26953 -0.28071 0.36831 -0.043433 -0.19828
kilometer -0.4011 -0.8103 -0.42381 -0.67042 0.12597 -0.30733 -0.12181 -0.24257 1.1898 0.039852 -0.066391 0.631 -0.12361 -0.40523 -0.10866 0.51222 -0.2984 0.053825 0.074548 -0.25604 0.031075 -0.23721 1.2126 -0.26324 -0.28814 -0.73292 0.19219 -0.12795 -0.35826 -0.87159 -0.23485 0.13578 0.32178 0.50588 0.15843 0.051669 0.11861 -0.39155 -0.2606 -0.052423 -0.17152 0.24162 0.30341 -0.16726 0.55852 -0.15547 -0.16813 -0.67423 -0.0031672 0.15682 -0.096311 -0.92486 0.77594 -0.35013 -1.1488 -0.28871 0.16146 0.11343 -0.1202 -0.2912 -0.69126 -0.21961 -0.42985 -0.83819 0.13666 0.47267 0.26166 -0.67398 -0.10283 -0.32641 0.59003 0.70094 0.089161 -0.047628 -0.28635 -0.017536 0.48406 0.16154 0.45339 -0.028968 0.018863 0.17438 -0.084066 0.50256 0.12745 0.027215 0.073292 0.78537 0.19578 -0.1719 0.1961 -0.53725 1.0259 -0.15799 -0.18646 0.20293 -0.37456 0.15416 -0.044073 0.26531
grocery -0.2524 -0.27656 0.39344 0.052077 -0.26826 0.065128 -0.14215 -0.083638 0.1741 -0.20862 -0.26597 0.30401 0.16942 -0.058354 0.22142 0.22117 0.17324 0.030457 -0.24489 -0.40084 0.044999 -0.61693 0.37149 0.39801 -0.21719 -0.070968 0.204 0.16716 -0.0081237 0.10542 0.0094797 -0.071267 -0.22916 -0.78572 0.048165 0.16935 -0.41885 0.1849 0.17313 0.47416 -0.65103 -1.2729 -0.023062 0.33739 0.33244 0.54179 -0.2767 0.27448 -0.077535 0.13225 0.52587 0.55815 -0.32134 0.87147 -0.0075166 -0.11775 -0.51662 0.40588 -0.26174 -0.36696 -0.56904 -0.56904 0.32407 -0.61778 0.096737 0.28825 0.088586 -0.568 -0.21417 -0.64045 0.2029 -0.0031948 -0.42263 -0.49478 0.42146 -0.47384 0.80551 0.26631 0.76102 -0.5031 0.12089 0.10806 0.29259 0.39029 -0.099992 0.16881 -0.19319 -0.1023 0.1747 -0.25844 0.15657 0.17417 0.58654 0.014163 -0.2939 -0.23092 0.34126 0.022835 0.50371 0.078119
wizard -0.4629 -0.40918 -0.010511 0.44725 0.70215 0.21181 0.25477 -0.16284 -1.0813 -0.39686 0.38218 -0.18482 0.5201 -0.046155 0.15225 0.0089227 -0.35709 -0.41814 -0.12314 -0.037453 -0.80481 -0.33475 -0.022723 -0.14882 -0.28844 -0.26996 -0.35185 0.011411 -0.13424 -0.31789 -0.090614 -0.28613 -0.16142 -0.39506 -0.59701 0.20535 0.057869 -0.52027 0.27775 -0.46902 -0.024906 0.12951 0.63731 -0.29707 0.33264 -0.31793 -0.39198 -0.29158 0.067598 0.60945 0.0093932 -0.15236 0.15092 0.31105 -0.36279 0.28788 0.10499 0.55742 0.21783 -0.43179 0.13049 0.14621 0.6098 -0.35383 0.3284 -0.017041 -0.7631 0.10829 0.0024126 -0.14362 0.78311 0.38784 -0.40655 0.41609 0.053297 0.26594 0.29144 -0.067853 -0.27701 -0.75454 -0.54169 0.0077189 -0.38359 0.18544 -0.00491 -0.74852 -0.39138 -0.45916 -0.14605 0.28015 0.42456 -0.3764 0.018273 -0.039467 -0.10263 -0.17687 -0.45108 0.045322 0.48075 -0.17504
information -0.026058 -0.21048 0.31997 -0.4592 -0.2329 0.094086 0.2593 -0.023778 0.15307 -0.15045 -0.045845 0.093972 0.28356 -0.057664 -0.015314 -0.41963 0.18504 -0.21485 -0.39612 -0.78121 0.47432 0.39558 -0.46423 0.18633 -0.2052 -0.14497 0.070602 0.25615 -0.11374 -0.54492 -0.12765 -0.23398 -0.63576 -0.071424 -0.15684 0.30355 -0.80371 -0.20397 0.10652 0.21428 0.045368 -0.49581 -0.035296 0.071458 0.56899 -0.30387 -0.15021 0.23655 0.36686 0.22609 -0.32919 -0.28915 0.213 0.040897 -0.27956 -0.050269 0.23453 0.56216 0.51498 0.35079 -0.16919 0.29729 0.15908 -0.22613 -0.19754 0.39127 0.42505 -0.13265 -0.40953 -0.10119 0.40193 -0.16009 -0.133 0.35265 0.13963 0.045037 0.18736 -0.19266 0.023399 -0.96926 0.1963 -0.25816 0.34147 0.43052 0.02613 0.028069 -0.45948 -0.12191 0.13161 0.17258 0.39375 0.25434 0.016263 0.32547 0.11158 -0.70015 -0.54512 0.75686 -0.18311 -0.079461
Israel 0.44578 0.45608 -0.69708 0.90566 0.18724 -0.043759 -0.17576 0.071561 0.76592 0.32661 -0.71738 -0.015371 -0.51225 0.32625 0.60791 -0.20019 -0.36465 -0.40679 -0.32598 0.053164 0.15569 0.27944 0.49802 -0.12414 -0.39808 0.52727 0.36887 0.71052 -0.82372 0.032441 -0.077245 0.67154 -0.18856 0.32127 -0.34987 0.45159 4.7734E-4 -0.55562 -0.86834 0.52175 -0.43528 -0.23082 -0.49137 0.073059 0.39476 0.10606 0.071503 -0.033656 -0.086371 0.14999 0.32284 -0.70168 0.018617 0.19602 -0.29578 0.070611 0.60289 -0.15497 -0.41855 0.28599 -0.060811 -0.083374 -0.68776 0.09948 0.39058 0.35449 0.018963 -0.22646 0.10234 -0.38325 0.09093 -0.11935 -0.47995 -0.3359 0.31836 -0.40884 0.093074 0.024579 -0.1194 -1.0628 -0.21849 0.025119 -0.50456 0.56505 0.20186 0.40254 -0.70773 -0.11668 -0.34966 -0.019521 -0.14136 -0.041798 -0.3269 -0.40548 -0.26158 -0.21468 -0.012572 0.88578 0.3659 -0.27931
brandy -0.022108 -0.24849 0.35112 0.40782 0.17942 0.17126 -0.15498 -0.027783 -0.25768 0.49638 -0.29312 0.064239 0.51622 0.52525 -0.25165 0.17538 -0.31794 -0.10292 -0.18475 -0.38301 -0.055635 -0.65009 0.30026 -0.26656 -0.56805 0.20953 0.10378 -0.075025 0.30167 -0.31651 0.052621 0.36008 -0.50255 0.23564 -0.63581 0.86791 0.022506 -0.49035 0.34434 0.25629 -0.28598 -0.74831 0.0057427 -0.0089441 0.20157 -0.20756 -0.11494 0.067422 0.15477 0.75196 0.85696 -0.15786 0.0094722 0.34647 -0.52732 0.0073643 -0.64877 0.68705 0.15769 -0.5693 -0.054536 -0.25159 -0.13331 -0.71035 0.18557 -0.29581 0.10188 -0.79284 -0.080613 -0.24403 0.24216 0.03573 -0.47118 -0.020824 0.66884 0.015924 0.60783 -0.78754 0.50498 0.44806 -0.22905 0.20337 0.01981 0.10608 -0.15268 0.44004 0.69568 0.35296 0.17448 -0.2814 0.69328 -0.30141 0.40986 0.12463 0.036218 -0.12487 -0.012308 0.31813 0.52125 -0.11184
interview 0.32765 -0.45055 0.29054 0.14257 0.54672 0.66193 -0.37511 0.0093924 0.32542 0.027784 -0.43839 0.028118 -0.15486 -0.26022 0.21594 -0.50472 -0.29153 -0.12679 0.36253 -0.11599 -0.11053 -0.53326 -0.26578 -0.47942 -0.32953 -0.01779 -0.10679 0.37556 0.49604 -0.015214 0.1121 0.040152 -0.18692 0.021275 -0.65776 0.52158 -0.28184 -0.4806 0.035701 -0.29225 -0.050654 0.16462 -0.14315 0.014407 0.19094 0.63696 0.13667 -0.06704 0.34654 -0.16706 -0.21794 0.016265 0.061959 0.42389 -0.35119 -0.25945 0.2058 0.26245 -0.39235 0.45381 -0.38626 -0.0042804 0.014107 0.032846 0.12818 -0.27183 -0.15289 -0.4834 -0.088628 -0.32626 0.17597 0.43293 0.15526 0.27782 -5.3335E-4 0.029019 0.10371 -0.43376 -0.46901 -0.34485 0.32498 -0.286 0.0033579 0.60465 -0.48735 0.12614 -0.62504 0.024603 0.191 -0.23472 0.11088 0.42152 0.013138 0.10991 0.28792 -0.24412 0.10161 0.55626 -0.48684 -0.24242
prominence 0.51537 -0.049287 -0.065651 0.11024 0.40574 0.11532 0.050949 0.36147 -0.14136 -0.21516 0.12291 -0.049058 -0.21423 0.32854 -0.078521 -0.010537 0.17809 0.011885 0.25323 -0.34247 -0.29705 -0.21668 0.22275 -0.41308 -0.52186 0.35893 -0.45259 0.082354 0.26623 -0.12116 0.19159 0.074636 -0.21043 -0.35293 -0.50331 0.56568 -0.12545 -0.12584 -0.087771 -0.28757 0.23396 -0.087086 0.017304 0.30335 0.24582 -0.42533 0.11257 0.33138 -0.14521 0.50198 -0.32712 -0.047504 0.45603 0.020242 -0.039232 -0.26702 0.16472 0.64263 -0.39631 0.37327 0.58739 -0.38075 0.77403 -0.2404 0.31032 -0.2747 -0.020886 -0.15356 0.069443 -0.17806 -0.30249 0.087011 0.11093 -0.096824 0.24181 -0.6454 0.34757 0.068196 -0.1323 -0.49036 -0.69212 0.011267 0.43359 0.17134 0.34812 -0.32118 -0.38363 0.25952 -0.15447 -0.067123 0.56395 0.018193 0.26383 -0.057521 0.0958 0.39753 -0.13883 0.66052 -0.37208 0.056347
bed -0.32464 0.04637 0.31059 0.40074 -0.10921 0.74811 -0.42291 0.17068 0.040861 0.13629 -0.48594 -0.15097 -0.13613 -0.37936 -0.0046455 -0.019211 -0.078356 0.060482 0.43416 -0.41686 -0.55585 -0.35271 -0.0093553 -0.4198 -0.017482 0.36916 0.098633 -0.20362 -0.19324 -0.18412 -0.17025 0.25551 -0.1453 -0.28698 -0.30157 0.73645 -0.019244 -0.13436 0.19159 -0.083534 -0.22996 -0.57852 0.38638 -0.083773 0.12427 0.67751 5.1396E-4 -0.16979 0.28147 0.13125 0.35952 -0.18045 0.064393 0.12396 -0.37236 0.32603 0.087827 -0.049578 0.13255 -0.48178 -0.1664 0.17965 0.27314 -0.45401 0.21273 -0.2992 -0.13243 -0.40329 0.0045371 -0.17398 0.67816 -0.31186 -0.44456 0.30125 -0.11905 0.16311 0.74901 -0.28412 0.23906 -0.38176 -0.071145 -0.59827 -0.20421 0.47866 -0.11062 0.3208 0.25666 0.28012 -0.016481 -0.094206 0.077617 -0.1792 0.49896 0.34756 0.13584 0.045265 -0.35789 -0.24052 0.15058 -0.067259
furnace -0.37593 -0.1098 -0.14311 0.12304 -0.56316 0.2269 0.12542 0.040672 0.28321 0.066316 -0.58835 -0.13949 0.41775 0.081883 -0.11409 -0.33042 0.28502 0.15796 0.63949 0.31738 -0.37346 -0.3586 0.60611 -0.38668 -0.88175 0.039853 0.39526 -0.32999 -0.50284 -0.56813 -0.1719 -0.18911 0.019122 -0.20516 0.050236 0.66553 -0.12024 0.44484 0.5429 -0.40032 -0.60021 -0.72431 0.4564 -0.18858 0.70634 0.30925 0.026776 0.53512 0.022111 0.11525 0.57112 -0.03234 -0.011136 0.075507 -0.23091 0.17186 0.030862 -0.42554 -0.15928 -0.090176 -0.20478 0.5543 0.20562 0.22066 0.26662 0.58937 0.21248 -0.54212 0.26939 -0.2771 -0.079608 -0.22466 -0.061181 0.11361 0.45168 0.28427 0.34882 -0.45426 0.51625 -0.95297 -0.7423 -0.20774 -0.61093 -0.022303 0.17463 -0.50737 -0.029292 0.16328 -0.080381 -0.54651 0.1233 -0.25225 1.0177 -0.45413 0.12649 -0.42294 -0.38695 0.15824 0.56348 0.31126
evidence -0.039986 0.44763 0.4227 0.17162 -0.093811 -0.074643 -0.13313 0.03731 0.082681 -0.10278 0.071127 -0.01904 -0.39421 -0.35902 -0.044278 -0.39384 -0.58313 0.1596 0.46058 -0.24109 -0.008436 -0.05715 -0.82109 -0.03104 -0.85817 0.44029 -0.085731 0.53035 0.051087 -0.31185 -0.63671 -0.044407 -0.64967 -0.0018649 -0.29173 0.73541 -0.50642 -0.50314 0.10034 0.38871 0.051469 -0.2968 0.21759 0.3941 0.5717 -0.17718 0.078649 -0.19848 -0.0052731 0.070945 -0.33873 -0.27254 0.08237 0.34322 -0.28779 -0.079182 0.19606 0.34751 0.31163 -0.5126 0.022318 0.56227 -0.11004 -0.036661 0.034381 0.41512 0.10232 -0.19467 0.038613 -0.10414 0.23526 -0.20679 -0.16494 0.0039952 -0.077354 -0.18479 0.061512 0.023116 -0.15077 -0.040399 -0.096957 -0.027452 0.3272 0.31672 -0.23338 -0.097453 -0.59667 0.16513 0.1598 0.082034 0.45525 0.13781 0.42399 0.30011 0.14616 -0.057682 -0.22456 0.44709 0.0094725 0.27258
sprint -0.61371 -0.22379 0.083572 0.19049 0.67852 -0.11154 0.52348 0.14039 -0.1261 0.64178 -0.093236 0.24839 -0.62982 -0.44547 -0.40405 0.26876 -0.51944 0.56728 0.31915 -0.043713 0.010596 -0.37706 0.84048 -0.043236 -0.073104 -0.32826 0.23758 -0.26774 0.39298 -0.075935 0.20446 -0.35039 0.55383 0.20846 -0.59762 0.23833 -0.089454 -1.0149 -0.3493 -0.48964 0.27701 -0.10561 0.39988 -0.40099 0.63059 -0.24995 -0.46426 -0.78983 0.11447 -0.15318 -0.30892 -0.35211 0.16862 -0.046701 -0.47981 -0.09483 0.09154 0.37647 0.27297 -0.024248 0.14469 -0.2986 0.093133 -0.40053 0.1242 -0.12362 0.33862 -0.94891 -0.06249 -1.1359 0.1238 0.69146 -0.31427 -0.30417 -0.39242 0.16538 0.034701 0.039887 0.14945 -0.03466 -0.36597 0.32194 0.3263 0.26705 0.032873 0.1866 -0.26949 0.2647 0.016928 0.29094 0.26446 -0.054741 1.1987 -0.47433 -0.10911 -0.12898 0.17176 0.20448 0.0089295 0.26282
emergency 0.19483 0.10909 0.34895 0.21932 0.14557 0.74661 0.26055 -0.12929 0.17366 -0.16776 0.012586 -0.43848 0.0023573 -0.31596 0.16218 -0.84572 0.40039 0.38697 0.28733 -0.081065 0.19384 0.50224 0.61275 -0.23741 -0.068072 -0.1699 -0.057992 -0.21625 0.11301 -0.087515 0.17579 -0.09747 -0.20756 0.0040565 0.20183 0.25306 0.64813 -0.27977 -0.23823 0.3536 -0.32107 0.21158 0.67439 -0.16964 0.062828 0.77176 -0.12185 0.094029 0.095053 -0.16159 0.26937 0.021507 -0.19423 0.1227 0.14584 -0.4432 0.040657 0.10995 0.29869 -0.4093 -0.019933 0.42863 0.12815 -0.086153 -0.20814 0.37964 0.22905 -0.81881 0.12101 0.34233 0.13919 -0.038043 -0.20209 -0.24989 0.28449 0.012696 0.79771 -0.12483 -0.43686 -1.1733 0.66507 -0.10656 0.21211 0.22427 -0.21023 0.62337 0.073264 0.42456 -0.23849 -0.223 0.04414 -0.098002 0.094407 0.13181 0.16824 -0.027359 -0.84501 0.58633 0.13361 -0.027834
Jackson 0.36352 -0.28067 -0.39782 0.92946 0.35252 0.22577 0.34664 0.32913 -0.23567 0.18095 0.13002 0.021471 -0.48017 -0.19195 -0.2608 0.24324 0.037082 -0.37169 0.53054 -0.67519 -0.22969 0.094488 -0.27815 6.9448E-4 -0.26309 -0.02632 0.0035056 -0.10478 -0.35615 0.34668 -0.1469 -0.41982 -0.18984 0.020027 -0.51711 0.065266 0.01346 -0.40931 -0.40849 -0.26228 -0.50178 0.21871 -0.18513 -0.37033 0.40261 -0.27031 0.16946 0.11958 -0.34225 -0.57053 -0.054135 0.60817 -0.2659 0.085494 -0.13015 0.46011 -0.060332 0.56915 0.4157 -0.20951 -0.061539 -0.32849 0.07781 -0.28261 0.66041 -0.048499 0.064716 -0.005579 0.39224 0.2159 0.49535 -0.11938 -0.34217 0.09788 -0.12315 0.16234 0.22022 -0.49944 -0.046002 -0.65048 0.19662 -0.16822 0.15347 0.95001 -0.25103 -0.3087 -0.40614 0.18084 -0.56818 -0.34618 0.090784 0.48222 0.78537 0.13552 -0.40159 0.1765 -0.21562 0.6026 0.046332 -0.020945
institution 0.44021 -0.4622 -0.018809 0.57279 -0.17098 -0.077109 0.34163 0.12585 -0.03347 -0.18027 -0.28655 -0.061848 -0.26223 0.079875 -0.22768 -0.87541 0.4361 -0.18778 -0.39125 -0.40088 0.015935 -0.19903 0.13696 -0.4381 -0.25839 0.002148 -0.0064343 0.022789 -0.18026 0.18574 0.07148 0.0022188 -0.27933 -0.042962 0.12302 0.29164 -0.32885 -0.13865 0.22313 -0.18239 0.20599 0.4208 0.38461 0.11009 0.30125 0.10237 -0.85913 0.25418 0.36633 0.26917 0.2713 -0.42681 0.39466 0.31563 0.13024 -0.1914 0.43507 0.22748 -0.45632 -0.19374 0.083062 0.19377 -0.068088 0.0083575 -0.074661 0.18941 -0.13654 -0.13169 0.10204 -0.0084978 0.1706 -0.10496 -0.22571 -0.30445 -0.016124 -0.36255 0.7377 0.18288 -0.43274 -0.63603 -0.3574 0.63599 0.36214 0.1304 -0.1394 0.048909 -0.27301 -0.50683 0.11467 -0.029508 -0.33819 0.21946 0.44458 0.26024 0.090005 0.12526 0.29087 0.042027 0.24537 0.0093912
bird -0.08128 0.41874 -0.22414 0.174 -0.42493 0.14696 -0.061028 -0.73698 0.38722 0.37479 0.046168 0.3364 0.43471 0.16199 0.0010126 -0.60406 -0.46581 -0.53286 -0.42494 -0.78909 -0.37965 -0.47158 0.34042 -0.20509 -0.16085 0.48422 0.23647 -0.40941 0.15077 0.19793 -0.19187 0.068691 -0.33683 0.1177 0.17324 -0.047516 -0.32771 -0.19172 0.21651 0.44652 -0.073271 0.38406 0.5355 -0.1782 0.06513 0.12617 0.21913 -0.20831 -0.33393 0.3641 0.14519 0.62911 -0.090163 0.37054 -0.18464 0.048112 -0.007623 0.11315 0.40487 -0.43449 0.2505 0.43995 0.27438 -0.70413 0.19149 0.11287 -0.32127 -0.62633 -0.046832 -0.58927 0.086269 -0.10551 -0.19868 -0.49087 0.056798 0.31649 0.6702 0.60771 -0.21274 -0.32581 -0.74848 -0.4337 0.23547 0.59438 0.44254 0.22109 -0.069368 0.24887 -0.20686 -0.24737 0.94022 -0.24083 0.27294 0.21009 0.048383 -0.15926 -0.24069 0.27715 0.14137 0.22613
Brazil 0.41439 0.29087 0.45755 0.061978 0.6434 0.27808 0.050646 0.21299 0.28417 0.36312 -0.90118 0.39386 -0.64247 0.33886 -0.13047 -0.18642 -0.23899 -0.52125 -0.25687 -0.17916 -0.047064 -0.082054 0.35499 -0.15322 -0.05975 0.37871 -0.13459 -0.281 -0.48043 -0.4638 -0.37811 0.27123 0.24508 -0.29906 0.15952 -0.32252 0.47575 -0.39739 -0.17028 -0.20164 -0.54617 0.19184 0.75628 0.19027 0.45933 0.21807 0.17115 -0.033041 0.38958 -0.41289 -0.35337 -0.46522 -0.61176 0.32151 -0.84746 0.13308 0.18018 -0.10346 0.22714 0.28265 0.29229 -0.25104 -0.026053 -0.12074 0.20458 0.2107 0.24576 -0.5397 -0.11679 -0.30448 0.33165 -0.0094473 0.43561 -0.075005 0.18661 -0.32472 0.21971 -0.21134 0.046503 -0.50209 -0.67939 0.50759 0.12358 -0.26763 -0.3149 -0.11973 -0.2185 0.074326 -0.24812 -0.28328 0.78671 -0.42247 0.10948 -0.44853 -0.24758 -0.091683 -0.61325 0.53224 0.30506 0.13085
warning 0.70432 0.44922 0.26559 -0.032881 0.024494 -0.08694 0.20823 0.10724 -0.37339 0.027253 -0.25551 0.028234 0.057358 -0.072982 0.047872 -0.29746 -0.42171 0.49928 -0.1983 0.077805 -0.13751 0.38031 0.27166 -0.63013 -0.41754 -0.15486 -0.25951 0.028582 0.22315 -0.084601 0.079756 0.018067 -0.44523 0.017677 0.01068 0.072569 -0.41736 -0.56795 -0.11863 0.35096 -0.16435 -0.11381 0.30991 -0.045541 0.3056 0.52157 -0.15308 0.085727 -0.088304 0.90424 0.3065 0.022637 -0.11721 0.29495 -0.39904 -0.15303 -0.019158 0.59226 0.37388 -0.12854 -0.13741 0.51077 -0.14485 -0.18684 -0.084706 -0.30197 -0.20009 -0.5198 0.49167 -0.058143 0.15307 0.25445 -0.05981 -0.50505 0.2731 0.0041283 -0.055818 0.36787 0.08624 -0.41253 0.51824 -0.050714 -0.22674 0.43436 0.22818 -0.098863 -0.36249 0.2113 0.066928 0.030623 0.1746 0.20688 -0.48977 0.455 0.38663 -0.039143 -0.39007 0.48283 0.23894 -0.0077891
implement -0.41911 -0.27027 0.11684 -0.11732 -4.7782E-4 0.33761 0.27223 0.54778 0.086139 -0.32925 -0.38571 -0.32107 0.41603 -0.16549 0.30308 -0.27926 0.053914 0.43612 -0.29839 -0.39755 0.022731 0.47562 0.0070228 0.11478 -0.093783 -0.21249 0.12207 -0.007309 -0.11818 0.32651 -0.24589 0.35869 0.46025 0.26476 -0.49394 0.0016683 0.19059 -0.47159 0.1084 -0.036121 -0.13325 -0.39641 0.68976 0.56777 0.53669 0.16521 -0.81338 0.48492 0.0013383 -0.008789 -0.2182 -0.081242 0.036544 -0.20525 -0.080932 -0.37673 0.45974 -0.12946 -0.061494 -0.40118 -0.24616 -0.072462 -0.15773 0.13611 -0.22358 -0.1148 0.12002 -0.35904 0.27434 -0.26404 0.15577 -0.109 0.10208 -0.49943 -0.0040407 -0.24069 0.23841 0.38543 -0.42331 -0.82328 0.16291 0.39488 0.04882 0.22547 -0.070975 0.11612 -0.35448 -0.03187 0.037494 -0.35446 0.21959 -0.0055597 -0.41424 0.29476 -0.13016 -0.40428 -0.35329 0.67088 -0.24423 0.27758
train -0.14061 -0.32218 0.038143 -0.068529 -0.32003 0.25563 0.055193 -0.028441 -0.0059414 -0.63406 -0.2767 -0.014731 -0.0327 -0.23332 0.070682 0.10315 0.37267 -0.23776 -0.43056 0.039804 -0.39674 0.47268 0.4066 -0.32612 -0.42859 -0.036684 0.60297 -0.10903 0.34835 -0.3439 0.16819 -0.14422 0.20325 0.070711 0.029743 0.4796 0.12973 -0.62855 -0.36768 -0.0082192 -0.13785 -0.57063 0.77316 -0.1468 0.072547 0.02606 -0.067102 -0.50814 0.13705 0.014964 0.51759 0.052889 0.033479 0.11657 -0.25237 -0.070575 -0.10848 0.1866 -0.021802 -0.16105 -0.46112 0.25299 0.32174 0.010211 -0.25276 0.10968 -0.17513 -0.64868 -0.50207 -0.8473 -0.022499 0.52394 -0.40806 -0.44186 -0.038879 0.2582 0.12076 0.16552 -0.21333 -0.34028 0.053454 -0.072668 -0.068017 0.45396 0.23505 0.50131 -0.2568 -0.25435 -0.10267 -0.13808 0.40406 -0.19499 0.56694 -0.43274 0.060097 0.12061 -0.46325 0.10567 0.28686 0.10189
area 0.39005 -0.31117 0.23373 0.0873 -0.014403 0.28638 -0.001129 -0.16819 0.68753 -0.22037 -0.3589 0.14763 -0.10627 -0.025443 -0.35759 -0.046138 -0.038284 0.039426 0.063614 -0.2355 -0.40572 -0.1082 -0.25466 -0.15707 -0.22042 0.065866 -0.12314 -0.0020161 0.55843 -0.10604 -0.14156 0.39354 -0.20006 -0.026048 0.46321 0.34482 -0.18412 0.14562 0.14546 0.40663 -0.22098 -0.18397 0.47178 -0.098921 0.36204 -0.34325 0.019501 0.11125 -0.15953 0.22036 0.43765 -0.14279 0.022603 -0.19615 -0.50798 -0.19112 0.40254 0.045012 0.33596 0.064603 -0.20879 0.1148 0.06926 -0.47159 -0.29792 0.027316 0.052334 -0.366 -0.082312 -0.044784 0.10437 0.39639 0.066931 -0.21869 0.060849 -0.08543 0.6713 0.29427 0.11507 -0.32473 0.19064 0.069148 0.078487 0.73096 0.39142 0.058804 -0.33771 0.25995 0.058256 -0.36271 -0.069664 0.018706 0.45587 -0.0011595 -0.25779 -0.25587 -0.29727 -0.09078 -0.090015 0.092956
image -0.052862 0.19888 -0.18811 -0.054236 -0.068233 -0.27244 0.22992 0.32729 -0.1159 0.20366 -0.095562 0.31001 0.13451 0.087301 0.32872 -0.17175 0.2297 -0.47403 -0.28834 -0.30043 -0.4145 -0.25104 0.085555 -0.49826 -0.80846 0.22755 -0.12435 0.13527 -0.046304 -0.66632 -0.098886 -0.28916 -0.23448 -0.11632 -0.49967 0.15613 -0.2518 -0.21262 0.36216 0.24606 -0.26617 0.03573 0.49989 0.31366 0.49122 0.1975 -0.20034 -0.082147 -0.072759 0.7479 -0.16118 -0.27327 0.39749 0.037348 -0.30396 -0.55556 0.50258 0.34005 0.096891 0.19756 -0.041209 -0.58918 -0.015457 -0.3521 0.04901 -0.2807 -0.35959 -0.11193 0.26896 -0.23383 -0.22386 -0.24314 -0.1494 0.32833 0.16556 0.077026 0.038441 -0.094637 -0.39438 -0.48078 -0.43143 -0.085467 0.27458 0.38005 -0.2205 0.24589 -0.3884 -0.24609 -0.16163 -0.10525 0.2973 0.41224 0.34093 0.4513 0.055846 -0.14266 -0.16203 -0.13778 -0.10431 -0.35569
murder -0.40113 0.33348 0.11095 0.52107 -0.56555 0.15679 -0.15393 -0.29019 0.34282 -0.30484 -0.17962 -0.21706 -0.39153 0.45044 -0.054577 0.065542 -0.68635 -0.075269 0.48342 -0.40995 -0.071431 0.094404 -0.17318 0.013928 -0.97853 0.57333 0.15022 0.081985 0.41979 0.37462 -0.4298 0.64344 0.11969 -0.18866 -0.06593 0.56543 0.30977 -0.48188 0.042437 -0.74756 -0.10432 -0.32327 -0.35685 0.45262 -0.010597 -0.31771 -0.73479 0.0012454 0.32395 0.20888 0.72552 -0.27921 0.241 0.1394 -0.7707 0.28617 -0.2741 0.39726 0.16679 -0.094253 -0.014775 0.39482 0.67743 -0.13495 0.1165 0.52758 -0.17723 -0.8228 -0.052645 -0.57539 -0.15564 0.013981 -0.28349 0.077341 0.28047 -0.26804 0.19518 -0.19604 -0.45214 -0.46567 0.079298 0.0058988 0.67928 0.4611 -0.64384 -0.33852 -0.69143 -0.42872 -0.041651 0.70388 -0.15909 -0.10895 0.94908 0.40531 -0.37853 0.13235 0.13486 0.48146 -0.09975 -0.13801
journey -0.1459 -0.23928 -0.30358 -0.22179 -0.14996 0.095072 0.16454 0.0539 0.14779 -0.11516 -0.4723 0.19603 -0.37316 -0.25814 0.043276 0.32703 -0.45362 -0.71401 -0.40928 -0.46354 -0.26691 -0.094078 0.45832 -0.35966 -0.64383 -0.58752 0.43834 -0.021337 0.14302 -0.074021 0.27418 0.10262 0.94541 0.21092 -0.51283 0.46895 -0.043564 -1.2876 0.044936 -0.073678 -0.25026 0.13427 0.35693 1.854E-4 -0.014637 0.21309 0.061453 -0.28531 0.11036 0.18248 0.020529 -0.01857 0.40465 -0.024377 -0.15381 0.21493 0.24263 0.22813 -0.12109 -0.18965 -0.034471 -0.074024 0.34606 -0.37333 -0.48292 0.14579 0.16877 -0.47904 -0.20391 -0.40616 0.43775 0.33588 -0.41339 0.54775 -0.1354 0.27064 0.47671 -0.14939 -0.15909 -0.17191 0.29259 0.29209 -0.078414 0.17974 0.1743 0.25062 -0.35282 0.10104 -0.003563 0.025992 0.31035 0.1736 0.56535 -0.13132 -0.46918 -0.068812 -0.32163 -0.046384 -0.097603 0.39386
minister 0.24677 -0.17702 0.48052 0.42777 0.46612 0.27479 -0.26263 -0.54881 0.14985 -0.3275 -0.69405 -0.47162 -0.21548 0.17722 0.29685 -0.24559 -0.39549 -0.033916 -0.18343 0.1903 0.32208 0.15319 0.45557 -0.61688 -0.10306 0.18231 0.26101 0.43024 -0.33459 -0.21541 0.36779 0.24177 -0.28331 -0.14569 -1.2295 -0.0043182 0.21373 0.21198 -0.23077 -0.13082 -0.65725 0.13883 0.28188 0.36147 -0.077054 -0.041023 -0.26448 0.21832 0.20231 -0.26924 0.1635 0.26897 -0.096467 -0.36396 -0.26186 -0.91553 -0.10832 0.1766 -0.33994 0.16723 4.6894E-4 0.46585 -0.2596 -0.47789 0.16131 -0.33452 -0.18735 -0.64626 0.13952 0.024844 0.032443 -0.25217 -0.70921 -0.23733 0.35805 -0.26325 -0.014523 -0.19384 -0.29031 -0.61623 -0.5193 0.28931 0.27934 0.31307 -0.03151 -0.12977 -1.1986 0.30206 0.21628 0.041667 -0.072036 -0.50672 0.35102 0.77946 -0.13468 0.10333 0.16272 0.64058 -0.61439 0.1567
planet 0.033064 -0.023747 -0.033126 -0.63591 -0.55759 0.040037 0.096611 -0.62907 0.072845 0.60715 -0.47921 0.67596 -0.17111 0.3871 -0.41766 -0.25273 -0.20729 -0.10156 0.01983 -0.3962 -0.83015 -0.10604 -0.093152 -0.44258 -0.34061 -0.010202 0.48321 -0.33661 -0.70511 -0.36287 -0.10501 -0.0016007 -0.11393 -0.24629 -0.39523 -0.01569 0.15881 -0.13782 0.31746 0.069762 -0.1326 0.12152 0.11639 -0.26665 0.54308 0.29579 0.1643 -0.24707 0.16501 0.6174 0.047394 -0.92515 0.39335 -0.0086188 -0.33128 0.3983 0.23849 -0.4036 -0.24433 -0.13681 -0.10007 0.046965 -0.29672 -0.69671 -0.11404 -0.050815 -0.37642 -0.12547 0.36787 -0.032254 0.65077 -0.27777 -0.094513 0.29215 0.13786 0.10615 0.24176 -0.016873 -0.36465 -0.46364 -0.66227 0.25839 0.44471 0.56292 0.27877 -0.16181 -0.53557 0.098516 -0.0016537 -0.50507 0.55838 -0.067264 0.38135 -0.38443 -0.36448 -0.16055 -0.19114 0.44249 0.1135 0.49921
article 0.42638 -0.0029763 -0.055754 0.16999 -0.086356 0.0085849 0.16232 -0.012595 0.080345 -0.23844 -0.040921 -0.32324 -0.26479 -0.45973 0.092876 0.52489 -0.54367 -0.47457 -0.018104 -0.13714 0.23654 -0.25155 -0.47041 -0.43674 0.083547 -0.38759 0.4209 0.062269 0.1109 -0.43308 -0.38878 0.61477 -0.5853 0.66445 0.086809 0.39223 -0.58142 -0.25411 0.47729 -0.81476 -0.089133 0.11246 0.33973 0.50414 0.54507 -0.068497 -0.16723 -0.35005 0.77935 0.56049 0.0052288 0.41724 0.17128 0.64153 -0.56916 0.10408 0.17573 -0.116 -1.1437 -0.14177 -0.039117 0.043429 0.30957 -0.30112 0.61068 -0.34852 -0.19557 -0.35746 0.23881 -0.62901 0.4273 0.34636 0.10217 0.25785 0.0075931 0.25758 0.42625 -0.046317 -0.75259 -0.58588 -0.20426 -0.49696 0.26046 0.16047 -0.24121 0.67023 6.5076E-4 -0.14436 -0.044459 -0.075929 0.071934 0.53577 -0.40023 0.33136 -0.44385 -0.80438 -0.15114 1.0762 -0.49135 -0.51014
anxiety 0.37437 0.3084 0.32274 0.069038 0.013224 -0.24886 -0.32451 -0.03227 -0.075112 -0.034968 -0.18795 -0.039973 -0.62837 -0.45571 -0.37896 -0.31702 0.45186 -0.023387 0.084292 -0.74854 0.040343 -0.29898 0.47756 -0.66098 -0.96857 0.033784 -0.42511 0.073985 0.085024 -0.0095111 0.33197 -0.40262 -0.45758 -0.0018805 0.018461 0.70878 -0.20557 -0.35955 0.059782 -0.299 -0.31057 -0.31022 -0.22477 0.13279 0.28252 0.19184 -0.34095 0.1172 -0.44155 0.98397 -0.2824 -0.11893 5.6728E-6 0.27127 -0.2023 -0.22746 -0.28816 0.19271 -0.24225 -0.58983 0.2664 0.38816 -0.059935 -0.18551 7.9229E-4 0.11218 -0.074906 -0.096696 -0.13994 0.044556 0.74079 -0.087075 -0.26953 -0.076782 -0.17323 -0.30526 -0.3851 -0.079426 -0.23125 -0.72281 0.18133 -0.5111 -0.29205 0.14062 0.48371 0.078728 0.05556 -0.080441 -0.012216 0.14193 -0.014445 -0.16976 -0.068604 -0.095708 -0.76113 -0.18928 -0.13726 0.16667 0.17838 0.2201
month 0.38407 -0.079708 -0.30234 -0.093567 0.25213 -0.071046 -0.15312 -0.17314 -0.064288 0.32303 -0.36806 0.047959 -0.14288 -0.26328 0.33036 0.10256 0.095884 0.089355 -0.13469 -0.20305 -0.24115 -0.38211 0.0012264 -0.10413 -0.10862 -0.77199 -0.43902 0.22787 0.2682 -0.019212 0.040151 0.30665 -0.25708 0.065387 -0.1667 0.1411 0.099426 -0.2069 -0.12984 0.13693 -0.30745 -0.070562 0.056305 0.19413 0.039618 0.16188 -0.031761 0.30071 0.25057 -0.32706 -0.22127 -0.46067 -0.013291 0.34829 -0.48718 0.14362 0.10357 0.24845 -0.51437 -0.34998 -0.051287 0.46332 0.18827 -0.19374 0.055095 0.28063 0.083049 -0.39063 0.33388 -0.25254 -0.26227 0.39373 0.082452 -0.31985 0.029755 -0.19875 0.17843 0.053877 0.08869 -0.48392 0.018409 -0.041614 -0.18433 0.24592 -0.13356 0.038963 -0.084326 0.34951 0.40818 0.13667 0.22369 -0.12984 0.38237 0.40763 0.056349 0.26944 -0.23165 0.35445 -0.23033 -0.11702
carnivore -0.39893 -0.13454 0.074941 0.32242 -0.10055 -0.37727 -0.092115 -0.98209 0.6508 0.61153 0.37331 0.56887 -0.14779 0.059357 -0.67037 -0.50896 -1.0006 -0.66691 0.086277 -0.64522 -0.83534 -0.92372 0.11823 0.2259 -0.28461 0.52011 0.16232 -0.47925 -0.22627 -0.078943 -0.15502 0.34124 -0.050221 0.10037 -0.23153 0.08345 -0.42028 -0.091524 0.56756 0.061819 -0.28749 0.081096 -0.035884 -0.06191 0.34857 0.38773 -0.20289 -0.091857 -0.10549 0.34951 -0.011672 0.053371 0.37938 0.46013 0.16993 0.29708 -0.063946 -0.19681 -0.1436 -0.63896 0.25595 -0.38615 -0.041237 -0.46637 -0.098465 0.34196 -0.024246 -0.39367 -0.25004 -0.25573 0.12369 0.21838 -0.14896 -0.28223 0.30887 -0.10705 0.70927 0.61802 -0.48794 -0.025831 -0.70557 0.15286 -0.13916 0.74763 0.27638 -0.3804 -0.18344 -0.0020949 0.10403 -0.60154 1.0262 -0.47786 0.62243 0.16362 -0.11997 -0.37569 0.28186 0.54062 0.14066 0.49355
party -0.1828 -0.018921 0.20875 0.023336 0.13403 0.25581 0.068588 -0.087587 -0.012723 -0.23685 -0.20719 0.13921 -0.93322 0.48401 0.15879 -0.028384 0.30725 0.092904 0.14448 -0.14345 -0.020696 -0.29507 -3.0576E-4 -0.0064707 -0.1921 0.05899 -0.22386 0.32016 -0.39374 -0.20878 0.36253 -0.3028 -0.71183 0.10916 -1.0809 -0.030411 -0.017078 -0.11329 -0.12842 0.11366 -0.24408 -0.0057235 -0.085884 -0.051351 0.16757 -0.15157 -0.78735 0.10822 0.25272 0.016498 0.18498 0.030694 0.069884 -0.26946 -0.32828 -0.093594 -0.26439 0.090034 -0.27017 -0.78962 -0.40568 -0.040219 -0.0688 0.16494 0.1474 -0.43241 0.17456 -0.63625 -0.044531 -0.42056 -0.3554 0.21294 -0.26371 0.16775 0.54358 -0.4116 0.30244 -0.030698 -0.14918 -0.79162 -0.44395 0.23929 0.19921 0.16062 0.57384 0.090644 -0.41269 0.15053 -0.26294 -0.20853 -0.21056 -0.17421 0.32429 0.61105 0.0040999 0.075802 -0.13418 -0.13793 -0.049091 0.13993
production -0.4197 -0.26803 -0.48457 0.18445 0.38722 0.0064501 0.33304 0.29275 0.55882 0.16739 -0.5022 -0.16389 0.42257 -0.058435 -0.22408 -0.12198 0.13767 0.5307 -0.38874 0.072081 0.37684 -0.35962 -0.31056 -0.05247 -0.95542 0.20504 0.37948 0.085037 -0.36127 -0.14661 -0.16737 -0.37899 0.33528 -0.40964 0.056904 0.034053 0.25049 -0.087221 0.12893 0.025982 -0.61956 -0.2236 0.21652 -0.029677 0.21393 -0.0088031 0.46665 0.4324 -0.11649 -0.0093036 0.1843 0.69479 0.11631 0.70038 -0.50893 -0.031989 0.16733 0.24153 -0.46368 -0.28336 -0.017024 0.14284 0.08248 0.27515 0.075431 0.40461 -0.26538 -0.58492 0.046649 -0.42252 0.18174 0.011229 0.16617 -0.25324 -0.29133 0.53184 0.024238 -0.1015 -0.012103 -0.63203 -0.23491 0.48363 -0.17295 -0.028056 0.042724 -0.58455 -0.073291 0.625 0.035571 -0.41834 0.87837 -0.20619 0.38851 -0.13524 -0.30295 0.14082 -0.21272 0.18587 -0.17952 0.15784
importance 0.48102 0.04932 0.35586 0.13435 -0.23471 0.070661 0.39865 0.21696 -0.2146 -0.33347 -0.13363 0.47292 -0.24753 -0.1704 0.21719 -0.2526 -0.037178 0.14374 -0.29865 -0.1603 0.13307 -0.32994 -0.36331 -0.66391 -0.65901 0.53158 0.10641 0.6859 -0.29249 -0.059976 -0.0097982 0.31266 0.092515 -0.21918 -0.33885 0.63371 -0.35343 -0.15996 0.18613 0.10223 0.20266 0.27864 0.17343 0.099859 0.36953 -0.11792 -0.26505 0.11481 -0.14453 0.11679 -0.47374 -0.0032383 -0.34453 0.1316 -0.24047 -0.71634 0.36159 0.34731 0.15112 -0.22131 0.25645 -0.095573 0.018224 -0.35393 -0.66142 -0.067193 -0.13075 -0.057049 0.20199 0.17581 0.25767 -0.089282 0.11942 0.031001 0.1989 -0.013073 0.12078 -0.072189 -0.2594 -0.57492 -0.062177 0.079893 0.23209 0.4747 0.37053 0.37128 0.19701 0.053505 0.23084 -0.11155 0.36237 0.071493 -0.25565 -0.18824 -0.60412 -0.16044 0.0099992 0.60279 -0.4672 0.33082
inmate -0.33577 0.12568 -0.25334 0.34835 -0.19967 0.019612 0.26106 -0.056221 0.50129 0.028518 -0.29066 -0.39802 -0.28403 0.055192 0.12196 -0.56152 -0.71062 -0.048735 0.3501 -0.3263 0.0040489 -0.089571 0.54944 0.54231 -0.80505 0.39755 -0.11582 0.05692 0.48682 0.3523 0.22246 0.24687 -0.19695 -0.36842 0.62289 0.46489 -0.26352 0.059662 -0.25041 -0.66893 -0.52219 0.2353 0.48435 0.22227 0.09221 0.21862 -0.47326 0.39229 0.24282 -0.0085461 0.26456 0.32818 0.33275 0.22116 0.28012 0.38197 -0.29968 0.1942 0.37221 -0.38353 -0.078654 0.20656 -0.21882 -0.60637 0.75925 0.41398 0.034167 -0.2885 0.048163 -0.30332 -0.20851 0.25193 -0.34125 -0.26916 0.45475 0.43246 0.25117 -0.59735 -0.30354 -0.70162 -0.17289 -0.045301 0.28662 1.4123 -0.6131 0.11375 -0.51484 -0.013384 0.086868 0.37205 -0.22155 0.11728 0.6064 0.38124 0.027713 -0.10364 -0.064119 0.11728 0.35246 0.050945
Harvard 0.39634 -0.13537 0.33283 0.74372 0.56939 0.50141 0.35278 -0.063123 -0.4026 -0.11248 -0.37876 -0.28254 0.18656 0.0022849 -0.3505 -0.17636 0.057857 -0.22067 0.11478 -0.43033 0.12316 -0.56347 0.48321 -0.3631 -0.30175 0.010142 -0.17113 0.40711 -0.5348 -0.28456 -0.016766 0.037152 -0.5523 -0.18354 -0.011083 0.23507 -0.27346 0.18775 -0.48771 -0.45241 0.10731 -0.057208 0.095035 -0.33982 0.41609 0.047605 -0.55619 0.091274 -0.29184 0.29673 -0.22474 -0.036925 0.22827 0.04755 0.05148 0.74225 -0.34542 0.049406 -0.95349 0.045054 0.27013 0.25838 0.083897 -0.25909 0.342 0.14536 -0.19122 0.47172 -0.28484 -0.22916 0.50958 0.29272 -0.048877 0.077142 0.015964 -0.34404 0.57791 0.54757 -0.44219 -0.18654 -0.15288 0.57463 0.027231 0.58756 -0.84654 0.66194 -0.35437 -0.53591 -0.4161 0.3184 0.25979 0.25979 0.21995 -0.16 0.12313 -0.27687 -0.067261 0.6854 -0.76774 0.057836
psychology 0.11518 0.05278 0.41883 0.76232 0.20612 0.32221 0.25256 -0.18965 -0.11338 -0.40107 -0.1254 0.041168 0.091892 -0.17191 -0.093036 -0.27804 0.20882 -0.041187 0.41598 -0.73355 -0.0029085 -0.4386 0.22571 -0.126 -0.7487 -0.0029608 -0.047996 0.43061 -0.46014 -0.21447 0.14976 -0.24468 -0.1346 -0.18933 -0.054905 0.88521 -0.50817 -0.25973 -0.23903 -0.31797 -0.02773 -0.062435 0.61821 0.024345 0.52726 0.089448 -0.90324 -0.064528 -0.33547 1.0087 -0.12843 0.10776 0.070453 0.5053 0.015481 -0.044469 -0.28941 0.079564 -0.67458 0.11346 0.27373 0.32292 -0.01666 -0.12309 -0.058265 0.40063 -0.30693 0.39083 -0.29076 -0.06751 0.64631 0.18229 -0.057558 -0.19269 -0.14898 -0.23442 0.46992 -0.0092045 -0.60295 -0.10213 0.03725 0.27243 0.58543 -0.20769 -0.13963 0.045246 -0.6446 -0.15164 -0.031583 0.46693 0.26047 -0.19034 0.44503 -0.11176 -0.47279 -0.52897 0.58275 0.055317 -0.73833 0.35796
medal -0.56855 0.086796 0.37149 0.14665 -0.16771 0.041685 0.46371 0.13659 -0.20967 0.37824 -0.0086052 0.056456 -0.57869 -0.15032 -0.24695 -0.25796 -0.48007 -0.046034 0.41483 0.026632 0.50081 -0.87976 0.86889 -0.20572 0.017812 0.098563 -0.3284 -0.14916 -0.16375 -0.056233 0.19026 0.1125 0.41657 0.13286 -0.4604 0.2721 -0.40888 -0.48115 -0.36897 -0.34657 0.088854 -0.24749 0.19692 -0.49759 0.75485 -0.077167 -0.090194 -0.46069 0.32516 -0.070469 -0.079298 -1.1895 0.090152 0.022564 -0.62871 -0.017521 0.2119 0.34698 0.56593 -0.4711 0.28822 -0.024327 1.0184 -0.37585 0.25989 -0.60447 -0.33835 -0.68498 0.35671 -0.92847 -0.066494 0.43957 -0.21386 -0.69292 0.067071 0.24625 -0.24435 -0.38618 0.32771 -0.29555 -0.66194 0.74774 0.66191 0.28108 0.10977 0.079426 0.28221 -0.18645 -0.2279 0.0092766 0.15556 0.41425 1.2189 -0.41841 -0.055218 -0.26348 0.11209 0.47775 -0.84273 0.3023
company 0.26752 -0.3565 -0.36866 -0.038616 0.32375 -0.12181 0.5172 0.22239 0.11121 0.042998 -0.25652 -0.090093 0.045601 -0.31056 0.009177 -0.46234 0.31577 0.31498 -0.61298 0.046822 0.051126 -0.17095 -0.18771 -0.0044869 -0.049586 -0.25285 0.10946 0.055005 0.027432 -0.045603 -0.1894 -0.11706 0.012816 -0.47989 -0.13178 -0.10313 -0.25627 -0.043966 0.28248 0.16628 -0.47026 -0.24198 -0.13226 0.022814 0.20431 -0.086712 -0.25549 -0.082441 -0.036528 0.069461 0.28344 0.37443 0.18991 0.26732 -0.074812 0.04475 0.16149 0.067048 -0.11115 -0.041606 -0.48694 0.3023 0.023829 0.12081 0.18513 -0.29107 -0.0094096 -0.13449 -0.1578 -0.18038 0.18724 -0.0046395 0.11558 -0.3355 0.26614 -0.10924 0.4154 -0.46742 0.13995 -0.7439 -0.30222 0.20254 -0.12702 0.43157 -0.25316 -0.19301 -0.15129 -0.25049 0.050998 -0.14274 0.8473 -0.14217 0.39854 0.27206 0.022675 -0.29757 0.10008 0.634 0.01788 0.15405
live -0.035271 -0.13492 -0.085203 0.15646 0.11522 0.53005 -0.089969 0.19569 0.17604 0.57038 -0.46481 0.36533 -0.17537 0.28018 6.8763E-4 -0.0069141 0.25649 -0.62178 0.29329 -0.44294 -0.42725 -0.077616 -0.042099 -0.071065 -0.15893 -0.063493 0.10578 0.22345 0.38821 0.32869 0.34698 0.49769 0.10267 0.3393 -0.19009 0.41968 0.072741 0.15315 0.14042 -0.024667 -0.003758 -0.021567 -0.30186 -0.32031 0.32149 0.1236 0.0056309 0.0091117 0.0083219 -0.12415 0.14083 -0.34091 0.12509 0.4356 -0.14242 -0.12259 0.27851 -0.33027 0.20236 -0.0079624 -0.3596 -0.19025 -0.21721 0.042019 -0.080228 0.35499 -0.47308 -0.60604 -0.41798 -0.58834 0.60039 0.0089161 -0.14929 0.087393 -0.36247 0.25776 0.55359 -0.0034781 -0.32188 -0.6571 -0.11998 -0.24495 0.31303 0.4633 0.067065 -0.47807 -0.34245 0.11155 0.045129 -0.30488 0.18601 0.27435 0.023862 0.11765 0.0028914 -0.29044 -0.31648 -0.070926 -0.12372 0.50634
holy 0.27061 -0.17999 -0.39855 0.82397 0.19054 -0.010916 0.29904 -0.30887 0.067797 0.37159 -0.42045 0.37368 0.025655 0.65303 0.81603 -0.031628 -0.59835 -0.22267 -0.086741 0.18089 -0.71866 -0.41413 0.71821 -0.083249 -0.35219 -0.29999 0.59254 0.51897 -0.68482 -0.18668 0.0058686 0.40357 0.14733 0.15055 -0.42415 1.0006 0.038081 -0.062764 -0.02783 0.57471 0.094141 -0.52574 -0.1553 -0.42037 0.5195 -0.27502 0.17334 -0.3044 0.56479 0.21043 -0.11605 -0.19863 0.7855 -0.14019 -0.24167 -0.10271 -0.13657 0.37192 -0.088797 -0.52125 0.13658 0.51681 0.50321 -0.85122 -0.27099 0.75943 0.043557 -0.73812 0.32135 -0.22824 0.57268 0.77639 -0.23681 0.012337 0.40355 -0.15044 0.11671 -0.058266 0.079198 -0.5789 0.0012587 0.0013447 0.077852 0.56357 0.28416 0.02197 -0.2591 -0.39981 0.2482 -0.052848 -0.13647 0.28888 -0.42098 -0.21071 -0.30427 0.39349 -0.13324 0.52677 0.44585 0.022412
ticket -0.20727 0.0084025 -0.2248 -0.12157 -0.25901 -0.21506 -0.022638 0.16016 -0.38369 -0.3997 0.055469 0.45062 -0.13758 -0.18272 -0.083256 0.23332 0.52385 -0.064005 -0.15147 -0.74357 0.067647 -0.21303 0.34527 0.052943 0.010775 -0.28189 -0.047514 0.30423 -0.35273 -0.16856 0.4342 -0.19131 -0.17671 -0.012964 -0.027157 0.096081 0.014196 -0.47161 0.016174 0.80177 -0.30545 -0.40666 0.14143 -0.60691 -0.54264 -0.0049656 -0.069018 0.084998 0.18832 0.12523 0.096956 0.0012671 -0.13012 0.73868 -0.55011 -0.052675 -0.015489 0.49366 0.1064 -0.38414 -0.58691 -0.53049 0.80021 0.13502 0.53831 -0.26908 0.049395 -0.75618 -0.11795 -0.74094 -0.26971 0.48094 -0.46475 0.29657 0.0054697 -0.80362 0.23749 -0.051715 0.064199 -0.36672 -0.30123 0.26659 -0.12874 0.59552 -0.35747 0.43594 -0.2478 0.14691 -0.20825 -0.17076 0.19735 0.045755 0.24025 -0.28062 0.09266 -0.034665 -0.58405 0.11253 -0.49733 0.0074603
victory -0.30225 0.31976 -0.1574 -0.067801 0.3489 0.066637 0.8076 0.54195 -0.48507 -0.61693 -0.24286 0.20836 -0.86884 -0.077134 -0.12096 0.051697 -0.37155 -0.3133 0.65086 -0.092057 0.30927 -0.72487 0.61523 -0.24828 -0.072037 -0.44462 -0.36317 -0.53692 0.063704 0.064105 0.63737 0.6404 -0.060388 0.1006 -0.80584 0.27681 -0.028819 -0.50537 -0.26507 0.27207 0.24698 0.30671 0.16863 0.16681 0.82939 -0.29696 -0.092686 -0.08087 0.032713 0.4189 0.017182 -0.35043 0.18805 0.19633 -0.55149 -0.41842 0.0093966 0.29108 -0.0207 -0.16689 0.037558 -0.40738 -0.14796 -0.15972 -0.197 -0.17069 -0.05927 -0.50787 0.2247 -0.70867 -0.59728 0.40584 0.3273 0.060811 -0.0059955 0.16075 0.18157 -0.20477 0.28168 -0.18495 0.10449 0.2978 -0.12144 0.36015 0.30733 0.023375 -0.33511 0.067313 -0.56667 0.28057 -0.177 -0.27036 0.3184 0.37468 0.19719 -0.32667 -0.1312 0.7664 -0.42373 0.24367
football -0.0047415 0.013588 0.14762 0.62021 0.2121 0.2217 0.27894 -0.18746 -0.58271 0.059849 0.16132 -0.20212 0.22454 0.37505 -0.79465 -0.21144 0.22568 -0.28517 0.32568 -0.40332 -0.15042 -0.24705 0.60444 0.29083 -0.23211 -0.13543 0.30144 0.21941 0.3075 -0.47153 0.045359 0.47659 0.070261 0.0081717 -0.81915 0.10694 -0.26606 0.13153 -0.21981 0.51284 -0.13382 0.34656 0.38366 -0.077066 0.18541 -0.15017 -0.47298 -0.12424 0.17445 0.069312 0.093692 -0.12876 -0.54189 0.18089 -0.55579 0.033352 -0.09266 0.32574 0.047361 0.039859 -0.23702 0.16394 -0.064435 0.062585 -0.029768 0.052587 -0.71206 -0.38263 0.070921 -0.44156 0.062888 0.30951 0.06921 0.10342 -0.11025 -0.26458 0.43231 -0.31227 -0.13846 -0.8106 -0.39434 0.33732 0.53861 0.081845 0.011785 0.070522 -0.48565 -0.16114 -0.02448 -0.31545 0.46198 0.15088 0.64199 -0.77346 -0.35515 -0.077377 0.42169 -0.28945 0.054824 -0.094534
seepage -0.22273 0.12256 0.11725 0.24495 0.052264 0.12873 -0.17931 -0.50366 0.80144 0.37044 -0.75883 -0.43834 -0.42189 0.044646 -0.061129 -0.35443 0.10751 0.10124 0.074467 -0.087317 -0.36548 0.35079 0.063759 0.10024 -1.2464 -0.55682 0.62781 -0.11446 -0.51349 -0.57322 -0.40503 -0.17916 -0.77717 0.33332 0.1857 0.74612 -0.36685 0.46185 0.63698 0.4101 -0.1586 -0.18745 0.42106 -0.30473 0.94486 0.1568 0.30675 0.47828 -0.54633 0.79536 0.016898 0.22374 -0.03957 -0.39302 -0.44633 0.045439 0.27969 0.23029 0.082103 -0.24723 0.018709 0.3372 -0.21156 -0.49565 0.34602 -0.15247 -0.060977 -0.11088 0.20413 0.0039013 0.40569 -0.28381 0.26486 0.16885 -0.060339 0.24229 0.31665 -0.11909 0.059141 -0.37379 0.039288 0.002182 0.078411 0.80382 0.44113 0.25026 0.21788 0.1866 0.031169 -0.28921 0.19052 0.24173 0.33455 -0.54047 -0.056253 -0.42962 -0.22365 0.39153 0.30301 0.47423
rook -0.35415 -0.10313 -0.093803 0.38078 -0.18856 0.16753 0.49835 -0.20216 -0.32937 0.46904 -0.063503 -0.096677 0.043238 0.11627 -0.55327 -0.098507 -0.4234 -0.16488 0.23148 -0.27024 -0.5072 -0.67713 0.31273 -0.49415 0.29955 0.37411 0.43088 -0.39735 -0.27132 -0.19201 0.17659 0.51147 -0.37568 0.095071 -0.010937 0.53109 -0.4475 -0.31359 0.72511 -0.27396 0.4382 0.19508 0.66727 0.064579 -0.03425 -0.01126 -0.073606 -0.35296 0.30982 0.45127 0.22084 -0.2408 0.16624 0.16607 -0.55161 0.4471 0.16422 -0.23927 0.0384 -0.41632 0.0027409 -0.029526 0.18985 -0.30117 0.24119 0.36719 -0.2855 -0.29464 -0.30379 -0.37708 -0.10177 0.083653 -0.81035 -0.10854 0.30434 -0.17564 0.052894 0.47747 -0.26224 -0.081637 -0.52687 -0.27213 -0.080334 0.50197 0.17202 0.16989 -0.0019604 0.16621 -0.29827 0.16188 0.57596 -0.29086 0.44197 0.035572 0.089944 -0.23608 0.23362 0.045011 0.15143 0.18227
stroke 0.13595 0.36155 -0.20281 0.13427 -0.14383 0.7027 0.021372 0.72654 0.15842 0.5352 -0.49579 -0.19189 -0.51475 -0.33842 -0.24347 -0.21337 -0.15492 0.10503 0.022687 -0.48574 0.43787 0.098324 0.80318 -0.41789 -0.40533 0.21512 -0.21712 -0.37036 0.35917 0.18891 0.19425 0.019963 -0.40352 -0.14196 -0.51287 0.35431 -0.32455 -0.30226 -0.41897 -0.20968 -0.72994 0.12042 -0.4572 -0.38196 0.2648 0.39173 -0.63954 0.0038942 0.0052296 0.93105 0.017362 0.020913 -0.023382 -0.2339 0.035225 0.21272 -0.21577 0.19509 0.18805 -0.50102 0.28773 -0.025592 -0.097144 -0.871 0.24197 0.081103 -0.5002 -0.036162 0.050146 0.090023 0.095994 0.46651 0.17057 -0.19932 -0.67036 0.034614 -0.067743 0.45868 -0.41425 -0.28956 -0.15879 -0.31898 0.23571 0.41312 0.078373 0.11322 0.36742 0.21063 -0.70352 0.13315 0.13278 -0.73182 0.9673 0.37626 0.12118 -0.85838 -0.054919 0.29319 0.014793 -0.11159
environment -0.022404 0.018873 0.33175 0.33955 -0.10212 -0.2802 0.12304 -0.42949 0.048973 0.30725 -0.68114 0.69442 -0.087161 0.16728 -0.42149 -0.3495 0.13637 0.46927 -0.15321 -0.43488 -0.59076 0.12823 -0.13313 -0.27951 -0.30739 -0.21074 0.41475 0.0044021 0.11826 -0.062028 0.24853 -0.24084 0.032408 -0.21931 -0.20466 0.43997 -0.24809 -0.033164 0.17755 0.31366 -0.35266 0.010255 0.32519 0.16119 0.62892 0.34604 -0.31106 0.57461 0.12275 0.15835 -0.20503 0.051079 0.19371 0.20734 -0.27019 -0.50403 0.35376 -0.058588 -0.30249 -0.022254 -0.15207 -0.050841 -0.21264 -0.12359 -0.22268 -0.16151 0.1546 0.10805 0.19236 -0.11772 0.51078 -0.40424 -0.16135 -0.010363 0.093765 0.037108 -0.10233 -0.12842 -0.19984 -0.43947 -0.50652 0.18006 0.20915 0.31639 0.024357 0.21388 -0.45565 0.17351 0.11174 -0.30139 0.43985 -0.43095 -0.14303 0.24816 -0.34902 -0.65687 -0.16697 0.035879 -0.69879 0.56977
coffee -0.31102 0.022046 0.51943 0.24714 -0.16918 0.36948 -0.17746 0.1608 -0.18417 0.093858 -0.5757 0.23572 0.25764 0.35248 0.083688 -0.12808 0.23091 -0.080334 -0.15967 -0.20174 0.095785 -0.76344 0.29643 -0.18333 -0.46448 0.068279 -0.002394 0.10113 0.38432 -0.070256 -0.13001 -0.055193 -0.28171 -0.43009 -0.17604 0.59636 -0.4771 0.11997 0.40379 0.40339 -0.42335 -1.1095 0.0093283 -0.037278 0.10779 0.32763 -0.06084 -0.095289 0.11039 0.33197 0.3973 -0.090174 -0.11482 0.27367 -0.47146 0.22558 -0.61507 0.19803 -0.12347 -0.23608 -0.26729 -0.45681 -0.022072 -0.6812 0.27171 -0.16636 0.085854 -0.59758 -0.16926 -0.34692 0.45768 0.4652 -0.42736 -0.10323 0.37432 -0.27763 0.82636 -0.34318 0.41219 -0.034963 -0.022428 0.26783 -0.097725 0.10352 -0.093278 0.18505 0.15435 0.15489 -0.020449 -0.38311 0.60403 -0.055619 -0.0099329 0.18164 -0.1277 -0.1803 0.080336 0.17197 0.45694 0.10932
baby 0.19701 0.41527 0.072328 0.42052 -0.34048 0.45843 -0.25103 -0.019864 -0.20727 0.48325 0.046767 -0.050847 -0.39791 0.043477 0.0056221 0.29853 -0.47157 -0.15216 -0.12954 -0.54497 -0.65738 -0.55186 -0.099734 0.17401 -0.24974 0.56086 0.22771 -0.14677 -0.27642 -0.076844 0.20455 -0.22087 0.24001 -0.2768 -0.076054 0.31139 0.069373 -0.090988 0.28486 -0.24843 -0.36403 -0.5438 0.25094 0.014207 0.28349 0.80295 -0.18967 0.014102 -0.091618 0.16694 -0.0039594 0.176 -0.19483 0.3184 0.026091 0.22825 -0.20325 0.18172 0.25041 -0.74116 -0.17645 0.31054 -0.011306 -0.44629 0.14181 0.093733 -0.28589 -0.71545 -0.035992 -0.29912 0.071922 -0.46001 -0.44515 -0.24501 0.62666 0.22836 0.64786 -0.24579 0.18203 -1.0022 -0.3069 -0.54915 -0.23253 0.1087 -0.25824 -0.077883 0.35245 -0.034726 -0.34532 0.12613 0.22644 0.3717 0.90232 0.54035 -0.11203 -0.32093 -0.015672 0.23398 -0.088335 0.2242
personnel 0.27554 0.16205 -0.007194 0.31053 -0.23919 0.098206 0.32741 -0.11668 0.3227 -0.43896 0.091719 0.095715 0.37503 0.020214 -0.14773 -0.42561 0.43718 0.22387 -0.074209 -0.14292 0.85565 0.16027 0.032873 0.28521 -0.042689 -0.21626 0.19657 0.27797 0.46099 -0.72349 -0.11641 0.10834 0.11315 0.097019 0.088305 0.13411 -0.14751 -0.41787 -0.42628 -0.053542 -0.11732 -0.35161 0.72808 -0.1692 0.41465 -0.0013151 0.045883 0.71415 -0.067846 -0.15454 -0.043401 -0.1436 0.058906 -0.067628 -0.068219 -0.16342 0.73418 -0.060573 0.09582 -0.21621 -0.20848 0.20438 0.17344 -0.17301 0.058453 0.013928 -0.23064 -0.46051 -0.44906 -0.093461 0.20573 -0.24117 -0.13326 -0.50113 0.51263 0.25308 -0.19998 -0.097752 -0.15298 -0.84626 0.27385 -0.030862 0.24946 1.0328 -0.017271 0.29701 -0.052919 0.037322 -0.28608 -0.01868 0.33095 -0.57895 0.5323 -0.14463 -0.24086 0.22993 -0.14417 0.28026 -0.14435 -0.082979
family 0.53215 -0.26544 0.0090459 0.21075 0.16552 0.30348 0.13886 0.078433 0.13792 -0.13717 -0.16603 0.16912 -0.13853 0.088558 -0.07033 -0.3121 -0.23192 -0.54282 -0.024236 -0.33831 -0.24821 -0.35513 0.058093 -0.067667 -0.29149 -0.13661 -0.19663 0.25493 -0.040246 -0.06754 -0.0024582 0.15226 0.092648 -0.20567 -0.25392 0.21384 -0.36951 -0.086742 -0.056724 -0.10062 -0.38929 -0.17656 -0.25601 -0.050804 0.22166 0.16711 -0.23929 0.27504 0.2585 -0.17509 0.29419 0.057769 -0.13696 -0.011329 0.067461 -0.22489 -0.47507 -0.025108 0.25489 -0.49861 -0.28296 0.25003 0.39074 -0.28227 -0.24116 0.27045 0.15055 -0.17167 -0.23124 -0.38069 0.3614 -0.46687 -0.31837 0.16383 0.25947 -0.051665 0.49847 -0.52223 -0.2401 -0.5581 -0.26001 -0.13208 -0.040268 0.56576 -0.0024273 -0.23227 -0.16826 -0.17076 -0.39258 0.017177 0.28243 -0.0094167 0.58464 0.18247 -0.19183 0.019017 -0.21172 -0.40188 -0.18761 0.096044
hypertension -0.13368 0.59918 0.09789 0.3461 -0.044508 0.010504 -0.14117 -0.024996 0.292 0.2372 -0.52269 -0.45759 -0.22989 -0.38443 -0.51727 -0.27179 0.14878 0.1667 -0.30404 -1.2547 0.71393 0.29699 0.54984 0.038371 -0.79498 0.52203 0.087588 -0.013677 0.2936 -0.41659 0.20071 0.25526 -0.14503 -0.18295 0.1152 0.96039 -0.42703 -0.43297 -0.29392 -0.41386 -0.93333 -0.13345 -0.74579 -1.048 1.0096 0.60122 -0.66639 -0.012453 -0.26572 0.65208 -0.3759 0.063773 0.10172 -0.21854 -0.12621 0.021112 -0.46807 -0.021793 -0.3519 -1.0204 0.20278 -0.008146 -0.044031 -0.70252 0.40124 -0.05902 -0.27032 -0.42595 -0.17946 0.20843 0.54419 0.44846 0.094888 0.034372 -0.81643 -0.53133 0.4385 0.25314 -0.5344 -0.37983 0.052468 -0.25998 -0.39585 0.32808 -0.20599 0.25113 0.33347 -0.13876 -0.27387 -0.66851 0.43467 0.21614 0.55205 0.31533 -0.4517 -0.35586 0.083957 0.39713 0.015788 0.085871
president 0.077973 0.083592 -0.046909 0.22606 0.56914 0.44617 0.070753 0.27431 -0.19953 -0.1928 -0.59477 -0.040569 -0.047295 0.25601 -0.46523 -0.22049 0.12909 0.072501 -0.33153 -0.088487 0.25198 -0.11214 0.079313 -0.010659 -0.65329 -0.17244 -0.065168 0.52558 -0.42298 -0.29812 -0.018686 -0.057456 -0.26564 -0.32245 -0.47829 -0.25369 -0.086648 -0.070189 0.11437 -0.37003 -0.44072 0.145 0.24259 0.021235 0.038883 0.37318 -0.52222 -0.1332 0.2577 -0.049002 -0.23494 -0.36779 -0.14809 0.11267 0.0069186 -0.39799 0.32411 -0.071134 -0.26583 0.10117 -0.3266 0.23951 0.49802 -0.22255 -0.2187 -0.71915 -0.10817 -0.44928 0.46553 -0.52898 -0.37488 0.39595 -0.14123 -0.032203 0.37697 -0.39032 0.27503 0.0090719 -0.052249 -0.67347 0.38224 0.52556 -0.18583 0.46315 -0.41048 0.075638 -0.25083 0.030921 -0.20856 -0.10094 0.14608 -0.08013 0.0084523 0.33613 0.21406 -0.0067988 0.33411 0.23369 -0.5195 -0.019822
atmosphere 0.18842 -0.051361 -0.0037237 0.14876 -0.051698 -0.18133 -0.23062 -0.22991 0.029005 0.1935 -0.40444 0.81519 -0.20877 0.61329 -0.3151 -0.044996 0.36234 -0.18564 0.55642 -0.38057 -0.42173 -0.21172 0.34287 -0.54503 -1.1688 -0.36273 0.52485 -0.25792 0.14499 -0.21932 -0.17601 0.056986 -0.48779 0.20626 -0.49469 0.44991 -0.33764 0.015271 0.043482 0.24862 -0.35359 -0.33756 0.2865 0.08605 -0.11463 0.28827 -0.041323 0.19786 -0.27265 0.4877 0.068925 -0.38179 0.60931 -0.056564 -0.76371 0.12223 0.39519 0.12447 -0.52656 -0.33108 -0.23519 0.13473 -0.51981 0.17806 -0.19975 -0.15363 0.22414 -0.10935 0.32923 -0.16651 0.29286 -0.13602 0.075253 0.75402 -0.050867 0.17997 -0.0091436 -0.33417 -0.16223 -0.32881 -0.5618 0.54112 0.22387 0.36003 0.10949 -0.0074726 0.014098 0.46283 -0.0032139 -0.23241 -0.046676 -0.25891 0.31039 -0.4674 -0.3852 -0.50564 -0.35411 0.10345 -0.085 0.60228
practice 0.56016 0.068198 0.44273 0.82154 0.25898 0.49351 0.4684 0.44451 -0.23657 0.029982 -0.3352 -0.0023686 0.12041 -0.28309 -0.32481 -0.15913 -0.040637 0.15542 0.46441 -0.36488 0.010442 -0.02895 0.086426 -0.022102 -0.28891 -0.1153 0.17975 0.0077994 -0.10558 0.054676 -0.16165 0.072095 0.30132 -0.10425 -0.27448 0.34801 -0.51764 -0.32439 0.043247 0.46417 0.074721 -0.17208 0.49115 -0.28589 0.029358 0.12137 -0.47838 -0.04224 0.34387 -0.18215 -0.38303 0.091515 0.21497 -0.31664 -0.080097 0.031057 0.10035 0.073569 -0.37364 -0.091513 0.096345 -0.058491 -0.028033 -0.19045 -0.051656 0.28551 0.14218 0.015429 0.015272 -0.26792 0.32584 0.064242 0.49357 -0.49701 -0.25126 0.16875 0.14295 -0.1261 -0.0037475 -0.25321 0.027151 -0.30168 0.50766 0.48141 0.1545 0.19928 -0.55393 -0.14672 0.39834 0.031287 0.19772 -0.26443 0.19542 0.28759 -0.22763 0.07359 -0.022705 0.49134 0.41015 -0.13195
movie -0.10107 -0.36444 -0.2746 0.42921 -0.012761 -0.2564 -0.20216 0.2264 -0.30108 0.40676 0.075255 -0.27686 0.22348 0.21259 0.26465 -0.17366 -0.05718 -0.40927 0.017847 -0.2947 -0.14807 -0.5265 -0.025742 0.34868 -0.61706 0.14109 -0.066977 0.24454 -0.1323 -0.067793 0.12548 -0.52277 0.10217 -0.60267 -0.044605 -0.0085669 0.25523 -0.30239 0.16063 0.48321 -0.67926 -0.12791 0.073831 -0.087513 0.27918 0.06696 -0.10719 -0.28843 0.058404 0.48611 0.6096 0.1816 0.25977 0.35777 -0.42133 0.19568 0.059957 -0.0083059 -0.33378 -0.23763 0.055756 -0.15864 0.26317 -0.09264 0.33334 -0.38643 -0.28488 -0.19295 -0.12858 -0.68337 0.57051 0.56744 -0.29376 0.30719 -0.1165 0.33863 0.17259 -0.29847 -0.34861 -0.80358 -0.33569 0.54591 0.14251 0.67657 0.11641 -0.63591 -0.20865 0.43797 -0.27907 0.099094 0.17216 0.32675 0.35333 -0.4024 -0.23736 -0.069216 -0.50745 -0.015288 -0.33519 -0.46155
popcorn -0.43914 0.062738 -0.10535 0.64196 -0.69825 0.41802 -0.18281 -0.054558 -0.78057 0.50811 -0.093123 -0.15571 0.61067 0.37568 -0.086998 -0.34821 0.18015 -0.059744 0.29412 -0.50799 0.10188 -0.96305 0.36043 0.019122 -0.67087 0.21421 -0.19599 -0.27934 -0.2045 -0.30222 0.3408 -0.48362 -0.36448 -0.46068 7.1339E-5 0.17265 -0.11008 0.13482 0.053267 0.51163 -0.46338 -0.93106 -0.65547 -0.22667 0.28226 -0.021658 0.32497 -0.086135 -0.44133 0.35428 0.66667 0.13452 0.14878 0.19888 -0.63839 0.42182 -0.41275 0.064272 -0.09245 -0.88862 -0.016689 -0.10039 -0.14392 -0.32265 0.2927 -0.32098 -0.094754 -0.65246 0.21423 -0.456 0.59857 0.071771 -0.24961 0.032571 0.053242 -0.031045 0.58098 0.14068 0.14663 -0.3661 -0.09368 0.015208 -0.11497 0.58472 -0.13889 -0.17687 0.47149 0.077995 0.15329 -0.53863 0.623 -0.071643 0.30444 -0.25496 -0.056886 -0.27843 -0.067787 0.30309 0.051435 -0.12708
recommendation 0.33671 -0.58827 0.17963 0.21379 -0.31168 0.1236 0.27548 0.22388 -0.27881 0.038316 -0.11177 0.18668 0.37021 -0.4913 -0.082051 -0.018156 0.19602 0.37596 1.7625E-4 -0.098672 0.36573 0.047006 -0.12628 -0.13618 -0.55857 0.19146 0.064179 -0.13 0.075753 -0.14538 0.043152 0.60996 -0.17007 -0.088244 0.040151 0.14492 -0.67423 -1.0614 0.087461 0.13015 -0.46016 0.033956 0.013706 0.33145 0.47574 0.53238 -0.25594 0.31664 0.035751 -0.27367 -0.29612 -0.22872 0.13091 -0.14037 -0.50149 0.43061 0.020313 0.043562 0.17431 -0.71193 0.31952 0.42465 0.16262 -0.11131 0.26004 -0.26551 0.18707 -0.43779 0.43637 -0.15581 0.095449 -0.050835 -0.15929 -0.54551 0.39092 -0.6896 0.12746 -0.24729 -0.42308 -0.35251 0.015918 0.0068692 -0.12764 0.45561 -0.34308 -0.013606 -0.10505 0.2959 0.18426 -0.0072556 0.22578 0.30254 -0.63661 0.36221 0.28555 -0.3291 -0.16519 0.54768 -0.31501 -0.45241
focus 0.055267 -0.090531 0.20927 -0.042266 0.053141 -0.0037687 0.19376 0.40206 -0.10186 -0.15756 -0.19448 0.24854 -0.3005 0.0041329 -0.038564 -0.081497 0.39284 0.56135 -0.14853 -1.1349E-4 -0.1541 -0.18754 -0.35133 -0.2816 -0.34614 0.051057 -0.043322 0.41391 0.0051355 -0.069937 -0.0068959 0.18006 0.32377 -0.39893 -0.50027 0.41152 -0.27076 -0.24763 0.16572 -0.18187 -0.17582 -0.25163 0.33988 0.10265 0.4218 -0.02484 -0.20011 -0.11192 -0.1698 0.10387 -0.30004 0.15058 0.02337 0.060998 -0.31753 -0.13034 0.26031 -0.092302 -0.016379 0.015396 0.18717 -0.161 0.027658 -0.13401 -0.44076 0.11278 0.041476 -0.11228 -0.0060886 -0.19087 0.36269 -0.47494 0.33453 -0.021907 0.027241 -0.43303 0.27005 0.21702 -0.34721 -0.52048 -0.060503 0.057999 0.038717 0.36565 0.28914 0.20692 -0.41343 0.12137 0.16274 0.10506 0.24129 0.089076 -0.070766 -0.099866 -0.56613 -0.14969 -0.19467 0.49479 -0.17959 -0.16353
attempt -0.17961 -0.30753 -0.19952 0.044776 0.13976 -0.052211 0.38408 -0.016295 0.020522 0.3769 -0.35706 -0.30836 -0.29409 -0.13405 -0.030077 0.065066 -0.56991 0.10456 0.15642 -0.37454 -0.19521 0.21858 0.17216 -0.77838 -0.4178 -0.20677 -0.31557 -0.11263 0.26024 0.035773 -0.24567 0.017996 -0.39308 -0.27946 -0.09139 0.043115 0.060571 -0.54878 -0.051673 0.26899 0.015539 -0.23697 0.33053 0.65261 -0.30967 -0.13021 -0.34384 0.1366 0.13493 0.1926 -0.5705 0.38819 0.27118 -0.19049 -0.11918 -0.0014418 0.29862 0.18347 0.22656 -0.36611 0.038565 -0.087658 -0.24097 -0.015764 -0.31003 -0.1329 -0.28951 -0.41647 -0.0467 -0.32604 -0.21478 0.36788 -0.261 0.014392 0.38333 -0.2161 0.081399 -0.24836 -0.13324 -0.51911 0.050482 0.019611 0.39931 0.11485 0.302 0.31251 -0.31486 -0.08777 -0.57503 -0.013818 -2.3531E-4 -0.038647 0.25449 0.019935 0.20953 0.10724 -0.1927 0.55012 0.14231 -0.44719
approach 0.26594 -0.30872 0.067257 0.32379 0.12951 0.11134 0.18507 0.57132 0.10445 -0.26835 -0.1199 0.14791 0.049567 -0.34239 -0.21281 -0.10779 0.1858 0.45037 -0.019735 -0.37414 -0.34439 -0.16639 0.24415 -0.32177 -0.26418 0.064243 -0.020752 0.060638 0.010868 -0.066866 -0.044361 0.11632 0.23613 -0.11025 -0.32025 0.11879 -0.29385 -0.69495 0.14529 0.22215 -0.34389 -0.071315 0.44123 0.55003 0.089981 0.11471 -0.5137 0.0033958 -0.12001 0.23424 -0.23294 -0.058941 0.39643 -0.12712 -0.15051 -0.09425 0.3458 0.12546 -0.1035 -0.24112 -0.02397 -0.34457 -0.27707 -0.20227 -0.49096 -0.31592 -0.0031329 -0.063276 0.31322 -0.017522 0.22475 -0.051486 -0.0568 -0.14819 0.039881 0.050632 0.038306 0.35747 -0.65456 -0.23686 -0.16595 0.082319 0.030254 0.15135 0.063728 0.47394 -0.2732 0.12632 -0.17732 0.40237 0.36287 -0.08807 -0.36422 0.30036 -0.20512 -0.67881 -0.047828 0.54304 0.083587 -0.042887
number 0.40195 0.098578 0.17335 0.066075 -0.0036001 -0.19287 0.19322 0.021611 0.20213 -0.17819 -0.074429 0.20028 -0.31464 -0.34585 0.20262 -0.043427 -0.092409 0.21473 0.12913 -0.48498 0.43716 -0.14113 -0.16473 -0.20751 0.15112 0.023277 -0.036975 0.57264 0.442 -0.12473 0.12022 -0.077563 -0.142 -0.28078 -0.017022 0.11473 -0.28053 -0.2595 -0.14099 0.03113 -0.13684 -0.05321 -0.031603 -0.032886 0.04425 0.27133 -0.27571 0.46868 -0.3898 0.075662 0.21797 0.049705 -0.19958 -0.060555 -0.279 0.18647 0.21846 0.09148 0.22694 -0.045528 0.15666 -0.19319 0.084986 -0.45728 0.35 0.58371 -0.68601 -0.59275 -0.011778 -0.33395 -0.022695 0.072755 -0.17129 -0.31209 -0.089421 0.0014976 -0.28191 0.51319 -0.055104 -0.43401 -0.43413 0.12643 0.10695 0.63979 0.0061835 -0.09658 0.14939 0.10042 0.11604 -0.032962 0.27734 -0.16613 -0.13366 -0.057206 0.192 -0.14864 -0.61704 0.20093 0.22668 0.29285
property 0.48578 0.095257 -0.0072436 0.15799 0.074071 -0.47823 -0.075646 -0.056942 0.90463 0.32334 -0.31673 -0.16442 -0.18025 -0.16921 -0.46927 0.064538 0.46694 0.22377 0.20291 -0.5072 -0.11251 0.073993 -0.18747 -0.38436 0.15804 -0.078619 -0.20955 0.60177 -0.33293 0.52285 -0.066146 0.33154 -0.045426 -0.19188 0.20683 0.27281 0.09244 -0.075945 0.51491 0.58864 0.15973 -0.1957 0.077601 -0.040387 0.44866 -0.35086 -0.5966 0.37729 0.21726 0.29959 0.50073 0.18882 -0.53176 -0.094113 -0.47465 -0.2913 0.07636 -0.13996 0.17858 -0.13984 -0.33645 -0.020836 0.4365 -0.16978 0.25459 0.1924 -0.007922 8.246E-4 -0.1849 0.084773 0.20349 -0.12746 -0.48185 -0.12183 0.0055143 -0.34555 0.47302 -0.36162 0.27511 -0.40147 -0.31967 0.10271 0.18188 0.73917 0.035101 -0.33413 -0.54852 -0.078297 -0.13431 -0.28541 0.45858 -0.12116 0.73427 0.52386 0.25498 -0.19049 -0.31641 -0.0095992 -0.056698 -0.041799
fingerprint -0.408 0.24415 0.32819 -0.16979 -0.23265 0.1897 0.34197 -0.10558 0.38284 -0.3153 -0.11818 0.24542 0.57033 -0.16552 0.72996 -0.2905 -0.31628 -0.026666 0.037856 -0.55523 -0.15579 0.12031 0.084211 0.27692 -0.60576 0.24375 0.0029918 0.0017212 -0.016334 -0.21149 -0.19173 0.033929 -0.4548 -0.21207 -0.17574 0.56527 -0.013303 -0.51256 -0.018593 0.52709 -0.20407 -0.55631 0.34924 0.65264 -0.011007 0.10673 -0.54578 -0.14594 -0.57325 0.51223 -0.17662 -0.75332 -0.35911 0.40758 -0.25373 0.039888 0.21846 0.32425 0.25844 0.10771 0.30383 0.049986 -0.1594 -0.38584 0.45929 0.51512 0.010243 -0.3368 -0.36565 -0.30687 0.037359 -0.27453 0.085465 0.14419 1.2962E-4 -0.024215 -0.10533 0.019767 -0.2287 0.14886 -0.64928 -0.51035 0.55521 1.3713 -0.81322 0.0093312 -0.38825 -0.65181 0.30342 -0.49398 0.28249 0.14866 0.49141 0.44658 -0.081517 -0.42001 -0.50956 0.52217 -0.0055426 0.055421
reservation 0.22366 -0.53683 -0.054566 0.22616 -0.23483 0.37183 0.029081 0.11463 0.515 -0.44652 -0.27075 0.0012624 -0.21578 -0.060773 -0.029731 -0.087673 0.046189 -0.27084 -0.25632 -0.62985 0.22576 0.33664 0.11403 0.0068477 -0.14304 -0.12952 0.15776 -0.002807 -0.15704 0.090332 0.098208 0.25302 -0.16424 -0.12518 0.22478 -0.076319 -0.13069 -0.44806 0.5459 0.63445 -0.33336 -0.24889 0.60846 -0.52576 -0.20925 -0.012651 -0.33841 -0.058441 0.015671 0.24032 0.31077 -0.086446 -0.13966 0.2368 -0.47089 0.19849 -0.11125 0.10274 0.17136 0.056558 -0.72747 -0.3878 0.39886 -0.27761 -0.14386 0.38234 0.24801 -0.43946 -0.51318 -0.33401 0.10713 0.37467 -0.4354 0.072774 0.2046 -0.10079 0.65224 -0.22165 0.081935 -0.47037 -0.035318 -0.17648 -0.17057 0.75396 0.35036 0.07159 0.026532 -0.11284 0.52391 -0.27259 0.28891 -0.14908 -0.18598 -0.079379 0.33917 -0.22824 -0.81905 0.26799 -0.07261 0.2321
block -0.18419 -0.060863 -0.33525 0.23604 -0.0081337 0.73159 0.20438 0.09027 0.53242 0.25783 -0.071168 -0.23363 0.07604 -0.44742 -0.30396 0.39763 0.019942 0.35595 0.26313 -0.23478 -0.10983 -0.11916 -0.084536 -0.31787 -0.29182 -0.33913 0.17071 -0.093883 -0.0041575 0.056659 -0.42343 -0.046788 -0.19596 -0.3242 0.10403 0.08985 -0.048102 0.4227 0.12746 -0.1076 -0.079597 -0.38504 0.32192 0.47552 0.23503 -0.37497 -0.12388 0.0032896 -0.17257 0.07467 0.28095 -0.11144 -0.24978 -0.12394 -0.39448 -0.48086 0.10493 -0.25043 0.22127 -0.32318 -0.20414 -0.38206 -0.27248 -0.025417 0.037846 0.13031 0.42132 -0.50134 0.16687 -0.13728 0.20472 0.51986 -0.17223 -0.1027 0.088199 -0.40772 0.40242 0.22696 -0.21723 -0.24357 -0.17199 0.38651 0.042645 0.82825 0.30785 0.033994 -0.37226 -0.16812 -0.20439 0.012093 0.10462 0.52774 0.059792 0.33773 0.33052 0.13276 -0.8539 0.16944 0.39447 0.080933
fear 0.15883 0.27592 0.30774 0.19241 0.048838 -0.53293 -0.3844 0.024935 -0.11501 0.19515 -0.22942 -0.10064 -0.3997 0.27314 -0.30703 -0.06635 0.01627 -0.063873 0.116 -0.56182 -0.13106 -0.21467 0.29018 -0.43486 -0.83614 -0.044355 -0.071613 0.2959 -0.31978 -0.025962 -0.11187 -0.13695 -0.31097 -0.38236 0.015739 0.30629 -0.54369 0.063365 -0.061894 0.15336 0.068832 -0.26812 0.24239 0.32332 0.24765 -0.0525 -0.28559 0.048352 0.048413 0.64963 -0.13613 -0.24981 -0.0082202 0.27736 -0.081308 -0.19539 0.029828 -0.10722 0.29859 -0.45711 -0.10979 0.60037 -0.10577 0.025631 -0.15809 0.11097 -0.27636 -0.20609 -0.2419 -0.4568 0.29211 0.04064 -0.096641 -0.17093 0.18516 -0.38751 -0.1707 0.2298 -0.50845 -0.46319 0.11072 -0.21843 -0.094305 0.37047 0.40581 -0.070392 -0.22742 -0.027396 0.0011556 -0.018045 -0.12961 -0.30521 -0.18279 0.0078777 -0.058056 0.28368 -0.55792 0.24915 0.24123 0.20405
surface -0.15257 0.085567 -0.093646 -0.15728 -0.37153 -0.068797 0.047571 -0.061083 0.39544 0.33634 -0.37508 0.19915 -0.17703 -0.17424 0.038472 0.12786 -0.01841 0.14939 0.31153 -0.19197 -0.44867 0.061799 0.39062 -0.23073 -0.6602 -0.175 0.36129 -0.30943 -0.19578 -0.76195 -0.32392 0.32481 -0.27202 0.17099 -0.41033 0.51091 -0.03762 -0.089348 0.34402 0.12538 -0.40542 -0.12018 0.33099 -0.22774 0.43651 -0.24613 0.12885 -0.39454 -0.52754 0.63682 -0.25063 -0.49641 0.2683 -0.21866 -0.69471 0.15456 0.39159 -0.19706 -0.2221 -0.16509 0.13356 -0.017324 -0.15322 -0.062426 0.33589 -0.24704 -0.13405 -0.30627 0.14994 0.050278 0.53527 -0.50274 0.0040448 0.072689 -0.074337 0.33292 0.27186 0.052234 0.20278 -0.017279 -0.22617 -0.088296 -0.012484 0.64463 0.43653 0.24493 -0.11661 0.44945 0.244 -0.14921 0.80062 0.086944 0.55608 -0.28891 0.19142 -0.58817 0.084377 0.2311 0.1572 0.3383
