437 200
plane -0.037664 -0.16175 0.31308 -0.098887 0.078146 -0.12634 0.29134 -0.86696 -0.20317 0.15167 0.23785 0.19408 0.22012 -0.49313 -0.18818 0.25882 0.1773 -0.40875 -0.20241 0.1673 0.14579 -0.19855 0.29659 -0.29954 -0.05881 0.55587 0.88864 -0.53476 -0.14677 -0.042151 -0.11373 -0.47119 0.15963 0.036605 -0.02662 0.13547 -0.13224 0.10563 0.057279 -0.18754 0.011345 -0.022103 0.31072 0.02693 -0.17155 -0.25878 0.24845 -0.081713 -0.52012 0.081319 0.052541 -0.17093 0.080063 -0.29768 0.2992 0.50969 0.46195 -0.29125 -0.48632 -0.3431 0.095118 -0.26942 -0.32846 -0.18353 0.54727 -0.10376 -0.072848 0.048279 0.32128 -0.31869 0.093585 0.025434 -0.092072 -0.31195 0.34857 -0.067139 -0.01202 0.024254 -0.22517 -0.033048 -0.23534 0.18485 0.15611 -0.37644 -0.88841 -0.16921 0.4527 0.1961 -0.37263 -0.2018 0.22839 -0.29991 0.15166 0.054377 -0.23937 -0.21806 -0.17929 0.16214 0.21514 0.35323 0.4743 -0.069566 0.026534 -0.0045474 0.082885 0.072518 0.13597 0.36387 0.019556 -0.014627 -0.060326 -0.03411 -0.0074315 0.048527 -0.026532 -0.11204 -0.12048 -0.095954 -0.066675 -0.78669 -0.17656 0.28779 -0.08162 0.15947 0.087756 -0.010311 -0.23492 -0.093155 0.019765 0.2725 -0.50507 0.33282 0.012253 -0.0048901 0.41455 -0.2675 0.15749 -0.44847 -0.20483 0.0049285 0.30873 -0.09963 -0.027082 -0.24343 0.23636 -0.22483 -0.42782 0.027484 0.034407 0.18176 0.5784 -0.16029 -0.49496 0.40827 0.48014 0.34884 -0.12888 0.21389 -0.25202 -0.17749 -0.38791 0.18027 -0.070282 -0.039438 -0.021566 0.16969 -0.29329 -0.30658 0.087905 0.25692 -0.13726 -0.2159 0.30131 -0.30099 -0.10845 0.1379 0.2919 0.063654 -0.13044 -0.49677 0.36385 0.32759 0.71539 0.10739 -0.30719 -0.024932 0.31028 -0.33114 0.19336 0.45684 0.69613 0.22358 0.29326 0.162 -0.036629 -0.024061 -0.23159 0.36911 -0.30623 0.27897
stupid -0.24442 0.18379 -0.11713 -0.3522 0.43323 -0.18757 -0.3811 -0.025807 0.094638 0.3639 0.096831 0.34777 -0.38769 -0.37525 0.029165 0.022237 0.28567 -0.033866 0.13627 0.07838 0.01754 -0.28662 0.12706 -0.22468 -0.26815 0.15078 0.078557 -0.0088952 0.27238 -0.16929 0.005569 -0.12977 -0.048756 0.098771 -0.10829 0.0047814 0.022539 -0.26441 -0.026809 -0.034986 0.26356 0.52052 0.075647 -0.49408 -0.40236 -0.16528 0.33556 -0.086656 -0.038312 0.048417 -0.41711 0.25544 0.06367 0.18364 -0.16256 0.67981 0.34912 -0.36784 0.29576 0.038326 -0.19467 0.12464 -0.21468 -0.072349 0.38333 -0.12632 -0.075585 0.10178 0.71634 -0.12029 -0.17849 -0.083343 -0.38857 -0.18854 -0.24232 -0.27035 0.094648 0.089273 0.022402 -0.33189 0.08458 0.56317 0.23454 -0.36671 0.49045 0.02894 0.16465 0.28012 0.091339 0.36804 -0.15346 -0.20013 -0.20123 -0.24643 -0.024994 -0.14591 -0.66176 0.23468 -0.066653 -0.038224 -0.13404 -0.23214 -0.15793 0.12654 -0.096184 0.043371 0.28035 0.13526 -0.076324 -0.25383 0.32705 -0.34956 -0.21858 -0.44594 -0.1479 0.27499 0.14555 0.2457 -0.13328 -0.62343 0.25536 0.29304 0.07339 0.022788 0.019046 0.47594 -0.28176 -0.18511 -0.56677 -0.15791 0.21863 0.29859 -0.066696 0.27606 0.3548 -0.47111 -0.23206 0.233 -0.1612 0.023353 -0.39851 0.088461 -0.20287 0.10133 -0.1295 -0.18008 -0.024382 0.1675 -0.17721 0.18512 0.16459 -0.08456 0.086699 0.021709 0.49379 -0.098465 0.13586 0.1721 -0.24875 0.36575 0.007208 0.24981 0.11346 0.30352 0.29386 -0.22735 -0.0066602 -0.018864 -0.074463 -0.081698 0.060987 0.3831 0.22643 0.24563 -0.092872 0.075562 -0.084461 -1.6783E-4 0.035436 -0.034833 0.27873 0.16086 0.13852 -0.087641 -0.42966 0.31457 -0.16809 0.58883 0.2022 0.11607 0.62814 -0.17063 0.32349 0.043954 -0.31664 0.097385 -0.0099356 0.20443 0.35299 -0.019976
egg 0.33733 0.27463 0.12387 0.44645 0.34596 -0.17307 0.061582 0.11482 -0.13574 0.44809 0.32812 0.14169 -1.0612 -0.010159 -0.30484 0.028906 -0.21018 -0.16041 0.036651 0.26916 -8.693E-4 -0.084888 0.1659 0.042923 -0.4557 0.17538 -0.18441 -0.21799 -0.024814 -0.51859 -0.65165 0.36697 0.15581 0.042331 -0.5085 -0.424 -0.03025 -0.15127 -0.048076 -0.2763 0.11521 0.1754 0.022736 -0.45436 -0.20072 -0.58483 0.43162 0.29102 -0.27204 -0.045598 0.082989 0.56165 0.14354 0.36605 0.06253 -0.051314 -0.31616 0.075246 0.24481 -0.28514 0.006818 0.14114 -0.28113 0.26183 0.37102 -0.031211 -0.48461 -0.57479 0.11662 0.038065 0.23744 -0.35856 0.012876 -0.73756 0.10626 -0.31668 0.069482 0.166 0.017992 -0.10815 -0.14925 0.22612 0.085096 -0.12868 -0.2887 0.0085043 0.53467 -0.030055 -0.33327 0.44246 -0.036487 -0.073838 0.016999 0.21261 0.11428 0.36992 -0.10588 -0.66563 -0.33233 -0.3687 0.069056 -0.074616 -0.7156 0.3066 0.27512 -0.010535 0.22266 0.019536 -0.043273 -0.13145 -0.19548 -0.95185 -0.012126 0.12038 -0.19998 0.26612 0.018728 0.3645 -0.33534 -0.092851 -0.2881 0.31626 -0.55305 0.37902 -0.5394 0.12394 0.31361 0.47075 0.32758 -0.59022 -0.36169 0.855 -0.020457 -0.3683 0.34001 0.10931 0.49453 -0.3304 -0.13278 -0.050486 0.24752 0.18269 0.048142 -0.015373 0.22891 0.34997 0.052279 0.1718 -0.074875 -0.1804 0.26 0.16171 0.082448 0.30151 0.13507 -0.27177 0.24407 -0.40287 -0.18501 -0.21705 0.079629 0.061321 0.25515 -0.18093 0.03012 -0.25167 -0.36797 0.082814 -0.42219 0.20028 0.44449 0.039166 -0.10858 0.4778 -0.68577 0.0051822 0.27333 -0.24346 -0.19703 0.044415 -0.16085 -0.18644 -0.27264 0.14634 -0.57856 -0.1376 -0.055739 0.26536 -0.013562 0.063393 0.50401 -0.22349 0.28563 0.092404 0.046429 -0.042918 -0.20509 0.58141 -0.58246 -0.12766
year 0.017076 -0.029562 0.016447 -0.42794 0.0036042 -0.08064 0.095332 -0.070824 0.18343 -0.031045 0.031296 -0.16665 -0.1479 -0.23386 0.026589 -0.29935 -0.072645 0.010505 -0.089462 0.2576 -0.018208 -0.15875 0.14925 0.36387 -0.10582 0.2418 0.25301 -0.1235 -0.090518 0.1281 -0.14304 -0.14655 0.1916 0.094526 -0.17629 -0.14975 0.040541 0.0046167 -0.15687 0.060171 -0.40596 -0.15043 -0.013559 0.14252 -0.29515 -0.11443 0.12462 0.087494 0.022508 -0.018301 -0.89916 0.20877 0.12222 -0.097213 0.029354 0.19116 -0.12736 0.28626 -0.14341 -0.083981 0.23079 -0.052513 -0.30518 0.14887 -8.4278E-4 0.047123 -0.2275 0.16704 -0.022505 0.12251 -0.079912 -0.41549 -0.13675 -0.085828 -0.036791 -0.011312 0.1054 -0.073723 -0.14654 0.24556 0.050203 0.25704 0.31799 0.29278 -0.050756 0.18539 0.087951 0.11521 0.19866 -0.11289 0.2554 -0.23865 0.18766 0.24652 0.02321 0.30292 0.007401 -0.17119 -0.067801 0.027116 0.068806 -0.2415 -0.17245 -0.063804 -0.46222 -0.19735 -0.073701 0.09212 -0.047258 0.038949 0.062758 -0.29281 0.13475 0.11061 0.15281 -0.16174 0.080013 0.1073 -0.084364 -0.18471 0.17231 -0.0083253 -0.16807 0.052722 -0.050446 -0.20575 -0.013507 0.20111 -0.24379 -0.2987 -0.22374 -0.066701 0.14976 -0.20102 -0.26002 -0.24727 -0.028535 -0.15615 -0.3386 0.029013 0.019576 0.4733 -0.14963 0.11199 0.063945 -0.1095 -0.004368 -0.1791 0.056842 0.077217 -0.3143 -0.15178 -0.038208 -0.031347 0.005302 0.0081819 -0.0019456 0.25676 0.30194 0.19363 -0.22397 -0.0018987 0.33043 0.34004 0.29986 0.12453 0.061714 -0.29438 -0.41549 -0.16655 0.14378 -0.10163 -0.016666 -0.051301 0.51732 0.009151 -0.060647 0.16421 0.19152 -0.14748 -0.13064 -0.16197 0.22884 0.30099 -0.49927 0.13327 -0.36933 0.01762 -0.20096 -0.10231 0.09515 -0.12775 0.051076 -0.015703 0.0096271 -0.041468 -0.30679 0.022084 -0.041891 -0.25042
psychiatry -0.41242 0.43064 -0.33487 -0.21528 0.068163 -0.16338 -0.14256 -0.15449 0.022272 0.095642 0.21984 -0.027288 -0.55189 -0.2777 0.24978 -0.27847 -0.055999 -0.20951 -0.18776 0.37624 0.051019 0.17954 -0.15366 -0.13997 -0.26483 -0.090637 -0.33918 -0.11376 0.24221 -0.026358 -0.52366 -0.17121 0.33373 -0.1623 -0.55371 -0.33634 0.64823 -0.44797 -0.27981 -0.40545 -0.090034 0.35539 -0.26784 -0.3471 0.16015 -0.74141 -0.24377 -0.36818 0.16786 0.32521 -0.40976 -0.44037 0.9156 -0.50197 0.26888 -0.22065 0.56768 0.22374 0.19465 0.38758 0.82041 0.18622 0.046823 -0.4006 0.17602 -0.13738 -0.38432 0.1263 0.36748 -0.18312 0.21792 -0.4199 -0.41568 -0.19858 -0.41099 0.13776 0.40001 -0.22715 -0.044987 -0.33106 0.15497 0.28149 0.10222 0.3114 -0.092543 -0.001612 0.662 0.094859 0.05015 -0.12122 0.27826 0.34221 -0.030079 -0.11812 -0.23367 -0.66559 -0.1579 -0.54347 -0.37021 -0.11945 -0.13222 -0.0094699 -0.50058 0.0080456 0.22744 0.29172 -0.096655 -0.026096 0.090633 -0.33374 0.14306 0.011676 0.43903 0.052457 0.35148 0.2019 0.046241 -0.39992 0.11034 -0.13714 0.039713 0.20035 0.094579 -0.18719 0.21386 0.20544 0.78441 -0.20779 -0.017352 -0.029434 -0.05751 0.51491 -0.27781 0.22286 0.6448 0.49552 -0.24267 -0.42689 -0.4265 0.01679 -0.3415 0.23543 0.59951 -0.27708 -0.037519 0.033728 0.76292 0.56709 0.22179 -0.16111 -0.39995 0.46229 0.14463 0.12147 0.077689 -0.78038 -1.0516 0.11082 -0.074299 -0.17666 0.28751 0.29401 -0.3137 0.013567 0.076869 0.28338 -0.046115 0.05154 -0.32748 -0.44775 -0.013647 0.27079 0.18837 -0.32618 -0.13415 -0.19183 -0.11256 0.16398 0.38705 -0.43412 0.225 -0.067139 -0.11153 -0.27428 0.060865 -0.29421 -0.23842 0.15606 0.25213 -0.45243 0.54756 1.0821 -0.27329 -0.10486 0.20836 0.12141 -0.58544 -0.15948 -0.19699 0.30101
asylum 0.19999 -0.19418 0.29328 -0.57006 0.14321 -0.13954 0.057576 -0.50698 0.063734 0.44071 0.090148 0.42213 -0.30529 0.34206 0.054779 0.17753 0.43894 -0.34343 -0.052327 0.39907 0.090882 0.17451 -0.3475 -0.11154 -0.068744 -0.087084 0.31375 -0.29653 -0.34218 0.47543 -0.15768 0.28434 0.17495 -0.3142 -0.26997 -0.44612 0.017118 -0.51067 -0.16453 -0.15356 0.072331 -0.46812 0.30072 0.11305 0.4987 -0.3911 -0.076894 -0.66334 -0.079495 0.041066 -0.17896 0.28008 0.10427 -0.10021 0.51989 -0.12168 0.2276 0.40189 0.11017 -0.1303 0.62674 0.13292 -0.26812 -0.55711 -0.0043103 0.28702 -0.33863 0.23928 0.29807 -0.094023 -0.0069527 -0.11589 -0.27822 -0.57642 -0.12712 0.43436 0.33076 -0.092093 -0.2597 -0.18614 -0.36244 -0.10939 0.24282 0.35478 -0.57365 0.39821 -0.16803 0.12034 -0.4362 0.047211 0.13346 -0.24642 -0.5445 -0.098152 -0.12992 -0.44051 -0.60815 -0.29409 -0.70996 0.41444 0.24532 -0.52473 -0.099526 -0.11086 -0.2215 -0.0052037 -0.2853 0.096931 0.25875 0.12387 -0.25251 0.029692 -0.068343 -0.63912 0.35023 -0.022245 0.61061 -0.66655 -0.41571 -0.1264 0.18458 0.040668 -0.22929 0.087146 -0.053246 0.43093 -0.21842 0.025393 0.33612 -0.67115 0.016833 -0.23031 -0.57333 0.19233 0.28742 0.21419 -0.29028 0.037063 -0.47307 0.018261 -0.0028436 -0.069069 0.55321 0.15945 0.26093 -0.084064 0.50177 -0.045948 0.19596 -0.0831 0.13037 0.31668 -0.0048608 0.30787 0.42632 0.0054811 -0.27407 0.54302 -0.14185 0.30069 0.1187 0.074164 0.73067 0.051114 0.30491 0.19576 -0.67835 -0.21314 0.32574 -0.2628 -0.5603 -0.16782 0.82574 0.31152 0.23632 -0.051623 0.7049 0.16756 -0.20232 0.051764 -0.093959 0.033827 -0.013008 0.23203 -0.47617 0.26859 0.39574 -0.087018 0.33737 0.15675 0.77916 0.31581 -0.031423 -0.059556 -0.25551 -0.012601 -0.27237 0.36886 -0.2952 0.12996
manslaughter -0.70834 -0.081031 0.072339 0.076623 0.074913 0.24788 -0.32141 -0.5285 -0.036685 0.12583 0.031545 -0.23169 -0.40297 0.42731 0.20084 -0.15635 -0.19372 0.14763 0.50062 0.018225 0.34005 0.16018 0.20052 0.16943 -0.068913 -0.16755 0.10878 -0.17607 -0.76119 -0.10872 -0.038628 -0.032324 0.35118 -0.50638 0.14242 -0.2065 -0.23397 -0.56077 0.19979 0.21735 0.3594 0.084124 -0.039862 -0.3174 -0.43488 -0.35796 -0.31752 -0.068797 -0.31069 0.36511 -0.54988 -0.67892 0.19309 -0.25633 0.28049 -0.26133 0.4848 -0.063968 0.1462 -0.26885 0.21759 -0.58843 -0.2669 -0.55192 0.27407 0.35792 -0.67751 0.43969 0.63179 -0.1892 0.090955 -0.60384 0.49393 0.044104 -0.47301 0.25894 0.59706 0.36938 6.1554E-4 -0.3827 -0.1857 0.13114 0.026626 0.083782 -0.32249 0.45912 0.54253 -0.081654 0.014516 -0.26358 0.21624 -0.27596 0.46096 -0.26859 0.29691 -0.64715 -0.16023 -0.30178 -0.033605 0.47987 0.017966 -0.44855 -0.65552 0.223 0.16596 0.28035 0.39124 0.56463 0.18936 -0.3148 0.22938 -0.37303 -0.55588 -0.14224 0.31588 -0.38536 0.37905 0.30313 0.18453 0.67499 0.66967 -0.44125 -0.28145 0.0085631 0.4135 -0.20535 -0.18822 0.40536 -0.014207 0.0070171 -0.063837 0.47979 0.324 0.1898 0.19702 0.096671 -0.27559 -1.053 -0.59507 0.0030789 0.16498 0.63311 0.15587 -0.010273 -0.29908 0.1043 0.03695 -0.0081486 0.027404 0.19396 0.50042 -0.5128 0.31044 -0.12365 0.52333 -0.21953 -0.22857 0.0072488 0.17706 0.58215 0.55258 0.43197 -0.091639 0.59136 0.37206 -0.022689 -0.34685 0.41353 0.04677 -0.10278 -0.69385 0.036161 0.49095 -0.03984 0.40844 -0.15032 0.30157 -0.023638 0.10772 -0.50691 0.20643 -0.13501 0.57144 -0.1495 -0.1517 0.46957 -0.030552 0.17383 0.7041 -0.55691 0.1902 0.72314 -0.66739 -0.0099288 -0.12759 -0.058981 0.39589 0.17596 0.065729 -0.1801
music 0.19268 0.026608 -0.12781 0.11884 0.41336 -0.38783 0.020517 -0.50863 0.010292 0.023639 0.40405 -0.023774 -0.038645 -0.28992 0.33898 0.094058 0.18272 -0.16425 0.18687 0.44019 -0.079946 -0.19611 0.25486 -0.29745 0.13229 -0.1537 0.17433 -0.3671 -0.27257 0.04837 0.094218 -0.19513 -0.32357 0.12912 -0.42308 -0.38744 0.10408 -0.35207 -0.40964 -0.31495 0.071617 0.44236 -0.34207 -0.0017391 -0.0025548 -0.40067 0.26707 -0.17557 0.17756 0.05786 -0.22901 0.32861 0.11956 -0.14651 -0.52351 -0.37869 0.18636 -0.084678 0.10331 -0.01971 0.16754 -0.0768 -0.24166 -0.019159 -0.18187 0.2045 -0.20447 -0.36557 -0.38867 -0.076052 0.10475 -0.1776 0.0066993 0.052374 -0.16213 0.036548 0.17392 0.27395 0.15351 0.22281 0.10379 0.28158 -0.12263 -0.11865 -0.40293 0.059114 0.27186 0.45822 -0.0075155 -0.22879 0.20965 -0.46603 0.20454 0.039615 0.20263 -0.14726 -0.83972 -0.34571 0.032106 -0.05174 -0.2222 -0.032748 -0.11727 -0.16704 0.064336 0.33603 0.32702 -0.046705 -0.059153 -0.095227 -0.023621 -0.11754 -0.28898 0.18077 0.29592 -0.027383 0.53001 -0.077736 0.10493 -0.24379 -0.31783 0.21401 0.50097 -0.044837 0.042422 -0.22509 -0.19453 -0.229 -0.18385 0.031783 0.05285 -0.091582 -0.12053 -0.18433 0.76456 0.11959 -0.39659 -0.19514 0.17668 0.063952 -0.058899 0.25438 0.055295 0.22208 0.18599 0.14985 -0.2312 -0.033305 0.20637 0.14639 -0.16898 0.19366 0.29916 0.33452 -0.1558 -0.0044343 -0.18552 -0.5189 -0.2222 0.020763 0.012619 0.080227 -0.13258 0.068224 -0.083049 0.38038 0.19047 0.16969 -0.55873 -0.31328 0.073284 -0.26226 -0.23641 0.65409 -0.055619 -0.35796 -0.3664 0.34658 -0.43517 -0.20716 0.086596 -0.18842 0.13686 -0.23062 -0.47446 -0.38947 -0.16174 0.11533 0.33438 -0.44084 0.23368 -0.082916 0.2318 -0.45969 -0.318 0.058706 -0.39653 0.24828 0.14546 -0.60203
record 0.34866 -0.27704 0.090606 0.15972 -0.13282 -0.060606 0.48252 -0.15127 0.23765 0.072016 0.14222 0.15301 -0.24276 -0.38997 -0.18177 0.25657 -0.22141 -0.0052066 -0.34174 -0.036283 -0.49907 -0.38927 0.58646 0.25319 0.30394 0.23219 0.32726 -0.011646 -0.69345 0.30178 -0.1112 -0.1529 0.027871 0.23869 -0.13496 -0.20583 0.019763 0.026154 -0.18501 -0.088466 -0.041734 0.24568 -0.24998 -0.12527 -0.13792 0.16037 0.030541 0.15158 -0.026937 -0.33481 -0.5732 -0.055564 0.080698 0.26089 -0.23764 0.51915 -0.044781 0.36152 -0.11434 -0.16371 0.038272 -0.32354 -0.12694 -0.17739 0.2571 -0.018463 0.4438 0.43406 0.12292 -0.12886 0.20079 -0.50958 -0.095484 0.18393 -0.32769 0.16187 0.1781 -0.072755 -0.19393 0.63231 0.053033 0.43229 0.13246 0.36241 -0.45347 -0.1524 0.64907 0.61686 -0.013787 0.22127 0.046156 -0.28181 -0.086381 -0.0032564 0.38986 0.058036 -0.0010612 -0.50894 0.024038 -0.25668 -0.034441 -0.1491 -0.39393 -0.050508 -0.0046429 -0.16588 0.013842 0.077305 0.46875 -0.27195 0.3067 -0.23002 0.0016648 -0.23513 -0.097977 0.36022 0.049924 0.056563 -0.024839 0.12001 0.22094 0.42026 0.32223 0.26467 0.013904 -0.21537 0.051863 0.032851 0.092605 -0.61576 0.010542 0.19708 0.0096436 -0.35239 -0.23244 0.11392 -0.41789 -0.0014016 -0.029258 0.36595 -0.20849 -0.15886 -0.24866 -0.0017872 0.31253 0.25096 -0.15961 0.32848 0.41562 -0.0014072 -0.3447 -0.28055 -0.16852 0.47535 -0.076941 0.2335 -0.21333 -0.041897 0.034846 0.016546 -0.25875 -0.05354 0.002719 0.18507 0.081235 -0.039272 -0.1907 -0.12633 -0.11569 -0.0488 0.18527 0.07176 -0.10461 0.67312 0.082036 -0.12318 0.057252 -0.23978 0.27547 -0.27736 0.15759 -0.23 -0.15665 0.17806 -0.2218 0.29164 -0.19938 0.19714 -0.24179 -0.29808 0.29011 0.065427 -0.073027 -0.23637 -0.010656 0.11509 -0.20335 -0.071111 -0.080179 0.25331
energy 0.15374 0.11412 0.059525 -0.1372 -0.16971 -0.078094 0.55268 0.009209 0.26326 0.016185 -0.082537 0.14049 -0.075278 -0.32102 0.12877 -0.29759 0.24034 -0.22942 0.096004 -0.028492 0.098088 0.17647 0.28831 -0.37019 -0.015992 0.061611 0.034659 -0.051087 -0.43163 -0.20739 0.1497 -0.21092 0.23352 0.23322 -0.23105 -0.10111 -0.21072 -0.38693 0.40856 0.37283 -0.039586 0.24817 -0.18026 -0.13027 -0.18138 -0.46976 -0.082355 0.0040966 -0.066526 -0.49717 -0.15377 0.19547 0.72944 0.04979 -0.01612 -0.0054948 0.37658 0.42998 0.22034 0.086751 -0.2509 0.29869 -0.486 -0.36372 0.19979 0.075647 0.32553 -0.053224 0.075992 0.25365 0.078137 0.069978 0.16843 0.19761 -0.57282 0.32078 -0.10498 -0.33978 0.30924 0.13602 0.082711 0.011726 0.16824 -0.35718 0.27151 -0.55181 0.1505 0.38224 0.19176 0.24144 0.26346 -0.33262 0.10027 -0.25058 -0.14924 -0.13671 0.19615 0.04052 -0.0075185 0.062363 0.24171 0.34299 -0.11308 0.044741 -0.077289 0.35353 -0.12993 -0.27269 -0.079485 0.074854 -0.11139 -0.29414 0.10733 0.42639 0.3536 -0.10623 0.59319 -0.072857 -0.16982 -0.72578 -0.054212 0.23473 -0.40967 -0.16151 0.32824 0.0099963 -0.28517 0.028173 -0.017617 -0.35143 0.03538 -0.16789 0.35678 -0.062034 0.077762 0.15411 0.32361 0.058945 0.15509 -0.024378 -0.045314 -0.14254 -0.054521 0.15647 0.27237 0.38857 0.088191 -0.16156 0.1457 0.0045332 -0.34455 -0.11762 0.065258 0.096692 0.071643 0.046049 -0.13898 -0.60716 -0.042008 0.27211 -0.34168 0.015794 0.48276 0.20916 -0.14357 0.33882 -0.21855 -0.22905 -0.35575 0.27994 -0.034328 -0.18676 0.32347 -0.033867 0.023087 0.11065 0.419 0.28235 -0.23795 -0.0060684 0.2531 -0.49306 0.09143 -0.090954 -0.013357 0.2626 -0.084201 -0.077451 0.65787 -0.033603 0.64522 0.59895 0.034424 -0.43195 0.47225 0.16275 -0.77395 -0.28707 -0.036464 -0.51251
announcement 0.087811 -0.23343 -0.13184 0.17451 0.15856 0.021639 0.25336 -0.13181 -0.025025 -0.19154 0.17356 0.023251 -0.21158 -0.057772 0.46104 -0.022099 0.042032 -0.064617 -0.085357 0.24284 0.01493 0.40691 0.40635 -0.15788 0.31073 0.13758 -0.21465 -0.26535 -0.14656 -0.16215 0.07222 -0.29412 -0.18185 0.15326 -0.62772 -0.10921 -0.088342 -0.1704 -0.076781 -0.21394 -0.069407 0.10205 0.22058 0.11774 -0.29554 0.031799 0.11402 -0.2913 -0.14569 -0.046736 0.1421 0.11414 0.37298 -3.1094E-4 0.073085 0.18326 0.51726 -0.26363 0.061972 0.15823 0.26537 -0.10672 -0.20335 0.23476 0.17539 0.31109 -0.031159 0.032954 -0.43958 -0.18784 -0.021107 -0.51195 -0.19674 0.15378 -0.39693 -0.2379 0.31483 0.07504 0.28289 -0.16892 -0.041221 0.2216 -0.10037 0.039823 -0.16258 0.23092 0.03143 0.36508 -0.41553 0.090139 -0.4034 0.28097 0.45696 0.48259 -0.090968 0.44089 -0.27857 0.032924 -0.38415 0.2551 0.33106 -0.32534 -0.03025 0.27014 -0.27525 -0.093176 -0.019091 0.47315 -0.097069 -0.070119 -0.1627 -0.44506 -0.37062 0.037566 0.25364 -0.29403 -0.21592 0.24755 0.037929 -0.64899 0.33868 0.23792 -0.10913 0.16971 -0.20094 -0.060139 -0.25825 0.17459 -0.19067 -0.25665 -0.44667 0.035801 0.0089976 0.28072 -0.60181 0.20494 0.13161 -0.068559 -0.15832 0.18435 0.23024 -0.11669 0.096368 0.02525 0.33159 0.12905 0.11481 0.21105 0.11821 0.20847 -0.2053 -0.15766 -0.18887 -0.42853 0.068449 0.4038 0.29074 -0.21554 0.055643 0.22854 -0.58347 0.10368 -0.0090285 0.50945 -0.1021 -0.2579 -0.12599 -0.070815 -0.30538 -0.098034 0.024111 -0.014774 0.06064 -0.20209 0.2888 -0.017305 -0.16006 0.12147 0.43514 0.15859 0.003208 -0.043759 0.42351 0.17642 0.040247 0.0076928 -0.034636 -0.22004 0.059786 -0.17856 -0.018205 0.041335 0.48516 0.13281 -0.15983 0.056436 -0.19589 0.31436 0.17882 -0.13409
mile -0.0024576 -0.14971 0.36191 -0.32166 0.17497 0.07263 0.23817 0.3067 0.24583 0.29362 0.021392 -0.22391 0.14252 0.035399 0.25507 -0.040241 -0.21623 -0.14826 0.35094 0.29261 0.36371 0.09566 0.16521 0.18345 -0.3513 0.19782 -0.36495 -0.12275 -0.38395 -0.083698 0.12418 -0.67319 0.27272 -0.12609 -0.29603 -0.19826 -0.080316 -0.27856 0.0085894 0.023673 0.31886 0.27814 0.13544 0.036179 -0.27223 0.0014337 0.17599 -0.14342 -0.11569 0.070234 -0.47014 0.2143 -0.061265 0.63759 0.22849 0.09672 -0.1362 -0.21185 -0.42419 -0.41318 -0.2097 -0.42044 -0.4464 -0.028503 -0.14646 -0.24446 -0.039261 -0.030056 -0.22913 0.026433 0.18623 -0.67673 -0.56167 -0.43768 0.23609 0.46133 -0.68311 0.10092 -0.02692 0.022005 -0.16264 0.39805 -0.011725 0.28236 -0.39363 -0.53368 0.30035 0.39194 -0.17586 -0.064375 -0.15505 -0.092861 0.41143 0.26594 0.10917 -0.12225 0.017949 -0.58633 0.12127 0.025391 0.6184 0.12112 -0.3319 -0.11162 0.53004 0.070267 0.13021 0.029119 -0.078289 0.53488 -0.1908 0.14729 0.19248 -0.10985 -0.14191 -0.19122 0.14589 -0.01294 0.28302 -0.41177 -0.049317 0.28057 -0.24682 0.022876 -0.26358 -0.086634 -0.1265 0.28397 -0.2557 0.10109 -0.3195 0.31356 0.24183 0.15917 -0.016499 -0.63935 0.19615 -0.72583 -0.49019 -0.0243 -0.37573 -0.5162 -0.17859 0.29882 -0.18095 0.18307 -0.75039 -0.40518 -0.055127 -0.34732 -0.44617 -0.64652 0.083652 -0.20572 0.32443 -0.090238 -0.1528 -0.16036 0.51373 0.014027 0.0025278 -0.18173 0.18005 0.057495 0.46806 0.28067 -0.26554 0.25612 0.015505 0.13311 -0.21308 0.19998 -0.11574 -0.017999 0.27263 0.32994 -0.12807 0.10454 -0.066766 -0.29781 -0.085823 -0.098865 0.58693 0.38891 0.091265 -0.28401 -0.30943 -0.090907 -0.079279 -0.0054821 0.60141 0.38821 0.34459 -0.47651 0.053628 0.31462 -0.15505 0.30561 -0.1931 0.27738
airport 0.21289 0.027428 0.39701 -0.32537 -0.24384 -0.40416 0.023698 -0.83965 -0.3895 0.24996 0.077436 -0.0034554 0.09947 0.1581 0.10929 0.26685 0.10511 -0.31744 -0.19317 0.83619 0.15347 0.096584 -0.15376 -0.75674 0.11502 -0.12144 0.20796 -0.15035 -0.22153 0.28568 0.028079 -0.23976 -0.1259 -0.014128 -0.26761 0.2333 -0.1368 -0.39584 -0.14198 -0.23224 -0.026627 0.037516 0.31972 -0.15618 -0.10354 0.24749 -0.012803 0.013237 -0.53869 0.011803 0.013007 -0.2024 -0.084068 0.013594 0.28553 0.010231 0.68453 -0.17163 -0.33189 -0.19791 0.010113 -0.0867 -0.14881 -0.44326 0.49077 -0.15489 -0.5492 -0.10582 0.029434 -0.16693 0.21293 -0.12123 -0.50567 -0.40815 0.16422 0.11349 -0.32098 0.036987 0.061974 0.15932 0.090187 -0.046662 0.58714 -0.010584 -0.7273 -0.040704 0.31455 0.45671 -0.72047 -0.32678 0.46312 -0.53702 0.28698 0.12875 -0.2629 0.21018 0.11413 0.24658 -0.061765 0.34976 0.20899 -0.015942 -0.12597 0.19902 -0.19694 -0.1726 0.022821 0.43412 -0.21709 -0.31384 -0.086945 0.029652 -0.081431 0.11293 0.11305 -0.15258 0.2281 -0.33639 0.21234 -0.42065 -0.31824 0.42801 -0.3826 0.29476 -0.098303 0.12398 -0.15733 -0.17953 -0.20532 0.023311 -0.30913 0.35083 0.17576 -0.13794 0.32095 -0.091518 0.24771 -0.1391 -0.23216 -0.12046 -0.21881 0.16554 0.027782 -0.14218 0.091843 -0.34449 -0.040706 -0.14957 -0.17508 0.3143 0.075051 -0.28053 -0.11213 0.063918 0.78188 0.23621 -0.10199 0.12891 -0.088907 -0.21851 -0.16509 0.30308 0.28935 0.33483 0.24529 0.047948 -0.14331 -0.37305 0.22023 0.12875 -0.028392 0.28227 0.42545 -0.010614 0.088626 0.43364 0.062892 -0.068428 -0.065713 -0.19464 0.3763 -0.085686 0.062538 -0.0041177 -0.15766 -0.14311 0.032868 -0.34268 -0.0065019 0.50433 0.45451 0.86505 0.41049 0.050632 0.19196 0.068525 -0.07111 0.43591 -0.2794 -0.03774
population 0.25242 0.50451 -0.071958 -0.495 0.30412 0.24767 -0.19794 0.21628 0.26251 0.59105 0.039422 -0.17043 -0.017485 0.051342 0.22619 -0.43134 0.038643 -0.24796 -0.031415 -0.23707 -0.36348 -0.20289 0.34501 0.12682 -0.58757 -0.15945 0.11501 -0.14547 -0.062576 0.20108 -0.13587 -0.099893 0.40039 0.63178 0.13617 -0.37391 -0.042588 -0.59218 0.099348 -0.074843 -0.39002 -0.039454 0.059926 -0.059419 -0.010828 -0.39777 -0.011515 -0.0056585 -0.16162 0.13678 -0.33394 0.2647 0.118 -0.13849 0.31505 0.13672 0.1683 0.37336 0.21681 0.0025641 0.40095 0.013797 -0.25494 -0.062835 -0.10601 0.20849 -0.21928 -0.29654 0.27542 0.41876 0.23024 -0.70952 -0.28892 -0.045451 -0.042889 0.31218 -0.19946 -0.012389 0.026967 -0.10786 -0.2688 0.36116 0.14415 0.24344 -0.5213 0.018001 -0.2359 0.22001 -0.13323 0.033815 0.19839 0.32183 0.072688 0.088135 -0.089047 -0.40908 -0.12667 -0.52826 -0.42968 0.051748 0.15658 0.12526 -0.32402 -0.54742 0.14731 -0.17419 0.35081 0.024434 0.30119 -0.11406 0.014757 -0.14676 0.10041 0.20407 0.073125 0.2694 0.45786 0.1002 -0.14563 -0.231 -0.17477 0.46478 -0.11657 -0.22779 -0.02555 0.17803 -0.22853 -0.1208 -0.17586 0.18134 -0.30037 0.2111 -0.21217 -0.20866 -0.098802 -0.47438 0.20146 0.07429 0.043106 0.6155 0.34876 0.31639 0.056933 -0.1185 0.33669 0.39483 0.40309 -0.25889 0.15199 0.12858 0.36693 0.14619 0.10217 -0.14912 0.059444 -0.10801 -0.00392 -0.1461 -0.13209 -0.32567 -0.30686 0.026128 0.53522 0.39245 0.22211 0.27006 0.16333 -0.45181 0.11384 -0.18514 0.10255 -0.14183 0.49257 0.26012 -0.13655 0.10195 -0.19329 -0.0081397 -0.082293 0.072711 0.2149 0.084603 0.39185 0.18731 0.027084 -0.037332 -0.022259 0.13196 -0.19387 -0.46326 0.79446 0.49406 -0.02529 -0.33106 -0.27063 0.40955 0.19344 0.13063 -0.63835 0.21368
planning -0.11656 0.0074419 0.14254 0.47228 0.087266 -0.095898 0.22732 -0.25505 0.029041 0.06358 0.24146 0.020945 0.076223 -0.13664 0.079572 -0.0011178 -0.18947 -0.32475 0.34678 0.28483 -0.34048 0.23372 0.16556 0.024559 -0.092371 -0.078042 -0.13458 0.048474 -0.34532 0.25403 0.21471 0.3288 -0.43259 0.12416 -0.19431 -0.07685 0.19483 -0.012878 -0.1961 0.16459 -0.060049 0.24878 0.27568 0.20633 -0.17651 -0.081252 0.47103 -0.43626 -0.032409 -0.18818 0.1019 0.043292 0.37129 -0.076208 0.13379 0.15541 0.19693 0.55061 0.2712 -0.079907 -0.03798 -0.3195 0.13229 -0.15916 0.044034 0.28074 -0.064277 0.015356 -0.023508 0.046067 -0.23046 -0.0082035 -0.17509 -0.023081 -0.11412 -0.18121 -0.22693 0.33852 -0.37724 0.059544 -0.20846 0.54923 0.53135 -0.408 0.17648 0.31859 0.09223 0.027999 -0.10656 -0.20043 -0.057372 -0.25745 -0.021845 0.23005 -0.30149 -0.012956 -0.43406 -0.0094213 -0.50064 -0.033263 0.22267 0.037042 -0.18593 0.37258 -0.42639 0.21589 0.21761 0.17947 0.0040172 0.03279 -0.14275 -0.2271 -0.38151 0.074417 0.37134 -0.070878 0.14831 0.012152 0.077143 -0.30968 -0.025068 0.14176 -0.20931 -0.094866 0.096337 0.044318 -0.089631 -0.10199 -0.09963 -0.30563 -0.0023242 0.39244 -0.13769 -0.10156 0.072642 0.081483 0.013023 -0.16028 -0.2213 -0.081852 -0.33613 0.69566 0.14715 -0.0086851 -0.017515 0.44916 -0.090974 0.046556 -0.034282 0.063881 -0.026185 0.17878 -0.31403 -0.033768 0.20769 -0.25421 -0.14624 0.1854 0.27847 0.30622 -0.085983 0.017207 0.55151 0.32175 -0.052887 -0.033179 -0.27481 0.034043 -0.077303 -0.02703 -0.10814 -0.22947 0.059599 -0.42968 0.52822 -0.0052146 -0.056229 -0.27345 0.1483 -0.067898 -0.19626 -0.16529 0.060266 0.079561 -0.060297 0.071973 -0.077871 0.015407 0.23902 0.25077 0.20187 0.28125 -0.022939 -0.069858 -0.12041 0.44077 -0.18198 0.030602 -0.17086 0.1359
canyon 0.16731 -0.10644 -0.053016 -0.3131 0.23864 -0.039316 -0.0030935 -0.067318 0.3193 0.32411 -0.056095 0.077175 -0.22729 0.079403 0.21906 0.089946 0.37111 -0.01731 -0.34928 0.18338 0.018055 0.029671 0.24107 -0.16384 -0.40268 0.21144 0.041046 0.0065543 -0.55074 -0.11404 -0.076316 -0.28525 -0.10717 0.16048 -0.17494 -0.47464 0.2121 -0.22739 -0.090818 -0.11375 -0.084539 0.095007 0.65003 -0.22393 0.0092134 -0.47661 0.34971 -0.01121 -0.14372 0.26552 -0.28299 0.2758 -0.08846 -0.14195 0.5987 0.36902 -0.036459 -0.34093 -0.29519 0.22746 0.2122 -0.08574 -0.029072 -0.43078 0.1648 -0.040175 0.10478 -0.2835 -0.28402 -0.23399 0.66301 -0.058261 -0.51603 -0.14551 0.45035 -0.16349 -0.59515 0.62662 0.037831 0.51009 0.052697 0.83784 -0.24052 -0.10573 -0.13377 -0.083041 0.39232 0.53995 0.093862 0.042652 0.019509 -0.10096 -0.060428 -0.039146 -0.15853 0.042536 0.30506 -0.80106 0.46035 0.010379 0.088771 0.33139 -0.60609 -0.26083 0.091264 0.28264 0.22565 0.028218 -0.24096 0.063693 0.31593 -0.52896 -0.051957 0.044888 -0.39132 -0.66791 0.054751 -0.14416 -0.054401 -0.19985 0.22271 0.14779 0.29282 -0.077497 -0.28581 -0.0011817 0.042547 0.29605 0.36056 0.61802 0.14742 0.31631 0.13374 -0.0054098 0.43646 0.19923 0.022921 -0.36813 -0.20836 0.046041 0.16791 -0.085345 -0.096439 -0.24534 -0.26582 -0.065879 -0.65076 0.43282 -0.0071183 0.23353 -0.096617 -0.16724 0.33696 -0.41528 0.11289 -0.030469 -0.24989 -0.35856 0.049077 -0.21735 0.13412 0.073713 0.13559 0.25845 0.34694 0.93363 -0.62847 -0.061724 0.33658 0.38372 -0.19922 0.092482 0.62738 0.18797 0.41668 0.3933 -0.028679 -0.19007 -0.44389 -0.6703 0.25984 0.44866 0.55585 0.42213 0.16765 -0.067047 -0.22375 -0.24813 0.12239 0.11887 0.33791 -0.088004 0.12488 -0.48295 -0.4098 -0.22404 -0.56671 -0.05697 -0.33634 0.042051
delay -0.098515 -0.11991 -0.024826 0.2382 0.1259 -0.22583 0.59378 -0.18468 -0.1035 -0.083971 0.076071 0.43996 -0.033921 -0.25581 -0.096947 0.28358 0.12078 -0.12008 0.2239 0.43204 0.012686 0.40472 -0.036898 -0.12438 -0.05764 0.45909 -0.12353 -0.30074 -0.27139 0.050451 0.39698 -0.32029 0.10183 -0.090862 -0.68943 0.16352 -0.1485 -0.033041 -0.127 -0.048611 -0.044519 0.18447 0.041288 -0.1384 -0.51164 0.11343 0.5656 0.12581 -0.4317 -0.2621 -0.17107 -0.24853 0.033131 0.13551 0.33534 -0.16795 0.092667 -0.33035 0.059998 0.081055 0.41509 -0.079326 -0.071943 -0.14092 0.41733 -0.019737 -0.32559 0.19258 -0.23194 -0.33558 -0.31325 -0.098679 -0.32961 0.075888 -0.12894 -0.33095 -0.14005 -0.13059 -0.19599 -0.20004 -0.33018 0.22687 0.20084 -0.29543 0.1529 -0.038054 0.090509 0.24335 -0.15073 -0.025761 0.052553 0.37419 0.092175 -0.2238 0.15516 0.11902 -0.068162 -0.20195 -0.78897 0.16671 -0.023235 -0.14406 0.11847 0.13342 0.053211 -0.60693 -0.23845 0.11619 0.012307 -0.067808 -0.19223 -0.6423 -0.31314 -0.077559 0.42543 0.26557 0.51837 0.0080281 0.0080591 -0.054922 -0.034652 0.237 -0.30613 0.27756 -0.10882 0.015671 -0.0361 -0.29346 -0.42976 -0.24462 -0.072137 0.43755 -0.1288 0.1492 0.069077 0.013395 -0.029426 -0.056724 -0.02975 0.10887 0.40971 0.061588 -0.19987 -0.51087 -0.11171 0.20584 0.20565 0.039772 0.036425 0.015498 0.018751 0.14979 -0.03779 0.055835 -0.074313 0.15166 0.061567 -0.35622 0.18942 0.14489 -0.36643 0.27105 -0.035617 0.30768 -0.31344 0.072694 -0.29539 -0.36094 -0.40318 -1.7924E-4 -0.10532 -0.13398 0.038616 -0.17661 0.55894 0.18994 0.12241 -0.21477 0.21262 -0.067879 0.06316 0.26146 0.25332 0.12803 -0.081052 0.48564 -0.040666 0.16208 0.17017 0.11693 -0.084798 0.18156 -0.12376 -0.048344 -0.081575 -0.030079 0.057279 0.20115 -0.34665 -0.052641
size -0.089363 -0.021779 -0.085743 0.061474 0.38071 0.39517 0.045982 0.038997 0.095909 0.015614 0.089636 -0.11879 -0.37841 -0.13678 0.010076 -0.14431 -0.0015103 -0.20931 0.39022 0.15126 -0.098527 -0.14699 0.085453 0.37985 -0.51447 -0.093333 0.21284 -0.31196 0.039519 -0.072904 -0.22581 -0.40733 0.16689 0.43823 0.029301 -0.050241 0.099703 -0.15273 0.0094687 -0.1246 0.064451 -0.42525 0.29673 -0.1693 -0.03286 -0.10978 0.13046 0.16772 -0.23624 -0.44197 -0.25513 0.34827 0.001448 -0.061573 -0.091223 -0.039852 0.40223 0.42075 -0.085499 -0.16667 0.16293 0.2636 -0.30754 0.24289 0.44183 6.0007E-4 -0.19558 -0.34921 0.24783 0.04554 0.31575 -0.19326 0.21558 -0.17411 -0.17767 0.14536 0.1285 -0.051962 0.020664 0.097 0.031596 0.3476 -0.11535 -0.023345 -0.21164 0.20024 -0.11341 0.11222 -0.27028 -0.25175 -0.11352 0.075323 -0.11891 -0.023219 -0.33515 0.13676 0.19281 -0.50786 -0.24549 0.028079 0.26436 0.19573 -0.20443 -0.46364 0.082493 0.32848 0.19297 -0.06718 -0.20441 -0.02339 0.2462 -0.48624 0.19017 0.58359 0.17128 0.30357 0.063603 -0.13288 -0.25437 0.17096 0.12331 0.77716 -0.083175 -0.0047756 -0.38379 0.34247 -0.0062424 -0.45364 -0.12663 0.09505 -0.16291 0.35733 0.45271 0.1555 -0.12996 -0.11036 0.42602 -0.12492 0.26224 0.28194 0.091036 0.12457 -0.10999 -0.19342 0.25263 -0.041492 -0.11988 -0.40388 0.036175 -0.22573 0.17102 0.2445 0.066337 -0.0045713 0.43771 0.29808 0.13993 -0.36913 0.46945 0.25364 -0.09901 0.069203 0.10599 0.50115 0.16437 -0.063246 0.043063 0.066516 -0.14766 0.29762 0.047123 0.090747 0.21266 -0.0046271 -0.010506 0.32696 -0.10913 -0.18089 -0.39393 0.13711 0.0663 -0.43498 0.41643 0.37161 -0.30841 -0.0055346 0.33151 0.31399 0.021224 -0.083157 0.1674 0.2431 0.5197 -0.30053 0.26021 0.25389 -0.039379 0.1947 -0.1556 0.32667
peace 0.33062 -0.15323 0.37488 -0.60157 0.39383 -0.59216 0.21799 -0.11694 0.53403 0.73342 0.001348 0.10255 0.47241 -0.29854 0.25317 -0.11966 0.50274 0.023705 -0.19458 0.23688 0.096548 0.2713 0.65608 0.22928 0.25708 0.15732 0.49723 -0.29098 -0.21287 0.075151 -0.063241 -0.1875 0.51783 -0.034221 -0.46262 -0.0407 0.045576 -0.1491 -0.22543 0.050089 0.024254 0.48379 -0.4042 -0.54942 0.43842 -0.12089 0.04471 -0.086167 -0.40167 -0.14474 -0.043702 0.53877 0.30064 -0.11259 0.18808 -0.23684 0.41647 -0.23877 0.33377 -0.38387 -0.23753 -0.18131 0.080781 -0.25891 0.015343 -0.058876 0.051822 -0.53394 -0.059444 -0.31262 0.33216 -0.043461 0.25788 -0.31631 -0.25866 0.28469 -0.18978 -0.065426 0.35979 0.38265 0.47446 0.32793 -0.21621 -0.54 0.11119 0.080066 0.40988 0.17926 -0.23247 -0.054422 0.017302 0.69731 0.067246 0.046729 0.11929 -0.26096 -0.2122 -0.12455 -0.17167 0.081699 -0.49998 -0.60246 -0.10889 0.17001 0.36525 -0.072501 -0.41469 -0.13324 -0.19336 -0.21122 -0.23203 -0.42824 -0.28387 -0.39083 0.37802 -0.3656 0.30026 0.25117 -0.14677 0.25773 -0.17507 0.0096073 -0.79686 0.22766 -0.35963 -0.30216 -0.0075284 0.32037 -0.070582 -0.23057 -0.17982 -0.078099 -0.011485 0.30139 0.28166 0.36869 0.01407 0.013746 0.19557 0.097265 -0.056722 -0.042094 -0.24193 -0.10191 -0.21454 -0.14832 -0.22313 0.25885 -0.08747 0.54557 -0.0707 0.30257 0.1377 -0.17745 0.077742 0.28157 -0.34478 0.34324 0.43941 -0.47741 -0.23069 -0.20876 0.77116 0.50437 -0.058325 0.10578 -0.47885 -0.32536 0.069606 -0.3501 -0.12123 0.23419 0.09823 -0.14236 0.31886 -0.17578 -0.14453 0.17577 0.4585 -0.088236 0.12155 -0.50694 0.63295 -0.79809 -0.25464 0.29415 -0.17915 -0.195 0.30627 -0.19723 0.41903 0.28705 0.15446 0.30547 -0.25832 0.76715 -0.44349 0.33656 -0.28821 0.2108
science -0.54315 0.074291 -0.2869 -0.13306 0.12383 -0.49479 0.095871 0.059375 -0.18608 0.01655 -0.083302 0.26225 -0.029398 -0.56597 0.088152 -0.28708 0.22568 -0.49198 -0.32512 0.16813 0.26285 0.051026 0.1712 -0.26388 0.15411 -0.10837 0.35265 0.35412 -0.11083 -0.19017 -0.43508 -0.40941 0.30361 0.12426 -0.40309 -0.0036485 0.28052 -0.58368 -0.54191 0.16443 0.32596 0.22356 -0.14868 -0.29278 0.46963 -0.59632 0.17423 -0.27916 0.46055 -0.15617 -0.21922 -0.089202 0.40894 0.034615 0.25055 0.046984 0.25738 0.414 0.11293 0.24323 0.1644 -0.19067 0.37306 -0.18914 0.097411 -0.13055 -0.039042 -0.21077 0.077817 -0.24578 0.01504 -0.11872 0.2043 0.056681 -0.27677 0.35007 0.0049392 -0.19447 0.02314 -0.39397 -0.21294 0.40815 0.11802 -0.053454 -0.0019986 0.021304 0.52287 0.23745 -0.10238 0.25271 -0.21927 0.45273 -0.048441 0.18531 -0.2631 -0.0093528 0.027698 -0.21964 0.040842 -0.40657 -0.2088 0.24136 -0.35013 0.46505 0.1854 0.45947 0.13551 -0.18083 -0.39378 -0.47448 0.035265 -0.52714 0.2065 0.01631 0.4043 -0.020852 0.31775 -0.30669 -0.23729 -0.19839 -0.1145 0.18229 -0.10113 0.041955 0.58617 0.12027 -0.12806 -0.25503 -0.43024 -0.0011869 -0.1024 0.32569 0.11146 0.079894 0.20068 0.24521 0.059873 0.16228 -0.50076 0.45077 0.085515 0.2779 0.35674 -0.12457 0.10437 0.045443 0.41348 0.15226 -0.30046 0.042236 0.029889 0.059683 -0.086936 -0.090555 0.14107 -0.1489 -0.43642 -0.04088 0.63397 -0.094808 0.39834 -0.032043 -0.0069085 0.3311 -0.094192 0.12844 -0.094623 0.16577 -0.42954 -0.09814 -0.12407 -0.079389 0.26009 0.21418 0.17023 -0.11921 -0.14898 0.10001 0.072278 -0.36702 0.48214 0.10655 0.048831 -0.33297 -0.09749 -0.27986 -0.12678 0.16277 0.11189 -0.082126 0.43235 0.024124 0.26947 -0.43327 0.34052 -0.078101 -0.22844 -0.14648 -0.25641 -0.47297
dawn -0.18682 -0.3426 0.41362 -0.55493 -0.035935 -0.066765 0.24552 -0.31168 0.052918 0.47584 0.12938 -0.29682 -0.19004 0.026625 0.23173 -0.086123 0.43311 -0.018217 -0.55647 0.051039 0.51439 0.28492 0.48269 -0.12197 0.24912 0.28124 -0.018195 -0.23461 -0.37647 -0.22663 0.13759 -0.18236 0.13558 -0.25388 -0.38209 -0.19492 -0.1474 -0.10237 0.03134 -0.16072 -0.37894 0.090784 0.41699 0.026936 -0.099062 0.17887 0.22211 -0.22495 -0.075706 0.18415 -0.096599 -0.24525 0.18333 -0.21949 0.31206 -0.19666 0.18769 -0.20807 0.20376 -0.31386 0.39227 -0.17598 0.017667 -0.25214 -0.056881 -0.082289 -0.19441 -0.21215 -0.11971 -0.23324 0.30892 -0.44461 -0.18103 -0.25163 -0.30923 -0.23116 -0.2429 0.28567 0.060021 0.11747 -0.064654 0.11262 -0.12656 -0.14023 0.0096503 -0.098431 -0.15368 0.13618 -0.4497 -0.13102 -0.2273 0.010573 -0.20441 0.11267 0.16973 0.31752 -0.23619 -0.1515 0.14445 -0.18277 -0.1854 -0.09918 -0.30951 -0.4706 0.29815 0.071462 0.43698 0.1252 -0.19335 -0.18921 -0.19682 -0.40971 0.071154 0.0028427 -0.11079 -0.66185 0.055284 -0.06998 0.25626 -0.28456 -0.31589 0.44803 -0.25372 0.067433 0.17892 -0.20908 -0.33507 0.010296 -0.18104 -0.012497 0.052567 0.47725 -0.16464 -0.090618 0.18948 -0.036731 0.26565 -0.58626 -0.64155 0.25424 -0.02458 -0.035903 -0.044868 -0.071146 0.33232 -0.083694 -0.33002 0.20011 0.025571 0.11761 -0.18618 -0.22774 -0.26553 0.24555 0.25692 0.2669 -0.078695 -0.16452 -0.088427 -0.35951 0.074369 -0.032547 0.1739 0.55451 0.57138 0.091905 -0.53801 -0.011478 -0.31151 0.0016229 -0.47056 -0.034663 -0.068114 0.040357 -0.13602 -0.064925 0.22941 0.16204 -0.014037 0.029173 0.26199 -0.52345 0.066953 0.18266 0.061096 -0.020699 -0.20052 -0.09223 0.079325 0.21399 0.1487 -0.38464 -0.17084 -0.093728 -0.16874 0.089998 -0.31084 -0.041128 0.30315 0.13479
brother -0.19179 0.043556 -0.098121 -0.1625 0.0534 -0.30581 0.079451 -0.49385 0.29134 0.12619 0.32285 -0.0054803 -0.090349 -0.10891 0.066282 0.19287 0.30432 -0.40532 0.044946 0.13701 0.21567 0.21317 0.19222 0.12291 -0.18091 -0.73514 0.081529 -0.40045 0.26226 -0.09063 -0.096947 -0.31759 -0.023683 -0.30999 0.070845 0.0062291 0.2384 0.22627 0.085076 0.0076208 0.091272 0.21658 -0.12589 0.22979 -0.60944 -0.18554 0.14938 -0.36817 0.02941 -0.070777 0.035713 -0.092108 0.52392 0.04001 -0.18897 0.38621 0.16322 0.28158 0.35546 0.083423 0.3855 0.099041 -0.61032 -0.035946 0.012346 0.10188 0.1351 -0.0091645 -0.16269 -0.012794 0.030964 -0.34514 -0.0047052 -0.54622 -0.28442 -0.23433 -0.21682 -0.020346 0.25826 0.084097 0.19041 0.57884 -0.2602 0.2103 -0.079925 -0.12043 0.34952 -0.18592 -0.24686 -0.069143 0.20256 -0.36454 0.039402 -0.30957 0.016293 -0.32724 -0.5568 -0.38986 0.21945 0.67566 -0.12028 -0.37921 -0.045677 0.26971 0.089092 -0.063481 0.10945 -0.016447 -0.56499 0.10227 0.10806 -0.058038 -0.16092 0.42749 -0.012575 -0.47949 -0.075104 0.16248 0.013993 0.14191 0.073143 -0.012765 -0.015886 0.29762 0.23645 -0.29271 -0.27086 -0.13262 -0.22578 -0.25927 -0.048303 0.40205 -0.17702 0.22504 -0.22101 0.061446 -0.23971 -0.32193 -0.25921 -0.514 0.23403 0.16134 0.067966 -0.029974 0.13494 -0.13853 0.33746 -0.053482 -0.021752 0.55883 0.39719 0.3195 -0.16829 -0.13368 0.131 0.084508 0.048643 -0.014856 0.013809 -0.062162 -0.031865 0.16283 -0.14486 0.17039 0.088926 -0.13811 0.037432 0.074198 -0.15239 0.25265 -0.02 -0.16858 0.037462 -0.11319 -0.036007 0.13821 0.50193 0.33416 0.43122 -0.52422 -0.027241 -0.46485 0.48415 0.47554 -0.42519 0.21624 0.36192 -0.15113 0.0087558 -0.15926 0.37297 0.33122 -0.039881 -0.27442 -0.4692 -0.55926 0.16812 0.32195 -0.27342 0.41525
wine 0.20256 -0.11104 -0.096611 0.08586 -0.050627 0.11961 -0.15187 0.32383 -0.2569 0.23049 0.31935 0.35479 -0.60934 0.10887 0.14419 0.26431 0.17615 -0.56153 -0.16473 0.53591 0.42904 -0.42549 0.26365 0.040908 -0.26146 -0.11386 -0.0018914 -0.18038 -0.069695 0.0042757 0.019211 0.12043 -0.18872 -0.24486 -0.093856 -0.43895 0.045752 0.43095 -0.11279 0.037891 0.080038 -0.032615 -0.52376 -0.26272 0.020677 -0.64748 0.64531 -0.083284 0.058458 -0.48458 -0.52665 0.085263 -0.039593 -0.086893 -0.12826 -0.12166 -0.28721 0.011929 0.46594 -0.21969 -0.14713 0.3294 -0.19801 -0.18186 0.25592 -0.38624 0.023511 -0.45829 0.01127 -0.018178 0.091068 -0.058576 0.26594 -0.39351 0.011574 0.10529 -0.28447 0.52959 0.42615 -0.035921 -0.03387 0.28815 -0.33565 0.020713 -0.26023 0.040299 0.29488 0.057641 0.054613 -0.10796 0.59052 -0.17562 0.29275 0.42262 0.12958 0.30895 -0.34928 -0.010135 0.093416 -0.17343 0.26682 0.39233 -0.75216 -0.21564 -0.25768 0.17607 -0.025112 0.21115 -0.52657 0.18328 0.27469 -0.47687 0.019695 0.068393 0.18798 -0.30593 0.13907 0.23451 0.028905 -0.20566 -0.10157 0.053208 -0.28539 -0.36323 0.39715 0.408 0.28275 0.10148 0.16169 0.07944 0.22223 0.21845 0.2242 -0.26039 0.35141 0.25346 -0.11218 -0.030694 0.24465 -0.12024 -0.24802 0.18407 0.027877 -0.16922 0.3008 0.32275 -0.22725 -0.096611 0.10387 0.20961 -0.066657 -0.016891 0.19096 0.12205 0.19482 -0.11674 -0.61974 -0.45079 -0.19785 -0.11181 -0.38292 0.084734 0.34993 0.13196 -0.21957 0.54224 -0.37025 -0.29079 -0.60789 -0.15796 -0.2554 0.20341 -0.4812 0.57216 -0.25235 0.3105 -0.089261 0.10245 -0.37251 0.080817 -0.083205 0.23546 -0.031189 -0.08639 -0.83373 0.044333 -0.29332 -0.21471 0.33537 -0.37869 0.59751 0.39267 0.09722 0.046646 0.03719 0.19486 -0.24402 0.12261 -0.20698 0.32608
object 0.20543 0.22806 -0.18863 0.18578 0.37631 -0.41156 0.27011 0.0058435 -0.063156 0.11839 0.15276 0.24006 -0.24548 0.085218 0.088393 0.030915 0.16387 -0.093153 0.23808 0.15052 0.12387 -0.34279 -0.12351 0.10271 -0.18264 -0.049213 -0.023927 0.014722 -0.44024 -0.35711 -0.07285 -0.18714 0.1239 -0.05803 -0.57339 0.10484 0.2068 -0.31214 -0.11461 0.073802 0.2326 -0.24306 0.069388 -0.14254 -0.092011 -0.16001 0.22484 -0.27569 -0.22999 -0.053867 0.10965 0.075137 -0.11087 0.010991 0.20939 0.017893 0.10859 -0.21754 -0.34891 0.039211 -0.045688 -0.34281 -0.022308 0.1113 0.50103 0.14136 -0.063434 -0.17254 0.56301 -0.39105 0.089497 0.025403 0.28517 -0.25653 -0.04669 -0.01664 -0.13056 0.12341 0.33044 -0.10915 0.072845 0.58082 0.093311 -0.13001 0.20053 0.10796 0.43066 0.29969 -0.095357 0.046941 -0.1675 0.11324 -0.15991 -0.42984 -0.18475 0.2125 -0.21198 -0.5428 0.19088 0.37542 0.0057251 -0.10178 -0.1517 0.12599 0.18562 0.30741 0.30935 -0.086259 0.038711 -0.013279 0.015999 -0.10622 0.049698 0.46264 0.003648 0.16086 0.38057 0.045694 -0.17041 -0.20177 -0.061302 0.4677 -0.22413 -0.0072611 0.10468 0.16996 0.094597 0.17162 -0.19236 0.035386 -0.061524 0.10142 -0.10294 0.16674 -0.038433 -0.22342 -0.066652 -0.11756 -0.082662 0.27715 -0.096916 -0.085627 -0.14617 -0.36081 0.11508 0.080664 -0.23261 0.064232 0.10832 0.065094 0.26818 -0.071292 -0.050071 0.28863 0.075123 0.057668 -0.24917 -0.22193 -0.064157 -0.29846 -0.0088457 0.46117 -0.033309 0.12297 0.22067 0.29714 -0.27193 -0.018043 -0.20918 0.24088 0.035555 -0.23799 0.41298 -0.3959 -0.09492 -0.18039 0.028143 -0.11748 -0.20558 -0.28321 0.4609 0.16648 0.4847 0.011819 -0.28668 0.13796 -0.35012 0.18763 0.10471 -0.25941 0.16638 -0.030103 0.32319 -0.097161 -0.2281 -0.062647 -0.080039 -0.17444 0.085158 -0.1288
attitude -0.20208 0.087458 0.057361 0.054079 0.50066 -0.33553 -0.1603 -0.46714 -0.067472 0.074782 0.33641 -0.04294 -0.36809 0.23387 -0.12531 -0.061364 0.43147 0.069298 0.2169 0.39191 -0.221 -0.56466 0.19945 0.061294 0.45893 -0.18313 0.017661 -0.18762 -0.0044129 -0.24595 0.057047 -0.12523 0.12768 0.13391 -0.019494 0.126 0.25813 -0.34057 0.071003 -0.15454 -0.025022 0.24237 -0.35879 0.1761 0.27043 0.19508 0.22898 -0.30023 -0.2825 0.079042 -0.36748 0.11353 0.1187 0.18723 0.42614 0.38188 -0.025179 0.15646 0.055116 0.59843 -0.25927 0.028955 -0.096977 0.10671 0.09358 -0.081255 0.048624 -0.22471 0.36157 0.20031 -0.1419 -0.041212 -0.16783 -0.13361 -0.46837 0.017488 0.45785 0.1381 0.29767 -0.19938 0.27582 0.072356 -0.32403 -0.41975 0.064123 -0.15273 -0.15246 0.22958 -0.49819 0.020161 -0.082786 0.25057 0.015286 -0.41634 -0.10113 0.045283 -0.19344 0.079242 -0.321 0.34283 -0.071099 0.27907 -0.46429 -0.32481 -0.069525 0.011953 0.059213 -0.198 -7.4729E-4 -0.021313 0.17738 -0.25365 0.17292 0.2118 -0.13386 -0.13195 0.10788 -0.10072 0.13848 -0.46885 0.29553 0.47323 0.099859 -0.018779 0.2795 0.043715 0.27419 0.0045535 -0.24311 -0.25446 -0.13951 -0.043339 -0.24968 0.40069 0.1234 0.021916 -0.28999 0.032673 -0.13523 -0.16887 -0.12768 0.13584 -0.20198 -0.20651 -0.19876 0.18466 0.15699 -0.099986 -0.03074 0.15029 -0.11292 0.10476 0.1943 0.14255 0.59179 0.084094 -0.1803 -0.040444 0.024532 0.24669 -0.11579 0.072407 0.20291 0.69002 0.22109 -0.29253 -0.16278 -0.072093 -0.34449 0.019311 0.017734 -0.205 0.28651 0.41992 -0.28808 -0.2608 0.030568 -0.0035853 0.39588 0.047792 -0.065765 0.20384 0.12367 -0.10262 -0.2436 0.0020262 -0.32732 0.29138 0.16269 -0.21379 0.41741 0.61737 0.26455 -0.17578 -0.37647 0.21985 -0.5205 0.11899 0.23696 0.13798
treatment 0.091838 0.005005 -0.20232 -0.20451 0.47384 -0.047615 -0.15614 -0.52585 -0.1992 0.090596 -0.3036 0.18545 -0.23548 0.44964 0.09997 0.07756 0.27014 -0.0051122 0.018036 0.2731 0.069089 -0.0076486 -0.20344 -0.27959 -0.0089826 0.27305 -0.32332 -0.41403 0.086502 0.15599 -0.054499 0.1544 0.016436 0.27314 -0.11542 2.0325E-4 0.18746 0.037738 -0.19205 -0.4258 -0.24907 0.13902 -0.10553 0.023773 0.3011 -0.29519 -0.03698 -0.058658 -0.12891 0.037365 -0.26808 -0.036786 0.4972 0.074163 0.40343 -0.37364 -0.2567 0.40835 0.11843 0.022542 0.33739 0.11747 -0.57297 -0.2879 0.076883 0.11874 -0.69741 0.26253 0.2656 0.053444 -0.24699 0.022242 -0.50752 -0.28951 -0.31441 -0.26779 0.36513 -0.34863 -0.032955 -0.33818 -0.30755 0.4514 0.0018972 -0.0012161 -0.21749 0.030719 0.15672 0.24762 -0.20031 0.10665 -0.35396 0.13827 0.14699 0.076122 -0.12231 -0.37026 0.26231 -0.55452 -0.053402 -0.029353 0.018091 0.20714 -0.18562 0.038471 -0.14336 0.37193 -0.21946 0.129 -0.040316 -0.13 0.014132 0.22532 -0.051004 -0.12958 0.12116 0.22005 0.2598 -0.091152 0.41995 -0.40269 0.1991 0.20853 -0.17707 -0.15158 -0.049151 -0.18837 0.24088 -0.29436 0.27277 -0.24623 -0.2251 0.11623 -0.33096 -0.037086 0.47074 -0.069443 0.20966 -0.4732 -0.49063 0.37321 -0.032985 0.18747 -0.086934 -0.20941 0.072632 0.11903 0.36635 0.13997 0.1967 -0.074228 -0.42733 0.28495 0.30375 0.13223 0.29573 0.029584 0.31588 -0.27586 -0.084715 0.23633 -0.10487 -0.011411 0.14458 0.1193 0.043556 -0.16754 -0.28621 -0.31303 0.099975 -0.37807 -0.49034 0.1309 0.16862 -0.062701 0.062815 0.11717 0.26642 -0.10831 0.26979 -0.22579 -0.4305 0.021939 0.067893 -0.067208 -0.40282 0.27615 -0.24501 -0.1695 0.29671 -0.20893 0.1369 0.73626 -0.16626 -0.24187 -0.14029 -0.13272 -0.57685 -0.10934 -0.41669 0.18038
flight 0.0026579 -0.093382 0.6318 0.029928 0.13981 -0.31506 0.17258 -0.85736 -0.24976 0.38883 -0.23231 -0.051114 0.091827 -0.060249 -0.25584 0.51933 0.047776 -0.36606 -0.16697 0.59336 -0.15917 0.16535 0.18724 -0.40272 0.066082 0.44295 0.77695 -0.10304 -0.13233 -0.16896 -0.016535 -0.30129 0.31029 0.01821 -0.10091 0.2077 -0.07658 -0.29404 -0.15611 -0.32351 -0.0098018 0.029412 -0.1371 -0.039574 -0.18364 -0.08485 0.25461 0.088659 -0.36019 0.15988 0.056804 -0.19242 0.10273 -0.43535 0.3125 0.20576 0.56614 -0.15278 -0.59456 -0.30074 0.11393 -0.39024 -0.23865 -0.28967 0.34396 -0.15044 -0.0085031 0.32525 0.0031713 -0.38223 -0.032335 -0.065081 -0.18972 -0.32136 0.39796 -0.018529 0.0016323 0.026338 -0.20125 0.071669 -0.1484 0.12451 -0.12534 -0.19382 -1.14 0.11451 0.41054 0.25633 -0.3824 -0.11456 0.4556 -0.13247 0.3863 0.1241 -0.41171 0.12964 0.15185 0.35235 -0.16804 0.13831 0.060422 -0.090199 -0.21522 0.33766 0.050572 0.039279 0.29469 0.39051 -0.0029503 -0.22304 -0.024746 0.079886 0.17245 0.26168 0.30904 -0.0059009 0.25118 -0.10832 -0.35958 -0.65261 -0.58927 0.19775 -0.068417 0.35524 0.11694 0.004228 -0.0020606 -0.39484 -0.18812 0.2221 -0.35527 0.49539 0.028781 0.27635 0.13318 -0.22173 0.09269 -0.33027 -0.11258 0.032341 0.039392 0.030902 -0.25839 -0.22707 0.20659 -0.26413 -0.28398 0.14768 0.24883 0.11224 0.19043 0.0048998 -0.12098 0.45205 0.48165 0.15251 -0.07783 0.049784 0.069601 -0.046387 -0.12106 0.28463 0.19956 0.33968 0.02063 0.019899 -0.012675 0.019088 -0.29058 0.15175 -0.24639 -0.26741 0.21129 -0.22454 0.057444 0.0035225 0.19205 0.13345 -0.1729 -0.43497 0.24604 0.39903 0.10737 0.18826 -0.19917 -0.10951 0.27059 -0.22029 0.18387 0.65106 0.60525 0.53239 0.053466 0.073955 0.21323 -0.049099 -3.4787E-5 0.46797 -0.33551 0.18443
forest 0.40767 0.21567 0.51415 -0.13212 -0.068563 -0.025004 0.15958 -0.39106 0.22708 0.78061 0.027069 0.059846 0.084166 -0.15477 0.19038 -0.29347 0.11929 -0.14681 0.10404 -0.016191 0.034955 -0.10054 0.34526 -0.14891 -0.011258 0.28715 -0.052052 -0.085408 -0.95259 0.27386 0.091062 -0.49148 0.031212 0.36142 0.11427 -0.34737 -0.29946 -0.20063 -0.1217 -0.12994 0.1667 -0.079034 0.34339 -0.09807 0.25061 -0.63926 0.49081 0.072533 -0.0876 0.1038 0.023893 0.08577 -0.10765 -0.090374 0.31179 0.038191 0.14463 -0.073745 0.20294 0.057797 0.039434 -0.099976 -0.43019 -0.25743 -0.022498 -0.083392 -0.14016 -0.29668 0.088069 0.17788 0.314 -0.41196 -0.097414 -0.0043486 -0.13776 0.042607 -0.67808 0.23693 -0.31713 0.2801 -0.24108 0.16217 0.14952 -0.1799 -0.37645 -0.42351 0.23636 0.24303 0.22008 0.19288 0.046922 0.0011053 -0.045797 -0.17473 -0.30293 -0.34419 0.4351 -0.52016 0.037084 0.03379 0.35076 -0.096483 0.12817 0.1054 -0.027265 0.60456 0.46424 0.14313 -0.33181 -0.2988 0.15468 -0.15104 0.19353 -0.23544 0.10121 -0.3358 -0.021789 0.12271 0.030391 0.081489 0.065533 0.41263 -0.057904 -0.080116 -0.34595 0.38203 0.18455 0.35041 0.0085812 0.093684 -0.19963 0.25476 -0.025488 -0.27606 0.5171 -0.28965 0.16501 0.18268 -0.28727 0.21103 0.132 0.25921 0.024096 0.050577 -0.092806 -0.15136 -0.18101 0.14621 0.10555 0.54466 0.13612 0.12747 0.22793 -0.10768 0.061479 -0.017561 -0.49212 -0.51447 -0.029678 -0.26572 0.096799 0.21207 0.60686 0.48905 -0.037804 0.58117 -0.19856 0.16871 -0.22138 0.13122 -0.47851 -0.30937 0.33632 0.17152 0.44171 0.32119 0.099906 0.21613 -0.27119 -0.38355 0.080809 -0.025409 0.51883 0.15431 0.26784 -0.42265 0.1107 -0.70902 0.28693 -0.10763 0.51434 -0.14702 0.23662 0.076021 -0.26164 -0.14429 -0.60745 0.051076 -0.1573 -0.15785
abuse -0.014966 0.19921 -0.30498 -0.26292 0.34218 -0.034311 -0.04334 -0.004052 -0.02979 0.28755 -0.086551 0.17805 -0.42178 0.47062 -0.059508 -0.13005 0.59204 -0.2436 -0.015137 0.24619 0.048948 -0.10218 0.005124 0.081891 -0.07423 0.34464 0.20031 -0.38055 -0.18279 0.023109 -0.161 -0.52833 -0.022737 0.16617 -0.47255 0.22876 0.017703 -0.041434 -0.18729 0.19934 -0.12044 0.26468 -0.027242 -0.021881 -0.098629 -0.39178 0.04082 -0.14441 0.10291 0.1709 -0.071473 -0.062341 -0.029196 -0.11672 0.16085 -0.071854 0.61963 0.045162 0.27737 0.3059 0.27122 0.22322 -0.55969 -0.53408 0.43673 0.22619 -0.10486 0.16559 0.62502 -0.49891 0.31169 -0.039442 0.077137 0.19428 -0.19147 -0.1016 0.27395 -0.24635 -0.23489 0.13551 0.21665 0.11818 -0.059465 0.19861 0.197 0.36377 -0.022111 0.25661 0.32747 0.45358 0.3676 -0.20848 0.057679 -0.28222 0.09771 -0.37821 0.049291 -0.20849 -0.24778 0.23489 0.2163 -0.57174 0.26861 -0.24709 -0.015792 0.16629 0.038637 0.0046474 0.12596 0.23512 -0.059638 -0.31597 -0.25077 0.18524 -0.22298 -0.1865 0.56403 -0.062051 0.7076 0.097811 0.047865 0.15507 -0.069237 0.41208 0.19588 0.080444 0.16358 0.4907 -0.16782 -0.29526 -0.075129 0.34971 -0.49073 0.12936 0.33528 -0.14148 -0.26068 -0.80954 -0.49344 0.412 0.074886 -0.023378 -0.20289 0.20823 -0.3288 0.33155 0.45002 0.016767 -0.26862 0.24946 -0.3132 0.41758 0.48001 0.2705 0.17231 -0.19573 0.20179 0.083091 -0.38804 0.19613 0.13621 0.36182 0.10223 0.1725 0.29945 -0.20517 -0.39398 0.26828 0.029908 -0.26848 -0.40735 0.1954 -0.076568 0.006708 -0.26133 -0.35169 0.19463 -0.2213 0.023862 -0.47656 -0.058516 -0.32708 -0.16858 -0.030995 -0.053594 0.10962 -0.051336 0.28281 0.073106 -0.82349 -0.075577 0.90776 0.14523 5.8578E-4 -0.13412 0.37277 -0.3031 0.33427 -0.43712 0.077145
criterion -0.059015 0.52881 0.047845 0.18747 0.47863 -0.10054 -0.18438 0.11685 -0.14776 -0.12808 -0.29567 0.3064 -0.18015 -0.028783 0.091572 -0.18786 -0.25051 -0.33219 0.18055 0.12862 -0.39094 -0.15225 -0.18472 0.11787 -0.2021 -0.001779 0.23 -0.20319 -0.38706 0.31474 -0.05586 -0.16817 0.62749 -0.042761 -0.43299 -0.052686 0.11974 -0.14669 0.0050158 0.043847 -0.20221 -0.28249 0.036772 -0.33164 -0.0023098 -0.040192 0.382 -0.38126 -0.16924 -0.72557 -0.45894 0.37471 0.28754 -0.015035 0.12491 0.070837 0.22388 0.20186 0.042822 -0.20407 -0.21971 -0.063339 0.12477 -0.35932 0.18958 0.17382 0.013015 -0.071183 0.25767 -0.038666 -0.12204 -0.0012049 -0.069276 -0.18984 -0.12507 -0.29219 0.18077 -0.14104 0.1662 -0.18032 -0.062518 0.36459 0.19236 0.25722 -0.25243 0.19838 0.20126 0.19211 0.039964 0.014874 -0.32743 0.13561 -0.035566 0.1194 -0.20862 -0.060717 -0.5661 -0.35968 0.0070271 -0.045942 0.15937 -0.13658 -0.5003 0.20848 -0.37205 -0.082562 -0.20344 -0.11134 0.10254 -0.27899 0.23697 -0.18308 0.189 -0.074532 0.24095 0.31226 0.33431 -0.151 -0.37802 0.043223 0.060002 0.6138 0.012647 0.28651 0.093193 0.12689 0.54448 -0.12338 0.30091 -0.0092304 -0.34411 -0.020693 -0.39505 0.03708 0.32504 0.17069 0.046284 -0.11569 -0.41172 -0.098274 0.097669 0.20475 0.08797 -0.33086 -0.10506 0.16721 0.18974 -0.084444 0.35277 -0.086708 -0.063742 -0.32991 -0.16802 -0.035152 0.08906 0.1162 -0.088997 0.15361 0.23891 0.091755 2.5263E-4 0.17523 0.28624 0.26293 -0.1059 0.0081828 0.16256 0.067704 0.018197 -0.34075 -0.12858 -0.01848 -0.075839 0.095072 -0.12282 0.29209 -0.17424 -0.30691 -0.080174 -0.23512 -0.19553 0.047683 0.18517 -0.037547 -0.19047 0.015742 -0.26747 0.23152 0.22506 -0.13987 0.38611 0.4309 0.31796 -0.046439 0.10498 -0.2651 -0.31873 0.053005 0.15647 0.012298
sea 0.16957 -0.089872 0.56415 -0.31141 -0.2581 -0.22421 0.10804 -0.15519 -0.082719 0.7399 0.23983 0.20995 -0.1065 0.099955 -0.18896 0.067144 0.61321 -0.42928 -0.31645 0.65524 0.1576 0.05455 0.36316 0.30279 -0.20751 0.059231 -0.041737 -0.41482 -0.45165 -0.27523 -0.34271 0.22072 0.055061 0.40659 -0.0068769 -0.2445 0.20425 -0.52708 -0.012025 0.03076 -0.048017 -0.30022 -0.095373 -0.02881 0.13081 -0.49739 0.32675 0.07864 0.13869 0.15345 -0.28484 0.049335 0.23534 -0.17589 -0.076056 -0.054114 0.096898 0.023599 0.16322 -0.27282 0.045577 0.085557 -0.098865 -0.65785 0.46191 -0.005648 0.065571 -0.24821 0.31808 0.49582 0.12373 -0.51205 0.17812 -0.015509 0.10863 0.21425 -0.53333 0.11417 -0.2671 0.22803 -0.26521 0.22569 0.044776 -0.15183 -0.10107 0.0021115 -0.11895 0.27647 -0.36857 -0.66445 -0.30901 0.032173 -0.15986 0.041785 0.29932 0.086478 0.15066 -0.50877 -0.090588 -0.068786 0.5565 0.13723 -0.61229 0.27737 0.17285 0.1676 0.52585 -0.15733 -0.060224 0.17867 -0.22936 -0.44698 0.21905 -0.043619 -0.38409 -0.49013 -0.023997 0.01433 0.31843 -0.17114 0.059022 0.24203 0.12347 -0.12412 -0.10096 0.20163 -0.40458 0.059738 -0.041283 0.16298 -0.086673 0.038429 0.30669 -0.26249 0.30138 -0.15662 0.0038815 0.14878 0.03123 0.50946 0.078044 -0.10378 -0.093303 -0.20159 -0.28923 -0.016094 -0.41726 0.068528 0.031503 0.24442 0.30396 0.15806 0.13419 0.3585 0.12572 0.034845 -0.0036766 -0.10494 0.26173 -0.14831 -0.30938 0.14314 0.060824 0.18066 0.31708 0.25383 -0.52813 -0.0014072 -0.3575 0.3069 -0.23232 0.18398 0.45032 -0.069617 0.10043 0.079739 0.31368 -0.023823 -0.3729 -0.71636 -0.079576 0.2463 0.51028 0.2753 -0.078336 0.13991 0.072416 0.065462 0.42386 0.32331 0.57516 0.015463 0.11019 -0.16192 -0.14117 -0.02064 -0.2273 -0.31384 -0.17822 -0.25411
dollar 0.055102 -0.91044 -0.23884 -0.44022 0.38952 -0.049654 0.25814 -0.22666 -0.27069 0.26839 0.37927 0.028176 -0.57535 -0.37419 -0.22038 -0.099358 -0.057341 -0.22415 -0.15222 0.040066 0.17898 0.093974 0.36327 0.070341 -0.24459 0.15199 0.14564 0.014665 -0.59185 0.25084 -0.0022953 0.12347 0.55774 0.23615 -0.282 0.39658 -0.17613 -0.20658 0.73661 -0.17944 0.11958 0.0070317 -0.33045 0.27237 -0.38707 -0.23566 0.49525 0.073278 -0.15094 -0.28244 -0.14929 -0.030989 0.034774 0.08331 0.22966 0.070257 0.14825 -0.34251 0.45388 0.11351 -0.13943 0.42435 -0.69916 -0.049623 0.15783 0.22593 -0.38881 -0.078883 0.29029 -0.10152 0.49364 -0.2382 0.24208 0.20274 -0.056555 -0.034462 0.03725 -0.1096 -0.035846 0.017794 0.23928 0.20419 0.025965 0.12366 0.27686 0.27957 0.74232 0.97711 -0.39405 -0.19067 -0.13471 0.21924 0.367 -0.22449 -0.017353 -0.19128 0.15678 0.05195 -0.05237 0.21441 0.18091 -0.021837 -0.063366 0.21744 -0.46307 -0.21178 -0.14384 0.069173 -0.33866 -0.29697 0.02019 -0.2395 -0.04392 0.34233 0.041879 -0.40028 0.12886 0.58524 -0.1809 -0.020433 0.018953 -0.2174 -0.38029 -0.21018 0.029366 -0.086842 0.26678 0.13492 -0.20079 -0.44765 0.12952 -0.32102 0.31387 0.16383 0.11184 -0.42571 0.0091723 0.51447 -0.080813 0.3168 0.17122 -0.22718 -0.45114 0.23015 0.34239 0.36339 -0.22992 0.26787 0.42727 -0.052232 0.060668 -0.16246 -0.2726 0.78502 -0.013419 -0.24895 -0.32474 -0.34401 0.14482 0.072185 -0.79533 -0.43761 0.043446 0.17854 0.70655 -0.11548 -0.16942 -0.33541 -0.17779 0.054738 0.2835 -5.1017E-4 -0.23008 -0.10284 0.041238 -0.2495 -0.13208 -0.066488 -0.37824 0.31571 0.23404 0.23424 0.58098 1.0057 -0.039253 -0.19473 -0.1974 0.015978 -0.055807 -0.45791 0.43713 0.20476 0.17532 -0.58265 0.19952 0.50798 -0.24226 0.11475 -0.35243 0.12008
example -0.069774 0.068188 0.015971 -0.18678 0.35467 -0.026812 -0.29899 0.024392 -0.10147 0.084169 0.13911 -0.019906 -0.22793 0.090184 -0.19806 -0.030196 0.11122 -0.040179 0.14424 0.38555 -0.020051 -0.19582 0.33224 0.0078993 -0.032305 0.10429 0.23623 -0.11761 -0.19115 0.078698 -0.078807 -0.10661 0.41263 0.33976 -0.098046 0.017961 0.23286 0.35395 0.049918 -0.16346 0.019739 0.066469 0.11595 0.025849 -0.2778 -0.10694 0.33029 -0.36791 -0.16012 -0.30251 -0.14799 -0.010891 0.26678 -0.12166 0.083334 0.32756 0.18743 0.084723 -0.12238 0.19441 -0.038814 -0.11982 -0.47966 -0.11251 0.051442 -0.031518 -0.016141 -0.18544 0.083353 -0.039201 0.057479 -0.13099 -0.32384 -0.1729 -0.10882 0.0014962 0.16863 -0.044252 0.047255 -0.036465 0.08134 0.13247 0.10391 0.085535 0.017584 0.11122 0.068811 0.24746 0.041227 0.0074608 0.29305 0.10844 -0.044943 0.14763 -0.28358 -0.16543 0.029277 -0.2316 0.005608 -0.010043 -0.026903 0.053382 -0.18461 0.053498 0.092642 -0.075884 0.02419 0.042443 0.033552 -0.073958 0.01434 -0.14466 0.34959 0.054129 0.15629 0.080941 0.15038 0.17525 -0.074913 -0.14785 0.39137 0.48009 -0.23888 0.015216 0.072319 0.22279 -0.030206 -0.15149 -0.14479 -0.22439 -0.030243 0.2306 -0.14219 0.095862 0.061038 0.28401 -0.033459 0.08096 -0.26771 0.0054882 0.066857 0.44348 -0.18695 -0.21775 0.29574 -0.10474 -0.031954 -0.013925 0.23191 -0.16173 -0.034397 0.023357 -0.059824 0.018306 0.21542 -0.31152 -0.02363 -0.16233 -0.13576 -0.144 -0.051583 0.59048 0.10615 0.16198 -0.11743 -0.068272 0.011828 -0.041955 -0.19786 -0.055265 -0.31707 0.17921 -0.011782 0.020695 0.52564 0.071337 0.071807 -0.013137 -0.1888 -0.13278 -0.20327 -0.12325 -0.17662 0.015084 -0.36231 0.12143 -0.14218 -7.7164E-4 -0.072574 -0.081141 -0.15431 -0.0069151 0.33743 -0.16594 -0.18857 -0.047873 -0.1218 -0.23396 0.099743 -0.25962
journal -0.28381 -0.22559 -0.05949 -0.5051 -0.22026 -0.16212 -0.044461 -0.50907 -0.11109 0.28905 0.25611 -0.0091503 -0.45344 -0.34154 0.31321 0.059378 0.44509 -0.026762 0.12376 0.82918 0.24708 0.14415 -0.052967 -0.14861 -0.63639 0.56368 -0.57814 -0.68495 0.029948 0.24123 -0.36689 -0.68434 1.026 0.35648 -0.6126 -0.024269 0.6238 -0.34668 -0.44127 -0.13814 -0.5449 -0.095821 -0.034277 -0.0435 -0.06889 -0.59792 -0.63668 -0.98602 0.22485 0.20121 -0.8119 0.20577 0.53558 -0.45357 -0.45903 0.16593 0.29273 0.25835 0.2531 0.27282 0.064281 -0.067384 0.18197 -0.28682 0.19121 -0.34725 0.11567 0.48637 0.043264 -0.21138 0.4367 -0.16498 -0.14362 0.52016 0.0097984 -0.42286 0.01342 -1.1395 0.20968 -0.56538 -0.12802 0.54933 -0.11099 0.010366 -0.13915 -0.26099 0.40896 0.63067 0.058863 -0.12049 0.15589 0.32825 0.22399 0.33268 -0.17983 -0.47355 0.060655 -0.54224 -0.21544 -0.52392 0.40678 0.027925 -0.66037 0.099328 0.12304 0.04233 0.21185 0.32164 -0.22669 -0.154 0.33916 -0.17706 0.0014355 0.088509 0.038305 0.15656 -0.019787 -0.1643 -0.41406 -0.075317 -0.17453 -0.2355 0.11943 0.043144 0.061139 0.17533 0.60564 0.023193 -0.13632 0.17761 0.087151 0.43348 0.18515 0.34286 0.17031 0.47261 0.0729 -0.084801 -0.54913 0.26339 0.21085 -0.18309 -0.056728 -0.85749 -0.13615 0.67806 0.62357 0.38715 0.056252 -0.28616 0.55093 0.23438 -0.323 -0.060455 -0.38535 0.022657 0.11505 -0.066081 -0.082021 -0.016559 -0.077998 0.069779 -0.23014 0.53486 0.45514 -0.09579 0.21812 0.22819 -0.41061 -0.40711 -0.11703 0.11152 0.17412 0.13105 -0.41619 -0.071126 -0.17083 -0.0062367 0.41879 -0.39891 0.15585 0.23818 -0.34748 -0.24709 -0.17728 -0.2124 -0.11104 -0.28559 -0.0013549 -0.28162 0.54998 -0.17911 0.025309 0.20119 -0.22219 -0.079239 -0.23517 -0.44314 0.34561 0.049713
laundering -0.13234 -0.44423 -0.2819 -0.46605 -0.20062 0.11803 0.074603 -0.93145 -0.19695 -0.091756 0.16014 0.11075 -0.29487 0.14847 0.16972 -0.22203 -0.23223 -0.40248 -0.47389 0.51923 -0.13226 0.46016 0.27316 -0.047301 -0.0079108 -0.31111 0.03506 -0.13958 -0.83672 0.072751 -0.09612 -0.37519 0.11171 0.022985 0.11787 -0.17085 -0.31919 -0.066293 0.061376 0.23066 -0.0025203 0.020141 -0.50947 -0.42147 -0.36186 -0.36939 -0.17561 -0.24082 -0.05942 -0.40289 -0.085662 0.025973 0.0017276 -0.3706 0.31696 -0.015104 0.41704 0.23421 0.548 0.019907 -0.70413 0.21752 -0.5449 -0.3624 0.27929 0.18364 -0.10304 -0.20948 0.187 0.098726 0.15168 -0.33016 -0.034044 -0.42795 -0.29965 -0.049147 0.20486 -0.47583 -0.5 0.072197 0.10321 -0.24972 -0.065065 -0.14286 0.17725 0.19943 0.30202 0.15474 0.028752 0.1284 -0.038122 -0.51724 0.054546 0.18425 0.39036 -0.58678 0.025645 0.24022 0.031097 0.17781 -0.24073 0.13458 -0.49718 -0.16756 -0.26341 -0.16514 0.30651 0.83056 -0.12794 -0.19262 -0.37454 -0.40343 -0.28862 -0.13485 -0.08971 -0.15869 0.48872 -0.11805 0.083268 -0.099966 0.083051 -0.65027 -0.77514 0.19709 0.19456 0.21348 0.29115 0.20073 -0.40023 -0.31092 -0.19976 0.51764 -0.12592 0.33628 0.46749 -0.4888 0.058464 -0.48453 -0.68171 -0.094002 -0.28715 0.039397 0.43094 0.055353 0.12792 0.46349 -0.21606 -0.029191 -0.67328 0.65128 -0.026552 0.061074 0.22338 0.39856 0.005938 0.071577 -0.2731 -0.21024 0.078276 0.62583 0.075858 -0.12475 0.26129 0.49546 0.28799 -0.35207 -0.063028 0.449 0.26942 -0.46987 -0.60848 -0.077064 -0.15372 -0.37191 0.02064 0.047723 0.32823 -0.050297 0.03577 -0.14717 0.11941 0.036749 -0.070099 0.20115 -0.72961 0.16646 0.22894 0.28468 0.59273 -0.48948 0.19769 0.49516 -0.057305 0.057691 0.047547 0.23277 0.63758 -0.11682 -0.40422 0.35873
hotel 0.24587 -0.039283 0.26851 -0.14009 -0.069918 -0.1671 0.04037 -0.59462 0.19299 0.16813 0.25854 0.25218 -0.058534 0.15124 0.50331 0.52407 0.29866 -0.29582 -0.12253 0.67482 0.020688 -0.12398 0.064025 -0.54606 0.095068 -0.061964 -0.049207 -0.18368 -0.27112 0.02476 -0.072765 0.3014 0.26727 0.03335 -0.44294 0.12823 9.9945E-4 -0.49182 -0.085718 -0.065417 -0.072484 -0.11329 0.53802 0.41591 -0.094108 -0.18438 0.25238 0.21542 -0.61288 -0.24332 -0.1459 -0.12153 0.37048 -0.1609 0.080339 -0.088149 0.21794 0.072025 0.063968 0.029166 -7.4138E-4 0.0014262 -0.12778 -0.33858 0.263 0.052863 -0.13879 -0.07013 0.14027 -0.087054 0.13897 0.15328 -0.12591 -0.27747 -0.048339 -0.044021 -0.41551 0.43209 0.35086 0.27392 -0.0081556 0.047387 -0.27553 -0.045736 -0.13101 0.23898 0.27582 0.00497 -0.33328 -0.21376 0.27656 -0.65695 0.3502 0.16815 0.033552 0.089261 -0.13892 -0.086908 0.24735 0.10289 0.17926 0.52697 -0.75 -0.28073 -0.19912 0.1029 0.065311 0.29644 -0.32172 -0.031779 0.097932 0.41142 -0.22901 0.15111 0.0027203 -0.32091 0.078762 0.092367 -0.13262 -0.090234 0.14338 0.19938 -0.38512 -0.19845 0.32812 -0.25354 0.38212 -0.084129 -0.31472 0.22328 0.13026 0.22553 0.15684 -0.42799 0.41127 0.038935 -0.060716 0.10898 -0.33788 -0.1949 -0.18637 0.30293 -0.040758 -0.37031 0.10718 0.15146 -0.25773 -0.20334 -0.09851 0.3615 -0.027901 -0.38846 -0.037211 0.1845 0.50002 -0.21623 -0.070589 -0.22324 0.26451 -0.012743 -0.079937 0.011062 0.28671 0.50352 0.11986 -0.19798 -0.046293 -0.34893 0.3066 -0.27738 0.033057 0.20335 -0.067149 0.030923 0.22257 0.006628 -0.29459 0.25468 -0.24332 -0.32054 0.1104 0.016256 -0.12735 -0.050897 0.062646 0.034222 -0.04806 -0.62934 -0.27333 0.47209 0.3473 0.34578 0.35711 0.20736 0.090471 -0.34873 -0.29066 0.48462 -0.11132 0.097299
term -0.16552 0.29232 -0.1862 -0.10997 0.10413 -0.39444 -0.093021 0.14746 0.26286 0.56984 -0.4783 -0.13197 -0.46742 0.14151 0.18003 0.046871 -0.3012 -0.13074 0.22835 0.28976 0.39766 0.0731 0.4731 -0.093439 0.27205 0.43792 0.038261 -0.028835 0.12067 0.099048 -0.10647 -0.022668 0.44599 -0.39801 -0.11694 0.26723 -0.010056 -0.20439 -0.16012 0.27143 -0.50762 -0.11658 -0.1654 -0.29667 -0.076461 -0.092532 0.21825 0.0086628 -0.060831 -0.070786 -0.27402 -0.45031 0.32988 0.39338 0.24599 0.68741 -0.18967 -0.084407 0.095834 -0.20937 -0.31834 0.12163 -0.23889 -0.18023 0.22866 0.308 -0.48239 0.47541 -0.18372 -0.18551 0.24959 -0.34508 -0.037638 -0.13825 -0.07654 -0.20401 0.27966 -0.16235 -0.15892 0.13142 0.079266 0.2021 -0.15888 0.27873 0.084389 0.10259 0.41527 0.4862 0.28858 -0.032265 0.068726 0.090873 -0.22184 0.11609 -0.30538 -0.25577 -0.37366 -0.095591 -0.162 0.18335 -0.20715 -0.14194 -0.060864 -0.014266 -0.14704 -0.082098 -0.46986 -0.14037 0.28716 -0.35536 -0.30603 -0.28231 0.017008 -0.39767 0.56742 -0.062731 0.48959 0.020885 -0.11074 0.073 0.10306 0.17284 -0.16743 0.079305 3.6433E-4 0.39626 0.10584 -0.419 -0.36232 0.27636 -0.6928 0.16559 0.0096479 -0.038394 0.030839 0.11762 0.45018 0.029395 0.082583 -0.1018 0.33326 0.14334 0.051348 -0.01178 0.039503 0.52791 -0.12401 -0.094381 -0.094497 -0.070617 -0.26206 -0.4241 0.088622 0.34355 0.10001 -0.0052854 -0.095304 -0.24903 -0.0015639 0.27111 -0.19565 -0.14625 0.30045 0.32762 0.5877 -0.30604 0.12799 0.056755 0.22176 -0.004925 0.11204 -0.29686 0.19819 -0.061075 0.59498 0.43318 -0.08236 0.39053 0.22555 -0.17752 0.018191 -0.11848 0.62477 -0.018712 -0.10467 0.57638 -0.30361 0.30123 -0.0375 -0.50957 0.32393 -0.046953 -0.12414 -0.1091 -0.058822 0.30673 -0.46693 0.10279 -0.10323 0.30482
listing 0.12396 -0.42662 -0.24568 0.30522 0.3981 -0.39352 0.11102 -0.11941 -0.11585 -0.022391 0.075907 -0.10375 -0.014997 0.27345 0.37885 0.17931 0.089693 -0.59189 -0.10849 0.16819 -0.37371 0.48165 0.29254 0.26511 -0.21395 -0.067981 -0.37739 -0.21643 -0.24129 0.16464 0.15866 0.06166 0.38846 0.77257 -0.28432 0.0036121 0.30038 -0.21225 0.17538 -0.37018 -0.20573 -0.39645 0.44676 0.02381 -0.11578 0.066159 0.33182 -0.075321 0.2268 -0.78992 -0.44622 0.098156 -0.083185 -0.65036 0.1524 0.042791 0.050115 -0.064852 0.03554 -0.3518 0.16518 -0.016447 0.10218 -0.17985 0.45863 0.17135 0.084679 -0.11601 -0.15182 0.13411 0.47794 -0.072348 0.14257 -0.073256 -0.33701 0.16942 -0.071165 -0.44279 0.47366 -0.080893 -0.045868 0.10509 -0.30486 -0.086898 -0.48428 0.24363 0.14849 0.063661 -0.16422 -0.058791 0.022564 -0.33641 0.44487 0.42831 -0.09998 -0.032892 -0.18683 0.0052207 -0.1192 0.17323 -0.054811 -0.071388 -0.3669 -0.019577 -0.45126 -0.30567 -0.12937 0.13743 -0.070727 -0.19236 0.10552 -0.45772 0.019047 -0.41734 -0.08253 -0.094039 0.30487 -0.053642 -0.13303 -0.2399 0.29257 0.1946 -0.01869 -0.02187 -0.17336 0.24323 0.25137 0.13358 -0.033844 -0.37383 -0.11596 0.053389 -0.027558 -0.12959 0.21489 0.11928 0.19884 0.052502 -0.022861 0.2824 -0.013067 0.25523 -0.26129 -0.52649 -0.038996 0.0090502 -0.17455 0.12707 0.51225 0.18088 -0.086582 0.13517 -0.15223 -0.19462 -0.19694 -0.28244 -0.046219 0.07692 -0.062354 -0.01131 -0.36116 -0.27879 0.24942 0.32533 -0.33961 -0.16338 -0.3074 0.34538 -0.13566 -0.28891 -0.21584 -0.26109 -0.19693 -0.18656 0.52153 0.27757 0.19172 0.13955 -0.18298 -0.41907 0.081686 0.067919 0.37176 0.035551 -0.094373 -0.24455 0.28333 -0.052355 -0.04435 0.1933 -0.071242 0.19324 0.19796 0.057323 -0.092336 0.21246 -0.16876 0.15664 -0.095498 0.5526
chemistry -0.20613 0.11941 0.08372 0.0032379 -0.11603 -0.44009 0.19809 -0.053578 -0.41741 0.20177 -0.20845 -0.045213 -0.2909 -0.40319 0.17755 -0.23385 0.29668 -0.52173 -0.25938 -0.12688 0.028558 -0.12338 0.38915 -0.15181 -0.062825 -0.19104 -0.0031816 0.0083269 -0.021272 -0.34717 -0.41859 -0.39779 0.31531 0.026782 -0.36955 -0.35161 0.53936 -0.098699 -0.27126 -0.064319 0.38297 0.12175 -0.49402 -0.090743 -0.076368 -0.38604 0.033433 -0.18257 0.25663 -0.38938 -0.53011 -0.060196 0.49843 0.0075751 -0.079643 0.039197 0.12616 0.29749 0.077071 0.14855 0.27902 -0.26086 0.27516 -0.13352 0.052345 -0.12892 -0.311 0.18847 -0.13744 -0.16295 -0.17695 -0.13475 0.19915 -0.099794 0.022138 0.33507 0.095501 -0.0063114 0.38133 -0.42288 -0.17243 0.40932 -0.28531 -0.27737 0.15249 -0.40575 0.10461 0.048274 -0.10534 -0.31303 -0.22245 0.40675 -0.10956 0.11248 -0.27797 -0.26099 0.087878 -0.3006 0.45786 -0.40472 0.028234 0.10553 -0.3548 0.31325 0.05221 0.52483 -0.11421 -0.24964 -0.48195 -0.23688 0.0050762 -0.6113 0.137 0.11295 0.20824 0.057935 0.23163 -0.29102 0.03968 -0.052688 -0.13336 -0.017217 -0.23606 -0.31385 0.44447 -0.1041 0.5399 -0.067829 -0.2147 0.41848 -0.068317 0.66142 0.081052 0.34967 0.26299 0.12508 0.24184 0.062222 -0.30012 0.32857 -0.4881 -0.0054425 0.42873 -0.22006 0.055286 -0.017499 0.32735 0.31301 -0.11777 -0.14785 -0.27774 0.24991 0.025885 -0.068168 -0.23222 0.28052 0.017032 0.057263 0.044037 0.021246 0.097387 0.27806 0.1439 0.52692 -0.046984 0.1926 -0.088446 -0.15931 -0.28708 -0.29491 0.0071203 0.011656 -0.11283 0.26479 0.057505 -0.020852 -0.1308 -0.41274 0.42034 -0.51118 0.15288 -0.22221 -0.20346 -0.33777 -0.69243 -0.16476 -0.073135 0.05182 0.5946 -0.23673 0.55472 0.080583 0.31449 -0.14233 0.22765 0.10787 -0.94412 0.088295 0.29205 -0.17877
seafood 0.1587 -0.08884 0.40404 0.16075 -0.014421 -0.1078 -0.16213 -0.504 -0.2413 0.4323 0.19052 0.62986 -0.44797 0.24832 0.039783 0.2632 0.11044 -0.65561 -0.52571 0.61113 0.26754 0.010521 0.6435 0.012157 -0.90823 0.19588 -0.13928 0.037256 -0.43825 0.20465 -0.23453 0.26504 0.5106 0.28101 0.09192 -0.38038 -0.16735 0.015009 -0.071397 0.47557 -0.21552 -0.43719 0.018076 -0.11548 -0.028313 -0.123 0.36767 0.40716 -0.40576 0.19129 -0.36688 -0.13657 0.56074 0.1485 -0.11651 -0.024504 0.073176 0.075377 0.54918 0.017116 -0.16321 0.43628 0.051491 -0.1638 0.47188 -0.31283 -0.12059 -0.72157 -0.023667 0.33892 0.057127 -0.33006 0.30993 0.10349 -0.041121 0.21423 -0.012128 0.57674 0.18284 0.25625 -0.12084 0.1427 -0.058934 0.1682 -0.53717 0.12689 0.32262 0.028337 -0.1854 -0.054085 0.22196 -0.11199 0.09891 0.4392 -0.065421 0.058587 -0.14178 -0.47681 0.13764 -0.17027 0.50028 0.29066 -0.44983 -0.074299 -0.034145 -0.0061878 -0.26375 0.07251 -0.28808 0.3124 -0.017452 -0.53126 0.23977 -0.27953 -0.32811 -0.5637 0.34834 0.29038 0.068985 -0.4318 -0.30568 0.38588 -0.1762 -0.64041 0.30501 -0.090485 -0.097534 0.2452 -0.10467 -0.21892 0.0093709 0.37481 0.46623 -0.12171 0.43041 0.52501 0.24819 -0.035239 0.54045 0.28909 0.042795 0.12876 0.0054792 -0.083772 -0.039838 0.16106 -0.37193 -0.19705 0.24899 0.23123 0.13828 0.29159 0.57115 -0.028168 0.45553 -0.4736 -0.00648 -0.7497 0.096567 -0.2026 -0.024956 0.09954 0.12348 0.10573 0.070875 0.34715 -0.10424 -0.11771 -0.11505 0.056139 -0.25053 0.030829 -0.43834 0.35558 -0.42386 0.34309 0.43813 0.44781 -0.27672 -0.078947 -0.16796 0.65794 -0.11769 0.098963 -0.64671 -0.25832 -0.041136 0.049956 0.18006 -0.081822 0.64444 0.71291 -0.10103 -0.097699 -0.15637 -0.06196 -0.42086 -0.12463 0.034091 -0.2133
CD 0.17018 0.02242 -0.18107 -0.041357 0.27984 -0.42436 0.073138 -0.71743 0.077837 0.20664 0.41759 0.15641 0.075885 -0.42466 0.051257 -0.0079557 0.15475 -0.052748 0.33038 0.43876 0.0020617 -0.31875 0.48145 -0.039484 0.10171 0.3367 0.25554 -0.40208 -0.471 0.021404 0.38394 -0.22393 -0.19694 -0.074296 -0.596 -0.22779 -0.14766 0.27594 -0.05979 -0.53353 -0.3828 0.42742 0.039446 -0.28587 -0.58912 -0.53076 -0.15053 -0.088814 -0.038626 -0.52016 -0.21693 0.35927 0.073778 -0.20973 -0.61264 -0.10234 0.2809 -0.085159 0.13562 -8.877E-4 0.11983 -0.092483 -0.24552 0.21832 0.090568 0.27286 0.12868 0.032419 -0.59713 0.10534 -0.24857 0.072032 -0.18143 -0.098346 -0.26688 0.20321 0.037042 -0.54177 -0.05234 0.080371 -0.11063 0.53365 -0.11197 0.042093 -0.50796 0.18972 0.90721 0.48534 -0.10262 -0.16532 0.29495 -0.56452 -0.09775 0.30179 0.027826 -0.30801 -0.63444 -0.05964 0.097466 -0.098782 0.12935 -0.044478 -0.41879 0.055802 0.21881 0.24732 0.20314 -0.017743 -0.16251 -0.2223 0.22647 -0.12124 -0.34728 0.21097 -0.077699 -0.25884 0.41068 0.42295 -0.12023 0.14948 0.26522 -0.03762 0.35764 -0.022563 -0.4247 -0.21866 0.12133 -0.077012 0.01359 -0.10223 0.10763 -0.5002 0.12855 -0.33756 0.24315 -0.04584 -0.094592 -0.068527 0.21113 -0.02849 0.48013 -0.061383 -0.34635 0.076376 -0.19975 0.081657 -0.4638 0.0064203 0.25859 -0.18037 -0.20321 -0.010096 -0.075884 0.21274 -0.43818 0.36878 -0.23115 -0.36372 -0.24225 0.054842 0.087086 0.026508 -0.10501 0.43713 0.44377 -0.093114 0.34243 0.33895 -1.0122 -0.46251 0.18134 -0.4222 -0.33249 0.58495 -0.17536 -0.21414 0.15264 0.43854 -0.5024 -0.07344 0.064514 -0.098545 -0.28476 -0.11879 -0.58428 -0.59112 0.077429 -0.051636 -0.10082 -0.25338 0.030701 0.1751 0.10287 -0.39218 -0.20099 0.053436 -0.26133 0.4562 -0.096446 0.018467
mind -0.031679 0.10856 0.018358 0.032142 0.2187 -0.23628 0.069787 -0.31626 0.46256 0.16611 0.22482 0.16939 -0.222 -0.22206 0.31267 0.11685 0.28445 -0.023444 0.067772 -0.0011024 -0.0023112 -0.29733 0.18677 0.61543 0.044988 0.12625 -0.23367 -0.10765 -0.069127 -0.18509 0.082656 -0.26173 0.24475 -0.068908 -0.12279 -0.04616 -0.055853 -0.10034 0.03742 0.092389 -0.026622 0.32064 0.03448 -0.18998 0.13645 -0.253 -0.0093786 0.17942 0.04922 -0.45157 -0.37379 0.10479 0.2005 -0.028031 -0.12565 0.2112 -0.02696 0.27808 -0.0013603 -0.045153 -0.27071 0.079184 0.21723 -0.028462 0.33122 -0.24926 0.011989 -0.099359 0.10329 -0.20844 0.15935 -0.19631 -0.016799 -0.026776 -0.056962 -0.16062 -0.099152 0.29469 0.64743 -0.22721 0.39703 0.31204 -0.24715 -0.18964 -0.0172 -0.16773 0.19233 0.2176 -0.25844 0.17832 -0.29183 0.10268 -0.24289 -0.39517 -0.020761 -0.026308 -0.36304 0.1102 -0.0018325 0.10321 -0.11235 -0.035747 -0.39652 0.12372 0.071575 0.24188 0.48979 0.0015869 -0.25267 -0.14734 0.20839 -0.23414 -0.13081 -0.04597 0.2915 0.011849 0.15231 -0.29777 0.15501 -0.06314 0.20077 0.56845 -0.29599 0.049131 0.02812 0.04248 0.042923 0.10601 -0.030442 -0.44334 -0.26369 -0.26145 -0.2458 0.23989 0.15508 -0.0031953 0.11853 0.067868 -0.17068 -0.1009 -0.13026 0.26529 0.15393 -0.19003 -0.071383 -0.10978 -0.0076463 0.38621 0.037696 0.11535 -0.18343 -0.12478 -0.083206 -0.037084 0.23585 0.17602 -0.16654 -0.2225 -0.040068 -0.050478 -0.30346 0.27588 0.1438 0.26533 0.29963 0.030148 -0.028328 0.32522 -0.27638 0.013112 0.15285 0.011881 0.098992 -0.054989 0.052088 -0.11483 -0.32 0.089011 0.072551 -0.24723 0.18752 0.11706 0.072389 0.34049 -0.23775 0.14603 -0.10881 0.1395 0.16272 0.041369 0.60732 0.37973 0.191 -0.084101 -0.39937 -0.14058 -0.064793 0.073139 0.2075 -0.11969
sex -0.23616 0.22021 -0.15824 -0.34459 0.30858 -0.0090008 0.15926 -0.24404 -0.23123 0.40736 -0.10944 0.47314 -0.39947 0.66218 0.13734 -0.25426 0.67999 -0.26916 -0.1241 -0.080922 -0.29753 -0.29829 -0.034941 0.042082 0.20538 0.39058 -0.25201 -0.26838 -0.13245 -0.62974 -0.17509 0.026615 5.4336E-4 0.24895 -0.71708 -0.052302 0.032568 -0.28671 0.087775 -0.20252 -0.25971 0.25135 0.027722 -0.24993 0.23175 -0.29133 0.25095 0.14153 -0.31143 -0.058065 -0.16908 0.20184 0.20292 0.36409 -0.074257 -0.10448 0.057782 0.12291 0.24884 0.43806 0.086569 0.17778 0.29079 -0.099977 0.19177 -0.21644 -0.10841 -0.22991 0.39976 -0.3571 0.78394 -0.14283 0.25198 -0.12996 0.061871 0.14447 -0.0098896 -0.0086532 0.09778 0.10062 -0.10387 0.30698 -0.28537 0.093777 0.0076676 0.32967 0.45352 0.41754 0.3666 -0.21785 0.097201 -0.29502 0.2678 -0.16739 -0.17832 -0.18786 -0.43295 -0.51547 -0.24596 0.27934 0.11077 -0.21611 -0.035381 -0.58459 -0.18161 -0.015803 -0.0062092 0.13641 0.059207 0.048669 -0.25413 -0.44653 0.1415 -0.07531 0.26671 0.11724 0.4418 0.147 0.18414 0.082054 -0.17832 -0.2599 -0.28012 0.072458 0.233 -0.11749 0.1771 0.30817 -0.15873 -0.10598 -0.32294 0.081863 -0.68132 0.3561 0.36653 -0.15308 0.0348 -0.35264 -0.67715 -0.28392 -0.21197 0.26857 -0.42017 0.037655 -0.063523 0.21486 0.057365 0.16054 -0.41093 0.15552 0.19536 0.44061 0.062862 0.33505 0.048924 -0.3234 -0.24338 -0.081816 -0.22921 0.10426 0.43522 -0.01403 0.074071 0.52384 -0.24483 -0.39067 -0.31346 0.026702 -0.14603 -0.13541 -0.2975 -0.0059813 0.070602 0.22759 -0.483 -0.10637 -0.080038 0.11579 -0.30466 -0.37652 0.25929 0.11059 -0.23472 0.43078 -0.57893 0.10993 0.015421 -0.028951 0.36178 -0.25622 0.030548 0.63081 -0.12128 0.043977 -0.15465 0.42097 -0.39952 0.64568 -0.34112 -0.054641
food 0.43979 -0.10424 -0.031536 0.061885 -0.1589 -0.20238 -0.21914 -0.07261 -0.16153 0.081598 0.23794 0.5195 0.28586 -0.098801 -0.00297 0.21014 0.36005 -0.39191 -0.34846 0.35471 0.19478 -0.18239 0.17867 -0.034868 -0.71357 0.30524 -0.1131 -0.028135 -0.25308 0.14767 0.068894 0.078198 0.51235 0.09574 -0.17232 -0.083068 -0.24675 -0.34992 0.0057814 0.25689 -0.068498 0.014638 -0.10241 0.11084 0.045851 -0.59781 0.20377 0.066359 -0.32341 -0.18437 -0.1755 -0.25553 0.40376 0.064266 0.073303 -0.066889 -0.094512 0.074371 0.35668 0.19 -0.11592 0.28266 -0.5043 0.17118 0.32351 0.045465 0.034202 -0.63872 0.074012 0.29626 0.13283 -0.22154 0.039766 0.16558 -0.16626 0.45857 -0.074071 0.1563 0.081563 -5.0239E-4 -0.26107 -0.073323 0.10086 -0.33808 -0.28439 0.13034 0.45733 0.13776 0.16309 0.18743 0.14698 -0.3666 -0.099272 -0.037104 0.14103 -0.065628 -0.023051 -0.2535 -0.12962 -0.26889 0.23686 0.38742 -0.070857 0.0077585 -0.32307 0.44871 -0.079391 -0.0068731 -0.27949 0.15241 -0.063674 -0.62037 0.125 0.096981 0.25794 -0.24273 0.38743 0.21909 0.16412 -0.43672 -0.32624 -0.012518 -0.49055 -0.13036 -0.10786 0.039429 -0.029507 -0.046939 0.062731 -0.048216 -0.29264 0.40961 0.34505 -0.39796 0.092146 0.27474 0.055651 0.014983 0.16953 0.14756 -0.20102 -0.0084021 0.096331 0.0090353 -0.022043 0.132 0.27855 -0.27338 -0.17261 -0.11492 -0.32033 -0.062466 -0.33344 0.20073 0.54618 -0.266 0.14992 -0.30361 0.020375 -0.12889 0.12184 0.26581 0.34819 0.25878 0.27139 0.44977 -0.19844 -0.38483 0.057129 -0.23651 -0.056824 0.14498 -0.011043 0.36774 -0.33781 -0.16977 0.3964 0.10252 0.013688 -0.22183 -0.30793 0.099186 0.011822 0.030224 -0.28708 -0.1744 -0.312 0.096561 0.33765 -0.16364 0.86375 0.50044 -0.17327 -0.089281 0.11586 0.35349 -0.34849 0.11985 0.051564 -0.32632
precedent 0.23731 0.033812 -0.14667 0.28715 0.54758 -0.18893 -0.027358 -0.21383 -0.030897 0.17137 0.35308 0.09046 -0.41225 -0.13763 -0.16586 0.023117 0.26022 -0.2395 0.25786 0.16831 0.033876 -0.30819 0.10557 0.13254 0.26353 -0.18243 0.32319 -0.18495 -0.28611 0.1162 -0.31605 -0.24022 0.21075 0.058647 -0.23068 -0.14359 0.1526 0.12567 -0.14468 -0.39816 -0.01688 0.082712 -0.19188 -0.28655 0.070469 0.077918 0.4561 -0.17055 -0.068201 -0.13442 -0.27048 -0.30959 0.16682 -0.17042 0.28091 0.70463 -0.071019 -0.29919 0.53142 0.063768 -0.32027 0.07165 0.011035 0.028014 0.65394 -0.044158 0.032517 -0.08893 0.28748 -0.052189 0.03785 -0.23549 -0.38883 -0.19475 -0.63743 -0.18201 0.02952 -0.059497 0.12708 0.30683 -0.13134 0.22645 0.13152 0.018484 -0.10035 0.32001 -0.098035 0.16295 -0.21966 0.12491 0.05257 0.34767 -0.29786 0.092759 0.0239 -0.16209 -0.50817 -0.5705 -0.24283 0.072143 -0.02205 -0.16399 -0.40025 0.19185 0.025042 -0.39851 -0.057181 0.21167 0.17505 -0.033796 0.3256 -0.43527 -0.27212 -0.4765 0.21663 0.039727 0.41136 0.20432 -0.27455 -0.14199 -0.082901 0.54253 -0.28694 -0.067155 0.012324 0.23169 0.1216 -0.27156 0.1789 -0.3095 0.11532 -0.26773 -0.27851 0.33104 0.21257 0.47918 -0.10012 -0.23463 -0.22526 0.035122 -0.0031835 -0.096761 0.46234 -0.14505 0.1398 -0.080754 0.2774 -0.017868 0.30814 0.14323 -0.24787 -0.39718 -0.027053 -0.0021611 -0.17797 -0.11457 -0.43813 0.077066 0.084998 0.097952 -0.090094 0.39443 -0.12269 0.39227 -0.16223 0.064784 -0.23917 -0.17148 0.042287 -0.31715 -0.27994 -0.22558 0.19263 -0.045173 0.47916 -0.073014 -0.088681 -0.26621 0.18955 0.25801 -0.18578 0.18733 0.26268 0.04717 -0.0038448 0.59839 -0.017696 0.30921 0.28453 -0.61196 0.027509 -0.19555 0.27129 -0.023434 -0.053174 -0.18335 -0.14546 -0.40102 -0.035251 -0.26126
series -0.084954 -0.19465 -0.24235 -0.35536 0.34244 0.45127 0.15451 0.047309 0.02355 0.30414 -0.13751 0.03422 0.17942 -0.62371 0.089631 0.19466 0.24745 0.037995 -0.16959 -0.090243 -0.24478 0.1615 -0.011259 -0.19524 0.34096 0.0040286 -0.063064 -0.45875 -0.54369 -0.077959 0.043211 -0.26878 0.55358 0.091357 0.060866 -0.22252 0.22715 0.1171 -0.20574 0.13141 0.3752 0.16174 0.53114 0.11248 -0.10025 -0.24672 0.2862 0.12561 0.12606 -0.024268 -0.42821 -0.19795 0.58182 -0.3141 -0.37931 0.34206 0.11786 0.022466 0.027226 0.3239 -0.29795 -0.11529 0.11596 -0.18118 0.27619 0.012991 0.16506 0.45904 -0.21621 -0.32081 -0.30496 0.0033286 -0.1985 -0.13882 -0.15389 -0.42854 0.23267 0.026693 -0.23884 0.21601 -0.21897 0.28331 -0.29733 -0.32347 0.12481 0.39937 0.34162 0.17863 -0.2697 0.024623 0.27283 -0.18373 0.12005 -0.09339 -0.43878 0.13842 0.02066 0.20857 -0.1247 -0.10465 0.04048 -0.38303 -0.08039 0.32243 -0.42132 0.071741 0.41027 -0.26269 0.031255 0.32352 -0.097395 -0.2049 -0.2298 -0.14255 0.10713 -0.048097 -0.1937 -0.01842 0.058632 -0.15375 0.0083784 0.28224 -0.33019 -0.32428 -0.035702 -0.056899 0.083499 0.016267 0.27722 -0.098495 -0.028332 -0.034205 -0.19804 -0.1613 -0.012888 0.34019 0.29146 -0.42174 -0.29221 0.01429 0.12689 0.075633 -0.026871 -0.133 0.11938 -0.018611 -0.010486 -0.29659 -0.30339 -0.0069922 -0.14558 0.18145 0.13528 0.15527 -0.080878 0.085762 -0.45346 0.21459 0.20617 -0.28485 0.18349 -0.0467 0.098281 0.44635 0.25777 -0.13377 0.16974 -0.36038 -0.23397 -0.24329 -0.20239 0.085817 -0.22577 0.549 0.29606 -0.39057 0.16034 -0.20911 0.16328 -0.46405 0.30197 0.21085 0.2267 0.25635 0.0042391 0.070852 -0.12123 0.095416 -0.10353 -0.042855 -0.23857 -0.15349 0.047867 -0.44709 0.10391 0.49316 -0.22756 -0.010265 -0.053051 0.020826
kilometer 0.14786 -0.033029 0.73779 -0.26408 -0.10653 0.4064 0.7308 0.44076 0.33576 0.78777 -0.24169 -0.13615 -0.36562 -0.024525 0.53334 -0.028329 0.30345 -0.1097 -0.04542 0.35047 0.38032 0.37493 -0.082285 0.12369 -0.23224 0.12383 -0.52427 -0.091549 -0.61008 0.38596 -0.15181 -0.81697 0.016524 0.14991 -0.26656 0.0093981 -0.035995 -0.3368 0.16354 0.16121 0.27967 -0.22512 0.27577 -0.095455 -0.24342 -0.23312 -0.32235 -0.06856 -0.19656 0.2231 -0.34008 -0.028596 -0.24177 0.26392 -0.081387 -0.061407 0.27565 0.007749 -0.40575 -0.46985 -0.22848 -0.54149 -0.46021 -0.034399 0.15037 -0.079853 -0.25257 -0.087655 -0.37044 0.23235 0.30091 -0.52127 -0.34207 -0.12813 0.38842 0.72728 -0.43942 0.047364 -0.38302 0.22442 -0.11823 0.83604 0.1935 -0.014502 -0.026362 -0.30551 0.27064 0.40105 -0.089056 0.088876 0.20476 0.35171 0.41248 0.53544 0.26465 -0.12618 0.012153 -0.89826 0.14954 0.24886 0.9306 0.065346 -0.26363 -0.51067 0.77472 -0.14222 0.61618 -0.086632 -0.21849 0.36947 -0.18353 0.25117 0.31252 -0.067147 -0.047218 -0.34207 0.16063 -0.48937 0.45325 -0.58207 -0.34633 0.20464 -0.27951 0.16682 -0.31235 -0.57635 -0.032694 -0.073139 -0.38214 0.06139 0.014167 0.51197 -0.09853 0.20933 -0.23601 -0.63513 0.27661 -0.92226 -0.51066 -0.23292 -0.19558 -0.12806 -0.32424 0.40842 0.041435 0.20854 -0.53389 -0.27275 0.098663 0.14738 0.0075919 -0.5021 -0.13416 -0.31154 -0.14123 -0.091868 -0.58778 -0.20281 0.54813 -0.041675 -0.28796 0.14964 0.14038 0.31536 0.54945 0.13272 -0.37311 0.079292 0.042767 0.15528 -0.20305 -0.21245 -0.065744 -0.24458 0.18416 0.27016 0.012448 -0.36237 -0.15057 0.2286 0.15712 0.54442 0.70115 0.24507 -0.35402 -0.39611 -0.52662 -0.25018 0.084666 0.13629 0.71733 0.23553 0.62857 -0.61253 0.84768 0.0021603 -0.29312 0.24266 -0.019548 0.54349
grocery 0.20621 -0.010637 0.039145 0.28098 0.02138 -0.027116 -0.0037306 -0.24556 0.078347 0.22137 0.75508 0.23191 0.13935 -0.28068 0.38775 0.40862 -0.016698 -0.58602 -0.26082 0.35794 0.27113 0.21331 0.0065955 -0.12995 -0.35904 -0.11125 -0.49665 0.18712 -0.064073 0.14927 0.10724 -0.022866 0.27006 -0.26912 -0.42624 0.13513 0.031122 -0.22882 0.035095 -0.036802 -0.22964 0.069371 0.057424 0.31072 -0.26243 -0.18511 0.2825 0.26624 -0.11944 -0.041372 -0.20868 0.086354 0.42849 0.19328 -0.073106 -0.014146 0.3034 -0.3066 0.67073 0.12437 -0.22179 0.207 -0.50791 0.18996 0.26478 0.12092 -0.41505 -0.57509 -0.098134 0.24324 0.21519 0.089692 -0.40127 -0.12711 -0.18132 0.52671 -0.26442 0.15747 -0.21578 0.42149 0.11779 0.29928 0.079578 -0.11088 -0.37578 0.2655 0.70879 -0.13144 -0.35705 0.40876 0.19109 -0.48312 -0.33937 -0.050629 -0.023971 -0.6026 0.45657 -0.38681 -0.052802 0.16808 -0.17772 -0.145 -0.44008 -0.29208 0.011763 0.27238 0.02817 0.60224 -0.43692 0.046211 0.2621 -0.52019 0.29607 0.60862 0.38016 -0.12467 0.20408 -0.22452 0.071456 0.015542 0.13847 0.20885 -0.46238 -0.36923 0.032476 -0.017238 0.1984 0.031635 -0.044883 -0.38296 0.17732 0.88212 0.26318 -0.3042 -0.085424 0.21585 0.59442 -0.21566 0.40457 -0.25337 -0.18591 -0.028324 -0.043272 -0.02809 0.0080862 0.034774 -0.24223 -0.23406 0.043305 -0.40221 -0.23371 -0.0097197 -0.51271 0.15499 0.39414 -0.084979 -0.10241 -0.2438 0.13497 -0.14124 0.097733 0.049865 -0.076443 0.30319 -0.1712 0.58663 -0.5032 -0.31702 0.12574 0.16823 -0.18957 0.004203 -0.23636 0.18884 -0.27738 -0.063392 0.28874 0.52879 -0.39056 -0.12176 0.017208 -0.10337 -0.2706 0.17 -0.34971 -0.40227 -0.23906 0.1628 0.0089203 -0.11955 0.7305 0.39813 -0.2083 0.24186 -0.20726 0.35671 -0.10032 -0.0088675 0.32873 -0.012244
wizard -0.40251 0.15781 0.074156 0.042341 0.25532 0.26861 0.26187 -0.25776 0.20233 0.5145 0.67355 0.017978 0.3355 -0.42797 0.065867 -0.038617 0.33913 -0.27467 -0.3203 -0.30006 -0.18899 -0.42379 -0.2997 -0.038124 -0.22774 -0.51827 -0.17308 -0.11949 -0.011592 -0.4142 0.13812 -0.50839 0.17407 -0.0073745 -0.37712 -0.5456 0.1364 0.025374 -0.029205 0.17337 0.37201 0.13038 0.90127 0.016824 -0.62321 -0.57431 0.32941 -0.34012 0.39316 0.2614 0.0031088 0.24898 0.31874 0.16856 -0.19578 0.092664 0.22085 0.079664 0.22986 -0.18294 0.13908 0.027864 0.26642 0.09313 0.54761 0.087238 0.202 0.12978 -0.11978 -0.74783 -0.030585 -0.54034 0.25876 -0.224 -0.54221 -0.23462 0.0090816 -0.060748 -0.35789 -0.57783 -0.058899 -0.15403 -0.78853 -0.22658 -0.24448 0.011329 0.13632 0.55211 -0.27926 0.17964 0.12096 -0.26395 0.13259 -0.030801 -0.44267 -0.26571 -0.60199 0.13443 -0.036956 -0.1296 -0.077883 -0.23248 -0.18132 -0.0094486 -0.010204 0.29083 0.37684 0.067768 -0.67583 -0.27148 0.0074654 -0.26096 0.004781 -0.083587 0.30318 0.093415 0.24618 0.25489 -0.39365 0.022158 -0.25801 0.36312 0.18182 -0.16772 0.27794 -0.14373 0.24623 -0.13226 -0.12094 0.17601 0.31946 0.0087562 -0.16769 -0.32906 0.15724 -0.14748 -0.30333 0.25675 -0.54683 -0.069578 0.054731 0.25691 0.17064 0.078359 0.10753 0.59112 0.1134 0.62587 0.082048 -0.082923 -0.11112 0.22911 0.11447 0.2925 -0.54526 -0.39125 -0.38407 -0.17205 0.36592 0.36123 0.37993 -0.14197 0.069839 0.30948 0.24287 -0.29572 0.2533 -0.18664 -0.47814 -0.081457 0.20925 -0.051504 -0.064175 0.49126 0.0022196 0.39643 -0.013717 -0.16729 -0.042134 -0.33461 0.42527 -0.1165 0.87318 0.43094 -0.48657 -0.047764 -0.37715 -0.056771 0.017867 0.19128 -0.17461 0.13543 0.38436 -0.25492 -0.42955 -0.19775 0.039358 -0.081443 0.10293 0.1531
information 0.27386 -0.1773 -0.34107 0.098058 0.46396 0.0023809 -0.14604 -0.27622 0.091894 -0.070909 -0.03233 0.23391 0.054083 0.037177 -0.17815 0.11464 -0.21197 -0.35415 -0.21603 0.075012 -0.076765 0.099499 0.0093821 0.069558 -0.099078 -0.27086 0.16058 0.30526 -0.78936 -0.043945 0.16356 0.020994 0.16088 0.34416 -0.78376 -0.30519 0.14879 0.34986 -0.31435 -0.10511 0.25294 0.22052 0.13723 0.066178 -0.12155 -0.34217 -0.2423 -0.056922 0.0046709 -0.69286 -0.069114 0.03021 -0.039979 0.051825 -0.013498 0.12882 0.44048 -0.20448 -6.5297E-4 0.096738 0.17914 -0.11484 -0.13889 0.01426 0.25556 0.2445 0.18622 -0.2849 0.36725 -0.47506 -0.10469 -0.12741 -0.19916 0.41476 -0.034114 0.42146 -0.49025 -0.51331 -0.37765 0.038686 -0.019832 0.12627 0.039929 -0.030355 -0.053078 0.33535 0.28878 -0.10885 -0.13643 -0.23793 -0.08001 -0.033824 0.34922 0.22289 -0.19165 -0.1039 -0.24077 -0.15674 0.032831 -0.031069 0.15224 0.17285 -0.38423 0.034609 -0.16977 0.28306 0.034982 0.28812 -0.63461 0.29097 0.23797 -0.001582 0.024163 -0.046668 0.047381 0.2089 0.38285 0.054768 -0.10555 -0.78698 0.038232 0.0057876 -0.16128 0.097611 0.085766 -0.1512 -0.009325 0.33862 -0.017781 -0.66739 0.11976 0.22747 -0.26771 0.56382 -0.050506 -0.062466 0.010187 -0.074001 -0.27489 0.066865 0.37289 0.57452 0.51845 -0.32676 0.072861 -0.092763 -0.32347 0.34973 -0.30259 -0.46656 -0.087692 0.1387 0.024151 0.094328 0.066693 -0.18021 0.38284 -0.50667 -0.21433 -0.14753 -0.048884 -0.01491 0.34376 -0.097951 0.20484 -0.16548 0.016289 0.042327 -0.26333 -0.22292 -0.23665 -0.4141 0.20142 -0.12301 0.5627 0.0025658 -0.06051 0.14379 0.11693 -0.075825 -0.38345 -0.0080043 0.010315 -0.65091 -0.19464 0.48691 -0.36696 0.013875 0.5887 -0.17333 0.43468 0.35836 0.38379 -0.068174 -0.40077 0.083398 -0.11816 -0.27448 0.13202 0.17966
Israel 0.53696 -0.0016279 0.11064 -0.76545 0.19933 -0.18452 -0.031188 0.012296 0.24231 0.19357 -0.16082 0.033553 -0.087046 -0.038856 -0.089165 -0.29288 0.40386 -0.24947 -0.18656 0.25771 0.27079 0.13471 0.24197 -0.1577 -0.17544 -0.40168 0.3274 -0.32731 -0.39424 -0.038313 -0.24982 -0.19971 0.082489 -0.55202 -0.12053 0.042471 0.10766 -0.46475 0.1411 0.3247 -0.67226 0.40599 -0.17345 -0.29731 0.17526 -0.22487 -0.010763 -0.50602 -0.40293 -0.19358 0.18549 0.25766 0.63347 -0.40158 -0.011817 -0.054434 0.5376 0.35986 0.2122 -0.27499 -0.52681 -0.047692 -0.066612 0.12792 -0.21047 -0.10311 -0.52286 -0.32591 -0.11949 -0.46559 -0.33753 0.33892 -0.048362 -0.20643 -0.47358 0.20957 -0.183 -0.024949 0.65896 0.14562 0.090888 0.5242 0.6692 -0.0068265 0.03555 0.5417 0.70338 0.51616 -0.34584 0.027629 -0.30146 0.59233 0.20531 0.4664 0.60787 0.26403 -0.12492 0.16333 0.079462 0.13731 0.034035 -0.48008 -0.45562 -0.054083 0.074307 -0.20089 0.18595 0.13814 0.20342 0.32963 0.18222 -0.11991 -0.47777 -0.13623 0.20646 0.32876 0.023378 0.11136 0.17178 0.075201 0.32132 0.32654 0.054432 0.21082 -0.27876 0.05121 0.28375 0.35533 -0.23896 -0.27111 -0.10581 -0.059172 -0.074475 0.38859 0.2514 0.2935 0.049762 0.10257 -0.22288 0.75656 0.59556 0.24876 -0.072065 -0.20997 -0.24811 -0.22291 -0.19319 0.19471 -0.17546 0.093574 0.33157 0.45449 0.14201 0.29925 -0.19801 0.41851 -0.57892 0.0325 0.31699 -0.27315 0.095293 -0.19868 0.40733 0.2485 -0.29583 -0.066597 -0.22548 -0.7264 0.16676 -0.084319 -0.46132 0.039222 -0.1188 -0.12581 -0.05904 0.0012157 0.27752 -0.34198 0.18532 -0.11587 0.087063 -0.26922 0.88615 -0.29302 0.10252 0.5383 -0.37848 0.63236 0.054875 0.021709 0.29171 0.28819 0.022657 0.23825 -0.32227 0.37365 -0.1511 0.25941 -0.48016 -0.087364
brandy -0.11969 -0.27538 0.023952 0.49004 -0.26925 -0.10229 -0.31021 -0.043243 -0.36129 0.49224 0.019172 0.17787 -0.31953 0.26101 0.082539 0.35593 0.22293 0.07139 0.015768 0.041314 0.72633 -0.26602 0.36287 0.30975 0.1031 -0.029257 -0.2018 -0.27729 -0.078626 -0.40157 0.14004 -0.18346 -0.093879 0.01644 -0.013908 -0.028401 -0.039112 0.32816 -0.32249 0.19672 -0.18742 0.25093 -0.002441 -0.037548 -0.2889 -0.74769 0.35701 -0.37006 0.0033457 0.16378 -0.66319 0.006219 0.18153 0.022129 -0.27696 -0.35332 -0.22747 0.050049 0.42071 -0.20582 -0.28143 0.42517 -0.37959 -0.069172 0.31072 0.027007 -0.2044 -0.25121 -0.015648 -0.084578 -0.062085 -0.19049 0.21979 -0.67373 0.045072 0.015811 -0.12775 0.34075 0.099703 -0.12476 0.21219 -0.16679 -0.083735 0.087481 0.0077503 0.30029 0.18363 0.30662 -0.53249 -0.16948 0.27342 -0.11391 -0.052957 -0.31254 0.37351 0.24464 -0.23366 -0.22041 0.16297 0.18827 -0.046913 0.19322 -0.35941 0.081967 -0.018954 0.12255 0.30675 0.15691 -0.066764 0.062897 0.16566 -0.45017 0.15123 0.027548 0.036798 -0.22075 0.27001 0.46123 0.18517 -0.23704 0.01263 0.40311 -0.047209 -0.23167 -0.0035219 0.13935 0.26487 0.45689 0.017644 0.088369 0.36501 0.49197 0.21608 -0.32861 0.20675 0.10567 0.15844 -0.0056394 0.080885 0.011725 0.16834 0.12168 0.22736 0.3443 0.019052 0.16726 -0.12062 0.26181 0.077929 0.26902 -0.2894 0.069433 -0.24085 -0.025532 0.15179 -0.3629 -0.28648 -0.27366 -0.205 0.1879 -0.18223 -0.0087243 0.31183 0.20551 -0.039947 0.17573 -0.16124 -0.31714 -0.069195 0.18887 -0.04386 0.18531 -0.23057 0.41762 -0.10499 0.0061279 0.28933 0.046224 -0.17466 -0.55954 -0.20524 -0.029321 0.06732 -0.0070179 -0.74055 -0.14812 -0.098083 -0.063507 0.14839 -0.23788 0.61104 0.22502 0.43458 0.21158 -0.28901 -0.24765 -0.19675 0.31657 0.25541 0.47816
interview -0.21195 -0.0026555 0.086075 -0.0057523 0.25885 -0.26025 -0.047499 -0.16924 0.43058 0.088381 -0.11979 0.14096 -0.26245 0.17088 0.51241 0.21331 0.22539 0.17545 0.088039 0.75437 0.19382 0.20182 0.5636 -0.079467 0.048612 0.1572 -0.11663 -0.53719 0.15994 -0.19208 -0.0078138 -0.50974 0.051662 0.17262 -0.28669 0.29271 -0.072807 -0.10922 -0.26921 -0.33004 -0.079469 0.16098 0.042831 0.034301 0.059965 -0.13323 -0.41561 0.25315 -0.46771 -0.26527 -0.35285 0.15226 0.36414 -0.24827 -0.066843 0.48469 0.27122 -0.012817 -0.096614 0.04715 0.28466 -0.42927 -0.33625 -0.23095 -0.030431 0.28165 0.050029 0.27676 -0.19846 0.095593 0.2571 -0.39471 0.23762 -0.014074 -0.099998 -0.55402 0.34065 -0.21014 0.31507 0.049604 0.11107 0.28549 0.063992 -0.023132 0.13923 0.2554 0.034114 -0.15462 -0.37153 -0.40164 0.19515 -0.15736 0.049368 0.59486 -0.054055 -0.21444 -0.10276 -0.0041787 -0.15799 0.083441 -0.0047515 -0.32029 -0.12197 -0.16939 -0.14785 0.37586 -0.064978 0.43952 -0.31139 0.19116 -0.34204 -0.083052 -0.098701 -0.059701 0.32394 -0.13715 -0.13816 0.081429 -0.22038 -0.56951 0.16293 0.251 0.12667 -0.0029055 -0.30508 0.30918 -0.13233 -0.12814 -0.017149 -0.20612 -0.073689 0.37652 -0.090037 0.87693 0.17622 0.58126 0.023986 -0.10149 -0.36681 -0.1763 -0.28688 0.22229 0.26807 -0.24658 0.23012 -0.019838 0.2893 -0.093626 -0.011965 -0.10988 0.34288 0.37768 -0.16512 0.23354 -0.062277 0.025701 -0.28419 -0.24137 -0.32616 0.016824 -0.24834 -0.1049 -0.15353 -0.024523 -0.035996 0.067039 -0.085692 0.16243 0.10259 -0.15794 0.089559 -0.11418 -0.04055 0.69456 0.26355 -0.18394 0.2333 0.01212 0.2823 -0.027022 0.34194 0.20486 0.063315 -0.16352 -0.11526 0.35801 -0.13587 -0.21184 -0.19936 0.045916 0.030726 0.38685 0.19614 0.28541 -0.30725 0.04686 -0.34379 0.031323 0.071473 0.18612
prominence -0.34362 -0.23996 -0.22801 0.13793 -0.3398 -0.30057 0.089835 -0.077556 0.18555 0.26251 -0.040176 -0.38537 0.23822 0.17603 -0.16362 0.095191 0.036152 -0.33942 -0.0088976 -0.063527 0.11197 -0.22551 0.56292 -0.016184 0.51982 -0.057777 0.22986 -0.1365 -0.41553 0.074013 0.13906 -0.092047 0.23779 0.13728 -0.061634 -0.094698 -0.19344 -0.12434 -0.1566 -0.047 0.098402 0.019906 0.13565 0.018598 -0.23631 -0.21161 0.19568 -0.33289 -0.091986 0.20384 -0.19216 -0.10161 0.32067 -0.095403 -0.071411 0.018891 0.34558 0.22721 0.034889 0.22153 0.1106 0.12503 -0.27723 -0.19553 0.27747 0.34036 0.103 -0.1026 0.3893 -0.2276 0.36896 -0.27889 0.40374 0.099358 -0.25355 0.17405 0.54808 0.054895 0.13811 0.18766 0.18245 0.16554 -0.32973 0.15929 0.30036 0.11334 0.3976 0.40034 -0.30854 -0.4515 -0.014024 0.15042 -0.044268 -0.10594 -0.42336 0.02899 -0.48717 -0.12958 -0.097676 0.22918 -0.26787 -0.2189 -0.44825 -0.36028 -9.7588E-4 -0.0097866 -0.0039483 -0.04096 -0.60212 0.11689 0.25246 -0.023194 0.16616 0.13145 0.42157 -0.2014 0.11061 -0.23557 -0.30434 -0.29806 0.35688 0.08976 -0.29517 -0.14734 -0.40633 -0.19314 0.18584 -0.19959 -0.36645 -0.38124 -0.30806 -0.019495 -0.23623 0.095126 -0.3133 0.53059 -0.25606 0.013165 -0.27571 0.13476 0.53708 0.075712 0.039557 -0.0032226 0.10439 0.10235 0.29205 -0.22063 0.034624 -0.046403 -0.11567 0.26345 -0.087676 0.13471 0.12724 -0.056252 -0.15746 -0.053802 -0.095941 0.047719 -0.17738 -0.16507 0.17061 0.059952 -8.4357E-4 0.32667 -0.3687 0.17068 0.01467 -0.13622 0.031515 0.19844 -0.070517 0.26498 -0.08046 -0.40298 0.11688 -0.17044 -0.037616 -0.16082 0.23594 -0.52358 0.26733 0.095389 -0.23397 -0.19107 0.14623 -0.20852 0.036328 -0.40484 0.010173 0.0396 0.15569 0.13093 -0.092483 0.097453 -0.13259 -0.24844 -0.15908 -0.33076
bed -0.11041 0.18247 0.1897 -0.1711 0.18536 -0.2143 0.1683 -0.33999 -0.059456 0.3211 0.28155 0.07226 -0.085688 -0.18902 -0.12219 0.12752 0.45071 0.17957 0.19087 0.20671 0.24808 -0.23593 0.29714 0.031118 0.19531 0.37941 -0.069395 -0.47086 0.26082 -0.66936 -0.19084 -0.087388 0.18956 -0.034209 -0.33956 -0.14961 -0.4146 -0.045101 -0.076334 -0.45496 -0.18632 0.097918 0.2258 -0.10307 0.096997 -0.45236 -0.12254 -0.16873 -0.28493 -0.28494 -0.42204 0.078047 0.40174 0.19765 -0.0010475 0.12184 -0.27848 0.16589 0.20408 0.095526 0.29263 0.16878 -0.050012 -0.36274 0.37357 0.013534 -0.25286 -0.0051714 0.17586 0.053987 -0.015353 -0.1837 -0.38052 -0.37519 -0.22541 0.10922 -0.091674 0.12333 0.10405 -0.2621 0.10817 0.14548 -0.22752 0.11439 0.35228 0.38088 0.25618 -0.15098 -0.11727 -0.5019 -0.054909 -0.4044 0.051868 -0.10712 -0.0027689 -0.049919 0.19233 -0.60588 0.54244 0.30435 0.26172 0.035319 -0.51471 -0.073803 -0.12934 0.43418 0.61312 0.34575 -0.26142 -0.12026 -0.093941 -0.065498 -0.25417 0.098276 -0.17707 -0.42522 -0.1933 0.023362 0.045388 0.083744 0.012347 0.08065 0.0021086 0.18403 -0.31233 0.33146 -0.091038 -0.36361 -0.088267 0.31699 0.17359 0.36389 0.032603 -0.19405 0.62884 -0.095906 -0.26342 -0.15194 -0.10786 -0.12596 0.14797 -0.31919 -0.045171 -0.41905 -0.047894 0.15193 -0.19248 0.25625 -0.073265 -0.040037 -0.10316 -0.0040263 -0.34705 -0.045598 0.26645 -0.087543 0.17946 0.26993 0.077514 -0.24618 0.19111 0.068078 0.39059 0.27914 0.45682 -0.046043 -0.33355 0.14393 -0.25239 -0.41125 -0.11219 -4.4859E-4 0.081313 0.064668 0.038522 0.049055 0.011395 0.29316 -0.50755 -0.58035 -0.020326 -0.068956 0.16764 0.468 0.035917 0.073855 -0.083822 -0.38139 0.18913 0.050024 0.58658 0.3466 0.23213 0.025675 -0.37013 -0.3775 -0.14053 0.17348 -0.25874 0.044165
furnace 0.19793 0.2822 9.5866E-4 -0.15705 0.66894 -0.34502 0.32821 -0.082219 0.0037485 -0.25702 0.079905 -0.51519 -0.26214 0.112 0.35819 0.46145 -0.10132 -0.39931 0.38043 0.16894 0.57849 0.077428 0.045855 -0.36604 -0.14209 -0.098848 -0.070898 -0.39518 -0.32003 -0.31734 -0.23803 -0.2074 0.17054 0.39528 -0.42646 -0.40744 -0.093141 -0.088629 0.37585 0.25662 -0.065816 0.48685 0.11564 0.029659 -0.42288 -0.46391 0.17956 0.39234 -0.17195 -0.44943 0.075647 0.083107 0.59332 -0.26111 0.237 -0.039517 -0.13503 0.43899 -0.096656 -0.053459 -0.57203 -0.044009 -0.2861 -0.20495 0.54392 0.0662 -0.12176 -0.28558 -0.01477 -0.4706 -0.044893 0.011795 -0.2229 -0.21215 0.11253 0.13634 0.18504 0.23904 0.14294 -0.16383 0.16383 0.26477 0.27356 -0.46156 -0.028459 -0.36649 0.38582 -0.019011 -0.098091 0.24586 -0.083791 -0.36405 -0.34402 -0.23342 -0.013675 0.10234 0.21212 -0.36083 0.40989 0.5003 0.28183 -0.2689 -0.33877 -0.036389 0.53676 0.42843 0.22769 -0.028905 -0.26468 0.068686 0.1739 -0.28006 0.050579 0.39924 0.12794 -0.47478 0.14331 0.074155 0.56401 0.03474 0.064569 -0.11495 0.27341 0.057898 0.36055 -0.21694 -0.22161 -0.013357 -0.49917 0.48878 -0.26303 0.059993 0.73803 -0.48558 0.079469 -0.17582 0.14932 -0.59562 0.24003 0.3774 0.29069 -0.29049 0.27518 -0.43552 0.32537 0.48687 0.12655 0.18903 0.25834 -0.0060094 -0.021256 -0.31596 0.067515 -0.28126 0.20286 0.39173 -0.11832 -0.34645 -0.31727 -0.33024 0.06571 0.14697 0.71022 0.12966 0.12767 0.14173 -0.012526 -0.07396 -0.74247 0.050736 -0.29983 -0.3083 -0.08416 0.26891 0.020129 0.09043 0.24421 -0.24023 -0.2956 -0.23086 0.035584 0.02863 -0.034153 0.61359 -0.10953 0.0057354 -0.49121 -0.16384 0.066377 -0.15741 0.66398 0.30356 0.036087 0.14603 0.013212 -0.42477 -0.54298 0.28323 0.021762 -0.52797
evidence -0.12397 -0.043018 -0.3402 0.032615 0.29065 -0.21649 -0.026781 -0.30889 -0.22332 0.34439 0.085975 0.63848 0.33452 0.33307 -0.16286 -0.44048 0.21506 -0.22194 -0.17633 0.37848 0.19332 0.20078 0.46552 -0.070072 -0.018128 0.012526 -0.011115 -0.39734 -0.59495 -0.29824 0.1868 -0.49761 0.26381 -0.030551 -0.48159 -0.16336 0.0031034 -0.08986 -0.072092 -0.12609 -0.31299 -0.023067 0.011951 0.14603 -0.045151 -0.54487 -0.40421 -0.027619 0.18189 -0.16592 -0.39067 -0.49007 8.3519E-4 0.13614 -0.014636 0.38761 0.04697 -0.16437 0.30402 -0.014451 0.21283 -0.41112 -0.1794 -0.13818 0.29508 -0.086676 0.01686 -0.25154 0.15539 -0.45627 0.089676 -0.062441 0.12638 -0.082051 -0.20669 0.10707 -0.03066 0.057982 -0.18751 -0.078667 0.11409 0.20211 0.228 0.16377 0.19141 0.40101 0.098101 0.071387 0.1132 -0.19163 0.10949 0.30391 -0.061631 0.036203 0.001514 -0.12803 -0.34635 -0.23638 -0.21065 0.12165 0.28049 0.2193 -0.21975 0.32297 0.06268 0.19318 0.19874 0.42857 -0.085524 0.12428 0.059112 -0.23395 -0.16316 0.20181 -0.24651 0.047534 0.66437 0.27945 0.035508 0.070102 0.11688 0.35076 -0.31466 0.13377 0.28231 -0.014386 0.24582 -0.13157 0.43276 -0.61378 0.40031 -0.11395 0.0013532 0.036745 0.064992 0.27112 -0.046408 -0.29085 -0.71917 0.28315 -0.035792 0.17691 0.28747 -0.13543 -0.23689 0.032273 0.010384 0.14228 -0.23091 -0.64924 0.28955 0.10348 0.3058 -0.0039906 -0.041369 0.075652 0.16066 0.20346 -0.22675 -0.088215 0.021996 -0.046248 0.12747 0.1447 0.24777 -0.1405 -0.085929 -0.10242 -0.16724 0.016551 -0.043321 -0.18167 -0.136 0.026336 0.36189 -0.18501 -0.066229 -0.15659 0.037273 -0.12925 0.12975 0.22661 0.035263 -0.32495 -0.04269 0.16299 0.15474 0.1777 0.32434 -0.54724 0.6053 0.28003 0.32783 -0.08635 0.12951 -0.37802 -0.14595 -0.23705 -0.0079332 0.094116
